svm_type c_svc
kernel_type rbf
gamma 1e-08
nr_class 2
total_sv 101
rho 1.01769
label 1 -1
probA -771.041
probB -768.089
nr_sv 42 59
SV
0.01 34:220 35:219 36:217 37:222 38:218 39:215 40:221 41:220 42:216 43:220 44:219 45:215 46:219 47:218 48:214 49:226 50:225 51:221 52:51 53:49 54:36 55:228 56:224 57:221 58:222 59:218 60:215 61:222 62:218 63:215 64:224 65:220 66:217 67:223 68:219 69:216 70:225 71:221 72:218 124:223 125:222 126:220 127:224 128:220 129:217 130:218 131:220 132:215 133:219 134:220 135:215 136:217 137:218 138:213 139:217 140:216 141:212 142:226 143:226 144:224 145:65 146:69 147:44 148:64 149:68 150:41 151:220 152:221 153:215 154:219 155:220 156:215 157:217 158:218 159:213 160:218 161:217 162:213 163:220 164:216 165:213 166:226 167:222 168:219 208:1 209:1 210:1 211:4 212:3 214:220 215:221 216:216 217:219 218:220 219:215 220:220 221:221 222:216 223:219 224:220 225:215 226:217 227:218 228:212 229:217 230:218 231:213 232:217 233:223 234:213 235:125 236:134 237:107 238:70 239:81 240:38 241:76 242:87 243:44 244:80 245:87 246:46 247:226 248:227 249:219 250:213 251:213 252:211 253:210 254:211 255:206 256:214 257:213 258:209 259:220 260:216 261:213 262:222 263:218 264:215 301:4 302:4 303:2 304:221 305:222 306:217 307:221 308:222 309:217 310:221 311:222 312:217 313:219 314:220 315:215 316:219 317:220 318:215 319:219 320:220 321:215 322:213 323:220 324:202 325:61 326:71 327:34 328:68 329:81 330:35 331:73 332:86 333:40 334:72 335:85 336:42 337:76 338:89 339:46 340:79 341:86 342:44 343:209 344:211 345:197 346:211 347:208 348:203 349:211 350:208 351:203 352:215 353:212 354:207 355:222 356:218 357:215 358:222 359:218 360:215 394:224 395:220 396:217 397:222 398:221 399:217 400:221 401:222 402:217 403:219 404:220 405:215 406:219 407:220 408:214 409:219 410:222 411:213 412:154 413:162 414:138 415:75 416:84 417:53 418:69 419:82 420:38 421:71 422:82 423:39 424:67 425:80 426:37 427:72 428:85 429:42 430:71 431:84 432:38 433:72 434:85 435:39 436:75 437:84 438:39 439:138 440:137 441:107 442:208 443:205 444:196 445:211 446:208 447:203 448:215 449:211 450:208 451:222 452:218 453:215 454:224 455:220 456:217 457:224 458:220 459:217 460:226 461:222 462:221 484:1 487:222 488:221 489:217 490:220 491:222 492:217 493:221 494:222 495:217 496:219 497:220 498:215 499:217 500:218 501:213 502:222 503:226 504:212 505:65 506:81 507:36 508:68 509:80 510:40 511:68 512:81 513:37 514:65 515:78 516:35 517:67 518:80 519:37 520:67 521:80 522:37 523:63 524:76 525:33 526:67 527:80 528:34 529:74 530:87 531:41 532:79 533:88 534:43 535:99 536:105 537:61 538:180 539:179 540:159 541:218 542:215 543:206 544:211 545:208 546:203 547:220 548:216 549:213 550:224 551:220 552:217 553:224 554:220 555:217 556:224 557:220 558:217 559:224 560:220 561:217 562:221 563:221 564:221 580:224 581:220 582:217 583:222 584:221 585:217 586:219 587:220 588:215 589:219 590:220 591:215 592:216 593:217 594:209 595:56 596:67 597:33 598:70 599:90 600:39 601:64 602:79 603:36 604:65 605:78 606:35 607:64 608:77 609:34 610:64 611:77 612:34 613:64 614:77 615:34 616:64 617:77 618:34 619:62 620:75 621:32 622:66 623:79 624:35 625:70 626:84 627:33 628:71 629:85 630:32 631:71 632:85 633:32 634:76 635:89 636:36 637:59 638:71 639:25 640:216 641:219 642:200 643:212 644:213 645:208 646:210 647:209 648:205 649:219 650:215 651:212 652:224 653:220 654:217 655:224 656:220 657:217 658:224 659:220 660:217 661:228 662:224 663:221 673:222 674:221 675:217 676:221 677:222 678:217 679:221 680:222 681:217 682:219 683:220 684:215 685:219 686:222 687:215 688:58 689:72 690:36 691:63 692:80 693:36 694:63 695:80 696:36 697:62 698:77 699:34 700:64 701:77 702:34 703:62 704:75 705:32 706:61 707:74 708:31 709:64 710:77 711:34 712:64 713:77 714:34 715:62 716:75 717:32 718:64 719:77 720:33 721:68 722:82 723:31 724:71 725:85 726:32 727:72 728:86 729:33 730:70 731:84 732:31 733:74 734:88 735:35 736:76 737:95 738:40 739:83 740:92 741:39 742:192 743:195 744:164 745:212 746:210 747:198 748:214 749:211 750:206 751:221 752:217 753:214 754:223 755:219 756:216 757:223 758:219 759:216 760:224 761:223 762:221 769:221 770:222 771:217 772:221 773:222 774:217 775:220 776:220 777:218 778:228 779:235 780:219 781:56 782:73 783:31 784:62 785:77 786:36 787:59 788:76 789:32 790:58 791:75 792:31 793:59 794:74 795:33 796:61 797:74 798:31 799:61 800:73 801:33 802:61 803:73 804:33 805:62 806:74 807:34 808:62 809:75 810:32 811:59 812:72 813:29 814:61 815:74 816:28 817:68 818:81 819:35 820:69 821:83 822:32 823:69 824:83 825:32 826:67 827:81 828:30 829:66 830:80 831:29 832:69 833:87 834:35 835:84 836:92 837:43 838:72 839:80 840:31 841:221 842:223 843:210 844:209 845:208 846:203 847:212 848:209 849:204 850:216 851:213 852:208 853:224 854:220 855:217 856:224 857:220 858:217 859:225 860:220 861:216 862:1 863:1 864:1 865:221 866:222 867:216 868:220 869:221 870:215 871:201 872:206 873:184 874:61 875:79 876:31 877:62 878:79 879:35 880:64 881:81 882:37 883:63 884:80 885:36 886:59 887:76 888:32 889:56 890:71 891:28 892:58 893:71 894:28 895:59 896:72 897:29 898:61 899:74 900:31 901:62 902:75 903:32 904:62 905:75 906:32 907:62 908:75 909:32 910:64 911:77 912:31 913:66 914:79 915:33 916:68 917:82 918:31 919:63 920:77 921:26 922:67 923:81 924:30 925:68 926:82 927:31 928:68 929:82 930:31 931:75 932:89 933:38 934:73 935:90 936:38 937:74 938:83 939:36 940:109 941:110 942:78 943:210 944:207 945:202 946:211 947:208 948:201 949:218 950:215 951:210 952:219 953:216 954:211 955:224 956:220 957:217 958:224 959:220 960:217 961:219 962:219 963:219 964:233 965:234 966:226 967:59 968:74 969:35 970:60 971:77 972:32 973:59 974:76 975:32 976:58 977:75 978:31 979:58 980:75 981:31 982:58 983:75 984:31 985:59 986:76 987:32 988:59 989:76 990:32 991:58 992:75 993:31 994:58 995:75 996:31 997:59 998:76 999:32 1000:61 1001:78 1002:34 1003:61 1004:78 1005:34 1006:63 1007:81 1008:33 1009:64 1010:82 1011:34 1012:65 1013:83 1014:33 1015:63 1016:81 1017:29 1018:64 1019:82 1020:30 1021:66 1022:84 1023:32 1024:67 1025:85 1026:33 1027:66 1028:84 1029:32 1030:70 1031:87 1032:35 1033:77 1034:91 1035:40 1036:79 1037:92 1038:38 1039:215 1040:218 1041:199 1042:205 1043:204 1044:199 1045:212 1046:209 1047:204 1048:220 1049:217 1050:212 1051:222 1052:218 1053:215 1054:224 1055:220 1056:217 1057:219 1058:221 1059:216 1060:52 1061:65 1062:37 1063:53 1064:72 1065:27 1066:63 1067:80 1068:36 1069:58 1070:75 1071:31 1072:58 1073:75 1074:31 1075:58 1076:75 1077:31 1078:58 1079:75 1080:31 1081:58 1082:75 1083:31 1084:57 1085:74 1086:30 1087:58 1088:75 1089:31 1090:58 1091:75 1092:31 1093:61 1094:78 1095:34 1096:63 1097:80 1098:36 1099:57 1100:74 1101:30 1102:59 1103:76 1104:31 1105:60 1106:77 1107:32 1108:63 1109:81 1110:33 1111:63 1112:81 1113:33 1114:63 1115:81 1116:31 1117:64 1118:82 1119:32 1120:64 1121:82 1122:32 1123:63 1124:81 1125:31 1126:60 1127:78 1128:26 1129:65 1130:83 1131:31 1132:70 1133:84 1134:33 1135:84 1136:93 1137:46 1138:226 1139:229 1140:212 1141:213 1142:210 1143:201 1144:216 1145:212 1146:209 1147:224 1148:220 1149:217 1150:224 1151:220 1152:217 1153:226 1154:229 1155:218 1156:49 1157:64 1158:23 1159:62 1160:81 1161:35 1162:65 1163:82 1164:38 1165:62 1166:79 1167:35 1168:59 1169:76 1170:32 1171:59 1172:76 1173:32 1174:59 1175:76 1176:32 1177:61 1178:78 1179:34 1180:59 1181:76 1182:32 1183:61 1184:78 1185:34 1186:61 1187:78 1188:34 1189:63 1190:80 1191:36 1192:73 1193:90 1194:46 1195:65 1196:82 1197:38 1198:61 1199:78 1200:34 1201:58 1202:75 1203:31 1204:63 1205:81 1206:33 1207:63 1208:81 1209:33 1210:64 1211:82 1212:34 1213:64 1214:82 1215:34 1216:63 1217:81 1218:33 1219:63 1220:81 1221:33 1222:64 1223:82 1224:34 1225:66 1226:84 1227:36 1228:67 1229:83 1230:36 1231:69 1232:82 1233:36 1234:71 1235:83 1236:45 1237:216 1238:216 1239:214 1240:210 1241:209 1242:204 1243:219 1244:215 1245:212 1246:222 1247:221 1248:216 1249:232 1250:233 1251:225 1252:50 1253:67 1254:25 1255:65 1256:82 1257:38 1258:58 1259:75 1260:31 1261:59 1262:76 1263:32 1264:59 1265:76 1266:32 1267:59 1268:76 1269:32 1270:58 1271:75 1272:31 1273:59 1274:76 1275:32 1276:58 1277:75 1278:31 1279:56 1280:73 1281:29 1282:57 1283:74 1284:30 1285:56 1286:73 1287:29 1288:60 1289:77 1290:33 1291:64 1292:81 1293:37 1294:59 1295:76 1296:32 1297:60 1298:77 1299:33 1300:63 1301:80 1302:36 1303:61 1304:78 1305:34 1306:63 1307:81 1308:33 1309:63 1310:81 1311:33 1312:63 1313:81 1314:33 1315:64 1316:82 1317:34 1318:66 1319:84 1320:36 1321:64 1322:82 1323:34 1324:65 1325:83 1326:35 1327:68 1328:86 1329:38 1330:82 1331:100 1332:50 1333:148 1334:161 1335:133 1336:208 1337:209 1338:203 1339:214 1340:210 1341:207 1342:224 1343:219 1344:216 1345:59 1346:74 1347:35 1348:63 1349:80 1350:36 1351:62 1352:79 1353:37 1354:59 1355:76 1356:32 1357:58 1358:75 1359:31 1360:59 1361:76 1362:32 1363:59 1364:76 1365:32 1366:59 1367:76 1368:32 1369:60 1370:77 1371:33 1372:58 1373:75 1374:31 1375:58 1376:75 1377:31 1378:58 1379:75 1380:31 1381:58 1382:75 1383:31 1384:61 1385:78 1386:34 1387:60 1388:77 1389:33 1390:58 1391:75 1392:31 1393:61 1394:78 1395:34 1396:63 1397:80 1398:36 1399:61 1400:78 1401:34 1402:60 1403:78 1404:30 1405:61 1406:79 1407:31 1408:61 1409:79 1410:31 1411:63 1412:81 1413:33 1414:63 1415:81 1416:33 1417:62 1418:80 1419:32 1420:66 1421:84 1422:36 1423:69 1424:87 1425:39 1426:69 1427:87 1428:37 1429:63 1430:78 1431:37 1432:223 1433:225 1434:211 1435:207 1436:208 1437:200 1438:218 1439:219 1440:211 1441:59 1442:74 1443:33 1444:60 1445:77 1446:33 1447:62 1448:79 1449:35 1450:61 1451:78 1452:34 1453:59 1454:76 1455:32 1456:59 1457:76 1458:32 1459:58 1460:75 1461:31 1462:57 1463:74 1464:30 1465:56 1466:73 1467:29 1468:56 1469:73 1470:29 1471:54 1472:71 1473:27 1474:56 1475:73 1476:29 1477:54 1478:71 1479:27 1480:59 1481:76 1482:32 1483:58 1484:75 1485:31 1486:60 1487:77 1488:33 1489:59 1490:76 1491:32 1492:64 1493:81 1494:37 1495:61 1496:78 1497:34 1498:63 1499:80 1500:35 1501:63 1502:80 1503:35 1504:61 1505:78 1506:33 1507:61 1508:78 1509:33 1510:64 1511:81 1512:36 1513:61 1514:79 1515:31 1516:67 1517:83 1518:36 1519:73 1520:86 1521:40 1522:72 1523:85 1524:39 1525:75 1526:88 1527:42 1528:75 1529:85 1530:51 1531:212 1532:214 1533:203 1534:213 1535:212 1536:208 1537:46 1538:60 1539:24 1540:61 1541:78 1542:33 1543:61 1544:78 1545:34 1546:61 1547:78 1548:34 1549:59 1550:76 1551:32 1552:57 1553:74 1554:30 1555:52 1556:69 1557:25 1558:65 1559:82 1560:38 1561:56 1562:73 1563:29 1564:56 1565:73 1566:29 1567:56 1568:73 1569:29 1570:54 1571:71 1572:27 1573:57 1574:74 1575:30 1576:59 1577:76 1578:32 1579:59 1580:76 1581:32 1582:56 1583:73 1584:29 1585:65 1586:82 1587:38 1588:61 1589:78 1590:34 1591:61 1592:78 1593:34 1594:63 1595:80 1596:36 1597:63 1598:80 1599:38 1600:63 1601:80 1602:36 1603:63 1604:80 1605:36 1606:63 1607:79 1608:32 1609:69 1610:82 1611:36 1612:69 1613:82 1614:36 1615:74 1616:87 1617:41 1618:71 1619:84 1620:38 1621:69 1622:82 1623:36 1624:77 1625:89 1626:43 1627:213 1628:215 1629:193 1630:211 1631:211 1632:203 1633:153 1634:157 1635:134 1636:56 1637:73 1638:29 1639:62 1640:79 1641:35 1642:58 1643:75 1644:31 1645:58 1646:75 1647:31 1648:58 1649:75 1650:31 1651:58 1652:75 1653:31 1654:60 1655:77 1656:33 1657:57 1658:74 1659:30 1660:54 1661:71 1662:27 1663:54 1664:71 1665:27 1666:53 1667:70 1668:26 1669:57 1670:74 1671:30 1672:59 1673:76 1674:32 1675:59 1676:76 1677:32 1678:59 1679:76 1680:32 1681:62 1682:79 1683:35 1684:61 1685:78 1686:34 1687:61 1688:78 1689:34 1690:63 1691:80 1692:36 1693:62 1694:79 1695:35 1696:63 1697:80 1698:36 1699:61 1700:78 1701:34 1702:62 1703:79 1704:35 1705:64 1706:81 1707:37 1708:64 1709:79 1710:36 1711:65 1712:78 1713:35 1714:63 1715:76 1716:33 1717:67 1718:80 1719:37 1720:71 1721:87 1722:42 1723:89 1724:100 1725:68 1726:203 1727:204 1728:196 1729:160 1730:172 1731:152 1732:63 1733:81 1734:33 1735:63 1736:80 1737:35 1738:57 1739:74 1740:30 1741:58 1742:75 1743:31 1744:59 1745:76 1746:32 1747:59 1748:76 1749:32 1750:60 1751:77 1752:33 1753:56 1754:73 1755:29 1756:55 1757:72 1758:30 1759:54 1760:71 1761:29 1762:55 1763:72 1764:30 1765:57 1766:74 1767:32 1768:56 1769:73 1770:29 1771:59 1772:76 1773:32 1774:59 1775:76 1776:32 1777:55 1778:72 1779:28 1780:60 1781:77 1782:33 1783:61 1784:78 1785:34 1786:61 1787:78 1788:34 1789:61 1790:78 1791:34 1792:61 1793:78 1794:34 1795:61 1796:78 1797:34 1798:61 1799:78 1800:34 1801:61 1802:78 1803:34 1804:63 1805:78 1806:35 1807:63 1808:76 1809:33 1810:58 1811:71 1812:28 1813:64 1814:77 1815:34 1816:72 1817:88 1818:43 1819:72 1820:85 1821:42 1822:213 1823:215 1824:204 1825:231 1826:232 1827:226 1828:64 1829:77 1830:34 1831:67 1832:85 1833:37 1834:67 1835:84 1836:39 1837:63 1838:80 1839:35 1840:60 1841:77 1842:33 1843:60 1844:77 1845:33 1846:59 1847:76 1848:32 1849:58 1850:75 1851:31 1852:54 1853:71 1854:27 1855:50 1856:67 1857:23 1858:57 1859:74 1860:30 1861:56 1862:73 1863:29 1864:54 1865:71 1866:27 1867:56 1868:73 1869:29 1870:60 1871:77 1872:33 1873:58 1874:75 1875:31 1876:62 1877:79 1878:35 1879:61 1880:78 1881:34 1882:60 1883:77 1884:33 1885:61 1886:78 1887:34 1888:63 1889:80 1890:36 1891:60 1892:77 1893:33 1894:60 1895:77 1896:33 1897:60 1898:77 1899:33 1900:60 1901:77 1902:33 1903:63 1904:80 1905:36 1906:65 1907:80 1908:37 1909:68 1910:81 1911:38 1912:62 1913:77 1914:34 1915:75 1916:88 1917:45 1918:221 1919:224 1920:207 1921:226 1922:226 1923:224 1924:219 1925:221 1926:199 1927:69 1928:82 1929:38 1930:66 1931:84 1932:36 1933:66 1934:83 1935:38 1936:60 1937:77 1938:33 1939:59 1940:76 1941:32 1942:59 1943:76 1944:32 1945:58 1946:75 1947:31 1948:56 1949:73 1950:29 1951:58 1952:75 1953:31 1954:56 1955:73 1956:29 1957:54 1958:71 1959:27 1960:57 1961:74 1962:29 1963:56 1964:73 1965:28 1966:59 1967:76 1968:32 1969:58 1970:75 1971:31 1972:60 1973:77 1974:33 1975:60 1976:77 1977:33 1978:65 1979:82 1980:38 1981:60 1982:77 1983:33 1984:59 1985:76 1986:32 1987:61 1988:78 1989:34 1990:61 1991:78 1992:34 1993:59 1994:76 1995:32 1996:60 1997:77 1998:35 1999:61 2000:78 2001:36 2002:62 2003:77 2004:36 2005:66 2006:78 2007:38 2008:64 2009:79 2010:36 2011:66 2012:79 2013:36 2014:199 2015:202 2016:181 2017:222 2018:223 2019:218 2020:224 2021:225 2022:220 2023:129 2024:138 2025:107 2026:64 2027:83 2028:28 2029:63 2030:85 2031:38 2032:60 2033:79 2034:34 2035:58 2036:77 2037:32 2038:57 2039:76 2040:31 2041:60 2042:77 2043:33 2044:61 2045:78 2046:34 2047:56 2048:73 2049:29 2050:60 2051:77 2052:33 2053:58 2054:75 2055:31 2056:55 2057:72 2058:30 2059:56 2060:73 2061:31 2062:56 2063:73 2064:29 2065:58 2066:75 2067:31 2068:60 2069:77 2070:33 2071:60 2072:77 2073:33 2074:61 2075:78 2076:34 2077:59 2078:76 2079:32 2080:60 2081:77 2082:33 2083:61 2084:78 2085:34 2086:61 2087:78 2088:34 2089:63 2090:80 2091:36 2092:63 2093:80 2094:38 2095:59 2096:76 2097:34 2098:64 2099:79 2100:38 2101:66 2102:78 2103:38 2104:60 2105:72 2106:32 2107:59 2108:71 2109:31 2110:81 2111:85 2112:48 2113:222 2114:223 2115:218 2116:221 2117:222 2118:217 2119:214 2120:217 2121:208 2122:73 2123:85 2124:47 2125:61 2126:78 2127:33 2128:63 2129:80 2130:35 2131:65 2132:82 2133:38 2134:60 2135:77 2136:33 2137:58 2138:75 2139:31 2140:58 2141:75 2142:31 2143:58 2144:75 2145:31 2146:59 2147:76 2148:32 2149:59 2150:76 2151:32 2152:58 2153:75 2154:31 2155:56 2156:73 2157:29 2158:56 2159:73 2160:31 2161:56 2162:73 2163:31 2164:59 2165:76 2166:32 2167:58 2168:75 2169:31 2170:58 2171:75 2172:31 2173:59 2174:76 2175:32 2176:59 2177:76 2178:34 2179:59 2180:76 2181:34 2182:61 2183:78 2184:36 2185:61 2186:78 2187:36 2188:60 2189:77 2190:35 2191:61 2192:78 2193:36 2194:62 2195:77 2196:36 2197:64 2198:76 2199:36 2200:65 2201:76 2202:36 2203:68 2204:79 2205:39 2206:67 2207:77 2208:40 2209:224 2210:225 2211:220 2212:222 2213:223 2214:218 2215:223 2216:221 2217:222 2218:227 2219:229 2220:216 2221:62 2222:75 2223:32 2224:68 2225:80 2226:40 2227:61 2228:78 2229:34 2230:60 2231:79 2232:34 2233:60 2234:79 2235:34 2236:58 2237:77 2238:32 2239:58 2240:77 2241:32 2242:58 2243:77 2244:32 2245:58 2246:77 2247:32 2248:60 2249:79 2250:34 2251:57 2252:76 2253:31 2254:55 2255:72 2256:30 2257:56 2258:73 2259:31 2260:54 2261:71 2262:29 2263:54 2264:71 2265:29 2266:55 2267:72 2268:30 2269:56 2270:73 2271:29 2272:59 2273:76 2274:34 2275:57 2276:74 2277:32 2278:59 2279:76 2280:34 2281:59 2282:76 2283:34 2284:59 2285:76 2286:34 2287:59 2288:76 2289:34 2290:60 2291:75 2292:34 2293:61 2294:73 2295:33 2296:57 2297:72 2298:31 2299:65 2300:76 2301:36 2302:93 2303:99 2304:63 2305:222 2306:223 2307:218 2308:222 2309:223 2310:218 2311:222 2312:223 2313:218 2314:222 2315:223 2316:218 2317:233 2318:232 2319:227 2320:152 2321:155 2322:124 2323:55 2324:67 2325:29 2326:63 2327:81 2328:39 2329:60 2330:78 2331:36 2332:60 2333:78 2334:36 2335:55 2336:73 2337:31 2338:57 2339:75 2340:33 2341:57 2342:75 2343:33 2344:66 2345:83 2346:41 2347:58 2348:75 2349:33 2350:59 2351:76 2352:34 2353:58 2354:75 2355:33 2356:61 2357:78 2358:36 2359:57 2360:74 2361:32 2362:59 2363:76 2364:34 2365:59 2366:76 2367:34 2368:61 2369:78 2370:36 2371:59 2372:76 2373:34 2374:58 2375:75 2376:33 2377:58 2378:75 2379:33 2380:57 2381:74 2382:32 2383:56 2384:73 2385:31 2386:57 2387:72 2388:31 2389:59 2390:71 2391:31 2392:58 2393:74 2394:35 2395:67 2396:83 2397:36 2398:110 2399:117 2400:86 2401:226 2402:225 2403:221 2404:227 2405:223 2406:220 2407:227 2408:223 2409:220 2410:227 2411:223 2412:220 2413:225 2414:224 2415:220 2416:223 2417:224 2418:219 2419:232 2420:235 2421:228 2422:174 2423:185 2424:155 2425:56 2426:74 2427:32 2428:56 2429:74 2430:32 2431:65 2432:83 2433:41 2434:58 2435:76 2436:34 2437:58 2438:76 2439:34 2440:59 2441:76 2442:34 2443:59 2444:76 2445:34 2446:59 2447:76 2448:34 2449:59 2450:76 2451:34 2452:60 2453:77 2454:35 2455:58 2456:75 2457:33 2458:58 2459:75 2460:33 2461:59 2462:76 2463:34 2464:59 2465:76 2466:34 2467:62 2468:79 2469:37 2470:59 2471:75 2472:36 2473:59 2474:75 2475:38 2476:56 2477:72 2478:35 2479:56 2480:72 2481:35 2482:57 2483:71 2484:35 2485:65 2486:77 2487:41 2488:64 2489:79 2490:40 2491:58 2492:70 2493:34 2494:230 2495:229 2496:224 2500:4 2501:3 2502:1 2503:229 2504:225 2505:222 2506:227 2507:223 2508:220 2509:224 2510:225 2511:220 2512:224 2513:225 2514:220 2515:223 2516:222 2517:217 2518:224 2519:225 2520:219 2521:211 2522:224 2523:198 2524:67 2525:84 2526:40 2527:64 2528:81 2529:39 2530:60 2531:78 2532:36 2533:60 2534:78 2535:36 2536:58 2537:76 2538:34 2539:59 2540:77 2541:35 2542:57 2543:75 2544:33 2545:61 2546:79 2547:37 2548:61 2549:78 2550:36 2551:61 2552:78 2553:36 2554:63 2555:80 2556:38 2557:56 2558:73 2559:31 2560:62 2561:79 2562:37 2563:60 2564:77 2565:35 2566:59 2567:75 2568:36 2569:59 2570:75 2571:38 2572:59 2573:73 2574:37 2575:61 2576:73 2577:37 2578:63 2579:75 2580:37 2581:61 2582:73 2583:37 2584:65 2585:74 2586:47 2587:227 2588:228 2589:220 2590:224 2591:220 2592:221 2605:224 2606:225 2607:220 2608:224 2609:225 2610:220 2611:224 2612:225 2613:220 2614:224 2615:225 2616:220 2617:225 2618:226 2619:220 2620:229 2621:234 2622:227 2623:137 2624:146 2625:119 2626:67 2627:85 2628:37 2629:65 2630:82 2631:40 2632:59 2633:76 2634:34 2635:61 2636:78 2637:36 2638:60 2639:78 2640:36 2641:60 2642:78 2643:36 2644:62 2645:80 2646:38 2647:62 2648:80 2649:38 2650:60 2651:77 2652:35 2653:63 2654:80 2655:38 2656:63 2657:80 2658:38 2659:63 2660:80 2661:38 2662:63 2663:78 2664:39 2665:62 2666:74 2667:38 2668:63 2669:77 2670:41 2671:62 2672:74 2673:38 2674:65 2675:77 2676:39 2677:71 2678:76 2679:46 2680:237 2681:236 2682:232 2683:224 2684:225 2685:220 2686:223 2687:222 2688:217 2701:1 2702:1 2703:1 2704:223 2705:224 2706:219 2707:224 2708:225 2709:220 2710:224 2711:225 2712:220 2713:224 2714:225 2715:220 2716:223 2717:224 2718:219 2719:222 2720:223 2721:218 2722:227 2723:229 2724:218 2725:157 2726:161 2727:136 2728:49 2729:64 2730:25 2731:57 2732:79 2733:33 2734:58 2735:76 2736:34 2737:60 2738:78 2739:36 2740:61 2741:78 2742:36 2743:61 2744:78 2745:36 2746:61 2747:78 2748:36 2749:61 2750:78 2751:36 2752:65 2753:82 2754:40 2755:63 2756:80 2757:38 2758:64 2759:81 2760:39 2761:62 2762:79 2763:37 2764:64 2765:79 2766:36 2767:69 2768:80 2769:38 2770:69 2771:80 2772:40 2773:211 2774:213 2775:199 2776:226 2777:225 2778:221 2779:225 2780:221 2781:218 2782:225 2783:221 2784:218 2806:224 2807:225 2808:220 2809:224 2810:225 2811:220 2812:224 2813:225 2814:220 2815:225 2816:226 2817:221 2818:222 2819:223 2820:218 2821:222 2822:223 2823:218 2824:221 2825:222 2826:217 2827:222 2828:227 2829:220 2830:200 2831:213 2832:193 2833:51 2834:67 2835:28 2836:64 2837:81 2838:37 2839:66 2840:83 2841:39 2842:66 2843:83 2844:39 2845:66 2846:83 2847:39 2848:65 2849:82 2850:38 2851:63 2852:80 2853:36 2854:63 2855:80 2856:36 2857:67 2858:84 2859:40 2860:71 2861:88 2862:44 2863:75 2864:87 2865:49 2866:205 2867:207 2868:196 2869:222 2870:223 2871:218 2872:222 2873:221 2874:217 2875:225 2876:221 2877:218 2878:225 2879:221 2880:218 2905:1 2906:1 2908:223 2909:224 2910:219 2911:225 2912:226 2913:221 2914:224 2915:225 2916:220 2917:224 2918:225 2919:220 2920:223 2921:224 2922:219 2923:222 2924:223 2925:218 2926:223 2927:222 2928:218 2929:223 2930:222 2931:220 2932:220 2933:228 2934:213 2935:46 2936:58 2937:20 2938:70 2939:86 2940:39 2941:67 2942:84 2943:42 2944:68 2945:85 2946:41 2947:68 2948:85 2949:41 2950:71 2951:88 2952:44 2953:75 2954:91 2955:46 2956:120 2957:127 2958:93 2959:225 2960:225 2961:223 2962:223 2963:224 2964:218 2965:224 2966:225 2967:220 2968:224 2969:225 2970:220 2971:224 2972:225 2973:220 2974:225 2975:224 2976:220 3010:2 3011:2 3013:224 3014:225 3015:220 3016:224 3017:225 3018:220 3019:228 3020:229 3021:224 3022:224 3023:225 3024:220 3025:224 3026:225 3027:220 3028:224 3029:225 3030:220 3031:224 3032:225 3033:220 3034:224 3035:224 3036:224 3037:238 3038:241 3039:222 3040:72 3041:84 3042:46 3043:67 3044:78 3045:36 3046:68 3047:80 3048:32 3049:152 3050:156 3051:123 3052:219 3053:218 3054:213 3055:224 3056:225 3057:219 3058:223 3059:224 3060:219 3061:222 3062:223 3063:218 3064:222 3065:223 3066:218 3067:222 3068:223 3069:218 3070:223 3071:222 3072:218 
0.01 28:224 29:223 30:221 31:227 32:223 33:220 34:227 35:223 36:220 37:227 38:224 39:219 40:227 41:223 42:220 43:222 44:223 45:215 46:240 47:243 48:232 49:57 50:73 51:34 52:83 53:97 54:64 55:58 56:76 57:28 58:61 59:85 60:25 61:70 62:87 63:42 64:229 65:228 66:223 67:226 68:221 69:218 70:225 71:221 72:218 73:225 74:221 75:218 76:1 121:224 122:223 123:221 124:227 125:223 126:220 127:227 128:223 129:220 130:224 131:225 132:219 133:227 134:224 135:219 136:233 137:228 138:222 139:153 140:159 141:131 142:74 143:95 144:39 145:64 146:84 147:31 148:62 149:82 150:29 151:61 152:82 153:26 154:64 155:84 156:31 157:67 158:87 159:34 160:59 161:75 162:28 163:189 164:201 165:177 166:222 167:223 168:218 169:225 170:221 171:218 172:225 173:221 174:218 214:225 215:224 216:222 217:227 218:223 219:220 220:227 221:223 222:220 223:226 224:222 225:221 226:234 227:236 228:222 229:120 230:131 231:97 232:67 233:88 234:32 235:60 236:88 237:30 238:64 239:85 240:29 241:63 242:83 243:30 244:59 245:79 246:26 247:62 248:82 249:29 250:61 251:81 252:28 253:62 254:83 255:27 256:61 257:84 258:30 259:63 260:88 261:31 262:226 263:229 264:218 265:225 266:221 267:218 268:225 269:221 270:218 271:226 272:221 273:217 307:222 308:221 309:219 310:227 311:223 312:220 313:227 314:223 315:220 316:225 317:226 318:220 319:73 320:89 321:50 322:64 323:87 324:31 325:63 326:84 327:28 328:63 329:83 330:30 331:64 332:84 333:31 334:63 335:83 336:30 337:62 338:82 339:29 340:61 341:81 342:28 343:62 344:82 345:29 346:60 347:80 348:31 349:60 350:80 351:27 352:62 353:82 354:29 355:62 356:82 357:29 358:58 359:73 360:30 361:223 362:228 363:221 364:225 365:221 366:218 367:225 368:221 369:218 400:1 403:227 404:223 405:220 406:224 407:225 408:220 409:222 410:223 411:218 412:62 413:79 414:37 415:66 416:87 417:31 418:63 419:84 420:28 421:62 422:82 423:29 424:60 425:85 426:30 427:63 428:83 429:30 430:63 431:83 432:30 433:62 434:82 435:29 436:60 437:80 438:27 439:60 440:80 441:31 442:60 443:80 444:31 445:60 446:80 447:31 448:60 449:80 450:31 451:62 452:82 453:33 454:62 455:82 456:31 457:59 458:80 459:39 460:229 461:226 462:219 463:224 464:220 465:217 466:227 467:223 468:220 496:227 497:223 498:220 499:224 500:223 501:219 502:226 503:227 504:222 505:65 506:80 507:37 508:65 509:93 510:35 511:66 512:87 513:31 514:65 515:86 516:30 517:63 518:83 519:30 520:65 521:90 522:35 523:65 524:85 525:32 526:63 527:83 528:30 529:62 530:82 531:29 532:62 533:82 534:31 535:62 536:82 537:33 538:65 539:85 540:36 541:60 542:80 543:31 544:60 545:80 546:31 547:58 548:78 549:29 550:58 551:78 552:29 553:63 554:83 555:32 556:82 557:92 558:57 559:224 560:220 561:217 562:225 563:221 564:218 565:225 566:221 567:218 589:227 590:223 591:220 592:227 593:223 594:220 595:222 596:222 597:222 598:79 599:91 600:53 601:64 602:84 603:31 604:69 605:89 606:36 607:66 608:86 609:33 610:65 611:85 612:32 613:62 614:82 615:29 616:65 617:85 618:32 619:63 620:83 621:30 622:62 623:83 624:27 625:62 626:82 627:33 628:60 629:80 630:31 631:62 632:82 633:33 634:60 635:80 636:31 637:59 638:79 639:30 640:60 641:80 642:31 643:60 644:80 645:31 646:59 647:78 648:33 649:65 650:85 651:36 652:66 653:84 654:36 655:219 656:220 657:212 658:225 659:220 660:217 661:225 662:221 663:218 664:1 682:3 683:2 685:225 686:221 687:218 688:225 689:222 690:217 691:233 692:242 693:221 694:65 695:88 696:32 697:62 698:82 699:29 700:65 701:85 702:32 703:65 704:85 705:32 706:65 707:85 708:32 709:69 710:89 711:36 712:63 713:83 714:30 715:65 716:85 717:32 718:60 719:80 720:31 721:57 722:77 723:28 724:60 725:80 726:31 727:60 728:80 729:31 730:63 731:83 732:34 733:60 734:80 735:31 736:60 737:80 738:31 739:60 740:80 741:31 742:62 743:81 744:36 745:62 746:82 747:33 748:61 749:83 750:34 751:64 752:75 753:35 754:222 755:223 756:218 757:225 758:221 759:218 760:224 761:220 762:217 778:225 779:221 780:218 781:225 782:221 783:218 784:223 785:228 786:221 787:68 788:90 789:25 790:62 791:83 792:27 793:64 794:84 795:31 796:61 797:81 798:28 799:63 800:83 801:30 802:63 803:83 804:30 805:62 806:82 807:29 808:63 809:83 810:30 811:59 812:79 813:26 814:60 815:80 816:31 817:62 818:82 819:33 820:58 821:78 822:29 823:55 824:75 825:26 826:60 827:80 828:31 829:60 830:80 831:31 832:60 833:80 834:31 835:60 836:79 837:33 838:60 839:79 840:34 841:58 842:78 843:29 844:64 845:84 846:35 847:64 848:87 849:31 850:126 851:130 852:107 853:225 854:221 855:218 856:225 857:221 858:218 871:225 872:221 873:218 874:225 875:221 876:218 877:220 878:220 879:218 880:69 881:89 882:38 883:64 884:84 885:31 886:62 887:82 888:29 889:60 890:80 891:27 892:62 893:82 894:29 895:62 896:82 897:29 898:62 899:82 900:29 901:63 902:83 903:30 904:59 905:79 906:26 907:60 908:80 909:31 910:60 911:80 912:31 913:57 914:77 915:28 916:60 917:80 918:31 919:57 920:77 921:28 922:60 923:80 924:31 925:60 926:78 927:36 928:60 929:79 930:34 931:62 932:81 933:36 934:60 935:79 936:34 937:60 938:79 939:34 940:63 941:83 942:34 943:60 944:80 945:31 946:74 947:88 948:35 949:226 950:224 951:225 952:225 953:221 954:218 955:224 956:220 957:217 967:225 968:221 969:218 970:224 971:223 972:219 973:130 974:144 975:111 976:65 977:86 978:30 979:59 980:79 981:26 982:63 983:83 984:30 985:63 986:83 987:30 988:62 989:82 990:29 991:60 992:80 993:27 994:62 995:82 996:29 997:61 998:81 999:28 1000:60 1001:80 1002:27 1003:58 1004:78 1005:29 1006:55 1007:77 1008:28 1009:58 1010:78 1011:29 1012:58 1013:78 1014:29 1015:59 1016:79 1017:30 1018:58 1019:78 1020:29 1021:67 1022:86 1023:40 1024:60 1025:79 1026:34 1027:59 1028:78 1029:33 1030:60 1031:79 1032:34 1033:62 1034:81 1035:36 1036:62 1037:81 1038:35 1039:62 1040:82 1041:33 1042:70 1043:89 1044:43 1045:66 1046:77 1047:43 1048:223 1049:222 1050:218 1051:224 1052:220 1053:217 1060:226 1061:222 1062:219 1063:225 1064:221 1065:218 1066:224 1067:225 1068:220 1069:71 1070:92 1071:33 1072:62 1073:82 1074:29 1075:57 1076:77 1077:24 1078:63 1079:83 1080:30 1081:64 1082:84 1083:31 1084:62 1085:82 1086:29 1087:62 1088:82 1089:29 1090:62 1091:82 1092:29 1093:62 1094:82 1095:29 1096:60 1097:80 1098:27 1099:58 1100:78 1101:29 1102:54 1103:78 1104:28 1105:58 1106:78 1107:29 1108:58 1109:78 1110:29 1111:57 1112:77 1113:28 1114:58 1115:78 1116:29 1117:58 1118:78 1119:29 1120:58 1121:77 1122:32 1123:62 1124:81 1125:36 1126:62 1127:81 1128:36 1129:62 1130:81 1131:36 1132:63 1133:82 1134:37 1135:65 1136:85 1137:36 1138:68 1139:88 1140:39 1141:70 1142:90 1143:39 1144:221 1145:221 1146:221 1147:225 1148:221 1149:218 1150:223 1151:222 1152:220 1156:225 1157:221 1158:218 1159:225 1160:221 1161:218 1162:59 1163:82 1164:38 1165:64 1166:85 1167:29 1168:62 1169:82 1170:29 1171:56 1172:76 1173:23 1174:63 1175:83 1176:30 1177:59 1178:79 1179:26 1180:62 1181:82 1182:29 1183:62 1184:82 1185:29 1186:62 1187:82 1188:29 1189:63 1190:83 1191:30 1192:58 1193:78 1194:25 1195:60 1196:80 1197:27 1198:53 1199:77 1200:27 1201:55 1202:79 1203:29 1204:57 1205:77 1206:28 1207:58 1208:78 1209:29 1210:57 1211:77 1212:28 1213:58 1214:78 1215:29 1216:60 1217:79 1218:34 1219:59 1220:78 1221:33 1222:60 1223:79 1224:34 1225:62 1226:81 1227:36 1228:63 1229:82 1230:37 1231:63 1232:83 1233:34 1234:66 1235:86 1236:37 1237:70 1238:90 1239:39 1240:240 1241:240 1242:230 1243:224 1244:220 1245:217 1246:225 1247:221 1248:218 1249:1 1252:225 1253:221 1254:218 1255:225 1256:224 1257:222 1258:63 1259:84 1260:28 1261:63 1262:83 1263:30 1264:62 1265:82 1266:29 1267:65 1268:85 1269:32 1270:62 1271:82 1272:29 1273:60 1274:80 1275:27 1276:60 1277:80 1278:27 1279:60 1280:80 1281:27 1282:62 1283:82 1284:29 1285:62 1286:82 1287:29 1288:56 1289:76 1290:23 1291:61 1292:81 1293:28 1294:54 1295:78 1296:28 1297:55 1298:79 1299:27 1300:57 1301:77 1302:28 1303:57 1304:77 1305:28 1306:57 1307:77 1308:28 1309:56 1310:76 1311:27 1312:60 1313:79 1314:34 1315:61 1316:80 1317:35 1318:59 1319:78 1320:33 1321:62 1322:81 1323:36 1324:62 1325:81 1326:36 1327:63 1328:83 1329:34 1330:66 1331:85 1332:39 1333:69 1334:89 1335:38 1336:66 1337:84 1338:36 1339:224 1340:220 1341:217 1342:224 1343:220 1344:217 1345:225 1346:221 1347:218 1348:225 1349:221 1350:218 1351:80 1352:91 1353:59 1354:64 1355:84 1356:31 1357:62 1358:82 1359:29 1360:60 1361:80 1362:27 1363:62 1364:82 1365:29 1366:62 1367:82 1368:29 1369:60 1370:80 1371:27 1372:60 1373:80 1374:27 1375:64 1376:84 1377:31 1378:60 1379:80 1380:27 1381:60 1382:80 1383:27 1384:58 1385:78 1386:25 1387:55 1388:80 1389:25 1390:52 1391:77 1392:22 1393:54 1394:79 1395:24 1396:57 1397:81 1398:31 1399:54 1400:78 1401:28 1402:54 1403:74 1404:25 1405:57 1406:77 1407:28 1408:58 1409:78 1410:29 1411:59 1412:78 1413:32 1414:60 1415:79 1416:34 1417:62 1418:81 1419:36 1420:62 1421:81 1422:36 1423:63 1424:82 1425:37 1426:62 1427:81 1428:36 1429:63 1430:83 1431:34 1432:74 1433:94 1434:41 1435:232 1436:233 1437:227 1438:224 1439:220 1440:217 1441:225 1442:221 1443:218 1444:223 1445:223 1446:221 1447:61 1448:79 1449:31 1450:63 1451:83 1452:34 1453:61 1454:81 1455:28 1456:60 1457:80 1458:27 1459:60 1460:80 1461:31 1462:61 1463:81 1464:32 1465:60 1466:80 1467:31 1468:60 1469:80 1470:31 1471:61 1472:81 1473:32 1474:58 1475:78 1476:29 1477:60 1478:80 1479:31 1480:58 1481:78 1482:29 1483:54 1484:78 1485:28 1486:52 1487:76 1488:26 1489:52 1490:76 1491:28 1492:54 1493:78 1494:28 1495:52 1496:76 1497:26 1498:55 1499:75 1500:26 1501:54 1502:74 1503:25 1504:57 1505:77 1506:28 1507:57 1508:77 1509:28 1510:60 1511:79 1512:34 1513:60 1514:79 1515:34 1516:63 1517:82 1518:37 1519:62 1520:81 1521:36 1522:58 1523:78 1524:29 1525:63 1526:83 1527:34 1528:68 1529:88 1530:39 1531:84 1532:102 1533:54 1534:227 1535:228 1536:220 1537:225 1538:221 1539:218 1540:201 1541:206 1542:183 1543:59 1544:77 1545:29 1546:64 1547:84 1548:35 1549:63 1550:83 1551:30 1552:61 1553:81 1554:28 1555:60 1556:80 1557:31 1558:62 1559:82 1560:33 1561:58 1562:78 1563:29 1564:56 1565:76 1566:27 1567:57 1568:77 1569:28 1570:57 1571:77 1572:28 1573:58 1574:78 1575:29 1576:53 1577:73 1578:24 1579:53 1580:77 1581:27 1582:51 1583:75 1584:25 1585:52 1586:76 1587:26 1588:52 1589:76 1590:26 1591:59 1592:83 1593:33 1594:75 1595:95 1596:46 1597:69 1598:89 1599:40 1600:64 1601:84 1602:35 1603:66 1604:86 1605:37 1606:65 1607:84 1608:39 1609:62 1610:81 1611:36 1612:60 1613:79 1614:34 1615:60 1616:79 1617:34 1618:62 1619:82 1620:33 1621:67 1622:87 1623:38 1624:68 1625:88 1626:39 1627:78 1628:96 1629:46 1630:76 1631:80 1632:57 1633:225 1634:221 1635:218 1636:62 1637:79 1638:37 1639:61 1640:79 1641:31 1642:62 1643:82 1644:33 1645:58 1646:78 1647:25 1648:54 1649:74 1650:21 1651:59 1652:79 1653:26 1654:62 1655:82 1656:29 1657:78 1658:98 1659:45 1660:80 1661:100 1662:47 1663:79 1664:99 1665:46 1666:72 1667:92 1668:39 1669:64 1670:84 1671:31 1672:61 1673:86 1674:31 1675:58 1676:83 1677:28 1678:60 1679:85 1680:30 1681:52 1682:77 1683:22 1684:54 1685:79 1686:24 1687:57 1688:82 1689:27 1690:56 1691:81 1692:26 1693:58 1694:78 1695:25 1696:57 1697:77 1698:28 1699:58 1700:78 1701:29 1702:57 1703:76 1704:30 1705:62 1706:81 1707:36 1708:59 1709:78 1710:33 1711:63 1712:82 1713:37 1714:65 1715:85 1716:36 1717:66 1718:86 1719:37 1720:70 1721:90 1722:41 1723:148 1724:159 1725:125 1726:224 1727:220 1728:217 1729:226 1730:229 1731:222 1732:59 1733:76 1734:31 1735:71 1736:89 1737:41 1738:81 1739:101 1740:48 1741:65 1742:85 1743:32 1744:62 1745:82 1746:29 1747:60 1748:80 1749:27 1750:60 1751:80 1752:27 1753:64 1754:84 1755:31 1756:62 1757:82 1758:29 1759:62 1760:82 1761:29 1762:63 1763:83 1764:30 1765:59 1766:84 1767:29 1768:57 1769:82 1770:27 1771:59 1772:84 1773:29 1774:64 1775:89 1776:34 1777:59 1778:84 1779:29 1780:59 1781:84 1782:29 1783:57 1784:82 1785:27 1786:57 1787:82 1788:27 1789:60 1790:80 1791:27 1792:58 1793:78 1794:29 1795:58 1796:78 1797:29 1798:58 1799:78 1800:29 1801:62 1802:82 1803:33 1804:62 1805:81 1806:36 1807:65 1808:84 1809:39 1810:66 1811:86 1812:37 1813:70 1814:90 1815:41 1816:72 1817:90 1818:40 1819:216 1820:217 1821:212 1822:225 1823:221 1824:218 1825:68 1826:73 1827:50 1828:54 1829:71 1830:27 1831:60 1832:78 1833:30 1834:63 1835:83 1836:30 1837:62 1838:82 1839:29 1840:62 1841:82 1842:29 1843:60 1844:83 1845:29 1846:62 1847:82 1848:29 1849:61 1850:81 1851:28 1852:62 1853:82 1854:29 1855:62 1856:82 1857:29 1858:60 1859:83 1860:29 1861:59 1862:84 1863:29 1864:59 1865:84 1866:29 1867:59 1868:84 1869:29 1870:60 1871:85 1872:30 1873:60 1874:85 1875:30 1876:59 1877:84 1878:29 1879:59 1880:84 1881:29 1882:59 1883:84 1884:29 1885:63 1886:83 1887:30 1888:56 1889:76 1890:27 1891:60 1892:80 1893:31 1894:62 1895:82 1896:33 1897:62 1898:82 1899:33 1900:63 1901:82 1902:37 1903:65 1904:84 1905:39 1906:66 1907:86 1908:37 1909:71 1910:91 1911:40 1912:130 1913:146 1914:110 1915:223 1916:224 1917:219 1918:225 1919:221 1920:218 1921:230 1922:231 1923:225 1924:231 1925:238 1926:222 1927:64 1928:82 1929:30 1930:63 1931:83 1932:34 1933:62 1934:82 1935:33 1936:62 1937:82 1938:29 1939:58 1940:78 1941:25 1942:63 1943:83 1944:30 1945:62 1946:82 1947:29 1948:62 1949:82 1950:29 1951:62 1952:82 1953:29 1954:57 1955:80 1956:26 1957:59 1958:84 1959:29 1960:58 1961:83 1962:28 1963:59 1964:84 1965:29 1966:60 1967:85 1968:30 1969:59 1970:84 1971:29 1972:59 1973:84 1974:29 1975:66 1976:91 1977:36 1978:60 1979:85 1980:30 1981:62 1982:82 1983:29 1984:62 1985:82 1986:29 1987:61 1988:81 1989:30 1990:61 1991:81 1992:32 1993:62 1994:82 1995:33 1996:64 1997:83 1998:38 1999:65 2000:85 2001:36 2002:65 2003:85 2004:36 2005:71 2006:89 2007:37 2008:209 2009:208 2010:203 2011:225 2012:221 2013:218 2014:225 2015:221 2016:218 2017:223 2018:222 2019:220 2020:225 2021:221 2022:218 2023:129 2024:138 2025:109 2026:65 2027:85 2028:32 2029:63 2030:83 2031:32 2032:60 2033:80 2034:27 2035:62 2036:82 2037:29 2038:58 2039:78 2040:25 2041:62 2042:82 2043:29 2044:63 2045:83 2046:30 2047:62 2048:82 2049:29 2050:65 2051:88 2052:34 2053:59 2054:84 2055:29 2056:59 2057:84 2058:29 2059:59 2060:84 2061:29 2062:59 2063:84 2064:29 2065:59 2066:84 2067:29 2068:59 2069:84 2070:29 2071:58 2072:83 2073:28 2074:60 2075:85 2076:30 2077:63 2078:83 2079:30 2080:61 2081:81 2082:28 2083:63 2084:83 2085:32 2086:71 2087:91 2088:40 2089:65 2090:85 2091:36 2092:63 2093:82 2094:36 2095:64 2096:84 2097:35 2098:69 2099:89 2100:38 2101:71 2102:83 2103:45 2104:226 2105:221 2106:217 2107:225 2108:221 2109:218 2110:225 2111:221 2112:218 2113:225 2114:221 2115:218 2116:225 2117:221 2118:218 2119:225 2120:224 2121:222 2122:50 2123:65 2124:24 2125:65 2126:85 2127:34 2128:60 2129:80 2130:27 2131:61 2132:81 2133:28 2134:62 2135:82 2136:29 2137:62 2138:82 2139:29 2140:63 2141:83 2142:30 2143:63 2144:83 2145:30 2146:61 2147:84 2148:30 2149:59 2150:84 2151:29 2152:59 2153:84 2154:29 2155:59 2156:84 2157:29 2158:59 2159:84 2160:29 2161:61 2162:86 2163:31 2164:59 2165:84 2166:29 2167:59 2168:84 2169:29 2170:60 2171:85 2172:30 2173:63 2174:83 2175:30 2176:63 2177:83 2178:30 2179:63 2180:83 2181:30 2182:63 2183:83 2184:32 2185:62 2186:82 2187:33 2188:65 2189:85 2190:36 2191:65 2192:85 2193:36 2194:68 2195:87 2196:41 2197:210 2198:210 2199:208 2200:225 2201:221 2202:218 2203:225 2204:221 2205:218 2206:1 2209:228 2210:223 2211:219 2212:227 2213:223 2214:220 2215:227 2216:223 2217:220 2218:226 2219:227 2220:221 2221:127 2222:141 2223:105 2224:63 2225:83 2226:30 2227:61 2228:82 2229:26 2230:62 2231:82 2232:29 2233:62 2234:82 2235:29 2236:62 2237:82 2238:29 2239:60 2240:85 2241:30 2242:61 2243:86 2244:31 2245:57 2246:82 2247:27 2248:59 2249:84 2250:29 2251:60 2252:85 2253:30 2254:59 2255:84 2256:29 2257:57 2258:82 2259:27 2260:59 2261:84 2262:29 2263:55 2264:80 2265:25 2266:60 2267:85 2268:30 2269:65 2270:85 2271:32 2272:63 2273:83 2274:30 2275:63 2276:83 2277:30 2278:65 2279:85 2280:32 2281:65 2282:85 2283:32 2284:66 2285:86 2286:37 2287:68 2288:88 2289:37 2290:134 2291:139 2292:117 2293:223 2294:222 2295:218 2296:227 2297:223 2298:220 2299:225 2300:221 2301:218 2308:227 2309:223 2310:220 2311:227 2312:223 2313:220 2314:224 2315:223 2316:218 2317:220 2318:222 2319:219 2320:126 2321:144 2322:102 2323:63 2324:84 2325:28 2326:62 2327:82 2328:29 2329:63 2330:83 2331:30 2332:62 2333:82 2334:29 2335:59 2336:84 2337:29 2338:59 2339:84 2340:29 2341:57 2342:82 2343:27 2344:60 2345:85 2346:30 2347:60 2348:85 2349:30 2350:60 2351:85 2352:30 2353:59 2354:84 2355:29 2356:60 2357:85 2358:30 2359:59 2360:84 2361:29 2362:60 2363:85 2364:30 2365:65 2366:85 2367:32 2368:65 2369:85 2370:32 2371:60 2372:80 2373:27 2374:65 2375:85 2376:32 2377:66 2378:87 2379:31 2380:66 2381:86 2382:35 2383:70 2384:86 2385:37 2386:226 2387:222 2388:219 2389:223 2390:222 2391:218 2392:225 2393:221 2394:218 2395:223 2396:222 2397:220 2404:222 2405:221 2406:219 2407:227 2408:223 2409:220 2410:227 2411:223 2412:220 2413:224 2414:225 2415:220 2416:221 2417:223 2418:218 2419:107 2420:123 2421:78 2422:63 2423:83 2424:30 2425:63 2426:83 2427:30 2428:66 2429:86 2430:33 2431:60 2432:85 2433:30 2434:59 2435:84 2436:29 2437:59 2438:84 2439:29 2440:60 2441:85 2442:30 2443:59 2444:84 2445:29 2446:60 2447:85 2448:30 2449:59 2450:84 2451:29 2452:55 2453:80 2454:25 2455:60 2456:85 2457:30 2458:60 2459:85 2460:30 2461:65 2462:85 2463:32 2464:65 2465:85 2466:32 2467:65 2468:85 2469:32 2470:65 2471:85 2472:32 2473:68 2474:89 2475:33 2476:69 2477:89 2478:36 2479:217 2480:220 2481:199 2482:225 2483:221 2484:218 2485:225 2486:221 2487:218 2488:225 2489:221 2490:218 2503:227 2504:223 2505:220 2506:224 2507:225 2508:220 2509:224 2510:225 2511:219 2512:223 2513:225 2514:222 2515:220 2516:223 2517:216 2518:63 2519:80 2520:26 2521:65 2522:85 2523:36 2524:64 2525:89 2526:34 2527:60 2528:85 2529:30 2530:60 2531:85 2532:30 2533:59 2534:84 2535:29 2536:61 2537:86 2538:31 2539:60 2540:85 2541:30 2542:60 2543:85 2544:30 2545:60 2546:85 2547:28 2548:61 2549:86 2550:29 2551:62 2552:87 2553:30 2554:62 2555:87 2556:30 2557:65 2558:86 2559:30 2560:66 2561:87 2562:31 2563:66 2564:87 2565:31 2566:63 2567:88 2568:31 2569:69 2570:91 2571:29 2572:214 2573:219 2574:197 2575:224 2576:220 2577:217 2578:225 2579:221 2580:218 2581:225 2582:221 2583:218 2584:4 2585:3 2586:1 2605:224 2606:225 2607:220 2608:224 2609:225 2610:220 2611:223 2612:225 2613:220 2614:226 2615:226 2616:224 2617:67 2618:84 2619:39 2620:62 2621:87 2622:30 2623:60 2624:85 2625:30 2626:60 2627:85 2628:30 2629:60 2630:85 2631:30 2632:62 2633:87 2634:32 2635:62 2636:87 2637:32 2638:60 2639:85 2640:30 2641:60 2642:85 2643:28 2644:59 2645:84 2646:27 2647:62 2648:87 2649:30 2650:62 2651:87 2652:30 2653:65 2654:86 2655:30 2656:66 2657:87 2658:31 2659:66 2660:87 2661:31 2662:70 2663:95 2664:37 2665:113 2666:130 2667:86 2668:225 2669:222 2670:217 2671:227 2672:223 2673:220 2674:227 2675:223 2676:220 2677:226 2678:222 2679:219 2681:1 2704:224 2705:225 2706:220 2707:226 2708:227 2709:222 2710:226 2711:227 2712:222 2713:223 2714:226 2715:219 2716:88 2717:105 2718:63 2719:66 2720:89 2721:37 2722:61 2723:85 2724:33 2725:62 2726:87 2727:32 2728:63 2729:88 2730:31 2731:63 2732:88 2733:31 2734:63 2735:88 2736:31 2737:62 2738:87 2739:30 2740:62 2741:87 2742:30 2743:62 2744:87 2745:30 2746:63 2747:88 2748:31 2749:66 2750:87 2751:31 2752:68 2753:89 2754:30 2755:71 2756:92 2757:35 2758:70 2759:87 2760:35 2761:223 2762:224 2763:218 2764:227 2765:223 2766:220 2767:225 2768:221 2769:218 2770:225 2771:221 2772:218 2773:2 2774:2 2775:2 2800:228 2801:229 2802:224 2803:226 2804:227 2805:222 2806:226 2807:227 2808:222 2809:226 2810:227 2811:222 2812:225 2813:226 2814:221 2815:234 2816:236 2817:222 2818:54 2819:72 2820:34 2821:61 2822:89 2823:30 2824:62 2825:90 2826:31 2827:65 2828:91 2829:30 2830:67 2831:93 2832:32 2833:63 2834:89 2835:28 2836:62 2837:88 2838:27 2839:63 2840:89 2841:28 2842:63 2843:89 2844:28 2845:69 2846:89 2847:30 2848:66 2849:90 2850:28 2851:68 2852:85 2853:33 2854:222 2855:224 2856:211 2857:227 2858:223 2859:220 2860:227 2861:223 2862:220 2863:225 2864:221 2865:218 2866:221 2867:220 2868:218 2899:226 2900:227 2901:222 2902:226 2903:227 2904:222 2905:226 2906:227 2907:222 2908:226 2909:227 2910:222 2911:226 2912:227 2913:222 2914:226 2915:226 2916:226 2917:236 2918:243 2919:227 2920:71 2921:89 2922:37 2923:69 2924:95 2925:32 2926:69 2927:95 2928:34 2929:67 2930:93 2931:32 2932:63 2933:89 2934:28 2935:64 2936:90 2937:29 2938:65 2939:93 2940:32 2941:69 2942:90 2943:31 2944:93 2945:106 2946:62 2947:218 2948:219 2949:213 2950:224 2951:224 2952:222 2953:227 2954:223 2955:220 2956:227 2957:223 2958:220 2959:225 2960:221 2961:218 2998:224 2999:225 3000:220 3001:226 3002:227 3003:222 3004:226 3005:227 3006:222 3007:226 3008:227 3009:222 3010:226 3011:227 3012:222 3013:226 3014:227 3015:222 3016:227 3017:228 3018:220 3019:194 3020:209 3021:178 3022:80 3023:98 3024:48 3025:78 3026:98 3027:37 3028:77 3029:96 3030:40 3031:92 3032:115 3033:59 3034:99 3035:116 3036:74 3037:209 3038:216 3039:198 3040:224 3041:225 3042:220 3043:224 3044:225 3045:220 3046:229 3047:225 3048:222 3049:227 3050:223 3051:220 3052:228 3053:223 3054:219 
0.01 13:225 14:221 15:218 16:225 17:221 18:218 22:223 23:224 24:219 25:222 26:223 27:218 28:222 29:223 30:218 31:226 32:227 33:222 34:230 35:234 36:220 37:69 38:88 39:33 40:71 41:95 42:37 43:67 44:91 45:31 46:62 47:79 48:35 49:237 50:244 51:226 52:221 53:220 54:216 55:223 56:222 57:218 58:225 59:221 60:218 61:225 62:221 63:218 64:230 65:229 66:227 109:225 110:221 111:218 112:222 113:223 114:218 115:222 116:223 117:218 118:222 119:223 120:218 121:220 122:221 123:216 124:228 125:240 126:218 127:69 128:97 129:38 130:67 131:88 132:32 133:65 134:85 135:32 136:65 137:90 138:33 139:57 140:82 141:25 142:61 143:86 144:29 145:64 146:85 147:28 148:56 149:70 150:34 151:242 152:244 153:233 154:222 155:223 156:218 157:225 158:221 159:218 160:225 161:221 162:218 163:225 164:221 165:218 205:222 206:223 207:218 208:222 209:223 210:218 211:222 212:223 213:218 214:222 215:223 216:218 217:235 218:243 219:219 220:66 221:91 222:36 223:62 224:87 225:32 226:67 227:87 228:34 229:60 230:84 231:34 232:59 233:84 234:29 235:71 236:91 237:38 238:53 239:78 240:23 241:58 242:78 243:25 244:58 245:78 246:25 247:56 248:81 249:23 250:74 251:86 252:48 253:223 254:224 255:219 256:225 257:221 258:218 259:225 260:221 261:218 262:225 263:221 264:218 301:222 302:223 303:218 304:222 305:223 306:218 307:222 308:223 309:218 310:235 311:244 312:223 313:66 314:87 315:28 316:64 317:87 318:35 319:60 320:84 321:32 322:60 323:83 324:31 325:60 326:84 327:34 328:57 329:81 330:29 331:68 332:91 333:39 334:55 335:79 336:27 337:54 338:74 339:23 340:57 341:80 342:26 343:58 344:83 345:28 346:61 347:84 348:28 349:66 350:89 351:33 352:230 353:229 354:225 355:225 356:221 357:218 358:225 359:221 360:218 361:225 362:221 363:218 397:222 398:223 399:218 400:222 401:223 402:218 403:227 404:229 405:226 406:66 407:88 408:24 409:62 410:82 411:29 412:63 413:83 414:34 415:57 416:81 417:31 418:54 419:78 420:28 421:58 422:82 423:32 424:57 425:81 426:31 427:57 428:81 429:31 430:54 431:78 432:28 433:57 434:77 435:28 436:50 437:74 438:22 439:55 440:80 441:25 442:55 443:80 444:23 445:62 446:83 447:27 448:66 449:84 450:34 451:236 452:236 453:228 454:225 455:221 456:218 457:225 458:221 459:218 460:3 461:3 462:3 493:222 494:223 495:218 496:221 497:222 498:217 499:68 500:87 501:32 502:62 503:86 504:24 505:62 506:83 507:27 508:60 509:80 510:31 511:56 512:80 513:30 514:56 515:80 516:30 517:63 518:86 519:40 520:57 521:81 522:31 523:60 524:84 525:34 526:54 527:78 528:28 529:54 530:78 531:28 532:57 533:81 534:31 535:55 536:79 537:27 538:50 539:73 540:19 541:56 542:81 543:24 544:62 545:82 546:29 547:63 548:83 549:32 550:222 551:221 552:217 553:224 554:220 555:217 556:223 557:219 558:216 586:223 587:222 588:218 589:221 590:222 591:217 592:98 593:113 594:74 595:63 596:89 597:28 598:59 599:84 600:29 601:57 602:81 603:29 604:58 605:77 606:31 607:58 608:82 609:34 610:55 611:79 612:31 613:57 614:80 615:34 616:59 617:83 618:33 619:54 620:78 621:28 622:55 623:79 624:29 625:54 626:78 627:28 628:55 629:77 630:28 631:54 632:76 633:27 634:57 635:81 636:31 637:54 638:78 639:28 640:56 641:78 642:29 643:61 644:78 645:33 646:60 647:79 648:33 649:222 650:221 651:217 652:224 653:220 654:217 655:221 656:220 657:218 682:221 683:222 684:217 685:220 686:221 687:216 688:60 689:86 690:23 691:59 692:84 693:26 694:58 695:83 696:28 697:54 698:78 699:28 700:57 701:76 702:31 703:57 704:80 705:34 706:55 707:78 708:32 709:57 710:80 711:34 712:57 713:81 714:31 715:55 716:79 717:29 718:55 719:79 720:29 721:54 722:78 723:28 724:56 725:78 726:29 727:55 728:77 729:28 730:55 731:79 732:29 733:52 734:76 735:28 736:55 737:77 738:28 739:58 740:78 741:29 742:63 743:82 744:36 745:215 746:221 747:209 748:224 749:220 750:217 751:224 752:220 753:217 775:224 776:220 777:217 778:221 779:222 780:217 781:55 782:76 783:20 784:63 785:84 786:25 787:60 788:80 789:27 790:60 791:80 792:27 793:58 794:78 795:29 796:55 797:74 798:29 799:55 800:78 801:32 802:55 803:78 804:32 805:62 806:85 807:39 808:57 809:80 810:34 811:55 812:78 813:32 814:55 815:78 816:32 817:55 818:78 819:32 820:55 821:78 822:32 823:55 824:79 825:29 826:55 827:79 828:29 829:50 830:73 831:27 832:57 833:76 834:31 835:57 836:76 837:31 838:60 839:80 840:31 841:68 842:86 843:36 844:219 845:219 846:221 847:224 848:220 849:217 850:220 851:216 852:213 871:224 872:220 873:217 874:219 875:219 876:217 877:63 878:82 879:26 880:65 881:86 882:27 883:56 884:76 885:23 886:57 887:77 888:28 889:53 890:79 891:32 892:53 893:79 894:32 895:57 896:80 897:34 898:57 899:80 900:34 901:54 902:77 903:31 904:55 905:78 906:32 907:55 908:78 909:32 910:55 911:78 912:32 913:55 914:78 915:32 916:59 917:82 918:36 919:54 920:77 921:31 922:54 923:77 924:31 925:52 926:75 927:29 928:55 929:74 930:29 931:57 932:76 933:31 934:60 935:79 936:34 937:59 938:82 939:36 940:57 941:68 942:34 943:221 944:222 945:217 946:224 947:220 948:217 963:2 964:222 965:221 966:217 967:222 968:221 969:216 970:68 971:76 972:37 973:65 974:86 975:27 976:59 977:79 978:26 979:58 980:78 981:25 982:56 983:78 984:31 985:55 986:78 987:32 988:55 989:78 990:32 991:52 992:75 993:29 994:55 995:78 996:32 997:56 998:79 999:33 1000:55 1001:78 1002:32 1003:56 1004:79 1005:33 1006:55 1007:78 1008:32 1009:56 1010:79 1011:33 1012:61 1013:84 1014:38 1015:58 1016:81 1017:35 1018:53 1019:76 1020:30 1021:62 1022:85 1023:39 1024:59 1025:78 1026:33 1027:53 1028:75 1029:29 1030:57 1031:78 1032:35 1033:57 1034:78 1035:35 1036:60 1037:78 1038:36 1039:220 1040:221 1041:216 1042:224 1043:220 1044:217 1045:224 1046:220 1047:217 1057:221 1058:222 1059:217 1060:221 1061:222 1062:217 1063:220 1064:221 1065:215 1066:65 1067:86 1068:27 1069:63 1070:84 1071:25 1072:58 1073:78 1074:25 1075:58 1076:78 1077:27 1078:55 1079:77 1080:30 1081:55 1082:78 1083:32 1084:57 1085:80 1086:34 1087:55 1088:78 1089:32 1090:57 1091:80 1092:34 1093:57 1094:80 1095:34 1096:55 1097:78 1098:32 1099:57 1100:80 1101:34 1102:55 1103:78 1104:32 1105:53 1106:76 1107:30 1108:60 1109:83 1110:37 1111:56 1112:79 1113:33 1114:52 1115:75 1116:29 1117:57 1118:79 1119:33 1120:55 1121:74 1122:29 1123:50 1124:73 1125:27 1126:55 1127:78 1128:34 1129:57 1130:75 1131:33 1132:60 1133:78 1134:36 1135:66 1136:78 1137:42 1138:224 1139:220 1140:217 1141:224 1142:220 1143:217 1144:219 1145:218 1146:216 1153:221 1154:222 1155:217 1156:221 1157:221 1158:219 1159:70 1160:90 1161:41 1162:64 1163:85 1164:26 1165:58 1166:79 1167:23 1168:58 1169:78 1170:25 1171:61 1172:81 1173:32 1174:58 1175:77 1176:32 1177:55 1178:78 1179:32 1180:54 1181:77 1182:31 1183:57 1184:80 1185:34 1186:53 1187:76 1188:30 1189:57 1190:80 1191:34 1192:55 1193:78 1194:32 1195:55 1196:78 1197:32 1198:57 1199:80 1200:34 1201:61 1202:84 1203:38 1204:58 1205:81 1206:35 1207:56 1208:79 1209:33 1210:54 1211:77 1212:31 1213:55 1214:74 1215:29 1216:57 1217:75 1218:33 1219:55 1220:73 1221:31 1222:56 1223:74 1224:32 1225:56 1226:74 1227:32 1228:61 1229:79 1230:37 1231:68 1232:86 1233:48 1234:234 1235:236 1236:223 1237:224 1238:220 1239:217 1240:224 1241:220 1242:217 1249:221 1250:222 1251:217 1252:230 1253:236 1254:224 1255:71 1256:93 1257:29 1258:74 1259:95 1260:36 1261:60 1262:80 1263:27 1264:60 1265:80 1266:31 1267:55 1268:79 1269:29 1270:55 1271:78 1272:32 1273:55 1274:78 1275:32 1276:55 1277:78 1278:32 1279:57 1280:80 1281:34 1282:54 1283:77 1284:31 1285:59 1286:82 1287:36 1288:50 1289:73 1290:27 1291:57 1292:80 1293:34 1294:55 1295:78 1296:32 1297:54 1298:77 1299:31 1300:55 1301:78 1302:32 1303:57 1304:80 1305:34 1306:55 1307:78 1308:34 1309:55 1310:77 1311:31 1312:57 1313:75 1314:33 1315:61 1316:84 1317:40 1318:60 1319:83 1320:39 1321:51 1322:69 1323:31 1324:58 1325:76 1326:38 1327:48 1328:66 1329:28 1330:62 1331:80 1332:42 1333:224 1334:220 1335:221 1336:224 1337:220 1338:217 1339:225 1340:224 1341:222 1345:225 1346:226 1347:218 1348:75 1349:96 1350:31 1351:69 1352:91 1353:27 1354:63 1355:84 1356:27 1357:60 1358:80 1359:27 1360:60 1361:80 1362:31 1363:56 1364:80 1365:30 1366:55 1367:78 1368:32 1369:64 1370:87 1371:41 1372:54 1373:77 1374:31 1375:57 1376:80 1377:34 1378:65 1379:88 1380:42 1381:87 1382:110 1383:64 1384:56 1385:79 1386:33 1387:55 1388:78 1389:32 1390:53 1391:76 1392:30 1393:53 1394:76 1395:30 1396:54 1397:77 1398:31 1399:55 1400:78 1401:32 1402:54 1403:77 1404:33 1405:54 1406:77 1407:31 1408:57 1409:75 1410:33 1411:58 1412:79 1413:36 1414:57 1415:78 1416:35 1417:55 1418:73 1419:35 1420:58 1421:76 1422:38 1423:50 1424:68 1425:30 1426:57 1427:78 1428:39 1429:73 1430:82 1431:55 1432:225 1433:220 1434:217 1435:224 1436:220 1437:217 1441:71 1442:91 1443:30 1444:70 1445:91 1446:26 1447:67 1448:89 1449:25 1450:61 1451:82 1452:26 1453:60 1454:80 1455:27 1456:60 1457:80 1458:31 1459:54 1460:78 1461:28 1462:54 1463:77 1464:31 1465:55 1466:78 1467:32 1468:53 1469:76 1470:30 1471:53 1472:76 1473:30 1474:48 1475:71 1476:25 1477:52 1478:75 1479:29 1480:52 1481:75 1482:29 1483:53 1484:76 1485:30 1486:52 1487:75 1488:29 1489:52 1490:75 1491:29 1492:54 1493:77 1494:31 1495:54 1496:77 1497:31 1498:54 1499:77 1500:33 1501:55 1502:78 1503:32 1504:57 1505:75 1506:33 1507:54 1508:72 1509:30 1510:54 1511:72 1512:30 1513:57 1514:75 1515:37 1516:58 1517:76 1518:38 1519:52 1520:70 1521:32 1522:56 1523:77 1524:38 1525:64 1526:80 1527:41 1528:222 1529:218 1530:215 1531:224 1532:220 1533:217 1537:221 1538:227 1539:217 1540:77 1541:98 1542:31 1543:65 1544:87 1545:23 1546:59 1547:80 1548:24 1549:58 1550:78 1551:25 1552:58 1553:78 1554:29 1555:54 1556:78 1557:28 1558:48 1559:71 1560:25 1561:52 1562:75 1563:29 1564:52 1565:75 1566:29 1567:56 1568:79 1569:33 1570:55 1571:78 1572:32 1573:67 1574:90 1575:44 1576:77 1577:100 1578:54 1579:71 1580:94 1581:48 1582:61 1583:85 1584:33 1585:48 1586:71 1587:25 1588:44 1589:67 1590:21 1591:52 1592:75 1593:29 1594:52 1595:75 1596:29 1597:54 1598:77 1599:31 1600:56 1601:75 1602:30 1603:57 1604:76 1605:31 1606:51 1607:77 1608:32 1609:54 1610:76 1611:37 1612:65 1613:83 1614:45 1615:53 1616:71 1617:33 1618:58 1619:76 1620:38 1621:58 1622:74 1623:37 1624:138 1625:147 1626:130 1627:224 1628:220 1629:217 1630:224 1631:220 1632:219 1633:220 1634:219 1635:217 1636:186 1637:194 1638:157 1639:71 1640:93 1641:28 1642:61 1643:84 1644:28 1645:62 1646:82 1647:29 1648:59 1649:82 1650:30 1651:55 1652:79 1653:29 1654:54 1655:77 1656:31 1657:52 1658:75 1659:29 1660:54 1661:77 1662:31 1663:54 1664:77 1665:31 1666:63 1667:86 1668:40 1669:54 1670:77 1671:31 1672:48 1673:71 1674:25 1675:50 1676:73 1677:27 1678:51 1679:74 1680:28 1681:57 1682:80 1683:34 1684:60 1685:83 1686:37 1687:81 1688:105 1689:55 1690:68 1691:92 1692:40 1693:50 1694:73 1695:27 1696:70 1697:89 1698:44 1699:58 1700:76 1701:34 1702:52 1703:75 1704:31 1705:52 1706:75 1707:33 1708:51 1709:69 1710:31 1711:55 1712:73 1713:35 1714:58 1715:76 1716:38 1717:59 1718:77 1719:39 1720:59 1721:75 1722:39 1723:225 1724:220 1725:217 1726:224 1727:220 1728:217 1729:221 1730:222 1731:217 1732:217 1733:218 1734:213 1735:73 1736:95 1737:30 1738:63 1739:88 1740:31 1741:62 1742:82 1743:29 1744:59 1745:84 1746:29 1747:55 1748:79 1749:29 1750:54 1751:77 1752:31 1753:53 1754:76 1755:30 1756:54 1757:77 1758:31 1759:52 1760:75 1761:29 1762:55 1763:78 1764:32 1765:54 1766:77 1767:31 1768:52 1769:75 1770:29 1771:50 1772:73 1773:27 1774:52 1775:75 1776:29 1777:55 1778:78 1779:32 1780:54 1781:77 1782:31 1783:53 1784:76 1785:34 1786:54 1787:77 1788:33 1789:63 1790:87 1791:39 1792:72 1793:92 1794:41 1795:79 1796:99 1797:48 1798:52 1799:75 1800:31 1801:54 1802:77 1803:33 1804:58 1805:76 1806:38 1807:52 1808:70 1809:32 1810:54 1811:72 1812:34 1813:58 1814:76 1815:38 1816:59 1817:76 1818:34 1819:222 1820:221 1821:217 1822:224 1823:220 1824:217 1825:224 1826:220 1827:217 1828:219 1829:220 1830:215 1831:186 1832:197 1833:163 1834:65 1835:91 1836:30 1837:63 1838:83 1839:30 1840:59 1841:84 1842:29 1843:57 1844:82 1845:27 1846:55 1847:79 1848:29 1849:55 1850:78 1851:32 1852:55 1853:78 1854:32 1855:52 1856:75 1857:29 1858:52 1859:75 1860:29 1861:51 1862:74 1863:28 1864:52 1865:75 1866:29 1867:50 1868:73 1869:27 1870:55 1871:78 1872:32 1873:55 1874:78 1875:32 1876:54 1877:77 1878:31 1879:57 1880:80 1881:34 1882:55 1883:78 1884:32 1885:55 1886:78 1887:32 1888:58 1889:77 1890:32 1891:59 1892:78 1893:33 1894:58 1895:78 1896:29 1897:92 1898:113 1899:57 1900:54 1901:72 1902:30 1903:55 1904:73 1905:35 1906:57 1907:75 1908:37 1909:58 1910:76 1911:38 1912:55 1913:71 1914:34 1915:189 1916:192 1917:175 1918:224 1919:220 1920:217 1921:225 1922:221 1923:218 1924:224 1925:220 1926:217 1927:219 1928:219 1929:217 1930:62 1931:88 1932:25 1933:62 1934:88 1935:27 1936:60 1937:85 1938:30 1939:57 1940:82 1941:27 1942:55 1943:79 1944:29 1945:53 1946:77 1947:27 1948:54 1949:77 1950:31 1951:52 1952:75 1953:29 1954:52 1955:75 1956:29 1957:58 1958:81 1959:35 1960:52 1961:75 1962:29 1963:63 1964:86 1965:40 1966:58 1967:81 1968:35 1969:55 1970:78 1971:32 1972:54 1973:77 1974:31 1975:57 1976:80 1977:34 1978:55 1979:78 1980:32 1981:55 1982:78 1983:32 1984:56 1985:79 1986:33 1987:55 1988:78 1989:32 1990:54 1991:77 1992:33 1993:53 1994:76 1995:32 1996:59 1997:78 1998:33 1999:96 2000:116 2001:67 2002:53 2003:71 2004:31 2005:57 2006:75 2007:37 2008:59 2009:75 2010:39 2011:57 2012:68 2013:36 2014:224 2015:220 2016:217 2019:2 2020:225 2021:221 2022:218 2023:221 2024:222 2025:217 2026:210 2027:216 2028:188 2029:65 2030:91 2031:30 2032:63 2033:88 2034:30 2035:56 2036:81 2037:26 2038:54 2039:78 2040:28 2041:52 2042:76 2043:26 2044:53 2045:76 2046:30 2047:49 2048:72 2049:26 2050:51 2051:74 2052:28 2053:50 2054:73 2055:27 2056:51 2057:74 2058:28 2059:54 2060:77 2061:31 2062:54 2063:77 2064:31 2065:55 2066:78 2067:32 2068:68 2069:91 2070:45 2071:57 2072:80 2073:34 2074:57 2075:80 2076:34 2077:55 2078:78 2079:32 2080:60 2081:82 2082:36 2083:53 2084:76 2085:32 2086:53 2087:76 2088:32 2089:54 2090:77 2091:35 2092:57 2093:75 2094:37 2095:62 2096:80 2097:40 2098:60 2099:79 2100:34 2101:90 2102:108 2103:66 2104:53 2105:69 2106:33 2107:63 2108:74 2109:40 2110:224 2111:221 2112:216 2116:228 2117:224 2118:221 2119:222 2120:223 2121:218 2122:222 2123:222 2124:220 2125:64 2126:85 2127:28 2128:63 2129:89 2130:28 2131:57 2132:82 2133:27 2134:52 2135:76 2136:26 2137:54 2138:78 2139:28 2140:52 2141:75 2142:29 2143:50 2144:73 2145:27 2146:52 2147:75 2148:29 2149:50 2150:73 2151:27 2152:54 2153:77 2154:31 2155:54 2156:77 2157:31 2158:55 2159:78 2160:32 2161:55 2162:78 2163:32 2164:56 2165:79 2166:33 2167:57 2168:80 2169:34 2170:58 2171:81 2172:35 2173:55 2174:78 2175:32 2176:61 2177:80 2178:35 2179:55 2180:78 2181:34 2182:53 2183:76 2184:32 2185:54 2186:76 2187:37 2188:57 2189:75 2190:37 2191:58 2192:76 2193:38 2194:56 2195:74 2196:32 2197:58 2198:76 2199:36 2200:81 2201:97 2202:58 2203:55 2204:66 2205:32 2206:223 2207:220 2208:215 2215:222 2216:223 2217:218 2218:222 2219:223 2220:218 2221:220 2222:221 2223:213 2224:68 2225:89 2226:20 2227:60 2228:85 2229:27 2230:54 2231:79 2232:24 2233:54 2234:78 2235:28 2236:50 2237:74 2238:24 2239:53 2240:76 2241:30 2242:53 2243:76 2244:30 2245:51 2246:74 2247:28 2248:54 2249:77 2250:31 2251:51 2252:79 2253:31 2254:52 2255:80 2256:32 2257:55 2258:78 2259:32 2260:57 2261:80 2262:34 2263:57 2264:80 2265:34 2266:55 2267:78 2268:32 2269:55 2270:78 2271:32 2272:55 2273:78 2274:32 2275:54 2276:77 2277:33 2278:54 2279:77 2280:33 2281:49 2282:71 2283:32 2284:58 2285:76 2286:38 2287:58 2288:76 2289:38 2290:58 2291:76 2292:38 2293:54 2294:72 2295:34 2296:53 2297:69 2298:33 2299:58 2300:69 2301:37 2302:144 2303:147 2304:126 2314:222 2315:223 2316:218 2317:221 2318:222 2319:217 2320:185 2321:190 2322:160 2323:65 2324:91 2325:26 2326:55 2327:80 2328:25 2329:53 2330:78 2331:23 2332:47 2333:75 2334:24 2335:52 2336:75 2337:29 2338:53 2339:76 2340:30 2341:54 2342:77 2343:31 2344:58 2345:81 2346:35 2347:51 2348:79 2349:31 2350:52 2351:80 2352:32 2353:53 2354:76 2355:30 2356:58 2357:81 2358:35 2359:55 2360:78 2361:32 2362:55 2363:78 2364:32 2365:55 2366:78 2367:32 2368:53 2369:76 2370:30 2371:54 2372:77 2373:33 2374:54 2375:77 2376:33 2377:57 2378:75 2379:37 2380:59 2381:77 2382:39 2383:58 2384:76 2385:38 2386:58 2387:76 2388:38 2389:58 2390:76 2391:38 2392:58 2393:74 2394:38 2395:68 2396:71 2397:50 2398:227 2399:224 2400:215 2410:222 2411:223 2412:218 2413:222 2414:223 2415:218 2416:221 2417:221 2418:219 2419:67 2420:94 2421:27 2422:61 2423:86 2424:29 2425:54 2426:79 2427:24 2428:49 2429:77 2430:26 2431:50 2432:76 2433:28 2434:52 2435:75 2436:29 2437:54 2438:77 2439:31 2440:54 2441:77 2442:31 2443:51 2444:79 2445:31 2446:51 2447:79 2448:31 2449:58 2450:81 2451:35 2452:57 2453:80 2454:34 2455:55 2456:78 2457:32 2458:57 2459:80 2460:34 2461:55 2462:78 2463:32 2464:54 2465:77 2466:31 2467:54 2468:77 2469:31 2470:52 2471:75 2472:31 2473:58 2474:76 2475:38 2476:57 2477:75 2478:37 2479:58 2480:76 2481:38 2482:56 2483:77 2484:38 2485:58 2486:76 2487:38 2488:50 2489:65 2490:34 2491:227 2492:226 2493:222 2494:225 2495:221 2496:218 2509:222 2510:223 2511:218 2512:222 2513:223 2514:218 2515:197 2516:210 2517:182 2518:65 2519:90 2520:33 2521:56 2522:81 2523:26 2524:51 2525:79 2526:28 2527:47 2528:75 2529:24 2530:55 2531:79 2532:29 2533:57 2534:81 2535:31 2536:55 2537:78 2538:32 2539:51 2540:79 2541:31 2542:47 2543:75 2544:27 2545:57 2546:80 2547:34 2548:57 2549:80 2550:34 2551:57 2552:80 2553:34 2554:57 2555:80 2556:34 2557:54 2558:77 2559:31 2560:54 2561:77 2562:31 2563:55 2564:78 2565:32 2566:53 2567:76 2568:32 2569:57 2570:79 2571:40 2572:60 2573:78 2574:40 2575:59 2576:77 2577:37 2578:61 2579:78 2580:36 2581:132 2582:142 2583:115 2584:222 2585:223 2586:217 2587:224 2588:220 2589:217 2590:224 2591:220 2592:217 2605:222 2606:223 2607:218 2608:222 2609:223 2610:218 2611:221 2612:221 2613:221 2614:64 2615:91 2616:22 2617:57 2618:89 2619:26 2620:54 2621:83 2622:25 2623:51 2624:79 2625:28 2626:55 2627:79 2628:29 2629:56 2630:80 2631:30 2632:51 2633:80 2634:32 2635:52 2636:80 2637:32 2638:52 2639:80 2640:32 2641:59 2642:82 2643:36 2644:58 2645:81 2646:35 2647:57 2648:80 2649:34 2650:57 2651:80 2652:34 2653:54 2654:77 2655:31 2656:57 2657:80 2658:34 2659:55 2660:78 2661:32 2662:55 2663:78 2664:34 2665:60 2666:78 2667:40 2668:61 2669:77 2670:40 2671:94 2672:108 2673:75 2674:219 2675:220 2676:215 2677:222 2678:221 2679:217 2680:224 2681:220 2682:219 2683:224 2684:220 2685:217 2686:224 2687:220 2688:217 2704:222 2705:223 2706:218 2707:222 2708:223 2709:217 2710:220 2711:228 2712:213 2713:60 2714:89 2715:22 2716:58 2717:85 2718:32 2719:57 2720:84 2721:33 2722:55 2723:79 2724:29 2725:59 2726:83 2727:33 2728:57 2729:83 2730:35 2731:55 2732:81 2733:34 2734:55 2735:81 2736:34 2737:59 2738:82 2739:36 2740:59 2741:82 2742:36 2743:59 2744:82 2745:36 2746:59 2747:82 2748:36 2749:57 2750:80 2751:34 2752:59 2753:82 2754:36 2755:55 2756:74 2757:28 2758:59 2759:76 2760:34 2761:97 2762:112 2763:83 2764:230 2765:233 2766:226 2767:223 2768:222 2769:218 2770:225 2771:221 2772:218 2773:225 2774:221 2775:218 2776:225 2777:221 2778:218 2779:224 2780:220 2781:217 2782:222 2783:221 2784:219 2800:225 2801:225 2802:223 2803:222 2804:223 2805:218 2806:222 2807:223 2808:218 2809:225 2810:226 2811:221 2812:64 2813:89 2814:31 2815:55 2816:79 2817:29 2818:57 2819:81 2820:31 2821:59 2822:83 2823:33 2824:59 2825:83 2826:33 2827:59 2828:82 2829:36 2830:58 2831:81 2832:35 2833:59 2834:82 2835:36 2836:59 2837:82 2838:36 2839:59 2840:82 2841:36 2842:59 2843:82 2844:38 2845:60 2846:84 2847:36 2848:64 2849:80 2850:41 2851:213 2852:216 2853:209 2854:224 2855:225 2856:220 2857:225 2858:226 2859:221 2860:222 2861:223 2862:218 2863:225 2864:221 2865:218 2866:225 2867:221 2868:218 2869:225 2870:221 2871:218 2872:225 2873:221 2874:218 2875:1 2899:223 2900:224 2901:219 2902:224 2903:225 2904:220 2905:224 2906:225 2907:220 2908:224 2909:225 2910:219 2911:209 2912:223 2913:197 2914:62 2915:89 2916:36 2917:66 2918:90 2919:42 2920:64 2921:88 2922:36 2923:60 2924:84 2925:32 2926:62 2927:86 2928:38 2929:58 2930:84 2931:37 2932:59 2933:82 2934:36 2935:60 2936:83 2937:37 2938:64 2939:84 2940:35 2941:161 2942:165 2943:138 2944:221 2945:226 2946:220 2947:223 2948:224 2949:219 2950:222 2951:223 2952:218 2953:222 2954:223 2955:218 2956:222 2957:223 2958:218 2959:222 2960:223 2961:218 2962:222 2963:218 2964:215 2965:223 2966:222 2967:218 2995:1 2996:1 2998:224 2999:225 3000:220 3001:224 3002:225 3003:220 3004:224 3005:225 3006:220 3007:223 3008:224 3009:219 3010:228 3011:229 3012:221 3013:228 3014:237 3015:220 3016:80 3017:98 3018:60 3019:69 3020:91 3021:42 3022:61 3023:80 3024:35 3025:49 3026:63 3027:27 3028:121 3029:131 3030:107 3031:235 3032:239 3033:225 3034:228 3035:229 3036:224 3037:224 3038:225 3039:220 3040:225 3041:226 3042:221 3043:224 3044:225 3045:220 3046:224 3047:225 3048:220 3049:224 3050:225 3051:220 3052:222 3053:223 3054:218 3055:222 3056:222 3057:220 
0.01 16:225 17:225 18:223 19:224 20:225 21:220 22:224 23:225 24:220 25:224 26:225 27:220 28:223 29:225 30:220 31:225 32:224 33:219 34:225 35:226 36:221 37:223 38:226 39:217 40:203 41:210 42:192 43:69 44:86 45:44 46:75 47:95 48:42 49:82 50:100 51:48 52:68 53:85 54:40 55:153 56:162 57:131 58:234 59:240 60:228 61:226 62:226 63:224 64:222 65:222 66:220 67:222 68:222 69:220 70:222 71:223 72:218 73:222 74:223 75:218 76:219 77:220 78:215 79:1 80:1 81:1 112:222 113:223 114:218 115:224 116:225 117:220 118:222 119:223 120:218 121:222 122:223 123:218 124:221 125:225 126:224 127:229 128:230 129:222 130:219 131:227 132:204 133:85 134:97 135:57 136:76 137:96 138:35 139:72 140:97 141:42 142:70 143:95 144:40 145:80 146:100 147:47 148:76 149:99 150:45 151:83 152:104 153:47 154:80 155:97 156:52 157:176 158:185 159:164 160:223 161:223 162:223 163:222 164:222 165:222 166:222 167:223 168:218 169:222 170:223 171:218 172:222 173:223 174:218 175:221 176:222 177:217 178:1 179:1 180:1 205:224 206:224 207:222 208:222 209:223 210:218 211:224 212:225 213:220 214:224 215:225 216:220 217:226 218:226 219:224 220:228 221:236 222:225 223:88 224:102 225:53 226:86 227:107 228:42 229:76 230:98 231:36 232:70 233:95 234:37 235:68 236:93 237:36 238:66 239:93 240:38 241:67 242:88 243:32 244:74 245:92 246:40 247:77 248:99 249:35 250:70 251:99 252:33 253:71 254:94 255:42 256:200 257:210 258:186 259:222 260:223 261:217 262:222 263:223 264:218 265:222 266:223 267:218 268:222 269:223 270:218 271:220 272:221 273:216 274:224 275:224 276:222 298:2 299:2 300:2 301:222 302:223 303:218 304:222 305:223 306:218 307:224 308:225 309:220 310:225 311:223 312:224 313:236 314:240 315:223 316:65 317:83 318:35 319:84 320:107 321:35 322:77 323:99 324:35 325:70 326:95 327:40 328:68 329:93 330:36 331:67 332:92 333:35 334:67 335:92 336:35 337:67 338:92 339:37 340:67 341:92 342:37 343:68 344:93 345:38 346:70 347:95 348:38 349:69 350:97 351:39 352:77 353:98 354:42 355:204 356:211 357:195 358:221 359:221 360:221 361:222 362:222 363:220 364:222 365:223 366:218 367:222 368:223 369:218 370:222 371:223 372:218 373:222 374:223 375:218 391:3 392:3 393:3 394:225 395:226 396:221 397:224 398:225 399:220 400:224 401:225 402:220 403:224 404:225 405:220 406:239 407:245 408:235 409:99 410:118 411:54 412:80 413:105 414:40 415:78 416:100 417:38 418:71 419:92 420:33 421:65 422:90 423:33 424:65 425:90 426:33 427:65 428:90 429:33 430:67 431:92 432:35 433:66 434:91 435:36 436:65 437:90 438:35 439:67 440:92 441:37 442:68 443:93 444:36 445:66 446:94 447:36 448:71 449:91 450:38 451:77 452:93 453:48 454:222 455:229 456:211 457:223 458:224 459:219 460:222 461:223 462:218 463:222 464:223 465:218 466:222 467:223 468:218 469:222 470:223 471:218 472:1 473:1 487:225 488:225 489:223 490:224 491:225 492:220 493:224 494:225 495:220 496:224 497:225 498:220 499:223 500:223 501:221 502:72 503:89 504:45 505:83 506:104 507:39 508:73 509:99 510:36 511:74 512:95 513:36 514:70 515:93 516:37 517:65 518:90 519:33 520:65 521:90 522:33 523:65 524:90 525:33 526:67 527:92 528:35 529:65 530:90 531:35 532:65 533:90 534:35 535:64 536:89 537:34 538:68 539:93 540:36 541:68 542:93 543:36 544:69 545:92 546:36 547:78 548:99 549:43 550:69 551:86 552:41 553:218 554:221 555:214 556:222 557:223 558:218 559:222 560:223 561:217 562:222 563:223 564:218 565:222 566:223 567:218 568:220 569:221 570:216 583:222 584:223 585:218 586:224 587:225 588:220 589:224 590:225 591:220 592:224 593:225 594:220 595:192 596:203 597:187 598:83 599:104 600:45 601:75 602:97 603:35 604:73 605:94 606:38 607:68 608:93 609:36 610:64 611:89 612:34 613:62 614:87 615:32 616:63 617:88 618:33 619:63 620:88 621:33 622:65 623:90 624:35 625:65 626:90 627:35 628:64 629:89 630:34 631:62 632:87 633:32 634:67 635:92 636:37 637:65 638:90 639:35 640:70 641:90 642:37 643:73 644:93 645:42 646:74 647:97 648:41 649:69 650:84 651:41 652:220 653:226 654:222 655:222 656:222 657:222 658:222 659:223 660:218 661:222 662:223 663:218 664:222 665:223 666:218 667:222 668:222 669:220 676:222 677:223 678:218 679:224 680:225 681:220 682:222 683:223 684:218 685:222 686:223 687:218 688:225 689:226 690:221 691:58 692:79 693:23 694:81 695:102 696:43 697:74 698:94 699:35 700:71 701:92 702:35 703:64 704:89 705:31 706:64 707:87 708:33 709:63 710:88 711:33 712:62 713:87 714:32 715:67 716:92 717:37 718:62 719:87 720:32 721:65 722:90 723:35 724:65 725:90 726:35 727:65 728:90 729:35 730:65 731:90 732:35 733:67 734:92 735:37 736:68 737:88 738:35 739:71 740:91 741:38 742:75 743:96 744:40 745:76 746:98 747:34 748:88 749:103 750:72 751:219 752:219 753:217 754:222 755:223 756:218 757:222 758:223 759:218 760:222 761:223 762:218 763:222 764:223 765:218 772:222 773:223 774:218 775:222 776:223 777:218 778:222 779:223 780:218 781:224 782:223 783:221 784:195 785:204 786:183 787:68 788:92 789:34 790:75 791:96 792:40 793:73 794:94 795:38 796:68 797:93 798:38 799:63 800:88 801:33 802:62 803:87 804:32 805:63 806:88 807:33 808:62 809:87 810:32 811:61 812:86 813:31 814:58 815:83 816:28 817:63 818:88 819:33 820:63 821:88 822:33 823:59 824:84 825:29 826:63 827:88 828:33 829:65 830:90 831:35 832:66 833:86 834:33 835:70 836:90 837:37 838:75 839:95 840:42 841:74 842:95 843:39 844:72 845:96 846:34 847:190 848:200 849:173 850:222 851:221 852:216 853:222 854:223 855:218 856:222 857:223 858:218 859:222 860:223 861:218 865:223 866:224 867:219 868:224 869:225 870:220 871:222 872:223 873:218 874:222 875:223 876:218 877:246 878:253 879:235 880:56 881:74 882:22 883:69 884:90 885:34 886:73 887:94 888:38 889:73 890:94 891:38 892:62 893:87 894:32 895:62 896:87 897:32 898:62 899:87 900:32 901:62 902:87 903:32 904:62 905:87 906:32 907:62 908:87 909:32 910:63 911:88 912:33 913:63 914:88 915:33 916:62 917:87 918:32 919:63 920:88 921:33 922:61 923:86 924:31 925:65 926:90 927:35 928:65 929:85 930:32 931:69 932:89 933:36 934:65 935:85 936:32 937:82 938:103 939:47 940:75 941:96 942:37 943:69 944:86 945:32 946:207 947:210 948:199 949:222 950:223 951:218 952:222 953:223 954:218 955:222 956:223 957:218 958:221 959:222 960:217 961:222 962:223 963:218 964:224 965:225 966:220 967:222 968:223 969:218 970:227 971:227 972:225 973:71 974:87 975:42 976:65 977:89 978:31 979:70 980:91 981:35 982:72 983:93 984:37 985:74 986:95 987:39 988:63 989:86 990:32 991:62 992:87 993:32 994:62 995:87 996:32 997:63 998:88 999:33 1000:62 1001:87 1002:32 1003:63 1004:86 1005:32 1006:62 1007:87 1008:32 1009:63 1010:88 1011:33 1012:62 1013:87 1014:32 1015:63 1016:88 1017:33 1018:84 1019:108 1020:56 1021:65 1022:90 1023:35 1024:65 1025:85 1026:32 1027:70 1028:90 1029:37 1030:65 1031:85 1032:32 1033:76 1034:97 1035:41 1036:76 1037:97 1038:38 1039:72 1040:95 1041:39 1042:108 1043:122 1044:89 1045:217 1046:218 1047:213 1048:222 1049:223 1050:218 1051:222 1052:223 1053:218 1054:222 1055:223 1056:218 1057:222 1058:223 1059:218 1060:222 1061:223 1062:218 1063:223 1064:224 1065:219 1066:224 1067:231 1068:215 1069:76 1070:96 1071:35 1072:68 1073:88 1074:35 1075:68 1076:88 1077:35 1078:70 1079:90 1080:37 1081:68 1082:88 1083:35 1084:65 1085:85 1086:32 1087:62 1088:87 1089:32 1090:62 1091:87 1092:32 1093:63 1094:83 1095:30 1096:65 1097:85 1098:32 1099:65 1100:85 1101:32 1102:63 1103:88 1104:33 1105:62 1106:86 1107:36 1108:63 1109:87 1110:37 1111:63 1112:87 1113:37 1114:60 1115:84 1116:34 1117:63 1118:88 1119:33 1120:66 1121:86 1122:33 1123:58 1124:78 1125:25 1126:69 1127:90 1128:34 1129:73 1130:94 1131:38 1132:72 1133:93 1134:37 1135:75 1136:95 1137:42 1138:80 1139:98 1140:46 1141:215 1142:216 1143:208 1144:222 1145:223 1146:218 1147:222 1148:223 1149:218 1150:222 1151:223 1152:218 1153:222 1154:223 1155:218 1156:222 1157:223 1158:218 1159:227 1160:228 1161:223 1162:63 1163:83 1164:32 1165:67 1166:93 1167:30 1168:68 1169:88 1170:35 1171:66 1172:86 1173:33 1174:67 1175:87 1176:34 1177:65 1178:85 1179:32 1180:65 1181:85 1182:32 1183:62 1184:87 1185:32 1186:63 1187:88 1188:33 1189:65 1190:85 1191:32 1192:65 1193:85 1194:32 1195:63 1196:83 1197:30 1198:57 1199:82 1200:27 1201:62 1202:86 1203:36 1204:62 1205:86 1206:36 1207:62 1208:86 1209:36 1210:63 1211:87 1212:37 1213:62 1214:87 1215:32 1216:66 1217:86 1218:33 1219:63 1220:83 1221:30 1222:66 1223:87 1224:31 1225:79 1226:100 1227:44 1228:71 1229:92 1230:35 1231:69 1232:92 1233:38 1234:77 1235:95 1236:47 1237:88 1238:98 1239:74 1240:220 1241:221 1242:216 1243:222 1244:223 1245:218 1246:222 1247:223 1248:218 1249:225 1250:226 1251:221 1252:227 1253:225 1254:226 1255:233 1256:238 1257:218 1258:66 1259:91 1260:33 1261:66 1262:90 1263:32 1264:71 1265:92 1266:36 1267:66 1268:86 1269:33 1270:65 1271:85 1272:32 1273:63 1274:86 1275:32 1276:60 1277:85 1278:30 1279:60 1280:85 1281:30 1282:60 1283:85 1284:30 1285:60 1286:85 1287:30 1288:63 1289:83 1290:32 1291:63 1292:83 1293:32 1294:55 1295:79 1296:27 1297:59 1298:83 1299:33 1300:60 1301:84 1302:36 1303:59 1304:83 1305:35 1306:62 1307:86 1308:38 1309:62 1310:85 1311:39 1312:64 1313:86 1314:37 1315:62 1316:85 1317:31 1318:66 1319:91 1320:36 1321:86 1322:106 1323:53 1324:71 1325:91 1326:38 1327:70 1328:90 1329:37 1330:76 1331:96 1332:47 1333:74 1334:93 1335:47 1336:213 1337:218 1338:214 1339:222 1340:223 1341:218 1342:222 1343:223 1344:218 1345:223 1346:224 1347:219 1348:229 1349:232 1350:225 1351:64 1352:79 1353:40 1354:66 1355:91 1356:36 1357:68 1358:89 1359:33 1360:70 1361:91 1362:35 1363:66 1364:86 1365:33 1366:65 1367:85 1368:32 1369:62 1370:87 1371:32 1372:60 1373:85 1374:30 1375:60 1376:85 1377:30 1378:60 1379:85 1380:30 1381:56 1382:81 1383:26 1384:64 1385:84 1386:35 1387:63 1388:83 1389:34 1390:56 1391:80 1392:30 1393:61 1394:85 1395:35 1396:59 1397:82 1398:36 1399:59 1400:82 1401:36 1402:62 1403:85 1404:39 1405:69 1406:92 1407:46 1408:62 1409:86 1410:36 1411:61 1412:86 1413:31 1414:66 1415:91 1416:36 1417:75 1418:95 1419:42 1420:76 1421:96 1422:43 1423:70 1424:90 1425:37 1426:75 1427:95 1428:46 1429:68 1430:87 1431:42 1432:219 1433:227 1434:216 1435:222 1436:223 1437:218 1438:222 1439:223 1440:218 1441:238 1442:239 1443:233 1444:60 1445:76 1446:39 1447:60 1448:80 1449:27 1450:66 1451:89 1452:33 1453:71 1454:92 1455:36 1456:67 1457:88 1458:32 1459:68 1460:88 1461:35 1462:61 1463:84 1464:30 1465:60 1466:85 1467:30 1468:54 1469:79 1470:24 1471:59 1472:84 1473:29 1474:59 1475:84 1476:29 1477:61 1478:86 1479:31 1480:66 1481:86 1482:35 1483:59 1484:81 1485:32 1486:57 1487:81 1488:31 1489:70 1490:92 1491:43 1492:53 1493:76 1494:30 1495:59 1496:82 1497:36 1498:63 1499:87 1500:39 1501:100 1502:123 1503:77 1504:67 1505:91 1506:41 1507:63 1508:88 1509:33 1510:62 1511:85 1512:31 1513:68 1514:88 1515:35 1516:70 1517:91 1518:35 1519:70 1520:90 1521:37 1522:75 1523:95 1524:46 1525:71 1526:91 1527:42 1528:56 1529:65 1530:36 1531:222 1532:222 1533:220 1534:222 1535:223 1536:218 1537:62 1538:66 1539:41 1540:65 1541:90 1542:35 1543:64 1544:84 1545:31 1546:68 1547:88 1548:35 1549:66 1550:86 1551:33 1552:70 1553:90 1554:37 1555:67 1556:87 1557:34 1558:65 1559:90 1560:35 1561:63 1562:88 1563:33 1564:58 1565:83 1566:28 1567:61 1568:86 1569:31 1570:64 1571:89 1572:34 1573:70 1574:95 1575:40 1576:71 1577:96 1578:41 1579:67 1580:91 1581:41 1582:74 1583:98 1584:48 1585:78 1586:98 1587:49 1588:68 1589:92 1590:42 1591:72 1592:96 1593:46 1594:80 1595:104 1596:54 1597:99 1598:118 1599:73 1600:107 1601:127 1602:78 1603:66 1604:86 1605:33 1606:65 1607:86 1608:30 1609:64 1610:85 1611:29 1612:71 1613:92 1614:36 1615:73 1616:93 1617:40 1618:71 1619:91 1620:42 1621:75 1622:93 1623:45 1624:69 1625:82 1626:39 1627:223 1628:223 1629:223 1630:223 1631:224 1632:219 1633:234 1634:235 1635:219 1636:121 1637:137 1638:98 1639:61 1640:81 1641:28 1642:62 1643:82 1644:29 1645:61 1646:81 1647:28 1648:63 1649:83 1650:30 1651:64 1652:84 1653:31 1654:61 1655:84 1656:30 1657:55 1658:80 1659:25 1660:55 1661:80 1662:25 1663:58 1664:83 1665:28 1666:57 1667:82 1668:27 1669:59 1670:84 1671:29 1672:55 1673:80 1674:25 1675:59 1676:81 1677:32 1678:68 1679:92 1680:42 1681:53 1682:73 1683:24 1684:59 1685:83 1686:33 1687:59 1688:83 1689:33 1690:65 1691:89 1692:39 1693:100 1694:119 1695:74 1696:75 1697:95 1698:46 1699:73 1700:93 1701:40 1702:77 1703:98 1704:42 1705:83 1706:104 1707:48 1708:88 1709:109 1710:53 1711:91 1712:111 1713:58 1714:80 1715:100 1716:51 1717:80 1718:98 1719:50 1720:82 1721:94 1722:56 1723:162 1724:165 1725:146 1726:224 1727:225 1728:220 1729:223 1730:224 1731:218 1732:228 1733:229 1734:223 1735:60 1736:81 1737:25 1738:65 1739:85 1740:32 1741:61 1742:81 1743:28 1744:63 1745:83 1746:30 1747:60 1748:85 1749:30 1750:60 1751:85 1752:30 1753:60 1754:85 1755:30 1756:60 1757:84 1758:32 1759:58 1760:82 1761:30 1762:59 1763:83 1764:31 1765:56 1766:80 1767:28 1768:60 1769:84 1770:32 1771:58 1772:82 1773:32 1774:68 1775:92 1776:42 1777:63 1778:87 1779:37 1780:62 1781:86 1782:36 1783:56 1784:80 1785:30 1786:63 1787:87 1788:37 1789:93 1790:116 1791:70 1792:69 1793:89 1794:36 1795:66 1796:89 1797:35 1798:60 1799:85 1800:30 1801:65 1802:85 1803:32 1804:80 1805:100 1806:47 1807:76 1808:96 1809:43 1810:81 1811:101 1812:48 1813:81 1814:99 1815:49 1816:87 1817:100 1818:56 1819:67 1820:72 1821:42 1822:202 1823:203 1824:195 1825:222 1826:223 1827:218 1828:221 1829:221 1830:219 1831:172 1832:185 1833:155 1834:66 1835:86 1836:33 1837:66 1838:86 1839:33 1840:63 1841:83 1842:30 1843:60 1844:85 1845:30 1846:61 1847:86 1848:31 1849:60 1850:85 1851:30 1852:60 1853:84 1854:34 1855:58 1856:82 1857:32 1858:60 1859:84 1860:34 1861:61 1862:85 1863:35 1864:59 1865:83 1866:33 1867:59 1868:83 1869:33 1870:61 1871:85 1872:35 1873:62 1874:86 1875:36 1876:62 1877:86 1878:36 1879:66 1880:90 1881:40 1882:63 1883:87 1884:37 1885:56 1886:80 1887:30 1888:72 1889:92 1890:39 1891:66 1892:91 1893:36 1894:61 1895:86 1896:31 1897:65 1898:85 1899:32 1900:73 1901:93 1902:40 1903:71 1904:91 1905:38 1906:73 1907:93 1908:40 1909:68 1910:85 1911:41 1912:97 1913:107 1914:80 1915:217 1916:220 1917:203 1918:178 1919:179 1920:174 1921:222 1922:223 1923:218 1924:222 1925:223 1926:218 1927:223 1928:228 1929:222 1930:69 1931:89 1932:38 1933:66 1934:86 1935:33 1936:63 1937:86 1938:32 1939:62 1940:87 1941:32 1942:62 1943:87 1944:32 1945:60 1946:85 1947:30 1948:60 1949:84 1950:34 1951:60 1952:84 1953:34 1954:60 1955:84 1956:34 1957:60 1958:84 1959:32 1960:60 1961:84 1962:34 1963:60 1964:84 1965:34 1966:59 1967:83 1968:33 1969:63 1970:85 1971:36 1972:62 1973:86 1974:36 1975:65 1976:89 1977:39 1978:64 1979:88 1980:38 1981:68 1982:91 1983:37 1984:69 1985:89 1986:36 1987:65 1988:90 1989:35 1990:63 1991:86 1992:32 1993:74 1994:94 1995:41 1996:73 1997:93 1998:40 1999:71 2000:91 2001:38 2002:68 2003:91 2004:37 2005:93 2006:107 2007:74 2008:218 2009:223 2010:216 2011:222 2012:222 2013:220 2014:223 2015:223 2016:223 2017:222 2018:223 2019:218 2020:222 2021:223 2022:218 2023:222 2024:223 2025:217 2026:118 2027:133 2028:92 2029:68 2030:89 2031:30 2032:62 2033:87 2034:32 2035:62 2036:87 2037:32 2038:62 2039:87 2040:32 2041:60 2042:85 2043:30 2044:60 2045:85 2046:30 2047:61 2048:86 2049:31 2050:60 2051:85 2052:30 2053:62 2054:87 2055:32 2056:60 2057:84 2058:34 2059:62 2060:82 2061:33 2062:63 2063:83 2064:34 2065:63 2066:83 2067:34 2068:59 2069:83 2070:33 2071:62 2072:86 2073:36 2074:63 2075:87 2076:37 2077:68 2078:88 2079:35 2080:87 2081:107 2082:54 2083:66 2084:86 2085:33 2086:69 2087:89 2088:36 2089:73 2090:93 2091:40 2092:75 2093:95 2094:42 2095:72 2096:91 2097:45 2098:45 2099:67 2100:21 2101:213 2102:214 2103:206 2104:222 2105:223 2106:218 2107:222 2108:223 2109:218 2110:222 2111:223 2112:218 2113:222 2114:223 2115:218 2116:223 2117:224 2118:219 2119:221 2120:221 2121:219 2122:228 2123:234 2124:222 2125:69 2126:90 2127:33 2128:65 2129:90 2130:35 2131:63 2132:88 2133:33 2134:62 2135:87 2136:32 2137:62 2138:87 2139:32 2140:62 2141:87 2142:32 2143:62 2144:87 2145:32 2146:62 2147:87 2148:32 2149:62 2150:87 2151:32 2152:62 2153:86 2154:36 2155:66 2156:86 2157:37 2158:65 2159:85 2160:36 2161:64 2162:84 2163:35 2164:59 2165:83 2166:33 2167:63 2168:87 2169:37 2170:64 2171:88 2172:38 2173:68 2174:88 2175:35 2176:71 2177:91 2178:38 2179:66 2180:86 2181:33 2182:71 2183:91 2184:38 2185:76 2186:96 2187:43 2188:73 2189:93 2190:40 2191:69 2192:89 2193:40 2194:209 2195:220 2196:203 2197:220 2198:220 2199:220 2200:222 2201:223 2202:218 2203:222 2204:223 2205:218 2206:222 2207:223 2208:218 2209:224 2210:225 2211:220 2212:224 2213:225 2214:220 2215:224 2216:225 2217:220 2218:221 2219:221 2220:219 2221:119 2222:135 2223:99 2224:68 2225:91 2226:37 2227:63 2228:88 2229:33 2230:63 2231:88 2232:33 2233:62 2234:87 2235:32 2236:62 2237:87 2238:32 2239:61 2240:86 2241:31 2242:61 2243:86 2244:31 2245:63 2246:88 2247:33 2248:62 2249:86 2250:34 2251:63 2252:86 2253:34 2254:62 2255:86 2256:34 2257:65 2258:85 2259:34 2260:63 2261:86 2262:34 2263:64 2264:87 2265:35 2266:66 2267:89 2268:35 2269:67 2270:87 2271:34 2272:69 2273:90 2274:34 2275:68 2276:89 2277:33 2278:71 2279:92 2280:36 2281:76 2282:96 2283:43 2284:74 2285:97 2286:43 2287:148 2288:164 2289:127 2290:212 2291:214 2292:209 2293:222 2294:223 2295:218 2296:222 2297:223 2298:218 2299:222 2300:223 2301:218 2302:222 2303:223 2304:218 2305:224 2306:225 2307:220 2308:224 2309:225 2310:220 2311:224 2312:225 2313:220 2314:222 2315:223 2316:217 2317:223 2318:229 2319:215 2320:72 2321:88 2322:39 2323:63 2324:88 2325:33 2326:63 2327:88 2328:33 2329:62 2330:87 2331:32 2332:62 2333:87 2334:32 2335:63 2336:88 2337:33 2338:65 2339:90 2340:35 2341:63 2342:88 2343:33 2344:62 2345:87 2346:32 2347:62 2348:87 2349:32 2350:62 2351:87 2352:32 2353:65 2354:85 2355:32 2356:65 2357:85 2358:32 2359:66 2360:86 2361:33 2362:70 2363:90 2364:37 2365:73 2366:93 2367:40 2368:68 2369:89 2370:33 2371:72 2372:93 2373:37 2374:71 2375:92 2376:36 2377:73 2378:93 2379:40 2380:72 2381:90 2382:50 2383:212 2384:218 2385:206 2386:222 2387:223 2388:218 2389:222 2390:223 2391:218 2392:222 2393:223 2394:218 2395:222 2396:223 2397:218 2398:222 2399:223 2400:218 2401:223 2402:223 2403:221 2404:224 2405:225 2406:220 2407:224 2408:225 2409:220 2410:224 2411:225 2412:220 2413:222 2414:223 2415:218 2416:229 2417:237 2418:216 2419:63 2420:88 2421:33 2422:63 2423:90 2424:35 2425:65 2426:90 2427:35 2428:63 2429:88 2430:33 2431:65 2432:90 2433:35 2434:63 2435:88 2436:33 2437:65 2438:90 2439:35 2440:63 2441:88 2442:33 2443:63 2444:88 2445:33 2446:63 2447:88 2448:33 2449:66 2450:86 2451:33 2452:66 2453:86 2454:33 2455:66 2456:86 2457:33 2458:69 2459:87 2460:35 2461:66 2462:89 2463:35 2464:68 2465:91 2466:35 2467:69 2468:92 2469:36 2470:71 2471:94 2472:38 2473:64 2474:87 2475:31 2476:211 2477:219 2478:208 2479:215 2480:216 2481:210 2482:222 2483:223 2484:218 2485:222 2486:223 2487:218 2488:222 2489:223 2490:218 2491:222 2492:223 2493:218 2494:223 2495:224 2496:219 2500:224 2501:225 2502:220 2503:224 2504:225 2505:220 2506:224 2507:225 2508:220 2509:224 2510:225 2511:220 2512:226 2513:226 2514:224 2515:121 2516:133 2517:95 2518:65 2519:93 2520:35 2521:63 2522:88 2523:33 2524:63 2525:88 2526:33 2527:67 2528:92 2529:35 2530:68 2531:93 2532:35 2533:66 2534:91 2535:34 2536:63 2537:88 2538:33 2539:65 2540:90 2541:35 2542:63 2543:88 2544:33 2545:63 2546:88 2547:33 2548:66 2549:86 2550:33 2551:66 2552:86 2553:33 2554:68 2555:88 2556:35 2557:66 2558:91 2559:34 2560:68 2561:92 2562:30 2563:59 2564:79 2565:26 2566:83 2567:100 2568:56 2569:205 2570:217 2571:197 2572:214 2573:215 2574:210 2575:222 2576:223 2577:218 2578:222 2579:223 2580:218 2581:222 2582:223 2583:218 2584:222 2585:223 2586:218 2587:221 2588:222 2589:217 2590:223 2591:223 2592:221 2596:224 2597:225 2598:220 2599:224 2600:225 2601:220 2602:224 2603:225 2604:220 2605:224 2606:225 2607:220 2608:224 2609:225 2610:220 2611:232 2612:233 2613:228 2614:58 2615:81 2616:29 2617:66 2618:91 2619:36 2620:65 2621:90 2622:35 2623:66 2624:91 2625:34 2626:72 2627:98 2628:35 2629:69 2630:94 2631:39 2632:65 2633:90 2634:35 2635:63 2636:88 2637:33 2638:63 2639:88 2640:33 2641:62 2642:87 2643:32 2644:66 2645:86 2646:33 2647:66 2648:86 2649:33 2650:69 2651:87 2652:35 2653:63 2654:82 2655:27 2656:52 2657:65 2658:19 2659:143 2660:156 2661:126 2662:207 2663:214 2664:198 2665:212 2666:214 2667:211 2668:221 2669:223 2670:218 2671:222 2672:223 2673:218 2674:222 2675:223 2676:218 2677:224 2678:225 2679:220 2680:222 2681:223 2682:218 2683:222 2684:223 2685:218 2686:2 2687:2 2688:2 2692:2 2693:2 2694:2 2695:224 2696:225 2697:220 2698:224 2699:225 2700:220 2701:224 2702:225 2703:220 2704:224 2705:225 2706:220 2707:223 2708:223 2709:221 2710:234 2711:240 2712:226 2713:57 2714:75 2715:27 2716:62 2717:87 2718:29 2719:64 2720:92 2721:34 2722:72 2723:96 2724:34 2725:75 2726:98 2727:42 2728:66 2729:89 2730:33 2731:64 2732:87 2733:33 2734:62 2735:87 2736:32 2737:64 2738:87 2739:33 2740:64 2741:89 2742:34 2743:62 2744:85 2745:33 2746:63 2747:83 2748:34 2749:98 2750:113 2751:74 2752:187 2753:191 2754:174 2755:210 2756:213 2757:204 2758:217 2759:218 2760:213 2761:221 2762:222 2763:217 2764:222 2765:223 2766:218 2767:222 2768:223 2769:218 2770:224 2771:225 2772:220 2773:224 2774:225 2775:220 2776:224 2777:225 2778:220 2791:225 2792:225 2793:223 2794:224 2795:225 2796:220 2797:224 2798:225 2799:220 2800:224 2801:225 2802:220 2803:224 2804:225 2805:220 2806:221 2807:222 2808:217 2809:227 2810:233 2811:223 2812:97 2813:113 2814:76 2815:66 2816:91 2817:23 2818:70 2819:91 2820:32 2821:59 2822:80 2823:24 2824:68 2825:89 2826:33 2827:66 2828:86 2829:33 2830:63 2831:88 2832:33 2833:66 2834:86 2835:33 2836:62 2837:85 2838:29 2839:61 2840:78 2841:33 2842:167 2843:178 2844:148 2845:207 2846:213 2847:199 2848:214 2849:215 2850:209 2851:220 2852:221 2853:216 2854:221 2855:222 2856:217 2857:222 2858:223 2859:218 2860:222 2861:223 2862:218 2863:222 2864:223 2865:218 2866:224 2867:225 2868:220 2869:222 2870:223 2871:218 2890:222 2891:223 2892:218 2893:224 2894:225 2895:220 2896:224 2897:225 2898:220 2899:224 2900:225 2901:220 2902:224 2903:225 2904:220 2905:222 2906:223 2907:217 2908:227 2909:227 2910:225 2911:122 2912:137 2913:98 2914:68 2915:89 2916:30 2917:74 2918:95 2919:39 2920:69 2921:89 2922:36 2923:68 2924:88 2925:37 2926:66 2927:91 2928:34 2929:62 2930:82 2931:29 2932:130 2933:146 2934:109 2935:194 2936:204 2937:180 2938:213 2939:216 2940:205 2941:221 2942:222 2943:214 2944:222 2945:222 2946:222 2947:222 2948:223 2949:218 2950:223 2951:224 2952:219 2953:224 2954:225 2955:220 2956:222 2957:223 2958:218 2959:223 2960:224 2961:219 2962:227 2963:228 2964:223 2965:222 2966:222 2967:220 2983:2 2984:2 2985:2 2989:224 2990:225 2991:220 2992:224 2993:225 2994:220 2995:224 2996:225 2997:220 2998:224 2999:225 3000:220 3001:224 3002:225 3003:220 3004:225 3005:225 3006:223 3007:229 3008:228 3009:224 3010:222 3011:235 3012:207 3013:66 3014:82 3015:35 3016:63 3017:86 3018:34 3019:62 3020:85 3021:33 3022:112 3023:128 3024:91 3025:209 3026:221 3027:201 3028:221 3029:222 3030:216 3031:222 3032:223 3033:218 3034:221 3035:221 3036:219 3037:222 3038:223 3039:218 3040:224 3041:225 3042:220 3043:224 3044:225 3045:220 3046:224 3047:225 3048:220 3049:224 3050:225 3051:220 3052:224 3053:225 3054:220 3055:224 3056:225 3057:220 3058:224 3059:225 3060:220 3061:2 3062:2 3063:2 
