svm_type c_svc
kernel_type rbf
gamma 1e-08
nr_class 2
total_sv 82
rho 0.991791
label 1 -1
probA -788.065
probB -785.089
nr_sv 35 47
SV
0.01 37:255 38:255 39:255 40:255 41:255 42:255 43:250 44:254 45:253 46:247 47:248 48:240 49:201 50:195 51:137 52:195 53:180 54:123 55:221 56:204 57:158 58:122 59:131 60:52 61:132 62:145 63:75 64:153 65:163 66:102 67:218 68:211 69:165 70:255 71:255 72:255 73:255 74:255 75:255 76:255 77:255 78:255 130:255 131:255 132:255 133:253 134:253 135:253 136:246 137:251 138:247 139:230 140:231 141:199 142:132 143:141 144:62 145:127 146:143 147:55 148:84 149:105 150:4 151:104 152:117 153:25 154:102 155:117 156:24 157:105 158:123 159:37 160:128 161:141 162:62 163:125 164:140 165:55 166:231 167:219 168:171 169:254 170:255 171:245 172:255 173:255 174:255 175:253 176:253 177:253 220:255 221:255 222:255 223:251 224:255 225:255 226:250 227:255 228:251 229:250 230:253 231:242 232:95 233:105 234:16 235:114 236:135 237:42 238:137 239:149 240:75 241:102 242:117 243:22 244:85 245:101 246:2 247:97 248:111 249:26 250:88 251:103 252:8 253:135 254:153 255:69 256:126 257:143 258:63 259:114 260:132 261:48 262:124 263:134 264:47 265:139 266:139 267:69 268:241 269:242 270:236 271:255 272:255 273:255 310:255 311:255 312:255 313:251 314:255 315:254 316:248 317:252 318:251 319:244 320:248 321:247 322:253 323:248 324:229 325:127 326:137 327:51 328:109 329:118 330:35 331:125 332:138 333:56 334:88 335:103 336:10 337:104 338:125 339:30 340:101 341:121 342:24 343:90 344:106 345:7 346:90 347:106 348:7 349:97 350:115 351:31 352:126 353:143 354:63 355:111 356:130 357:41 358:124 359:143 360:53 361:125 362:139 363:51 364:167 365:157 366:130 367:255 368:255 369:255 400:1 401:1 402:1 403:255 404:255 405:255 406:251 407:255 408:254 409:244 410:248 411:247 412:228 413:231 414:212 415:103 416:113 417:40 418:92 419:104 420:6 421:105 422:116 423:22 424:117 425:130 426:48 427:130 428:148 429:66 430:104 431:125 432:34 433:117 434:138 435:43 436:90 437:111 438:16 439:89 440:104 441:9 442:94 443:114 444:19 445:123 446:140 447:60 448:121 449:138 450:58 451:110 452:130 453:41 454:118 455:137 456:47 457:118 458:137 459:47 460:93 461:103 462:14 463:240 464:241 465:243 466:255 467:255 468:255 496:255 497:255 498:255 499:254 500:254 501:255 502:239 503:241 504:236 505:96 506:107 507:11 508:84 509:95 510:3 511:86 512:97 513:1 514:77 515:92 516:1 517:99 518:110 519:16 520:85 521:100 522:7 523:133 524:152 525:73 526:112 527:133 528:42 529:105 530:126 531:31 532:105 533:126 534:31 535:96 536:118 537:20 538:103 539:123 540:34 541:133 542:150 543:72 544:122 545:139 546:59 547:133 548:151 549:67 550:121 551:140 552:51 553:118 554:137 555:47 556:104 557:118 558:23 559:233 560:226 561:218 562:255 563:255 564:255 565:1 566:1 567:1 589:255 590:255 591:255 592:253 593:255 594:250 595:92 596:104 597:2 598:84 599:100 600:2 601:77 602:92 604:72 605:86 607:91 608:106 609:11 610:69 611:87 612:1 613:80 614:95 615:4 616:105 617:120 618:29 619:132 620:151 621:72 622:95 623:117 624:19 625:99 626:125 627:28 628:99 629:120 630:25 631:97 632:118 633:23 634:104 635:124 636:37 637:117 638:134 639:54 640:122 641:139 642:59 643:121 644:139 645:55 646:121 647:141 648:56 649:112 650:133 651:42 652:116 653:129 654:37 655:229 656:209 657:176 658:252 659:252 660:252 661:255 662:255 663:255 682:255 683:255 684:255 685:255 686:255 687:255 688:96 689:107 690:39 691:87 692:104 694:87 695:104 697:68 698:86 700:83 701:104 702:3 703:73 704:94 705:3 706:76 707:96 708:1 709:94 710:114 711:15 712:81 713:102 714:1 715:77 716:97 717:2 718:86 719:108 720:10 721:63 722:88 723:4 724:101 725:122 726:27 727:98 728:120 729:22 730:98 731:119 732:28 733:116 734:138 735:56 736:129 737:146 738:66 739:120 740:137 741:57 742:114 743:135 744:42 745:115 746:138 747:47 748:112 749:127 750:34 751:182 752:170 753:110 754:236 755:228 756:215 757:255 758:255 759:255 778:255 779:255 780:255 781:246 782:252 783:242 784:85 785:97 787:87 788:103 789:4 790:71 791:90 793:72 794:89 795:9 796:85 797:101 798:3 799:81 800:96 801:1 802:65 803:88 805:83 806:99 807:1 808:71 809:90 811:77 812:99 813:1 814:87 815:109 816:8 817:95 818:115 819:20 820:100 821:121 822:26 823:92 824:113 825:18 826:93 827:117 828:29 829:121 830:140 831:59 832:126 833:143 834:63 835:121 836:141 837:56 838:104 839:125 840:34 841:113 842:134 843:43 844:100 845:120 846:23 847:96 848:113 849:11 850:209 851:187 852:138 853:255 854:255 855:255 871:251 872:251 873:251 874:255 875:255 876:255 877:96 878:108 879:6 880:79 881:94 883:97 884:114 885:10 886:81 887:103 888:2 889:60 890:78 891:2 892:78 893:100 894:2 895:90 896:107 897:3 898:77 899:99 901:76 902:96 903:1 904:71 905:92 906:1 907:78 908:100 909:2 910:88 911:110 912:12 913:112 914:133 915:42 916:102 917:123 918:32 919:105 920:126 921:35 922:113 923:133 924:48 925:122 926:141 927:60 928:122 929:141 930:60 931:115 932:135 933:50 934:88 935:109 936:18 937:113 938:134 939:41 940:101 941:122 942:27 943:90 944:106 945:8 946:168 947:170 948:97 949:255 950:250 951:244 952:2 953:2 954:2 967:255 968:255 969:255 970:253 971:255 972:234 973:87 974:102 975:1 976:85 977:102 979:86 980:107 981:4 982:82 983:103 984:2 985:79 986:99 988:76 989:96 991:84 992:100 993:2 994:40 995:53 997:72 998:91 999:2 1000:66 1001:87 1003:93 1004:115 1005:17 1006:103 1007:124 1008:29 1009:110 1010:131 1011:40 1012:97 1013:118 1014:27 1015:108 1016:129 1017:38 1018:115 1019:135 1020:50 1021:114 1022:133 1023:51 1024:123 1025:142 1026:61 1027:118 1028:138 1029:53 1030:123 1031:143 1032:58 1033:113 1034:133 1035:44 1036:100 1037:121 1038:26 1039:99 1040:114 1041:19 1042:143 1043:154 1044:78 1045:219 1046:202 1047:159 1048:255 1049:255 1050:255 1060:1 1061:1 1062:1 1063:255 1064:255 1065:255 1066:106 1067:118 1068:16 1069:95 1070:112 1071:8 1072:84 1073:102 1074:3 1075:94 1076:117 1077:13 1078:84 1079:105 1081:88 1082:109 1083:4 1084:82 1085:103 1087:55 1088:75 1089:3 1090:89 1091:110 1092:9 1093:87 1094:109 1095:8 1096:106 1097:127 1098:32 1099:111 1100:132 1101:37 1102:118 1103:139 1104:44 1105:113 1106:134 1107:41 1108:113 1109:134 1110:43 1111:117 1112:138 1113:47 1114:121 1115:141 1116:56 1117:115 1118:135 1119:50 1120:119 1121:138 1122:56 1123:120 1124:140 1125:55 1126:122 1127:142 1128:57 1129:114 1130:134 1131:47 1132:101 1133:122 1134:29 1135:98 1136:122 1137:24 1138:127 1139:145 1140:61 1141:147 1142:153 1143:89 1144:254 1145:254 1146:254 1147:255 1148:255 1149:255 1153:255 1154:255 1155:255 1156:255 1157:255 1158:255 1159:253 1160:255 1161:247 1162:135 1163:149 1164:52 1165:102 1166:119 1167:13 1168:91 1169:112 1170:7 1171:93 1172:116 1173:10 1174:92 1175:115 1176:9 1177:89 1178:112 1179:8 1180:84 1181:106 1182:5 1183:93 1184:114 1185:19 1186:86 1187:109 1188:5 1189:93 1190:114 1191:19 1192:107 1193:128 1194:33 1195:121 1196:142 1197:49 1198:93 1199:115 1200:17 1201:114 1202:135 1203:40 1204:84 1205:106 1206:8 1207:128 1208:148 1209:63 1210:115 1211:135 1212:48 1213:120 1214:140 1215:55 1216:115 1217:135 1218:50 1219:125 1220:145 1221:60 1222:119 1223:139 1224:54 1225:120 1226:140 1227:55 1228:112 1229:133 1230:42 1231:104 1232:124 1233:29 1234:122 1235:140 1236:56 1237:146 1238:164 1239:88 1240:201 1241:192 1242:151 1243:255 1244:255 1245:255 1249:255 1250:255 1251:255 1252:255 1253:255 1254:255 1255:92 1256:113 1257:12 1258:100 1259:117 1260:15 1261:95 1262:116 1263:11 1264:90 1265:110 1266:13 1267:108 1268:129 1269:36 1270:101 1271:126 1272:22 1273:108 1274:129 1275:36 1276:103 1277:124 1278:29 1279:110 1280:131 1281:40 1282:103 1283:129 1284:32 1285:109 1286:130 1287:39 1288:111 1289:132 1290:41 1291:119 1292:140 1293:49 1294:113 1295:134 1296:39 1297:113 1298:134 1299:39 1300:104 1301:125 1302:30 1303:84 1304:106 1305:6 1306:113 1307:133 1308:44 1309:122 1310:142 1311:57 1312:119 1313:139 1314:54 1315:119 1316:139 1317:54 1318:118 1319:138 1320:53 1321:120 1322:140 1323:55 1324:117 1325:137 1326:48 1327:128 1328:148 1329:63 1330:127 1331:145 1332:61 1333:127 1334:144 1335:64 1336:151 1337:160 1338:93 1339:255 1340:255 1341:255 1342:255 1343:255 1344:255 1345:96 1346:103 1347:52 1348:122 1349:127 1350:45 1351:134 1352:149 1353:54 1354:123 1355:140 1356:38 1357:111 1358:133 1359:32 1360:81 1361:103 1362:5 1363:120 1364:141 1365:46 1366:125 1367:147 1368:49 1369:124 1370:149 1371:58 1372:124 1373:149 1374:55 1375:116 1376:142 1377:45 1378:122 1379:147 1380:55 1381:124 1382:145 1383:54 1384:127 1385:147 1386:58 1387:126 1388:147 1389:56 1390:119 1391:140 1392:45 1393:107 1394:129 1395:31 1396:104 1397:126 1398:28 1399:118 1400:139 1401:44 1402:112 1403:132 1404:45 1405:126 1406:144 1407:60 1408:110 1409:134 1410:48 1411:116 1412:136 1413:51 1414:118 1415:138 1416:53 1417:123 1418:142 1419:60 1420:123 1421:141 1422:57 1423:132 1424:150 1425:64 1426:127 1427:145 1428:61 1429:132 1430:149 1431:69 1432:149 1433:161 1434:89 1435:182 1436:178 1437:149 1438:255 1439:255 1440:255 1441:75 1442:74 1443:17 1444:127 1445:131 1446:70 1447:88 1448:103 1449:2 1450:73 1451:95 1453:62 1454:81 1456:71 1457:93 1459:61 1460:83 1462:65 1463:85 1465:81 1466:103 1467:2 1468:96 1469:118 1470:17 1471:94 1472:116 1473:15 1474:94 1475:116 1476:18 1477:96 1478:120 1479:22 1480:102 1481:124 1482:26 1483:116 1484:138 1485:40 1486:120 1487:142 1488:44 1489:119 1490:140 1491:47 1492:134 1493:154 1494:65 1495:126 1496:145 1497:55 1498:135 1499:154 1500:65 1501:130 1502:149 1503:60 1504:119 1505:139 1506:50 1507:107 1508:128 1509:37 1510:119 1511:139 1512:54 1513:124 1514:143 1515:61 1516:130 1517:148 1518:64 1519:128 1520:146 1521:62 1522:130 1523:147 1524:67 1525:127 1526:145 1527:61 1528:118 1529:136 1530:52 1531:117 1532:131 1533:46 1534:255 1535:255 1536:255 1537:213 1538:217 1539:194 1540:251 1541:251 1542:253 1543:110 1544:127 1545:21 1546:101 1547:125 1548:15 1549:104 1550:126 1551:26 1552:106 1553:128 1554:30 1555:131 1556:152 1557:61 1558:112 1559:133 1560:40 1561:124 1562:145 1563:54 1564:109 1565:130 1566:35 1567:128 1568:149 1569:56 1570:109 1571:130 1572:37 1573:119 1574:139 1575:50 1576:122 1577:143 1578:52 1579:109 1580:132 1581:26 1582:111 1583:133 1584:35 1585:111 1586:133 1587:32 1588:127 1589:145 1590:59 1591:108 1592:124 1593:35 1594:129 1595:147 1596:61 1597:106 1598:127 1599:32 1600:78 1601:99 1602:6 1603:96 1604:117 1605:22 1606:103 1607:124 1608:31 1609:126 1610:145 1611:64 1612:113 1613:133 1614:48 1615:121 1616:139 1617:55 1618:129 1619:147 1620:63 1621:129 1622:147 1623:63 1624:125 1625:143 1626:59 1627:115 1628:133 1629:49 1630:255 1631:255 1632:255 1633:255 1634:255 1635:255 1636:255 1637:255 1638:255 1639:246 1640:241 1641:222 1642:95 1643:118 1644:14 1645:98 1646:121 1647:15 1648:103 1649:125 1650:24 1651:75 1652:96 1653:1 1654:117 1655:138 1656:43 1657:119 1658:140 1659:49 1660:121 1661:142 1662:49 1663:121 1664:142 1665:51 1666:109 1667:130 1668:35 1669:109 1670:133 1671:39 1672:118 1673:139 1674:48 1675:100 1676:122 1677:21 1678:116 1679:137 1680:42 1681:121 1682:142 1683:51 1684:127 1685:147 1686:58 1687:137 1688:155 1689:71 1690:123 1691:141 1692:57 1693:126 1694:145 1695:56 1696:126 1697:146 1698:57 1699:125 1700:143 1701:59 1702:125 1703:140 1704:55 1705:91 1706:112 1707:21 1708:66 1709:85 1711:123 1712:142 1713:53 1714:127 1715:145 1716:61 1717:134 1718:152 1719:68 1720:128 1721:146 1722:62 1723:114 1724:132 1725:46 1726:191 1727:187 1728:162 1729:255 1730:255 1731:255 1732:255 1733:255 1734:255 1735:255 1736:255 1737:255 1738:120 1739:141 1740:38 1741:92 1742:119 1743:14 1744:104 1745:125 1746:30 1747:100 1748:126 1749:27 1750:119 1751:145 1752:48 1753:123 1754:143 1755:54 1756:97 1757:118 1758:23 1759:114 1760:135 1761:44 1762:105 1763:126 1764:31 1765:101 1766:123 1767:25 1768:106 1769:127 1770:32 1771:103 1772:124 1773:29 1774:119 1775:140 1776:49 1777:122 1778:142 1779:53 1780:120 1781:140 1782:51 1783:123 1784:143 1785:58 1786:132 1787:152 1788:67 1789:122 1790:141 1791:52 1792:120 1793:140 1794:51 1795:129 1796:147 1797:63 1798:132 1799:149 1800:71 1801:130 1802:148 1803:64 1804:133 1805:151 1806:69 1807:130 1808:147 1809:67 1810:135 1811:152 1812:74 1813:135 1814:154 1815:65 1816:78 1817:96 1818:12 1819:121 1820:138 1821:58 1822:148 1823:149 1824:83 1831:255 1832:255 1833:255 1834:253 1835:251 1836:238 1837:107 1838:129 1839:29 1840:100 1841:122 1842:22 1843:95 1844:121 1845:22 1846:114 1847:139 1848:47 1849:128 1850:147 1851:65 1852:91 1853:112 1854:19 1855:105 1856:130 1857:38 1858:111 1859:138 1860:41 1861:109 1862:130 1863:39 1864:107 1865:131 1866:37 1867:108 1868:129 1869:38 1870:126 1871:146 1872:57 1873:122 1874:142 1875:57 1876:116 1877:136 1878:47 1879:119 1880:139 1881:54 1882:117 1883:137 1884:52 1885:122 1886:140 1887:56 1888:120 1889:140 1890:55 1891:137 1892:154 1893:74 1894:131 1895:148 1896:70 1897:123 1898:141 1899:59 1900:132 1901:149 1902:71 1903:133 1904:150 1905:72 1906:135 1907:152 1908:74 1909:136 1910:153 1911:75 1912:204 1913:199 1914:144 1915:181 1916:179 1917:118 1918:126 1919:138 1920:54 1927:254 1928:254 1929:254 1930:255 1931:255 1932:255 1933:109 1934:122 1935:30 1936:99 1937:121 1938:23 1939:113 1940:138 1941:47 1942:96 1943:122 1944:23 1945:117 1946:137 1947:48 1948:112 1949:135 1950:44 1951:99 1952:126 1953:33 1954:106 1955:131 1956:39 1957:122 1958:144 1959:62 1960:115 1961:138 1962:48 1963:116 1964:137 1965:46 1966:118 1967:138 1968:49 1969:122 1970:142 1971:57 1972:117 1973:137 1974:52 1975:117 1976:137 1977:52 1978:118 1979:138 1980:53 1981:125 1982:145 1983:60 1984:121 1985:140 1986:59 1987:132 1988:149 1989:71 1990:130 1991:147 1992:69 1993:119 1994:136 1995:56 1996:133 1997:150 1998:72 1999:130 2000:147 2001:69 2002:125 2003:142 2004:64 2005:136 2006:153 2007:75 2008:217 2009:202 2010:161 2011:236 2012:208 2013:168 2014:214 2015:196 2016:158 2023:2 2024:2 2025:2 2026:255 2027:255 2028:255 2029:248 2030:244 2031:232 2032:107 2033:128 2034:33 2035:97 2036:118 2037:23 2038:119 2039:140 2040:47 2041:115 2042:136 2043:45 2044:96 2045:126 2046:28 2047:98 2048:125 2049:28 2050:98 2051:121 2052:30 2053:128 2054:147 2055:66 2056:124 2057:144 2058:55 2059:117 2060:137 2061:48 2062:116 2063:141 2064:49 2065:123 2066:143 2067:58 2068:126 2069:146 2070:61 2071:118 2072:137 2073:56 2074:117 2075:137 2076:52 2077:116 2078:136 2079:51 2080:123 2081:143 2082:58 2083:120 2084:137 2085:59 2086:129 2087:146 2088:68 2089:129 2090:146 2091:68 2092:124 2093:141 2094:61 2095:133 2096:150 2097:72 2098:131 2099:148 2100:70 2101:129 2102:146 2103:68 2104:206 2105:193 2106:149 2107:255 2108:254 2109:249 2110:254 2111:255 2112:250 2122:255 2123:255 2124:255 2125:255 2126:255 2127:255 2128:120 2129:141 2130:50 2131:111 2132:132 2133:41 2134:118 2135:138 2136:49 2137:118 2138:139 2139:48 2140:97 2141:124 2142:27 2143:106 2144:133 2145:38 2146:116 2147:139 2148:48 2149:115 2150:139 2151:53 2152:108 2153:131 2154:40 2155:116 2156:137 2157:46 2158:103 2159:129 2160:32 2161:128 2162:148 2163:63 2164:123 2165:143 2166:58 2167:123 2168:142 2169:61 2170:124 2171:144 2172:59 2173:120 2174:139 2175:58 2176:118 2177:137 2178:56 2179:143 2180:160 2181:80 2182:132 2183:149 2184:71 2185:126 2186:143 2187:65 2188:133 2189:150 2190:72 2191:128 2192:145 2193:65 2194:130 2195:147 2196:67 2197:127 2198:144 2199:64 2200:212 2201:197 2202:178 2203:255 2204:255 2205:255 2206:255 2207:255 2208:255 2221:255 2222:255 2223:255 2224:139 2225:140 2226:70 2227:120 2228:141 2229:50 2230:125 2231:150 2232:58 2233:102 2234:128 2235:31 2236:88 2237:114 2238:13 2239:105 2240:132 2241:37 2242:111 2243:134 2244:43 2245:115 2246:138 2247:47 2248:104 2249:125 2250:34 2251:110 2252:131 2253:40 2254:119 2255:139 2256:50 2257:126 2258:146 2259:61 2260:118 2261:136 2262:54 2263:127 2264:146 2265:64 2266:115 2267:133 2268:47 2269:126 2270:145 2271:64 2272:126 2273:143 2274:63 2275:131 2276:148 2277:68 2278:130 2279:147 2280:69 2281:128 2282:147 2283:68 2284:139 2285:156 2286:76 2287:123 2288:142 2289:61 2290:124 2291:142 2292:60 2293:131 2294:150 2295:69 2296:252 2297:252 2298:250 2299:255 2300:255 2301:255 2302:255 2303:255 2304:255 2317:255 2318:255 2319:255 2320:255 2321:253 2322:241 2323:119 2324:142 2325:51 2326:108 2327:133 2328:41 2329:98 2330:124 2331:27 2332:74 2333:98 2335:107 2336:132 2337:40 2338:103 2339:126 2340:35 2341:111 2342:132 2343:41 2344:104 2345:125 2346:32 2347:111 2348:132 2349:39 2350:123 2351:143 2352:56 2353:119 2354:139 2355:54 2356:150 2357:167 2358:89 2359:141 2360:159 2361:83 2362:131 2363:148 2364:70 2365:121 2366:140 2367:59 2368:126 2369:143 2370:63 2371:132 2372:149 2373:71 2374:132 2375:149 2376:69 2377:122 2378:141 2379:62 2380:129 2381:146 2382:68 2383:122 2384:141 2385:60 2386:120 2387:139 2388:57 2389:149 2390:152 2391:83 2392:255 2393:255 2394:255 2413:1 2414:1 2415:1 2416:255 2417:255 2418:255 2419:128 2420:140 2421:56 2422:106 2423:129 2424:38 2425:121 2426:144 2427:53 2428:117 2429:134 2430:54 2431:114 2432:137 2433:47 2434:101 2435:126 2436:34 2437:93 2438:116 2439:25 2440:111 2441:132 2442:37 2443:97 2444:118 2445:25 2446:108 2447:129 2448:38 2449:115 2450:135 2451:48 2452:123 2453:142 2454:61 2455:127 2456:146 2457:65 2458:121 2459:139 2460:57 2461:122 2462:141 2463:59 2464:125 2465:144 2466:63 2467:133 2468:150 2469:72 2470:132 2471:150 2472:68 2473:120 2474:139 2475:58 2476:128 2477:145 2478:67 2479:123 2480:140 2481:60 2482:126 2483:145 2484:64 2485:252 2486:255 2487:246 2488:255 2489:255 2490:255 2512:255 2513:255 2514:255 2515:251 2516:252 2517:244 2518:111 2519:132 2520:39 2521:129 2522:147 2523:63 2524:119 2525:138 2526:49 2527:107 2528:128 2529:37 2530:111 2531:136 2532:44 2533:113 2534:138 2535:46 2536:114 2537:137 2538:47 2539:115 2540:136 2541:45 2542:114 2543:135 2544:44 2545:123 2546:143 2547:56 2548:124 2549:143 2550:62 2551:115 2552:135 2553:50 2554:122 2555:140 2556:58 2557:121 2558:141 2559:56 2560:126 2561:145 2562:64 2563:134 2564:151 2565:73 2566:105 2567:123 2568:39 2569:126 2570:145 2571:64 2572:133 2573:150 2574:72 2575:132 2576:149 2577:71 2578:114 2579:129 2580:46 2581:255 2582:255 2583:255 2584:255 2585:255 2586:255 2608:255 2609:255 2610:255 2611:253 2612:254 2613:255 2614:200 2615:202 2616:163 2617:94 2618:113 2619:21 2620:126 2621:144 2622:60 2623:114 2624:135 2625:44 2626:126 2627:151 2628:60 2629:102 2630:125 2631:34 2632:104 2633:125 2634:32 2635:88 2636:113 2637:11 2638:101 2639:122 2640:29 2641:109 2642:130 2643:35 2644:102 2645:123 2646:32 2647:110 2648:131 2649:40 2650:149 2651:166 2652:86 2653:129 2654:144 2655:61 2656:122 2657:141 2658:60 2659:127 2660:144 2661:64 2662:121 2663:140 2664:51 2665:138 2666:154 2667:79 2668:135 2669:151 2670:78 2671:134 2672:148 2673:73 2674:255 2675:252 2676:249 2677:255 2678:255 2679:255 2680:2 2681:2 2682:2 2707:255 2708:255 2709:255 2710:250 2711:254 2712:253 2713:201 2714:207 2715:171 2716:133 2717:151 2718:69 2719:119 2720:139 2721:50 2722:91 2723:112 2724:17 2725:97 2726:118 2727:23 2728:85 2729:107 2730:9 2731:86 2732:108 2733:10 2734:95 2735:117 2736:19 2737:93 2738:115 2739:17 2740:125 2741:147 2742:49 2743:80 2744:101 2746:109 2747:123 2748:35 2749:144 2750:157 2751:78 2752:121 2753:139 2754:55 2755:124 2756:142 2757:58 2758:141 2759:159 2760:75 2761:154 2762:169 2763:100 2764:137 2765:149 2766:77 2767:140 2768:150 2769:81 2770:255 2771:255 2772:255 2773:255 2774:255 2775:255 2803:255 2804:255 2805:255 2806:251 2807:255 2808:254 2809:247 2810:252 2811:246 2812:241 2813:243 2814:229 2815:135 2816:153 2817:69 2818:105 2819:126 2820:33 2821:84 2822:105 2823:14 2824:96 2825:117 2826:22 2827:104 2828:126 2829:28 2830:93 2831:114 2832:19 2833:100 2834:121 2835:26 2836:101 2837:122 2838:31 2839:117 2840:130 2841:42 2842:100 2843:120 2844:25 2845:137 2846:150 2847:68 2848:164 2849:176 2850:104 2851:129 2852:146 2853:66 2854:127 2855:140 2856:61 2857:150 2858:160 2859:97 2860:153 2861:164 2862:98 2863:253 2864:255 2865:244 2866:255 2867:255 2868:255 2869:255 2870:255 2871:255 2902:255 2903:255 2904:255 2905:255 2906:255 2907:251 2908:251 2909:255 2910:250 2911:247 2912:251 2913:252 2914:201 2915:209 2916:198 2917:100 2918:120 2919:21 2920:97 2921:114 2922:22 2923:101 2924:123 2925:25 2926:98 2927:119 2928:26 2929:103 2930:119 2931:30 2932:116 2933:130 2934:43 2935:173 2936:184 2937:106 2938:101 2939:115 2940:28 2941:129 2942:142 2943:60 2944:219 2945:205 2946:158 2947:141 2948:159 2949:75 2950:171 2951:171 2952:99 2953:227 2954:213 2955:174 2956:254 2957:251 2958:244 2959:255 2960:255 2961:255 2962:255 2963:255 2964:255 3001:255 3002:255 3003:255 3004:255 3005:255 3006:255 3007:250 3008:255 3009:249 3010:250 3011:255 3012:249 3013:249 3014:254 3015:250 3016:244 3017:248 3018:221 3019:131 3020:149 3021:65 3022:137 3023:153 3024:64 3025:168 3026:164 3027:101 3028:180 3029:180 3030:126 3031:219 3032:211 3033:164 3034:200 3035:196 3036:133 3037:196 3038:188 3039:142 3040:255 3041:254 3042:242 3043:223 3044:215 3045:168 3046:254 3047:243 3048:223 3049:255 3050:254 3051:250 3052:255 3053:255 3054:255 3055:255 3056:255 3057:255 
0.01 43:255 44:255 45:255 46:255 47:255 48:255 49:255 50:255 51:255 52:255 53:255 54:255 55:255 56:255 57:255 58:255 59:255 60:255 61:255 62:255 63:255 64:255 65:255 66:255 67:255 68:255 69:255 70:255 71:255 72:253 73:255 74:255 75:255 76:253 77:255 78:252 79:250 80:252 81:239 82:211 83:196 84:141 85:99 86:67 87:16 88:197 89:175 90:102 91:145 92:123 93:73 94:173 95:139 96:104 127:255 128:255 129:255 130:255 131:255 132:255 133:255 134:255 135:255 136:255 137:255 138:255 139:253 140:255 141:254 142:253 143:255 144:250 145:158 146:153 147:123 148:86 149:89 150:12 151:86 152:90 153:6 154:87 155:96 156:7 157:125 158:120 159:38 160:105 161:115 162:26 163:63 164:77 166:101 167:104 168:15 169:111 170:116 171:24 172:104 173:114 174:25 175:168 176:156 177:74 178:212 179:174 180:109 181:85 182:46 183:15 184:213 185:191 186:168 187:239 188:229 189:238 190:254 191:254 192:254 211:255 212:255 213:255 214:255 215:255 216:255 217:255 218:255 219:255 220:254 221:254 222:254 223:249 224:255 225:255 226:203 227:180 228:136 229:153 230:134 231:40 232:105 233:108 234:21 235:106 236:104 237:21 238:103 239:105 240:21 241:92 242:100 243:14 244:84 245:94 246:7 247:79 248:88 249:7 250:78 251:92 252:5 253:77 254:90 255:10 256:69 257:82 259:85 260:95 261:9 262:72 263:74 265:220 266:180 267:93 268:215 269:174 270:86 271:52 272:14 273:3 274:152 275:117 276:97 277:244 278:231 279:238 280:246 281:246 282:248 283:255 284:255 285:255 286:255 287:255 288:255 301:255 302:255 303:255 304:255 305:255 306:255 307:255 308:255 309:255 310:253 311:254 312:255 313:237 314:219 315:205 316:137 317:120 318:42 319:102 320:107 321:25 322:121 323:117 324:30 325:116 326:119 327:32 328:95 329:104 330:15 331:27 332:32 334:84 335:94 336:5 337:92 338:102 339:16 340:80 341:90 342:4 343:77 344:86 345:5 346:77 347:89 348:7 349:68 350:75 352:78 353:93 354:8 355:186 356:159 357:78 358:190 359:149 360:61 361:180 362:133 363:53 364:197 365:150 366:68 367:58 369:2 370:199 371:175 372:165 373:245 374:250 375:253 376:255 377:255 378:255 379:255 380:255 381:255 382:255 383:255 384:255 394:255 395:255 396:255 397:255 398:255 399:255 400:254 401:254 402:254 403:247 404:240 405:232 406:190 407:144 408:82 409:50 410:64 411:5 412:74 413:76 414:1 415:83 416:86 417:9 418:78 419:82 420:6 421:64 422:71 423:1 424:77 425:84 426:7 427:78 428:89 429:21 430:70 431:78 432:3 433:64 434:72 436:65 437:76 439:58 440:70 442:56 443:67 444:1 445:73 446:84 447:16 448:148 449:138 450:49 451:67 452:46 453:3 454:151 455:114 456:26 457:121 458:98 459:31 460:11 461:15 463:34 464:42 465:3 466:144 467:126 468:50 469:197 470:162 471:106 472:253 473:250 474:243 475:255 476:255 477:255 478:255 479:255 480:255 487:255 488:255 489:255 490:255 491:255 492:255 493:254 494:255 495:253 496:232 497:209 498:177 499:41 500:12 502:187 503:164 504:71 505:33 506:45 508:68 509:68 510:4 511:56 512:63 514:59 515:65 516:1 517:50 518:55 520:62 521:68 522:6 523:51 524:63 525:1 526:57 527:67 528:4 529:96 530:108 531:32 532:77 533:90 534:10 535:74 536:87 537:8 538:50 539:57 540:15 541:109 542:122 543:43 544:69 545:81 546:5 547:44 548:53 549:8 550:60 551:72 553:58 554:68 555:5 556:69 557:81 558:17 559:81 560:96 561:15 562:85 563:97 564:13 565:159 566:154 567:73 568:206 569:167 570:92 571:255 572:255 573:255 574:255 575:255 576:255 583:255 584:255 585:255 586:255 587:255 588:255 589:255 590:255 591:246 592:175 593:132 594:40 595:54 596:64 597:4 598:46 599:56 600:4 601:47 602:56 603:3 604:48 605:57 607:51 608:62 610:64 611:73 612:6 613:54 614:59 615:3 616:61 617:69 618:9 619:56 620:67 621:1 622:49 623:62 624:6 625:35 626:42 627:9 628:73 629:85 630:13 631:80 632:92 633:16 634:76 635:88 636:12 637:65 638:77 639:1 640:65 641:77 642:5 643:53 644:64 646:68 647:81 648:2 649:79 650:92 651:12 652:93 653:106 654:24 655:109 656:128 657:36 658:116 659:127 660:31 661:151 662:153 663:56 664:232 665:193 666:118 667:254 668:255 669:249 670:255 671:255 672:255 673:255 674:255 675:255 676:255 677:255 678:253 679:255 680:255 681:255 682:253 683:247 684:233 685:140 686:124 687:49 688:65 689:76 691:81 692:91 693:18 694:60 695:71 696:5 697:62 698:74 699:2 700:63 701:74 702:5 703:65 704:76 705:8 706:53 707:64 709:77 710:88 711:12 712:77 713:85 714:8 715:72 716:80 717:3 718:71 719:79 720:2 721:71 722:79 723:6 724:86 725:96 726:10 727:44 728:55 729:15 730:83 731:96 732:14 733:69 734:81 735:7 736:71 737:83 738:7 739:80 740:92 741:18 742:77 743:89 744:25 745:56 746:67 748:85 749:99 750:12 751:116 752:133 753:39 754:157 755:152 756:58 757:225 758:185 759:100 760:205 761:164 762:72 763:255 764:255 765:255 766:255 767:255 768:255 769:255 770:255 771:255 772:254 773:255 774:250 775:166 776:178 777:112 778:84 779:110 780:1 781:82 782:96 783:8 784:97 785:112 786:21 787:92 788:107 789:16 790:63 791:76 793:64 794:74 795:3 796:51 797:63 798:1 799:55 800:67 801:1 802:63 803:75 804:3 805:67 806:79 807:5 808:65 809:77 810:1 811:63 812:75 813:3 814:66 815:77 816:8 817:69 818:82 819:3 820:59 821:71 823:61 824:73 826:50 827:58 828:9 829:52 830:62 831:1 832:53 833:62 835:41 836:55 838:116 839:126 840:30 841:180 842:160 843:65 844:216 845:183 846:86 847:219 848:179 849:84 850:224 851:181 852:87 853:233 854:189 855:90 856:254 857:254 858:254 859:255 860:255 861:255 862:255 863:255 864:255 865:255 866:255 867:255 868:255 869:251 870:237 871:118 872:127 873:22 874:127 875:146 876:56 877:92 878:111 879:19 880:92 881:112 882:15 883:78 884:98 885:3 886:84 887:105 888:10 889:74 890:93 891:1 892:72 893:86 895:79 896:89 897:2 898:85 899:95 900:9 901:76 902:90 903:3 904:63 905:75 907:77 908:87 909:1 910:72 911:86 912:1 913:94 914:108 915:20 916:71 917:84 918:2 919:47 920:56 921:11 922:87 923:98 924:6 925:103 926:117 927:20 928:93 929:100 930:7 931:119 932:117 933:17 934:204 935:159 936:58 937:213 938:176 939:72 940:201 941:162 942:61 943:209 944:170 945:67 946:225 947:185 948:89 949:178 950:138 951:87 952:250 953:254 954:253 955:255 956:255 957:255 958:255 959:255 960:255 961:254 962:255 963:253 964:151 965:154 966:63 967:148 968:155 969:87 970:100 971:114 972:29 973:101 974:115 975:27 976:99 977:115 978:26 979:89 980:108 981:18 982:81 983:100 984:10 985:71 986:85 988:76 989:90 990:5 991:61 992:75 994:79 995:93 996:6 997:70 998:83 999:1 1000:68 1001:81 1002:1 1003:71 1004:85 1006:90 1007:105 1008:12 1009:83 1010:97 1011:22 1012:147 1013:142 1014:40 1015:184 1016:157 1017:54 1018:179 1019:144 1020:40 1021:193 1022:150 1023:48 1024:205 1025:163 1026:61 1027:205 1028:164 1029:58 1030:204 1031:163 1032:55 1033:206 1034:165 1035:59 1036:217 1037:175 1038:73 1039:245 1040:210 1041:116 1042:179 1043:131 1044:95 1045:255 1046:255 1047:253 1048:255 1049:255 1050:255 1051:255 1052:255 1053:255 1054:255 1055:255 1056:255 1057:117 1058:134 1059:30 1060:128 1061:141 1062:62 1063:121 1064:135 1065:48 1066:82 1067:97 1068:4 1069:105 1070:120 1071:25 1072:85 1073:102 1074:8 1075:74 1076:92 1077:8 1078:79 1079:98 1080:8 1081:79 1082:93 1083:5 1084:69 1085:83 1087:80 1088:94 1089:7 1090:75 1091:89 1092:2 1093:79 1094:94 1095:1 1096:69 1097:82 1098:10 1099:79 1100:97 1101:11 1102:77 1103:96 1104:4 1105:176 1106:158 1107:60 1108:205 1109:168 1110:64 1111:22 1112:7 1114:201 1115:164 1116:60 1117:207 1118:159 1119:59 1120:210 1121:165 1122:64 1123:217 1124:168 1125:65 1126:215 1127:163 1128:62 1129:207 1130:164 1131:60 1132:70 1135:201 1136:152 1137:137 1138:255 1139:245 1140:253 1141:254 1142:254 1143:255 1144:255 1145:255 1146:255 1147:255 1148:255 1149:255 1153:176 1154:161 1155:96 1156:49 1157:70 1158:5 1159:78 1160:95 1161:1 1162:74 1163:93 1164:1 1165:74 1166:94 1168:87 1169:107 1170:12 1171:73 1172:92 1174:72 1175:90 1176:4 1177:79 1178:93 1179:5 1180:70 1181:83 1182:1 1183:81 1184:95 1185:7 1186:78 1187:93 1188:2 1189:84 1190:98 1191:10 1192:86 1193:100 1194:12 1195:83 1196:98 1197:7 1198:76 1199:88 1200:4 1201:85 1202:94 1203:13 1204:78 1205:81 1206:2 1207:59 1208:70 1209:14 1210:181 1211:161 1212:72 1213:187 1214:148 1215:43 1216:205 1217:163 1218:61 1219:203 1220:158 1221:57 1222:208 1223:159 1224:56 1225:213 1226:170 1227:75 1228:135 1229:80 1230:41 1231:226 1232:182 1233:169 1234:255 1235:243 1236:253 1237:254 1238:255 1239:253 1240:255 1241:255 1242:255 1249:104 1250:101 1251:66 1252:90 1253:107 1254:13 1255:106 1256:117 1257:25 1258:93 1259:110 1260:8 1261:87 1262:107 1263:8 1264:90 1265:110 1266:15 1267:85 1268:104 1269:12 1270:76 1271:94 1272:10 1273:68 1274:87 1275:5 1276:84 1277:101 1278:5 1279:86 1280:101 1281:10 1282:79 1283:94 1284:3 1285:81 1286:96 1287:3 1288:80 1289:95 1290:2 1291:102 1292:117 1293:22 1294:86 1295:99 1296:19 1297:62 1298:71 1299:6 1300:121 1301:117 1302:26 1303:200 1304:157 1305:52 1306:178 1307:135 1308:40 1309:199 1310:156 1311:62 1312:207 1313:167 1314:69 1315:224 1316:174 1317:77 1318:227 1319:178 1320:86 1321:219 1322:176 1323:81 1324:241 1325:199 1326:117 1327:210 1328:153 1329:142 1330:251 1331:251 1332:255 1333:255 1334:255 1335:255 1336:255 1337:255 1338:255 1345:221 1346:221 1347:195 1348:102 1349:119 1350:15 1351:105 1352:121 1353:23 1354:88 1355:104 1356:5 1357:87 1358:107 1359:12 1360:88 1361:108 1362:11 1363:81 1364:102 1365:1 1366:91 1367:104 1368:12 1369:83 1370:103 1371:8 1372:90 1373:109 1374:20 1375:100 1376:117 1377:25 1378:41 1379:59 1381:41 1382:54 1383:8 1384:88 1385:109 1386:14 1387:92 1388:101 1389:8 1390:79 1391:95 1393:68 1394:80 1395:4 1396:59 1397:70 1398:1 1399:39 1400:48 1401:1 1402:55 1403:66 1405:223 1406:173 1407:86 1408:211 1409:166 1410:73 1411:220 1412:177 1413:82 1414:215 1415:171 1416:82 1417:210 1418:166 1419:77 1420:208 1421:166 1422:82 1423:99 1424:35 1426:254 1427:245 1428:250 1429:255 1430:255 1431:253 1432:255 1433:255 1434:255 1435:254 1436:254 1437:254 1441:255 1442:250 1443:250 1444:96 1445:104 1446:18 1447:86 1448:102 1449:3 1450:91 1451:106 1452:11 1453:80 1454:101 1456:80 1457:101 1459:87 1460:107 1461:8 1462:82 1463:102 1464:5 1465:82 1466:102 1467:5 1468:77 1469:97 1470:2 1471:76 1472:96 1473:1 1474:81 1475:101 1476:6 1477:84 1478:99 1479:6 1480:77 1481:92 1482:1 1483:109 1484:125 1485:27 1486:95 1487:110 1488:15 1489:72 1490:85 1491:6 1492:65 1493:77 1494:5 1495:70 1496:81 1497:3 1498:177 1499:177 1500:87 1501:148 1502:136 1503:50 1504:198 1505:171 1506:82 1507:128 1508:123 1509:32 1510:64 1511:76 1512:4 1513:77 1514:90 1515:8 1516:154 1517:131 1518:51 1519:221 1520:174 1521:104 1522:216 1523:185 1524:156 1525:253 1526:255 1527:249 1528:255 1529:255 1530:255 1531:255 1532:255 1533:255 1537:253 1538:253 1539:251 1540:170 1541:154 1542:59 1543:107 1544:118 1545:24 1546:84 1547:101 1548:5 1549:97 1550:117 1551:20 1552:95 1553:115 1554:18 1555:88 1556:108 1557:11 1558:92 1559:112 1560:15 1561:91 1562:105 1563:10 1564:83 1565:97 1566:2 1567:85 1568:100 1569:5 1570:83 1571:98 1572:3 1573:87 1574:102 1575:7 1576:96 1577:111 1578:18 1579:117 1580:132 1581:39 1582:91 1583:106 1584:13 1585:75 1586:89 1587:4 1588:81 1589:94 1590:6 1591:87 1592:98 1593:4 1594:81 1595:92 1597:72 1598:83 1599:4 1600:66 1601:78 1602:6 1603:71 1604:84 1605:5 1606:83 1607:96 1608:16 1609:83 1610:99 1611:1 1612:115 1613:121 1614:49 1615:84 1616:81 1617:14 1618:217 1619:169 1620:105 1621:254 1622:255 1623:251 1624:255 1625:255 1626:255 1627:255 1628:255 1629:255 1630:255 1631:255 1632:255 1633:255 1634:252 1635:251 1636:76 1637:77 1638:1 1639:133 1640:143 1641:44 1642:90 1643:110 1644:13 1645:74 1646:94 1648:83 1649:100 1650:6 1651:93 1652:108 1653:15 1654:70 1655:82 1656:6 1657:102 1658:123 1659:20 1660:96 1661:113 1662:21 1663:89 1664:104 1665:11 1666:89 1667:104 1668:9 1669:99 1670:114 1671:19 1672:91 1673:106 1674:11 1675:103 1676:118 1677:25 1678:67 1679:81 1680:6 1681:82 1682:97 1683:4 1684:84 1685:99 1686:6 1687:79 1688:94 1689:1 1690:87 1691:104 1692:10 1693:85 1694:102 1695:6 1696:83 1697:103 1698:8 1699:88 1700:107 1701:15 1702:100 1703:120 1704:25 1705:85 1706:102 1707:8 1708:109 1709:124 1710:29 1711:73 1712:92 1714:207 1715:171 1716:95 1717:237 1718:219 1719:205 1720:255 1721:255 1722:255 1723:255 1724:255 1725:255 1726:255 1727:255 1728:255 1729:251 1730:255 1731:254 1732:115 1733:69 1734:7 1735:90 1736:106 1737:17 1738:85 1739:98 1740:10 1741:82 1742:99 1743:5 1744:76 1745:95 1746:3 1747:77 1748:97 1749:2 1750:79 1751:98 1752:8 1753:81 1754:101 1755:6 1756:74 1757:93 1758:4 1759:68 1760:86 1761:2 1762:69 1763:88 1765:70 1766:82 1767:6 1768:65 1769:81 1770:8 1771:47 1772:64 1773:9 1774:77 1775:92 1776:9 1777:91 1778:105 1779:18 1780:76 1781:91 1783:79 1784:93 1785:5 1786:78 1787:92 1788:5 1789:78 1790:95 1791:1 1792:78 1793:98 1794:3 1795:93 1796:113 1797:18 1798:97 1799:116 1800:24 1801:77 1802:97 1803:2 1804:79 1805:99 1806:4 1807:87 1808:117 1809:27 1810:241 1811:189 1812:129 1813:250 1814:241 1815:232 1816:255 1817:255 1818:255 1819:255 1820:255 1821:255 1822:255 1823:255 1824:255 1825:255 1826:255 1827:255 1828:254 1829:253 1830:249 1831:87 1832:104 1833:12 1834:130 1835:131 1836:51 1837:87 1838:100 1839:10 1840:80 1841:95 1842:4 1843:89 1844:104 1845:9 1846:100 1847:115 1848:24 1849:76 1850:95 1851:6 1852:76 1853:95 1854:5 1855:74 1856:92 1857:8 1858:79 1859:98 1860:8 1861:88 1862:102 1863:14 1864:75 1865:89 1866:2 1867:65 1868:78 1870:81 1871:96 1872:13 1873:67 1874:82 1876:87 1877:103 1878:15 1879:99 1880:114 1881:23 1882:27 1883:36 1884:5 1885:75 1886:91 1887:16 1888:74 1889:90 1890:1 1891:68 1892:83 1893:2 1894:72 1895:88 1897:75 1898:91 1899:2 1900:90 1901:105 1902:14 1903:208 1904:175 1905:98 1906:217 1907:176 1908:96 1909:252 1910:254 1911:251 1912:255 1913:255 1914:255 1915:255 1916:255 1917:255 1918:255 1919:255 1920:255 1921:255 1922:255 1923:255 1924:252 1925:252 1926:254 1927:195 1928:190 1929:168 1930:112 1931:116 1932:31 1933:115 1934:121 1935:35 1936:126 1937:136 1938:50 1939:123 1940:133 1941:47 1942:91 1943:106 1944:13 1945:79 1946:98 1947:8 1948:78 1949:97 1950:5 1951:82 1952:102 1953:7 1954:81 1955:101 1956:6 1957:90 1958:105 1959:14 1960:93 1961:108 1962:13 1963:113 1964:128 1965:35 1966:113 1967:127 1968:32 1969:64 1970:82 1971:6 1972:61 1973:77 1974:6 1975:55 1976:69 1978:71 1979:84 1980:2 1981:68 1982:83 1984:55 1985:70 1986:1 1987:56 1988:75 1990:61 1991:81 1992:9 1993:156 1994:141 1995:58 1996:219 1997:182 1998:101 1999:205 2000:151 2001:61 2002:249 2003:248 2004:244 2005:253 2006:253 2007:253 2008:255 2009:255 2010:255 2011:255 2012:255 2013:255 2017:255 2018:255 2019:255 2020:255 2021:255 2022:255 2023:255 2024:255 2025:255 2026:27 2027:23 2029:137 2030:141 2031:64 2032:119 2033:130 2034:51 2035:98 2036:110 2037:24 2038:105 2039:119 2040:31 2041:98 2042:117 2043:25 2044:106 2045:125 2046:33 2047:46 2048:61 2049:2 2050:78 2051:99 2052:6 2053:91 2054:107 2055:9 2056:87 2057:103 2058:5 2059:99 2060:114 2061:19 2062:121 2063:137 2064:48 2065:31 2066:43 2067:7 2068:55 2069:69 2070:10 2071:57 2072:73 2073:8 2074:48 2075:62 2077:31 2078:57 2080:171 2081:154 2082:64 2083:201 2084:171 2085:81 2086:214 2087:169 2088:86 2089:202 2090:157 2091:76 2092:111 2093:48 2094:13 2095:248 2096:236 2097:240 2098:255 2099:255 2100:253 2101:255 2102:255 2103:255 2104:255 2105:255 2106:255 2107:254 2108:254 2109:254 2113:1 2114:1 2115:1 2116:255 2117:255 2118:255 2119:255 2120:255 2121:255 2122:255 2123:255 2124:255 2125:171 2126:164 2127:146 2128:69 2129:79 2130:8 2131:87 2132:101 2133:4 2134:49 2135:60 2137:64 2138:81 2139:3 2140:78 2141:97 2142:5 2143:53 2144:70 2145:2 2146:75 2147:90 2149:76 2150:91 2152:80 2153:95 2154:2 2155:83 2156:98 2157:3 2158:103 2159:118 2160:25 2161:88 2162:107 2163:15 2164:50 2165:66 2166:3 2167:34 2168:62 2169:1 2170:154 2171:148 2172:54 2173:202 2174:163 2175:68 2176:204 2177:157 2178:65 2179:202 2180:156 2181:62 2182:188 2183:136 2184:79 2185:204 2186:147 2187:130 2188:242 2189:226 2190:237 2191:251 2192:241 2193:250 2194:255 2195:255 2196:255 2197:255 2198:255 2199:255 2200:255 2201:255 2202:255 2215:255 2216:255 2217:255 2218:255 2219:255 2220:255 2221:255 2222:255 2223:255 2224:253 2225:255 2226:254 2227:94 2228:112 2229:10 2230:67 2231:79 2232:7 2233:78 2234:92 2235:4 2236:72 2237:87 2238:2 2239:70 2240:89 2241:7 2242:83 2243:103 2244:8 2245:81 2246:96 2247:3 2248:88 2249:102 2250:14 2251:75 2252:89 2253:1 2254:71 2255:85 2257:131 2258:144 2259:52 2260:54 2261:72 2262:14 2263:77 2264:91 2265:6 2266:189 2267:154 2268:64 2269:196 2270:155 2271:65 2272:202 2273:153 2274:61 2275:195 2276:149 2277:63 2278:95 2279:21 2280:20 2281:225 2282:197 2283:193 2284:247 2285:234 2286:243 2287:255 2288:252 2289:255 2290:255 2291:255 2292:255 2314:255 2315:255 2316:255 2317:255 2318:255 2319:255 2320:255 2321:255 2322:253 2323:1 2324:4 2326:92 2327:107 2328:16 2329:94 2330:105 2331:13 2332:93 2333:106 2334:14 2335:89 2336:104 2337:11 2338:74 2339:93 2340:11 2341:48 2342:57 2344:68 2345:83 2346:2 2347:79 2348:99 2349:4 2350:68 2351:86 2353:97 2354:111 2355:23 2356:89 2357:99 2358:12 2359:47 2360:67 2362:182 2363:155 2364:66 2365:207 2366:157 2367:68 2368:221 2369:170 2370:79 2371:232 2372:184 2373:99 2374:150 2375:85 2376:63 2377:237 2378:226 2379:234 2380:242 2381:235 2382:243 2383:255 2384:255 2385:255 2386:255 2387:255 2388:255 2410:255 2411:255 2412:255 2413:255 2414:255 2415:255 2416:255 2417:255 2418:255 2419:254 2420:254 2421:252 2422:46 2423:48 2424:11 2425:86 2426:101 2427:8 2428:85 2429:98 2430:6 2431:74 2432:89 2434:87 2435:102 2436:9 2437:82 2438:97 2439:4 2440:80 2441:95 2442:2 2443:80 2444:95 2445:2 2446:70 2447:88 2448:6 2449:70 2450:88 2451:6 2452:124 2453:140 2454:51 2455:50 2456:70 2457:1 2458:197 2459:159 2460:74 2461:207 2462:155 2463:69 2464:225 2465:174 2466:91 2467:115 2468:35 2469:26 2470:223 2471:196 2472:201 2473:239 2474:225 2475:238 2476:249 2477:239 2478:248 2479:255 2480:255 2481:255 2482:253 2483:253 2484:253 2509:255 2510:255 2511:255 2512:255 2513:255 2514:255 2515:255 2516:255 2517:255 2518:255 2519:255 2520:255 2521:14 2522:14 2523:16 2524:104 2525:115 2526:21 2527:94 2528:104 2529:15 2530:110 2531:121 2532:27 2533:105 2534:115 2535:28 2536:98 2537:108 2538:21 2539:89 2540:99 2541:12 2542:88 2543:98 2544:11 2545:80 2546:91 2548:105 2549:116 2550:24 2551:80 2552:95 2553:12 2554:110 2555:99 2556:17 2557:220 2558:169 2559:80 2560:218 2561:170 2562:88 2563:79 2564:7 2565:19 2566:219 2567:194 2568:200 2569:242 2570:231 2571:245 2572:255 2573:245 2574:254 2575:255 2576:255 2577:255 2608:255 2609:255 2610:255 2611:255 2612:255 2613:255 2614:255 2615:255 2616:255 2617:255 2618:255 2619:253 2620:254 2621:254 2622:254 2623:184 2624:190 2625:162 2626:120 2627:130 2628:41 2629:118 2630:126 2631:41 2632:108 2633:121 2634:33 2635:77 2636:91 2637:4 2638:73 2639:88 2640:5 2641:77 2642:90 2643:11 2644:95 2645:110 2646:15 2647:113 2648:131 2649:32 2650:30 2651:60 2653:196 2654:155 2655:67 2656:194 2657:142 2658:69 2659:60 2660:1 2662:226 2663:211 2664:214 2665:243 2666:237 2667:247 2668:255 2669:255 2670:255 2671:255 2672:255 2673:255 2707:3 2708:3 2709:3 2710:253 2711:253 2712:253 2713:255 2714:255 2715:255 2716:255 2717:255 2718:255 2719:255 2720:255 2721:255 2722:255 2723:255 2724:255 2725:252 2726:254 2727:253 2728:253 2729:253 2730:253 2731:5 2732:6 2733:1 2734:115 2735:118 2736:27 2737:107 2738:114 2739:18 2740:87 2741:103 2742:5 2743:103 2744:115 2745:17 2746:106 2747:108 2748:9 2749:184 2750:156 2751:72 2752:207 2753:161 2754:86 2755:51 2756:6 2757:1 2758:239 2759:231 2760:242 2761:248 2762:243 2763:249 2764:255 2765:255 2766:255 2767:255 2768:255 2769:255 2815:254 2816:254 2817:254 2818:255 2819:255 2820:255 2821:255 2822:255 2823:255 2824:255 2825:255 2826:255 2827:255 2828:255 2829:255 2830:255 2831:255 2832:253 2833:253 2834:253 2835:253 2836:214 2837:215 2838:210 2839:37 2840:36 2841:5 2842:115 2843:122 2844:18 2845:83 2846:85 2847:1 2848:214 2849:190 2850:128 2851:33 2852:11 2854:246 2855:241 2856:247 2857:255 2858:253 2859:254 2860:255 2861:255 2862:255 2863:253 2864:253 2865:253 2866:2 2867:2 2868:2 2920:1 2921:1 2922:1 2923:255 2924:255 2925:255 2926:255 2927:255 2928:255 2929:255 2930:255 2931:255 2932:255 2933:255 2934:255 2935:255 2936:255 2937:255 2938:255 2939:255 2940:255 2941:255 2942:255 2943:253 2944:37 2945:47 2946:10 2947:123 2948:128 2949:12 2950:208 2951:213 2952:183 2953:255 2954:255 2955:255 2956:255 2957:255 2958:255 2959:255 2960:255 2961:255 2962:255 2963:255 2964:255 3031:255 3032:255 3033:255 3034:255 3035:255 3036:255 3037:255 3038:255 3039:255 3040:255 3041:255 3042:255 3043:252 3044:252 3045:240 3046:81 3047:89 3048:29 3049:248 3050:248 3051:248 3052:255 3053:255 3054:255 3055:255 3056:255 3057:255 3058:255 3059:255 3060:255 
0.01 1:251 2:255 3:255 4:249 5:255 6:255 7:255 8:255 9:255 10:255 11:255 12:253 13:198 14:186 15:138 16:189 17:174 18:107 19:172 20:175 21:98 22:96 23:114 24:38 25:78 26:98 27:27 28:108 29:113 30:46 31:187 32:173 33:110 34:212 35:190 36:130 37:196 38:165 39:108 40:202 41:171 42:116 43:183 44:139 45:100 46:161 47:116 48:93 49:204 50:181 51:173 52:237 53:228 54:221 55:235 56:231 57:230 58:241 59:236 60:233 61:250 62:248 63:249 64:254 65:255 66:255 67:252 68:254 69:253 97:249 98:255 99:253 100:255 101:255 102:255 103:180 104:175 105:117 106:70 107:88 108:2 109:59 110:82 112:115 113:133 114:59 115:116 116:132 117:59 118:116 119:132 120:59 121:105 122:120 123:51 124:102 125:119 126:48 127:72 128:84 129:12 130:217 131:203 132:140 133:208 134:179 135:121 136:203 137:172 138:115 139:203 140:172 141:115 142:204 143:174 144:112 145:210 146:179 147:125 148:159 149:123 150:97 151:180 152:147 153:140 154:222 155:207 156:200 157:234 158:229 159:225 160:233 161:231 162:234 163:243 164:243 165:243 166:251 167:251 168:251 169:250 170:254 171:255 172:1 173:1 174:1 193:229 194:223 195:197 196:80 197:88 198:5 199:81 200:103 201:21 202:74 203:93 204:12 205:77 206:96 207:15 208:91 209:110 210:31 211:109 212:127 213:51 214:134 215:149 216:80 217:124 218:139 219:70 220:132 221:148 222:77 223:152 224:162 225:91 226:187 227:179 228:114 229:177 230:163 231:100 232:175 233:164 234:98 235:180 236:164 237:105 238:193 239:174 240:116 241:211 242:181 243:127 244:218 245:187 246:133 247:215 248:184 249:127 250:237 251:205 252:158 253:168 254:127 255:109 256:205 257:182 258:174 259:235 260:226 261:227 262:238 263:234 264:235 265:250 266:250 267:250 268:253 269:253 270:253 271:249 272:253 273:252 289:134 290:131 291:64 292:81 293:106 294:22 295:71 296:93 297:11 298:73 299:96 300:14 301:65 302:88 303:8 304:77 305:100 306:20 307:83 308:106 309:26 310:84 311:106 312:31 313:85 314:107 315:32 316:94 317:115 318:40 319:123 320:137 321:62 322:181 323:192 324:123 325:133 326:143 327:72 328:142 329:154 330:80 331:78 332:91 333:12 334:84 335:96 336:12 337:118 338:119 339:43 340:191 341:167 342:107 343:212 344:181 345:124 346:207 347:176 348:119 349:217 350:186 351:129 352:222 353:189 354:148 355:169 356:128 357:122 358:233 359:217 360:217 361:234 362:233 363:231 364:247 365:248 366:243 367:252 368:252 369:252 370:251 371:253 372:252 385:188 386:173 387:114 388:78 389:100 390:25 391:97 392:119 393:46 394:79 395:101 396:28 397:85 398:107 399:34 400:73 401:96 402:18 403:60 404:82 405:7 406:58 407:80 408:5 409:55 410:78 412:56 413:79 414:1 415:117 416:138 417:71 418:132 419:150 420:76 421:57 422:76 424:78 425:97 426:16 427:76 428:95 429:13 430:83 431:103 432:18 433:99 434:108 435:29 436:200 437:176 438:116 439:212 440:181 441:124 442:208 443:177 444:120 445:212 446:181 447:124 448:213 449:183 450:123 451:225 452:192 453:147 454:174 455:131 456:115 457:218 458:207 459:203 460:231 461:230 462:226 463:246 464:246 465:244 466:250 467:254 468:253 469:250 470:254 471:253 472:250 473:254 474:253 475:253 476:255 477:254 481:104 482:107 483:38 484:79 485:100 486:21 487:66 488:89 489:9 490:71 491:94 492:14 493:84 494:105 495:30 496:96 497:118 498:46 499:85 500:107 501:34 502:83 503:106 504:28 505:61 506:83 507:10 508:90 509:112 510:39 511:102 512:124 513:52 514:90 515:110 516:25 517:52 518:69 520:105 521:124 522:45 523:108 524:119 525:40 526:192 527:184 528:119 529:198 530:180 531:118 532:198 533:172 534:113 535:200 536:171 537:113 538:201 539:172 540:114 541:190 542:164 543:105 544:192 545:163 546:107 547:177 548:146 549:91 550:183 551:151 552:100 553:199 554:174 555:118 556:218 557:188 558:136 559:189 560:169 561:134 562:236 563:233 564:224 565:252 566:253 567:255 568:252 569:254 570:253 571:250 572:254 573:253 574:250 575:254 576:253 577:161 578:153 579:90 580:127 581:143 582:72 583:125 584:147 585:75 586:98 587:118 588:47 589:96 590:118 591:45 592:78 593:101 594:21 595:70 596:93 597:13 598:66 599:89 600:7 601:63 602:86 603:4 604:62 605:85 606:3 607:87 608:109 609:34 610:100 611:119 612:40 613:90 614:109 615:30 616:97 617:116 618:35 619:112 620:123 621:47 622:175 623:174 624:110 625:175 626:171 627:108 628:160 629:156 630:93 631:161 632:151 633:90 634:188 635:176 636:116 637:173 638:167 639:105 640:177 641:173 642:109 643:158 644:160 645:95 646:141 647:146 648:79 649:86 650:105 651:26 652:87 653:105 654:29 655:96 656:112 657:39 658:108 659:119 660:51 661:108 662:119 663:50 664:255 665:253 666:244 667:251 668:253 669:252 670:251 671:253 672:252 673:199 674:189 675:120 676:178 677:179 678:111 679:130 680:142 681:70 682:124 683:137 684:65 685:121 686:138 687:68 688:114 689:131 690:63 691:109 692:126 693:55 694:57 695:79 696:6 697:56 698:78 699:5 700:78 701:100 702:25 703:81 704:103 705:28 706:98 707:116 708:42 709:94 710:112 711:38 712:97 713:116 714:37 715:164 716:171 717:104 718:164 719:163 720:99 721:166 722:166 723:102 724:179 725:179 726:115 727:173 728:173 729:109 730:170 731:170 732:106 733:173 734:173 735:109 736:124 737:137 738:68 739:88 740:103 741:34 742:81 743:98 744:28 745:87 746:104 747:33 748:101 749:119 750:45 751:100 752:118 753:44 754:120 755:132 756:58 757:131 758:131 759:67 760:213 761:193 762:140 763:243 764:240 765:231 766:250 767:255 768:251 769:211 770:192 771:126 772:161 773:157 774:86 775:134 776:146 777:72 778:129 779:141 780:69 781:130 782:145 783:76 784:128 785:143 786:74 787:133 788:148 789:79 790:118 791:135 792:65 793:89 794:106 795:36 796:91 797:108 798:38 799:90 800:107 801:37 802:103 803:120 804:50 805:105 806:122 807:52 808:143 809:156 810:87 811:190 812:188 813:127 814:183 815:182 816:118 817:186 818:180 819:120 820:130 821:141 822:75 823:89 824:109 825:40 826:90 827:107 828:39 829:93 830:110 831:42 832:78 833:98 834:29 835:75 836:96 837:27 838:82 839:104 840:32 841:83 842:105 843:33 844:88 845:110 846:38 847:93 848:112 849:33 850:74 851:92 852:8 853:65 854:83 856:134 857:133 858:76 859:127 860:103 861:65 862:237 863:229 864:226 865:216 866:186 867:124 868:212 869:187 870:123 871:212 872:187 873:123 874:199 875:182 876:113 877:117 878:123 879:51 880:121 881:136 882:67 883:135 884:150 885:81 886:123 887:138 888:69 889:130 890:145 891:76 892:134 893:149 894:80 895:130 896:145 897:76 898:139 899:150 900:82 901:84 902:104 903:32 904:116 905:135 906:56 907:96 908:116 909:45 910:63 911:83 912:12 913:80 914:97 915:27 916:72 917:89 918:19 919:75 920:92 921:21 922:81 923:97 924:32 925:81 926:98 927:28 928:89 929:106 930:38 931:79 932:96 933:28 934:111 935:128 936:60 937:108 938:125 939:55 940:84 941:101 942:31 943:77 944:95 945:21 946:68 947:87 948:5 949:56 950:73 951:2 952:59 953:71 954:7 955:210 956:190 957:153 958:193 959:178 960:173 964:217 965:187 966:125 967:212 968:187 969:120 970:212 971:186 972:125 973:213 974:184 975:126 976:205 977:183 978:123 979:140 980:146 981:76 982:123 983:133 984:62 985:131 986:144 987:75 988:110 989:125 990:56 991:118 992:135 993:65 994:126 995:141 996:74 997:150 998:165 999:96 1000:92 1001:113 1002:44 1003:89 1004:110 1005:41 1006:83 1007:104 1008:35 1009:81 1010:102 1011:33 1012:80 1013:101 1014:32 1015:81 1016:102 1017:33 1018:78 1019:99 1020:30 1021:80 1022:101 1023:32 1024:64 1025:87 1026:17 1027:51 1028:74 1029:4 1030:73 1031:90 1032:20 1033:66 1034:83 1035:12 1036:75 1037:93 1038:19 1039:76 1040:93 1041:22 1042:74 1043:91 1044:21 1045:64 1046:82 1047:6 1048:72 1049:87 1050:6 1051:180 1052:164 1053:105 1054:124 1055:96 1056:57 1066:214 1067:184 1068:120 1069:212 1070:187 1071:123 1072:202 1073:182 1074:129 1075:161 1076:160 1077:93 1078:158 1079:159 1080:91 1081:159 1082:165 1083:93 1084:129 1085:135 1086:65 1087:123 1088:135 1089:63 1090:76 1091:94 1092:18 1093:124 1094:141 1095:73 1096:93 1097:111 1098:37 1099:86 1100:107 1101:38 1102:88 1103:109 1104:42 1105:78 1106:100 1107:28 1108:89 1109:111 1110:39 1111:36 1112:56 1114:77 1115:99 1116:24 1117:69 1118:91 1119:19 1120:68 1121:90 1122:18 1123:70 1124:92 1125:20 1126:64 1127:86 1128:14 1129:72 1130:92 1131:21 1132:73 1133:90 1134:20 1135:76 1136:93 1137:22 1138:79 1139:96 1140:28 1141:80 1142:97 1143:29 1144:76 1145:93 1146:22 1147:111 1148:124 1149:52 1150:229 1151:205 1152:167 1153:210 1154:180 1155:116 1156:211 1157:181 1158:117 1159:213 1160:183 1161:119 1162:215 1163:185 1164:121 1165:211 1166:183 1167:118 1168:213 1169:182 1170:128 1171:211 1172:187 1173:127 1174:184 1175:175 1176:110 1177:131 1178:137 1179:67 1180:124 1181:137 1182:67 1183:94 1184:105 1185:36 1186:84 1187:100 1188:27 1189:118 1190:133 1191:66 1192:90 1193:107 1194:39 1195:80 1196:97 1197:27 1198:74 1199:91 1200:21 1201:68 1202:85 1203:15 1204:77 1205:94 1206:24 1207:70 1208:90 1209:19 1210:68 1211:90 1212:18 1213:68 1214:90 1215:18 1216:69 1217:91 1218:19 1219:76 1220:98 1221:26 1222:77 1223:99 1224:27 1225:79 1226:99 1227:28 1228:85 1229:102 1230:32 1231:84 1232:101 1233:31 1234:85 1235:103 1236:29 1237:70 1238:88 1239:14 1240:67 1241:89 1242:7 1243:61 1244:75 1246:215 1247:190 1248:149 1249:174 1250:141 1251:74 1252:165 1253:134 1254:70 1255:175 1256:144 1257:79 1258:182 1259:151 1260:86 1261:177 1262:146 1263:81 1264:188 1265:157 1266:93 1267:198 1268:166 1269:105 1270:208 1271:176 1272:117 1273:200 1274:174 1275:117 1276:203 1277:176 1278:121 1279:181 1280:160 1281:93 1282:138 1283:130 1284:65 1285:110 1286:120 1287:47 1288:81 1289:99 1290:25 1291:86 1292:103 1293:33 1294:82 1295:99 1296:31 1297:84 1298:101 1299:33 1300:74 1301:97 1302:25 1303:73 1304:95 1305:23 1306:72 1307:94 1308:22 1309:77 1310:99 1311:27 1312:79 1313:101 1314:28 1315:89 1316:110 1317:43 1318:78 1319:100 1320:25 1321:54 1322:77 1324:63 1325:86 1326:6 1327:62 1328:80 1329:4 1330:67 1331:86 1332:7 1333:63 1334:82 1335:3 1336:65 1337:84 1338:5 1339:84 1340:90 1341:28 1342:105 1343:82 1344:51 1345:204 1346:174 1347:114 1348:207 1349:176 1350:119 1351:208 1352:177 1353:120 1354:210 1355:179 1356:124 1357:207 1358:180 1359:125 1360:207 1361:180 1362:125 1363:206 1364:179 1365:124 1366:205 1367:178 1368:123 1369:202 1370:180 1371:123 1372:209 1373:187 1374:130 1375:173 1376:159 1377:98 1378:134 1379:141 1380:74 1381:95 1382:111 1383:40 1384:95 1385:113 1386:39 1387:85 1388:103 1389:29 1390:79 1391:100 1392:25 1393:82 1394:104 1395:29 1396:65 1397:87 1398:12 1399:52 1400:74 1401:2 1402:74 1403:96 1404:21 1405:58 1406:76 1407:2 1408:58 1409:75 1410:4 1411:57 1412:75 1413:1 1414:57 1415:75 1416:1 1417:57 1418:75 1419:1 1420:58 1421:76 1422:2 1423:59 1424:78 1426:67 1427:84 1428:4 1429:63 1430:80 1432:82 1433:81 1434:25 1435:60 1436:45 1437:14 1438:195 1439:190 1440:184 1441:223 1442:187 1443:135 1444:212 1445:185 1446:130 1447:212 1448:185 1449:130 1450:206 1451:180 1452:129 1462:6 1465:204 1466:179 1467:125 1468:202 1469:180 1470:123 1471:142 1472:141 1473:77 1474:144 1475:156 1476:92 1477:82 1478:103 1479:24 1480:71 1481:90 1482:11 1483:65 1484:84 1485:5 1486:59 1487:78 1489:59 1490:77 1491:1 1492:59 1493:77 1494:1 1495:60 1496:78 1497:2 1498:59 1499:78 1501:59 1502:77 1503:1 1504:58 1505:76 1507:58 1508:76 1509:2 1510:61 1511:77 1512:2 1513:65 1514:82 1515:4 1516:64 1517:81 1518:3 1519:56 1520:69 1522:128 1523:122 1524:62 1525:217 1526:195 1527:156 1528:108 1529:82 1530:65 1531:184 1532:183 1533:181 1534:223 1535:225 1536:224 1537:1 1547:1 1557:2 1558:208 1559:186 1560:136 1561:211 1562:188 1563:136 1564:217 1565:194 1566:142 1567:211 1568:196 1569:137 1570:84 1571:98 1572:19 1573:73 1574:90 1575:10 1576:70 1577:89 1578:10 1579:61 1580:79 1581:3 1582:63 1583:81 1584:5 1585:59 1586:78 1588:60 1589:79 1591:68 1592:87 1593:8 1594:72 1595:89 1596:11 1597:73 1598:90 1599:12 1600:78 1601:95 1602:17 1603:107 1604:123 1605:50 1606:78 1607:94 1608:23 1609:57 1610:72 1611:3 1612:58 1613:71 1614:2 1615:56 1616:66 1617:3 1618:187 1619:184 1620:139 1621:84 1622:72 1623:46 1624:174 1625:167 1626:159 1627:219 1628:219 1629:217 1630:231 1631:231 1632:229 1633:221 1634:198 1635:157 1636:222 1637:200 1638:163 1639:221 1640:199 1641:162 1642:212 1643:189 1644:155 1651:10 1654:210 1655:187 1656:133 1657:220 1658:193 1659:146 1660:207 1661:188 1662:130 1663:130 1664:138 1665:63 1666:65 1667:82 1668:2 1669:62 1670:81 1672:60 1673:79 1675:64 1676:83 1677:2 1678:60 1679:78 1680:2 1681:59 1682:77 1683:1 1684:62 1685:79 1686:8 1687:74 1688:92 1689:18 1690:78 1691:95 1692:24 1693:69 1694:85 1695:12 1696:62 1697:79 1699:55 1700:71 1702:56 1703:72 1704:1 1705:61 1706:75 1708:92 1709:92 1710:40 1711:100 1712:79 1713:50 1714:148 1715:139 1716:130 1717:187 1718:183 1719:180 1720:218 1721:214 1722:211 1723:229 1724:228 1725:224 1726:240 1727:241 1728:236 1729:209 1730:176 1731:122 1732:204 1733:174 1734:120 1735:211 1736:184 1737:131 1738:215 1739:188 1740:135 1741:226 1742:195 1743:149 1744:239 1745:212 1746:165 1747:203 1748:178 1749:124 1750:205 1751:182 1752:128 1753:180 1754:158 1755:100 1756:124 1757:121 1758:50 1759:65 1760:79 1761:2 1762:63 1763:79 1764:6 1765:58 1766:74 1767:1 1768:57 1769:72 1770:3 1771:63 1772:83 1773:12 1774:40 1775:60 1777:39 1778:58 1779:2 1780:39 1781:57 1783:45 1784:65 1785:2 1786:46 1787:67 1788:2 1789:47 1790:67 1791:4 1792:62 1793:74 1794:10 1795:100 1796:94 1797:32 1798:191 1799:167 1800:133 1801:105 1802:79 1803:66 1804:163 1805:149 1806:146 1807:190 1808:190 1809:188 1810:212 1811:208 1812:205 1813:216 1814:212 1815:209 1816:224 1817:225 1818:220 1819:238 1820:239 1821:234 1822:243 1823:244 1824:239 1825:187 1826:164 1827:122 1828:191 1829:157 1830:96 1831:188 1832:154 1833:93 1834:187 1835:151 1836:91 1837:187 1838:151 1839:91 1840:190 1841:155 1842:99 1843:191 1844:159 1845:100 1846:200 1847:174 1848:117 1849:211 1850:191 1851:132 1852:106 1853:117 1854:39 1855:60 1856:78 1857:4 1858:47 1859:68 1861:62 1862:84 1863:12 1864:41 1865:60 1866:5 1867:45 1868:66 1869:1 1870:46 1871:65 1873:54 1874:69 1875:2 1876:54 1877:69 1879:61 1880:71 1881:2 1882:165 1883:151 1884:86 1885:193 1886:169 1887:109 1888:89 1889:59 1890:33 1891:105 1892:72 1893:63 1894:169 1895:155 1896:152 1897:201 1898:193 1899:191 1900:208 1901:209 1902:204 1903:217 1904:213 1905:210 1906:220 1907:219 1908:215 1909:234 1910:235 1911:230 1912:242 1913:243 1914:238 1921:245 1922:246 1923:240 1924:198 1925:167 1926:103 1927:194 1928:158 1929:100 1930:197 1931:160 1932:105 1933:192 1934:160 1935:103 1936:186 1937:155 1938:98 1939:189 1940:158 1941:101 1942:200 1943:178 1944:121 1945:131 1946:123 1947:58 1948:31 1949:51 1951:29 1952:51 1953:4 1954:23 1955:39 1957:27 1958:43 1959:4 1960:30 1961:48 1963:51 1964:71 1965:2 1966:150 1967:148 1968:74 1969:174 1970:159 1971:90 1972:186 1973:162 1974:98 1975:195 1976:171 1977:111 1978:96 1979:61 1980:42 1981:140 1982:118 1983:107 1984:181 1985:170 1986:164 1987:203 1988:202 1989:197 1990:213 1991:208 1992:205 1993:216 1994:212 1995:209 1996:218 1997:214 1998:211 1999:229 2000:230 2001:225 2002:234 2003:234 2004:232 2017:235 2018:229 2019:203 2020:195 2021:164 2022:107 2023:185 2024:156 2025:100 2026:176 2027:150 2028:93 2029:66 2030:72 2032:69 2033:77 2035:171 2036:161 2037:99 2038:211 2039:195 2040:136 2041:74 2042:80 2043:8 2044:59 2045:72 2046:2 2047:49 2048:66 2050:45 2051:59 2053:52 2054:67 2055:2 2056:153 2057:148 2058:80 2059:193 2060:167 2061:108 2062:200 2063:169 2064:114 2065:71 2066:35 2067:13 2068:89 2069:57 2070:46 2071:152 2072:132 2073:123 2074:188 2075:177 2076:175 2077:204 2078:199 2079:195 2080:212 2081:207 2082:204 2083:214 2084:209 2085:206 2086:216 2087:212 2088:209 2089:226 2090:225 2091:221 2113:62 2114:65 2116:66 2117:85 2118:6 2119:53 2120:75 2121:2 2122:46 2123:67 2125:48 2126:65 2128:60 2129:76 2130:1 2131:65 2132:82 2133:2 2134:100 2135:111 2136:33 2137:66 2138:80 2139:5 2140:48 2141:70 2142:6 2143:49 2144:63 2145:1 2146:36 2147:48 2148:2 2149:57 2150:68 2151:8 2152:113 2153:104 2154:47 2155:212 2156:185 2157:142 2158:73 2159:43 2160:35 2161:80 2162:52 2163:41 2164:133 2165:116 2166:108 2167:178 2168:173 2169:170 2170:208 2171:203 2172:200 2173:210 2174:206 2175:203 2176:214 2177:209 2178:206 2179:225 2180:221 2181:218 2182:1 2183:1 2184:1 2209:80 2210:88 2211:15 2212:65 2213:79 2214:2 2215:57 2216:73 2218:76 2219:93 2220:15 2221:47 2222:61 2224:48 2225:61 2226:5 2227:76 2228:94 2229:12 2230:68 2231:84 2232:11 2233:56 2234:72 2236:54 2237:69 2238:2 2239:57 2240:72 2241:3 2242:54 2243:71 2244:1 2245:54 2246:71 2247:3 2248:64 2249:65 2250:5 2251:70 2252:51 2253:19 2254:90 2255:68 2256:54 2257:139 2258:122 2259:114 2260:176 2261:171 2262:167 2263:208 2264:209 2265:204 2266:213 2267:209 2268:206 2269:216 2270:217 2271:212 2272:226 2273:227 2274:222 2305:195 2306:189 2307:153 2308:139 2309:146 2310:76 2311:53 2312:70 2314:52 2315:72 2316:1 2317:52 2318:72 2319:1 2320:57 2321:70 2322:1 2323:66 2324:82 2325:7 2326:76 2327:92 2328:17 2329:63 2330:80 2331:2 2332:60 2333:76 2334:1 2335:47 2336:62 2337:3 2338:82 2339:88 2340:26 2341:101 2342:93 2343:57 2344:75 2345:64 2346:36 2347:134 2348:119 2349:112 2350:180 2351:172 2352:169 2353:198 2354:197 2355:193 2356:209 2357:205 2358:202 2359:216 2360:212 2361:209 2362:226 2363:222 2364:219 2365:235 2366:236 2367:231 2401:234 2402:235 2403:219 2404:190 2405:186 2406:138 2407:126 2408:133 2409:63 2410:48 2411:74 2412:1 2413:57 2414:73 2415:2 2416:63 2417:79 2418:6 2419:53 2420:67 2421:5 2422:64 2423:76 2424:4 2425:66 2426:78 2427:4 2428:75 2429:80 2430:14 2431:90 2432:90 2433:40 2434:72 2435:61 2436:33 2437:112 2438:100 2439:88 2440:167 2441:162 2442:158 2443:199 2444:200 2445:194 2446:207 2447:208 2448:203 2449:210 2450:211 2451:206 2452:219 2453:220 2454:215 2455:230 2456:231 2457:226 2497:234 2498:239 2499:233 2500:236 2501:239 2502:222 2503:165 2504:166 2505:96 2506:120 2507:130 2508:59 2509:98 2510:114 2511:41 2512:52 2513:67 2515:47 2516:61 2518:67 2519:77 2520:14 2521:70 2522:73 2523:20 2524:66 2525:68 2526:21 2527:102 2528:99 2529:82 2530:174 2531:175 2532:170 2533:203 2534:204 2535:199 2536:207 2537:208 2538:203 2539:211 2540:212 2541:207 2542:214 2543:215 2544:210 2545:223 2546:224 2547:219 2548:2 2549:2 2593:234 2594:239 2595:233 2596:233 2597:238 2598:232 2599:235 2600:236 2601:222 2602:189 2603:189 2604:137 2605:114 2606:122 2607:49 2608:57 2609:70 2611:53 2612:64 2613:6 2614:53 2615:54 2616:14 2617:68 2618:61 2619:43 2620:152 2621:151 2622:147 2623:202 2624:203 2625:198 2626:209 2627:210 2628:205 2629:212 2630:213 2631:208 2632:220 2633:221 2634:216 2635:225 2636:226 2637:221 2638:229 2639:229 2640:227 2689:236 2690:241 2691:235 2692:233 2693:240 2694:233 2695:234 2696:236 2697:231 2698:232 2699:235 2700:226 2701:59 2702:69 2703:9 2704:128 2705:128 2706:64 2707:74 2708:74 2709:14 2710:55 2711:45 2712:9 2713:116 2714:109 2715:93 2716:204 2717:207 2718:200 2719:214 2720:215 2721:210 2722:220 2723:221 2724:216 2725:227 2726:228 2727:223 2728:236 2729:237 2730:232 2788:234 2789:239 2790:233 2791:232 2792:237 2793:231 2794:232 2795:237 2796:231 2797:236 2798:239 2799:232 2800:235 2801:235 2802:235 2803:90 2804:98 2805:47 2806:85 2807:99 2808:12 2809:107 2810:114 2811:47 2812:210 2813:212 2814:201 2815:231 2816:232 2817:227 2818:237 2819:238 2820:233 2821:237 2822:238 2823:233 2824:237 2825:238 2826:233 2827:1 2828:1 2829:1 2885:1 2890:236 2891:238 2892:233 2893:236 2894:237 2895:232 2896:235 2897:236 2898:231 2899:235 2900:235 2901:233 2902:180 2903:189 2904:158 2905:72 2906:88 2908:89 2909:102 2910:22 2911:230 2912:232 2913:221 2914:236 2915:239 2916:232 2917:236 2918:241 2919:235 2920:236 2921:241 2922:235 2923:238 2924:240 2925:237 2989:237 2990:238 2991:233 2992:237 2993:238 2994:233 2995:237 2996:238 2997:233 2998:234 2999:239 3000:232 3001:241 3002:242 3003:234 3004:78 3005:93 3007:63 3008:73 3009:12 3010:237 3011:238 3012:233 3013:237 3014:238 3015:233 3016:237 3017:238 3018:233 3019:237 3020:237 3021:235 
0.01 47:1 49:245 50:249 51:248 52:244 53:248 54:247 55:243 56:249 57:249 58:243 59:248 60:242 61:118 62:125 63:45 64:104 65:111 66:31 67:207 68:186 69:141 70:241 71:234 72:224 73:248 74:252 75:251 76:248 77:252 78:251 80:1 136:2 137:2 138:2 139:244 140:248 141:247 142:244 143:249 144:245 145:241 146:247 147:235 148:103 149:123 150:36 151:105 152:122 153:42 154:101 155:118 156:38 157:105 158:120 159:37 160:198 161:182 162:133 163:183 164:157 165:120 166:244 167:244 168:244 169:245 170:249 171:248 172:245 173:249 174:248 229:244 230:248 231:247 232:245 233:249 234:248 235:249 236:249 237:247 238:167 239:171 240:94 241:136 242:147 243:68 244:88 245:107 246:18 247:90 248:109 249:20 250:98 251:116 252:30 253:111 254:129 255:43 256:196 257:179 258:136 259:109 260:108 261:44 262:204 263:185 264:145 265:215 266:203 267:187 268:243 269:244 270:239 271:245 272:249 273:248 274:247 275:251 276:250 277:247 278:251 279:250 322:244 323:248 324:247 325:252 326:247 327:227 328:207 329:196 330:140 331:125 332:139 333:60 334:97 335:115 336:29 337:104 338:123 339:33 340:99 341:117 342:31 343:100 344:118 345:34 346:106 347:124 348:40 349:105 350:123 351:39 352:106 353:124 354:38 355:101 356:120 357:31 358:99 359:118 360:29 361:99 362:117 363:31 364:105 365:114 366:35 367:191 368:179 369:137 370:232 371:236 372:235 373:245 374:249 375:248 376:245 377:249 378:248 379:244 380:248 381:247 382:1 383:1 384:1 406:245 407:249 408:248 409:244 410:248 411:249 412:249 413:245 414:234 415:210 416:195 417:140 418:176 419:176 420:122 421:165 422:170 423:103 424:106 425:124 426:42 427:110 428:125 429:42 430:104 431:122 432:38 433:104 434:122 435:38 436:105 437:125 438:40 439:103 440:123 441:38 442:107 443:127 444:42 445:99 446:119 447:32 448:91 449:111 450:22 451:98 452:118 453:29 454:98 455:118 456:29 457:97 458:116 459:27 460:99 461:116 462:38 463:110 464:127 465:49 466:113 467:131 468:49 469:204 470:202 471:161 472:246 473:248 474:247 475:246 476:250 477:249 478:247 479:251 480:250 490:247 491:251 492:250 493:245 494:249 495:248 496:245 497:250 498:246 499:247 500:249 501:244 502:221 503:206 504:175 505:196 506:193 507:142 508:132 509:149 510:79 511:129 512:144 513:77 514:125 515:142 516:72 517:118 518:136 519:62 520:118 521:135 522:64 523:115 524:133 525:57 526:99 527:118 528:36 529:101 530:121 531:36 532:107 533:127 534:42 535:104 536:124 537:39 538:105 539:125 540:40 541:103 542:123 543:38 544:103 545:123 546:38 547:92 548:112 549:25 550:97 551:117 552:30 553:100 554:120 555:33 556:100 557:120 558:33 559:114 560:133 561:51 562:103 563:118 564:33 565:95 566:110 567:25 568:94 569:106 570:20 571:167 572:171 573:136 574:245 575:249 576:252 583:245 584:249 585:248 586:245 587:249 588:248 589:242 590:243 591:237 592:133 593:141 594:58 595:99 596:114 597:29 598:97 599:115 600:31 601:101 602:119 603:37 604:102 605:119 606:41 607:123 608:138 609:69 610:131 611:148 612:77 613:128 614:145 615:75 616:126 617:144 618:70 619:124 620:142 621:68 622:116 623:134 624:60 625:103 626:122 627:41 628:101 629:121 630:36 631:87 632:107 633:22 634:102 635:122 636:37 637:109 638:129 639:44 640:103 641:123 642:38 643:107 644:127 645:42 646:93 647:113 648:28 649:91 650:110 651:28 652:97 653:117 654:32 655:97 656:116 657:27 658:83 659:103 660:14 661:94 662:113 663:24 664:94 665:110 666:21 667:97 668:110 669:31 670:160 671:152 672:131 679:247 680:251 681:250 682:249 683:249 684:249 685:167 686:168 687:102 688:129 689:147 690:65 691:118 692:137 693:55 694:113 695:132 696:50 697:110 698:129 699:47 700:95 701:115 702:30 703:104 704:124 705:39 706:108 707:127 708:48 709:109 710:128 711:49 712:105 713:124 714:45 715:108 716:126 717:50 718:111 719:130 720:51 721:102 722:121 723:42 724:103 725:123 726:38 727:112 728:131 729:49 730:107 731:127 732:38 733:97 734:117 735:30 736:79 737:99 738:12 739:83 740:103 741:14 742:80 743:100 744:11 745:90 746:111 747:18 748:87 749:108 750:17 751:87 752:107 753:18 754:89 755:109 756:20 757:96 758:115 759:26 760:95 761:112 762:20 763:168 764:158 765:107 766:114 767:77 768:58 775:249 776:253 777:252 778:251 779:253 780:252 781:134 782:139 783:59 784:111 785:131 786:44 787:107 788:126 789:47 790:114 791:133 792:52 793:112 794:131 795:50 796:113 797:132 798:51 799:118 800:137 801:56 802:106 803:126 804:41 805:107 806:127 807:42 808:111 809:131 810:44 811:104 812:124 813:39 814:97 815:117 816:32 817:98 818:118 819:33 820:93 821:113 822:28 823:109 824:129 825:44 826:96 827:116 828:29 829:95 830:115 831:26 832:97 833:117 834:28 835:91 836:111 837:22 838:94 839:114 840:25 841:94 842:114 843:25 844:100 845:120 846:31 847:112 848:132 849:43 850:96 851:117 852:26 853:98 854:119 855:28 856:109 857:124 858:39 859:128 860:131 861:54 862:199 863:184 864:141 868:250 869:254 870:253 871:251 872:252 873:254 874:139 875:138 876:90 877:118 878:136 879:52 880:103 881:123 882:38 883:103 884:123 885:38 886:97 887:117 888:32 889:120 890:140 891:55 892:109 893:129 894:44 895:109 896:129 897:44 898:106 899:126 900:41 901:107 902:127 903:42 904:105 905:125 906:40 907:100 908:120 909:35 910:101 911:121 912:32 913:99 914:119 915:30 916:94 917:114 918:25 919:102 920:122 921:37 922:101 923:122 924:31 925:106 926:129 927:39 928:97 929:122 930:31 931:77 932:102 933:11 934:96 935:121 936:30 937:84 938:109 939:17 940:84 941:109 942:18 943:84 944:109 945:18 946:93 947:113 948:24 949:94 950:114 951:29 952:105 953:124 954:42 955:106 956:124 957:40 958:189 959:182 960:136 961:249 962:255 963:253 964:252 965:253 966:255 967:237 968:240 969:223 970:110 971:124 972:36 973:101 974:119 975:35 976:109 977:127 978:43 979:113 980:133 981:48 982:106 983:126 984:41 985:102 986:122 987:37 988:97 989:117 990:32 991:105 992:125 993:40 994:100 995:120 996:35 997:101 998:121 999:36 1000:99 1001:119 1002:32 1003:89 1004:109 1005:20 1006:94 1007:114 1008:27 1009:93 1010:114 1011:23 1012:127 1013:147 1014:58 1015:110 1016:130 1017:41 1018:96 1019:116 1020:27 1021:92 1022:112 1023:23 1024:88 1025:108 1026:19 1027:73 1028:98 1029:6 1030:75 1031:100 1032:8 1033:76 1034:101 1035:10 1036:78 1037:103 1038:11 1039:79 1040:104 1041:13 1042:96 1043:116 1044:29 1045:107 1046:125 1047:41 1048:130 1049:144 1050:65 1051:206 1052:194 1053:152 1054:217 1055:202 1056:163 1057:250 1058:254 1059:253 1060:206 1061:210 1062:173 1063:113 1064:126 1065:46 1066:106 1067:124 1068:40 1069:102 1070:122 1071:37 1072:87 1073:107 1074:18 1075:90 1076:110 1077:21 1078:115 1079:135 1080:50 1081:108 1082:128 1083:43 1084:108 1085:128 1086:41 1087:105 1088:125 1089:36 1090:104 1091:124 1092:39 1093:100 1094:120 1095:35 1096:100 1097:121 1098:30 1099:105 1100:125 1101:40 1102:105 1103:125 1104:36 1105:108 1106:128 1107:39 1108:108 1109:128 1110:39 1111:109 1112:129 1113:40 1114:97 1115:117 1116:28 1117:89 1118:112 1119:22 1120:91 1121:116 1122:25 1123:85 1124:110 1125:19 1126:90 1127:114 1128:28 1129:93 1130:113 1131:28 1132:95 1133:115 1134:26 1135:92 1136:112 1137:23 1138:90 1139:112 1140:27 1141:159 1142:170 1143:102 1144:149 1145:162 1146:92 1147:115 1148:131 1149:56 1150:182 1151:182 1152:132 1153:222 1154:224 1155:203 1156:113 1157:125 1158:51 1159:101 1160:118 1161:38 1162:85 1163:103 1164:17 1165:90 1166:108 1167:24 1168:90 1169:112 1170:29 1171:96 1172:116 1173:29 1174:90 1175:110 1176:25 1177:108 1178:127 1179:46 1180:116 1181:138 1182:56 1183:115 1184:133 1185:57 1186:113 1187:132 1188:53 1189:106 1190:125 1191:43 1192:100 1193:120 1194:35 1195:100 1196:120 1197:35 1198:101 1199:121 1200:34 1201:119 1202:139 1203:50 1204:105 1205:125 1206:36 1207:102 1208:122 1209:35 1210:98 1211:118 1212:31 1213:106 1214:126 1215:39 1216:111 1217:131 1218:46 1219:110 1220:130 1221:43 1222:111 1223:131 1224:44 1225:105 1226:125 1227:38 1228:136 1229:156 1230:69 1231:94 1232:114 1233:29 1234:142 1235:160 1236:84 1237:191 1238:200 1239:137 1240:128 1241:144 1242:69 1243:90 1244:106 1245:33 1246:136 1247:148 1248:82 1249:207 1250:194 1251:141 1252:138 1253:144 1254:72 1255:119 1256:136 1257:58 1258:123 1259:140 1260:62 1261:113 1262:132 1263:53 1264:112 1265:131 1266:52 1267:118 1268:136 1269:62 1270:126 1271:144 1272:70 1273:126 1274:147 1275:72 1276:121 1277:144 1278:66 1279:105 1280:128 1281:48 1282:107 1283:126 1284:45 1285:101 1286:121 1287:36 1288:114 1289:134 1290:45 1291:80 1292:101 1293:6 1294:96 1295:117 1296:26 1297:103 1298:123 1299:34 1300:98 1301:118 1302:29 1303:118 1304:137 1305:55 1306:108 1307:128 1308:43 1309:111 1310:131 1311:46 1312:93 1313:113 1314:26 1315:97 1316:117 1317:28 1318:89 1319:109 1320:20 1321:131 1322:151 1323:66 1324:97 1325:117 1326:30 1327:87 1328:108 1329:17 1330:117 1331:135 1332:61 1333:107 1334:125 1335:51 1336:133 1337:151 1338:77 1339:144 1340:160 1341:87 1342:201 1343:193 1344:144 1345:74 1346:71 1348:79 1349:84 1351:80 1352:84 1354:101 1355:110 1356:29 1357:115 1358:132 1359:54 1360:129 1361:147 1362:73 1363:126 1364:144 1365:70 1366:125 1367:143 1368:69 1369:124 1370:142 1371:66 1372:120 1373:139 1374:60 1375:118 1376:137 1377:58 1378:113 1379:133 1380:48 1381:120 1382:140 1383:55 1384:110 1385:130 1386:45 1387:102 1388:122 1389:33 1390:105 1391:125 1392:40 1393:117 1394:137 1395:52 1396:109 1397:129 1398:44 1399:111 1400:131 1401:46 1402:115 1403:135 1404:48 1405:107 1406:127 1407:38 1408:101 1409:121 1410:32 1411:101 1412:121 1413:32 1414:95 1415:115 1416:26 1417:99 1418:122 1419:32 1420:100 1421:123 1422:33 1423:110 1424:129 1425:48 1426:131 1427:148 1428:70 1429:124 1430:142 1431:66 1432:124 1433:141 1434:70 1435:133 1436:146 1437:77 1438:186 1439:185 1440:129 1441:179 1442:160 1443:102 1444:83 1445:86 1446:5 1447:64 1448:71 1449:3 1450:76 1451:83 1452:3 1453:89 1454:103 1455:24 1456:116 1457:135 1458:56 1459:130 1460:146 1461:73 1462:129 1463:148 1464:69 1465:111 1466:130 1467:51 1468:120 1469:138 1470:62 1471:118 1472:136 1473:62 1474:123 1475:141 1476:65 1477:120 1478:139 1479:58 1480:113 1481:133 1482:48 1483:113 1484:133 1485:48 1486:113 1487:133 1488:44 1489:113 1490:134 1491:43 1492:106 1493:126 1494:37 1495:105 1496:125 1497:36 1498:111 1499:131 1500:42 1501:109 1502:129 1503:40 1504:109 1505:129 1506:40 1507:107 1508:127 1509:38 1510:103 1511:123 1512:34 1513:96 1514:117 1515:24 1516:107 1517:126 1518:44 1519:127 1520:145 1521:71 1522:119 1523:136 1524:68 1525:136 1526:151 1527:84 1528:136 1529:151 1530:84 1531:131 1532:148 1533:78 1534:234 1535:225 1536:192 1537:174 1538:176 1539:137 1540:77 1541:79 1542:4 1543:90 1544:94 1545:10 1546:60 1547:65 1549:98 1550:107 1551:26 1552:98 1553:111 1554:32 1555:108 1556:124 1557:51 1558:115 1559:133 1560:59 1561:120 1562:138 1563:64 1564:128 1565:146 1566:72 1567:135 1568:153 1569:79 1570:139 1571:157 1572:83 1573:108 1574:128 1575:41 1576:119 1577:139 1578:50 1579:120 1580:139 1581:50 1582:125 1583:143 1584:59 1585:126 1586:144 1587:60 1588:109 1589:128 1590:39 1591:103 1592:122 1593:33 1594:115 1595:134 1596:45 1597:112 1598:131 1599:42 1600:102 1601:121 1602:31 1603:109 1604:130 1605:39 1606:84 1607:105 1608:14 1609:89 1610:110 1611:15 1612:92 1613:113 1614:22 1615:124 1616:141 1617:71 1618:139 1619:156 1620:86 1621:131 1622:148 1623:80 1624:105 1625:122 1626:52 1627:114 1628:127 1629:57 1630:124 1631:135 1632:66 1633:251 1634:252 1635:254 1636:89 1637:89 1638:17 1639:80 1640:83 1641:2 1642:82 1643:89 1644:9 1645:104 1646:117 1647:38 1648:115 1649:127 1650:51 1651:113 1652:125 1653:49 1654:100 1655:117 1656:39 1657:113 1658:129 1659:54 1660:127 1661:145 1662:69 1663:133 1664:151 1665:75 1666:117 1667:135 1668:59 1669:118 1670:137 1671:56 1672:114 1673:133 1674:51 1675:114 1676:133 1677:51 1678:118 1679:138 1680:53 1681:135 1682:154 1683:72 1684:95 1685:116 1686:23 1687:89 1688:110 1689:19 1690:90 1691:111 1692:20 1693:93 1694:114 1695:23 1696:91 1697:112 1698:21 1699:86 1700:107 1701:16 1702:94 1703:115 1704:24 1705:86 1706:107 1707:16 1708:73 1709:93 1710:4 1711:130 1712:148 1713:74 1714:123 1715:139 1716:66 1717:125 1718:141 1719:68 1720:132 1721:148 1722:75 1723:116 1724:132 1725:59 1726:117 1727:133 1728:62 1729:255 1730:255 1731:255 1732:89 1733:97 1734:12 1735:114 1736:123 1737:40 1738:125 1739:137 1740:61 1741:150 1742:160 1743:99 1744:94 1745:107 1746:27 1747:101 1748:121 1749:36 1750:95 1751:113 1752:29 1753:90 1754:108 1755:26 1756:92 1757:110 1758:28 1759:106 1760:125 1761:44 1762:113 1763:136 1764:56 1765:120 1766:139 1767:58 1770:4 1772:1 1774:119 1775:139 1776:54 1777:141 1778:160 1779:79 1780:109 1781:129 1782:34 1783:94 1784:114 1785:19 1786:83 1787:104 1788:9 1789:88 1790:109 1791:16 1792:96 1793:117 1794:26 1795:84 1796:105 1797:10 1798:87 1799:108 1800:13 1801:99 1802:112 1803:24 1804:105 1805:125 1806:38 1807:126 1808:143 1809:73 1810:139 1811:156 1812:86 1813:126 1814:143 1815:73 1816:121 1817:138 1818:68 1819:121 1820:138 1821:70 1822:115 1823:112 1824:77 1825:255 1826:255 1827:255 1828:223 1829:225 1830:203 1831:84 1832:90 1833:4 1834:82 1835:93 1836:1 1837:85 1838:96 1839:2 1840:88 1841:98 1842:9 1843:86 1844:100 1845:13 1846:96 1847:113 1848:33 1849:118 1850:137 1851:58 1852:119 1853:137 1854:61 1855:116 1856:134 1857:58 1858:125 1859:143 1860:69 1861:125 1862:143 1863:69 1866:2 1868:4 1870:124 1871:142 1872:58 1873:136 1874:155 1875:63 1876:113 1877:134 1878:41 1879:82 1880:104 1881:6 1882:86 1883:107 1884:12 1885:97 1886:118 1887:23 1888:114 1889:135 1890:42 1891:87 1892:108 1893:17 1894:89 1895:110 1896:17 1897:88 1898:109 1899:14 1900:93 1901:114 1902:21 1903:133 1904:149 1905:76 1906:131 1907:147 1908:76 1909:142 1910:157 1911:90 1912:135 1913:148 1914:78 1915:86 1916:89 1917:46 1918:236 1919:236 1920:234 1921:255 1922:255 1923:255 1924:255 1925:255 1926:255 1927:209 1928:213 1929:186 1930:98 1931:113 1932:22 1933:85 1934:99 1935:11 1936:118 1937:131 1938:52 1939:119 1940:135 1941:64 1942:129 1943:144 1944:75 1945:133 1946:148 1947:79 1948:134 1949:151 1950:80 1951:137 1952:155 1953:81 1954:124 1955:146 1956:71 1957:124 1958:147 1959:67 1960:116 1961:135 1962:54 1963:119 1964:139 1965:54 1966:118 1967:137 1968:48 1969:127 1970:145 1971:59 1972:96 1973:118 1974:20 1975:85 1976:106 1977:11 1978:87 1979:108 1980:13 1981:91 1982:112 1983:17 1984:86 1985:107 1986:12 1987:88 1988:109 1989:14 1990:90 1991:111 1992:16 1993:96 1994:115 1995:23 1996:113 1997:131 1998:47 1999:130 2000:147 2001:69 2002:126 2003:138 2004:66 2005:99 2006:106 2007:39 2008:99 2009:87 2010:63 2011:222 2012:225 2013:218 2014:245 2015:246 2016:241 2020:255 2021:255 2022:255 2023:255 2024:255 2025:255 2026:165 2027:172 2028:131 2029:112 2030:121 2031:42 2032:160 2033:172 2034:106 2035:150 2036:165 2037:98 2038:154 2039:169 2040:102 2041:126 2042:143 2043:73 2044:139 2045:156 2046:86 2047:129 2048:146 2049:75 2050:128 2051:147 2052:68 2053:102 2054:121 2055:40 2056:109 2057:129 2058:40 2059:118 2060:138 2061:49 2062:124 2063:144 2064:59 2065:107 2066:128 2067:33 2068:92 2069:114 2070:13 2071:92 2072:115 2073:11 2074:87 2075:108 2076:13 2077:86 2078:108 2079:10 2080:92 2081:113 2082:18 2083:99 2084:119 2085:22 2086:77 2087:92 2089:80 2090:104 2091:8 2092:92 2093:112 2094:15 2095:115 2096:129 2097:42 2098:132 2099:140 2100:65 2101:83 2102:65 2103:55 2104:205 2105:210 2106:204 2107:231 2108:232 2109:227 2110:253 2111:254 2112:249 2116:255 2117:255 2118:255 2119:255 2120:255 2121:255 2122:255 2123:255 2124:253 2125:150 2126:160 2127:100 2128:141 2129:153 2130:81 2131:126 2132:143 2133:65 2134:140 2135:156 2136:83 2137:129 2138:147 2139:73 2140:130 2141:148 2142:74 2143:128 2144:146 2145:72 2146:124 2147:147 2148:67 2149:120 2150:144 2151:56 2152:126 2153:150 2154:64 2155:117 2156:142 2157:51 2158:134 2159:157 2160:67 2161:96 2162:118 2163:17 2164:95 2165:117 2166:17 2167:96 2168:118 2169:17 2170:67 2171:87 2173:86 2174:106 2175:7 2176:81 2177:97 2179:77 2180:97 2182:68 2183:86 2185:97 2186:112 2187:21 2188:119 2189:133 2190:45 2191:128 2192:143 2193:60 2194:70 2195:54 2196:29 2197:173 2198:164 2199:157 2200:222 2201:224 2202:221 2203:244 2204:245 2205:240 2206:255 2207:255 2208:251 2215:255 2216:255 2217:255 2218:255 2219:255 2220:255 2221:217 2222:224 2223:206 2224:141 2225:152 2226:84 2227:131 2228:142 2229:73 2230:152 2231:168 2232:106 2233:151 2234:168 2235:97 2236:129 2237:150 2238:73 2239:98 2240:122 2241:36 2242:103 2243:128 2244:36 2245:125 2246:149 2247:61 2248:124 2249:144 2250:59 2251:131 2252:151 2253:66 2254:145 2255:163 2256:79 2257:108 2258:129 2259:34 2260:91 2261:113 2262:15 2263:91 2264:113 2265:15 2266:84 2267:106 2268:8 2269:87 2270:109 2271:11 2272:92 2273:112 2274:15 2275:88 2276:104 2277:6 2278:87 2279:108 2280:7 2281:106 2282:120 2283:33 2284:114 2285:122 2286:45 2287:108 2288:104 2289:56 2290:125 2291:118 2292:100 2293:219 2294:220 2295:215 2296:237 2297:238 2298:233 2299:255 2300:255 2301:253 2302:1 2303:1 2304:1 2314:255 2315:255 2316:255 2317:255 2318:255 2319:255 2320:229 2321:231 2322:220 2323:103 2324:119 2325:31 2326:96 2327:111 2328:18 2329:102 2330:122 2331:27 2332:106 2333:127 2334:34 2335:112 2336:132 2337:43 2338:115 2339:138 2340:48 2341:110 2342:135 2343:44 2344:116 2345:140 2346:52 2347:135 2348:154 2349:72 2350:135 2351:155 2352:68 2353:125 2354:146 2355:53 2356:91 2357:113 2358:12 2359:82 2360:107 2361:6 2362:90 2363:110 2364:15 2365:71 2366:92 2367:1 2368:83 2369:104 2370:9 2371:93 2372:115 2373:17 2374:83 2375:101 2376:2 2377:84 2378:97 2379:7 2380:82 2381:73 2382:32 2383:174 2384:166 2385:153 2386:225 2387:226 2388:220 2389:231 2390:232 2391:226 2392:255 2393:255 2394:253 2395:253 2396:253 2397:253 2410:1 2411:1 2412:1 2413:255 2414:255 2415:255 2416:255 2417:254 2418:255 2419:151 2420:159 2421:112 2422:155 2423:167 2424:95 2425:147 2426:163 2427:92 2428:134 2429:153 2430:72 2431:127 2432:147 2433:62 2434:121 2435:145 2436:59 2437:131 2438:155 2439:69 2440:131 2441:155 2442:69 2443:138 2444:156 2445:74 2446:137 2447:155 2448:69 2449:126 2450:146 2451:57 2452:72 2453:92 2454:7 2455:72 2456:93 2457:2 2458:79 2459:101 2460:3 2461:82 2462:102 2463:5 2464:94 2465:110 2466:12 2467:97 2468:114 2469:20 2470:208 2471:203 2472:145 2473:128 2474:112 2475:86 2476:209 2477:205 2478:204 2479:227 2480:228 2481:223 2482:249 2483:250 2484:245 2485:255 2486:255 2487:255 2488:1 2489:1 2490:1 2509:255 2510:255 2511:255 2512:255 2513:255 2514:255 2515:255 2516:255 2517:255 2518:194 2519:201 2520:168 2521:147 2522:161 2523:86 2524:142 2525:158 2526:87 2527:133 2528:150 2529:70 2530:129 2531:148 2532:66 2533:130 2534:150 2535:65 2536:133 2537:151 2538:67 2539:133 2540:150 2541:70 2542:108 2543:128 2544:33 2545:117 2546:136 2547:46 2548:87 2549:103 2550:5 2551:89 2552:106 2553:10 2554:78 2555:95 2556:1 2557:88 2558:108 2559:13 2560:115 2561:116 2562:40 2563:97 2564:72 2565:42 2566:195 2567:191 2568:180 2569:224 2570:223 2571:219 2572:241 2573:242 2574:237 2575:255 2576:255 2577:255 2578:255 2579:255 2580:255 2608:2 2609:2 2610:2 2611:255 2612:255 2613:255 2614:255 2615:255 2616:255 2617:243 2618:245 2619:232 2620:158 2621:168 2622:105 2623:150 2624:162 2625:88 2626:132 2627:149 2628:69 2629:135 2630:155 2631:66 2632:130 2633:149 2634:60 2635:137 2636:156 2637:67 2638:89 2639:109 2640:12 2641:104 2642:124 2643:27 2644:101 2645:122 2646:21 2647:79 2648:99 2649:2 2650:87 2651:104 2652:8 2653:184 2654:173 2655:119 2656:160 2657:144 2658:129 2659:220 2660:219 2661:215 2662:253 2663:254 2664:249 2665:255 2666:255 2667:255 2668:255 2669:255 2670:255 2710:255 2711:255 2712:255 2713:255 2714:255 2715:255 2716:255 2717:255 2718:255 2719:254 2720:254 2721:254 2722:124 2723:141 2724:61 2725:130 2726:149 2727:59 2728:114 2729:129 2730:34 2731:128 2732:143 2733:50 2734:112 2735:127 2736:34 2737:117 2738:133 2739:34 2740:96 2741:108 2742:6 2743:123 2744:134 2745:42 2746:152 2747:135 2748:89 2749:223 2750:218 2751:212 2752:254 2753:254 2754:252 2755:255 2756:255 2757:255 2758:255 2759:255 2760:255 2761:2 2762:2 2763:2 2812:255 2813:255 2814:255 2815:255 2816:255 2817:255 2818:255 2819:255 2820:255 2821:254 2822:254 2823:255 2824:126 2825:136 2826:73 2827:120 2828:127 2829:34 2830:126 2831:137 2832:41 2833:124 2834:135 2835:39 2836:209 2837:190 2838:148 2839:229 2840:218 2841:200 2842:254 2843:255 2844:255 2845:255 2846:255 2847:255 2848:255 2849:255 2850:255 2851:255 2852:255 2853:255 2914:255 2915:255 2916:255 2917:255 2918:255 2919:255 2920:255 2921:255 2922:255 2923:254 2924:254 2925:252 2926:115 2927:115 2928:25 2929:129 2930:123 2931:75 2932:255 2933:255 2934:255 2935:255 2936:255 2937:255 2938:255 2939:255 2940:255 2941:253 2942:253 2943:253 3016:255 3017:255 3018:255 3019:255 3020:254 3021:255 3022:109 3023:105 3024:41 3025:157 3026:155 3027:132 3028:255 3029:255 3030:255 3031:255 3032:255 3033:255 3034:255 3035:255 3036:255 
0.01 22:255 23:255 24:255 25:255 26:255 27:255 28:254 29:254 30:254 31:254 32:255 33:249 34:224 35:192 36:135 37:7 38:8 40:1 41:30 42:12 43:54 44:73 45:9 46:124 47:125 48:55 49:162 50:148 51:75 52:206 53:171 54:113 55:198 56:167 57:110 58:42 59:16 60:17 61:199 62:167 63:180 64:246 65:236 66:245 67:253 68:253 69:253 70:255 71:255 72:255 73:2 74:2 75:2 109:255 110:255 111:255 112:255 113:255 114:255 115:255 116:255 117:255 118:254 119:254 120:254 121:137 122:125 123:85 124:237 125:208 126:150 127:45 128:57 129:9 130:50 131:65 133:34 134:51 136:43 137:61 139:85 140:103 141:27 142:64 143:90 144:27 145:163 146:151 147:79 148:187 149:163 150:101 151:211 152:166 153:109 154:218 155:171 156:117 157:210 158:171 159:140 160:177 161:150 162:157 163:237 164:227 165:238 166:255 167:255 168:255 169:255 170:255 171:255 172:254 173:254 174:254 199:255 200:255 201:255 202:255 203:255 204:255 205:255 206:255 207:255 208:255 209:251 210:255 211:214 212:181 213:114 214:8 215:20 217:63 218:86 219:6 220:65 221:82 222:2 223:69 224:91 225:6 226:31 227:44 229:47 230:63 232:40 233:55 235:52 236:68 237:5 238:130 239:146 240:71 241:145 242:142 243:61 244:150 245:141 246:66 247:209 248:162 249:106 250:211 251:169 252:111 253:215 254:173 255:113 256:245 257:207 258:160 259:174 260:143 261:149 262:250 263:244 264:248 265:254 266:254 267:254 268:255 269:255 270:255 271:253 272:253 273:253 289:255 290:255 291:255 292:254 293:254 294:254 295:255 296:255 297:255 298:254 299:255 300:250 301:40 302:42 303:5 304:126 305:136 306:67 307:118 308:133 309:52 310:74 311:95 312:16 313:67 314:90 315:2 316:53 317:70 319:42 320:60 322:53 323:73 324:4 325:54 326:75 328:53 329:73 330:1 331:52 332:72 333:1 334:169 335:166 336:95 337:84 338:93 339:26 340:131 341:142 342:64 343:148 344:145 345:74 346:214 347:169 348:110 349:215 350:175 351:114 352:218 353:178 354:117 355:235 356:195 357:134 358:162 359:131 360:147 361:251 362:245 363:249 364:255 365:255 366:255 367:255 368:255 369:255 385:255 386:255 387:255 388:254 389:252 390:255 391:160 392:137 393:96 394:147 395:151 396:77 397:125 398:133 399:50 400:47 401:68 402:11 403:55 404:72 405:1 406:59 407:82 409:60 410:83 411:3 412:66 413:88 414:16 415:45 416:63 417:3 418:40 419:60 421:51 422:67 423:4 424:44 425:60 427:67 428:83 429:8 430:120 431:130 432:59 433:79 434:87 435:10 436:75 437:85 438:12 439:93 440:99 441:27 442:102 443:123 444:54 445:213 446:173 447:112 448:213 449:177 450:115 451:223 452:182 453:128 454:90 455:40 456:41 457:190 458:170 459:172 460:255 461:255 462:250 463:255 464:255 465:255 481:255 482:255 483:255 484:133 485:120 486:103 487:174 488:166 489:101 490:52 491:68 492:6 493:59 494:73 495:22 496:41 497:60 498:14 499:40 500:62 502:67 503:92 504:9 505:39 506:61 508:46 509:69 510:1 511:55 512:78 513:6 514:54 515:76 516:1 517:72 518:92 519:31 520:60 521:78 522:16 523:82 524:101 525:19 526:125 527:136 528:70 529:102 530:112 531:41 532:45 533:37 535:182 536:168 537:93 538:192 539:161 540:96 541:203 542:172 543:107 544:202 545:167 546:103 547:205 548:167 549:102 550:24 552:7 553:168 554:139 555:133 556:246 557:239 558:247 559:254 560:254 561:254 562:255 563:255 564:255 565:255 566:255 567:255 568:255 569:255 570:255 577:251 578:254 579:245 580:6 581:21 583:109 584:128 585:47 586:66 587:79 588:10 589:43 590:64 592:61 593:80 594:1 595:85 596:104 597:23 598:21 599:37 601:27 602:43 603:4 604:25 605:41 606:2 607:26 608:43 609:1 610:51 611:72 612:3 613:55 614:76 615:1 616:54 617:71 619:108 620:121 621:49 622:106 623:117 624:48 625:100 626:110 627:37 628:102 629:104 630:31 631:162 632:135 633:66 634:178 635:151 636:84 637:155 638:126 639:58 640:170 641:146 642:74 643:127 644:135 645:52 646:147 647:149 648:66 649:148 650:141 651:63 652:79 653:85 654:11 655:255 656:237 657:210 658:199 659:186 660:195 661:255 662:255 663:255 664:255 665:255 666:255 667:255 668:255 669:255 670:1 671:1 672:1 673:26 674:21 675:17 676:27 677:54 678:3 679:43 680:61 681:1 682:43 683:65 684:3 685:38 686:60 688:55 689:76 690:7 691:42 692:62 693:1 694:65 695:84 696:5 697:75 698:97 699:15 700:18 701:33 703:50 704:69 705:13 706:28 707:46 709:38 710:56 711:4 712:65 713:86 714:11 715:113 716:127 717:52 718:98 719:111 720:31 721:134 722:135 723:67 724:166 725:157 726:90 727:70 728:92 729:10 730:117 731:136 732:55 733:150 734:151 735:73 736:131 737:140 738:57 739:121 740:128 741:48 742:155 743:156 744:78 745:1 746:12 748:58 749:66 750:15 751:43 752:60 753:8 754:76 755:83 756:31 757:68 758:53 759:46 760:255 761:255 762:255 763:255 764:255 765:255 766:255 767:255 768:255 769:76 770:73 771:32 772:62 773:73 774:13 775:44 776:66 777:4 778:50 779:72 780:7 781:39 782:61 784:39 785:61 787:37 788:58 789:1 790:50 791:73 792:3 793:43 794:64 796:42 797:62 799:49 800:67 801:7 802:47 803:66 805:70 806:87 807:17 808:64 809:83 810:4 811:70 812:90 813:1 814:135 815:147 816:73 817:23 818:33 820:50 821:65 823:76 824:92 825:19 826:74 827:88 828:11 829:93 830:107 831:30 832:100 833:114 834:39 835:169 836:178 837:97 838:44 839:50 840:24 841:39 842:57 844:56 845:71 846:4 847:48 848:62 850:46 851:67 853:217 854:195 855:146 856:79 857:63 858:40 859:255 860:255 861:253 862:255 863:255 864:255 865:16 866:31 867:12 868:41 869:62 870:6 871:46 872:68 873:4 874:45 875:67 876:3 877:39 878:61 880:51 881:75 883:68 884:92 885:16 886:34 887:55 889:31 890:47 892:30 893:47 894:2 895:36 896:54 897:6 898:41 899:60 900:5 901:49 902:70 903:5 904:38 905:60 907:70 908:90 909:18 910:116 911:131 912:66 913:85 914:101 915:26 916:87 917:104 918:26 919:87 920:100 921:31 922:84 923:101 924:23 925:82 926:99 927:21 928:3 929:23 931:45 932:65 933:6 934:61 935:85 936:7 937:43 938:66 940:44 941:65 942:6 943:41 944:63 946:43 947:64 949:46 950:66 951:3 952:114 953:121 954:51 955:159 956:132 957:105 958:254 959:255 960:255 961:188 962:159 963:101 964:5 965:11 967:45 968:67 969:3 970:43 971:64 972:5 973:39 974:60 975:3 976:42 977:64 978:2 979:50 980:73 981:1 982:50 983:73 984:3 985:48 986:70 987:8 988:50 989:71 990:4 991:60 992:84 993:6 994:79 995:103 996:17 997:7 998:23 1000:29 1001:45 1002:8 1003:61 1004:85 1005:7 1006:17 1007:29 1008:5 1009:79 1010:96 1011:18 1012:74 1013:91 1014:13 1015:99 1016:113 1017:38 1018:87 1019:107 1020:35 1021:39 1022:61 1023:14 1024:23 1025:47 1027:19 1028:35 1029:9 1030:48 1031:70 1032:6 1033:32 1034:53 1036:49 1037:72 1038:2 1039:54 1040:76 1041:11 1042:57 1043:79 1044:6 1045:43 1046:66 1048:121 1049:131 1050:68 1051:12 1052:36 1054:155 1055:132 1056:126 1057:238 1058:212 1059:213 1061:22 1063:60 1064:82 1065:7 1066:40 1067:60 1068:7 1069:41 1070:62 1071:3 1072:38 1073:59 1074:2 1075:35 1076:56 1078:35 1079:56 1081:41 1082:62 1083:6 1084:38 1085:60 1087:44 1088:65 1090:34 1091:55 1093:37 1094:57 1095:6 1096:36 1097:57 1098:1 1099:37 1100:59 1102:55 1103:66 1104:32 1105:84 1106:95 1107:19 1108:100 1109:116 1110:43 1111:49 1112:68 1113:4 1114:78 1115:98 1116:27 1117:36 1118:61 1119:3 1120:33 1121:53 1123:35 1124:61 1126:44 1127:67 1129:40 1130:61 1131:2 1132:42 1133:65 1135:48 1136:71 1137:3 1138:40 1139:63 1141:75 1142:99 1143:25 1144:65 1145:87 1146:15 1147:56 1148:77 1149:10 1150:164 1151:127 1152:82 1153:251 1154:247 1155:238 1157:9 1159:56 1160:80 1161:6 1162:63 1163:85 1164:10 1165:55 1166:79 1167:5 1168:41 1169:62 1170:6 1171:52 1172:75 1173:5 1174:50 1175:71 1176:6 1177:40 1178:61 1179:2 1180:43 1181:65 1183:40 1184:60 1185:1 1186:40 1187:60 1189:47 1190:70 1191:2 1192:40 1193:59 1194:3 1195:47 1196:67 1197:4 1198:80 1199:101 1200:22 1202:9 1204:36 1205:56 1206:5 1207:35 1208:56 1210:36 1211:56 1212:5 1213:40 1214:61 1215:4 1216:46 1217:67 1218:10 1219:49 1220:72 1221:4 1222:64 1223:88 1224:10 1225:72 1226:103 1227:27 1228:71 1229:101 1230:27 1231:59 1232:85 1233:11 1234:49 1235:72 1237:58 1238:82 1239:4 1240:47 1241:70 1243:56 1244:80 1245:6 1246:196 1247:182 1248:121 1249:255 1250:254 1251:250 1252:119 1253:114 1254:59 1255:44 1256:62 1257:2 1258:38 1259:65 1261:56 1262:79 1263:1 1264:66 1265:88 1266:13 1267:43 1268:66 1270:47 1271:69 1272:4 1273:43 1274:65 1275:1 1276:45 1277:67 1278:5 1279:37 1280:57 1281:4 1282:37 1283:57 1285:47 1286:67 1287:8 1288:45 1289:65 1290:6 1291:47 1292:68 1294:90 1295:110 1296:39 1297:63 1298:85 1299:10 1300:34 1301:55 1303:30 1304:50 1305:1 1306:34 1307:54 1308:1 1309:34 1310:54 1311:1 1312:39 1313:60 1314:1 1315:58 1316:82 1317:8 1318:68 1319:94 1320:21 1321:69 1322:101 1323:26 1324:68 1325:100 1326:24 1327:77 1328:104 1329:25 1330:34 1331:54 1332:5 1333:46 1334:66 1335:3 1336:41 1337:61 1339:44 1340:62 1341:2 1342:238 1343:214 1344:166 1345:255 1346:254 1347:252 1348:196 1349:172 1350:112 1351:33 1352:50 1353:6 1354:54 1355:74 1356:3 1357:58 1358:81 1359:3 1360:58 1361:81 1363:66 1364:90 1365:6 1366:61 1367:86 1368:5 1369:31 1370:49 1371:7 1372:38 1373:59 1374:3 1375:34 1376:55 1378:46 1379:67 1380:2 1381:51 1382:72 1383:7 1384:43 1385:63 1386:2 1387:48 1388:69 1389:2 1390:59 1391:79 1392:26 1393:80 1394:101 1395:22 1396:52 1397:76 1398:2 1399:54 1400:76 1401:12 1402:37 1403:57 1404:8 1405:32 1406:52 1407:1 1408:34 1409:55 1411:59 1412:83 1413:9 1414:51 1415:74 1416:4 1417:91 1418:117 1419:44 1420:33 1421:57 1423:33 1424:54 1426:40 1427:62 1429:40 1430:60 1431:7 1432:38 1433:58 1435:205 1436:186 1437:127 1438:33 1439:12 1440:17 1441:255 1442:255 1443:255 1444:206 1445:170 1446:118 1447:22 1448:52 1449:2 1450:57 1451:80 1452:2 1453:58 1454:81 1455:1 1456:63 1457:86 1458:6 1459:56 1460:78 1461:3 1462:60 1463:82 1464:9 1465:55 1466:77 1467:2 1468:50 1469:71 1470:2 1471:54 1472:77 1473:5 1474:63 1475:86 1476:14 1477:20 1478:37 1479:3 1480:40 1481:59 1482:4 1483:55 1484:77 1485:4 1486:90 1487:113 1488:31 1489:37 1490:55 1491:3 1492:51 1493:74 1494:2 1495:52 1496:75 1497:7 1498:58 1499:82 1500:8 1501:76 1502:99 1503:17 1504:60 1505:84 1506:6 1507:48 1508:66 1509:24 1510:43 1511:65 1512:1 1513:36 1514:57 1516:46 1517:68 1518:4 1519:34 1520:56 1521:9 1522:37 1523:61 1525:38 1526:58 1528:45 1529:65 1530:6 1531:166 1532:140 1533:115 1534:247 1535:243 1536:244 1537:255 1538:255 1539:255 1540:255 1541:251 1542:246 1543:92 1544:117 1545:34 1546:111 1547:126 1548:45 1549:61 1550:89 1551:4 1552:64 1553:88 1554:2 1555:59 1556:81 1558:71 1559:93 1560:11 1561:54 1562:77 1564:42 1565:64 1567:42 1568:64 1570:51 1571:74 1572:6 1573:46 1574:68 1575:3 1576:43 1577:65 1578:3 1579:42 1580:64 1581:2 1582:59 1583:80 1584:11 1586:10 1587:2 1588:24 1589:38 1590:2 1591:43 1592:62 1593:16 1594:34 1595:57 1596:3 1597:37 1598:58 1599:1 1600:40 1601:61 1602:2 1603:39 1604:60 1605:1 1606:33 1607:54 1609:37 1610:58 1611:1 1612:43 1613:65 1614:3 1615:45 1616:65 1617:2 1618:45 1619:63 1620:1 1621:46 1622:67 1623:2 1624:240 1625:219 1626:188 1627:177 1628:165 1629:151 1630:253 1631:255 1632:254 1633:255 1634:255 1635:255 1636:255 1637:253 1638:254 1639:166 1640:143 1641:76 1642:128 1643:136 1644:59 1645:157 1646:168 1647:90 1648:53 1649:77 1651:38 1652:60 1654:57 1655:80 1657:55 1658:78 1660:57 1661:79 1662:4 1663:48 1664:69 1666:59 1667:81 1668:6 1669:44 1670:64 1671:1 1672:42 1673:62 1675:34 1676:55 1678:56 1679:77 1680:2 1681:51 1682:62 1683:30 1684:43 1685:63 1687:36 1688:57 1689:1 1690:37 1691:58 1692:2 1693:34 1694:55 1696:40 1697:61 1698:2 1699:47 1700:68 1701:1 1702:61 1703:82 1704:15 1705:38 1706:57 1707:1 1708:50 1709:71 1710:4 1711:43 1712:65 1713:1 1714:42 1715:59 1716:5 1717:221 1718:211 1719:150 1720:136 1721:120 1722:105 1723:245 1724:245 1725:247 1726:255 1727:255 1728:255 1729:255 1730:255 1731:255 1732:255 1733:255 1734:255 1735:255 1736:255 1737:255 1738:137 1739:140 1740:95 1741:46 1742:73 1743:4 1744:56 1745:80 1746:2 1747:60 1748:83 1749:5 1750:42 1751:65 1753:53 1754:75 1755:2 1756:69 1757:93 1758:7 1759:55 1760:77 1761:4 1762:59 1763:81 1764:8 1765:56 1766:78 1767:3 1768:59 1769:80 1770:5 1771:60 1772:80 1773:8 1774:51 1775:73 1777:148 1778:168 1779:83 1780:54 1781:70 1782:5 1783:34 1784:55 1786:34 1787:55 1789:37 1790:58 1791:1 1792:41 1793:61 1795:44 1796:64 1797:5 1798:43 1799:63 1801:46 1802:67 1803:2 1804:39 1805:59 1806:6 1807:17 1808:43 1809:6 1810:227 1811:184 1812:116 1813:120 1814:93 1815:102 1816:228 1817:225 1818:242 1819:253 1820:253 1821:255 1822:255 1823:255 1824:255 1828:255 1829:255 1830:255 1831:255 1832:255 1833:255 1834:255 1835:255 1836:251 1837:1 1838:4 1840:62 1841:85 1842:3 1843:54 1844:78 1845:2 1846:54 1847:77 1848:5 1849:56 1850:78 1851:3 1852:51 1853:73 1854:1 1855:48 1856:69 1858:47 1859:70 1861:46 1862:66 1863:3 1864:49 1865:70 1866:1 1867:58 1868:80 1869:7 1870:58 1871:81 1873:55 1874:77 1875:4 1876:54 1877:77 1878:7 1879:30 1880:50 1881:1 1882:34 1883:54 1884:3 1885:40 1886:61 1887:2 1888:35 1889:59 1890:1 1891:42 1892:62 1893:1 1894:34 1895:45 1896:15 1897:30 1898:49 1899:3 1900:3 1901:9 1903:209 1904:170 1905:111 1906:6 1907:1 1909:198 1910:186 1911:190 1912:253 1913:248 1914:254 1915:255 1916:255 1917:255 1918:255 1919:255 1920:255 1927:254 1928:254 1929:254 1930:255 1931:255 1932:255 1933:254 1934:254 1935:255 1936:190 1937:175 1938:94 1939:57 1940:79 1942:63 1943:86 1944:6 1945:57 1946:79 1947:4 1948:50 1949:74 1951:49 1952:72 1954:43 1955:65 1956:3 1957:46 1958:68 1959:3 1960:58 1961:74 1962:9 1963:47 1964:67 1966:61 1967:82 1968:7 1969:183 1970:196 1971:127 1972:73 1973:91 1974:33 1975:22 1976:36 1977:1 1978:20 1979:35 1981:29 1982:51 1983:2 1984:31 1985:50 1986:5 1987:30 1988:52 1989:5 1990:26 1991:48 1993:42 1994:60 1995:2 1996:34 1997:53 1999:200 2000:159 2001:107 2002:14 2003:3 2005:227 2006:225 2007:228 2008:255 2009:255 2010:255 2011:255 2012:255 2013:255 2026:255 2027:255 2028:255 2029:255 2030:255 2031:255 2032:255 2033:254 2034:250 2035:160 2036:140 2037:116 2038:85 2039:83 2040:45 2041:57 2042:79 2043:4 2044:53 2045:75 2046:11 2047:56 2048:77 2049:10 2050:52 2051:74 2052:2 2053:51 2054:73 2056:54 2057:76 2058:3 2059:46 2060:69 2062:72 2063:96 2064:12 2065:88 2066:109 2067:42 2068:29 2069:41 2070:19 2071:23 2072:45 2074:25 2075:51 2076:6 2077:28 2078:50 2079:11 2080:19 2081:42 2083:37 2084:58 2085:2 2086:48 2087:68 2088:5 2089:51 2090:67 2091:5 2092:42 2093:57 2094:16 2095:207 2096:176 2097:119 2098:188 2099:164 2100:160 2101:245 2102:246 2103:251 2104:255 2105:255 2106:255 2107:255 2108:255 2109:255 2125:255 2126:255 2127:255 2128:255 2129:255 2130:255 2131:254 2132:254 2133:254 2134:248 2135:237 2136:215 2137:219 2138:189 2139:139 2140:20 2141:39 2142:11 2143:73 2144:92 2145:11 2146:50 2147:70 2148:1 2149:52 2150:73 2152:68 2153:92 2154:8 2155:69 2156:93 2157:5 2158:54 2159:78 2161:86 2162:108 2163:26 2164:30 2165:45 2166:4 2167:41 2168:61 2169:2 2170:37 2171:57 2172:4 2173:22 2174:42 2175:5 2176:34 2177:53 2178:8 2179:36 2180:56 2181:3 2182:38 2183:57 2184:1 2186:12 2188:206 2189:173 2190:119 2191:95 2192:66 2193:50 2194:254 2195:244 2196:252 2197:255 2198:255 2199:255 2200:255 2201:255 2202:255 2203:255 2204:255 2205:255 2224:255 2225:255 2226:255 2227:255 2228:255 2229:255 2230:255 2231:255 2232:255 2233:226 2234:193 2235:184 2236:214 2237:186 2238:138 2239:42 2240:51 2241:22 2242:45 2243:66 2244:7 2245:41 2246:61 2248:42 2249:62 2251:45 2252:66 2253:1 2254:49 2255:72 2257:75 2258:97 2259:12 2260:2 2261:11 2263:49 2264:70 2265:5 2266:42 2267:67 2269:50 2270:71 2271:6 2272:47 2273:63 2274:18 2275:15 2276:24 2278:95 2279:102 2280:6 2281:179 2282:144 2283:88 2284:209 2285:180 2286:138 2287:247 2288:240 2289:247 2290:255 2291:253 2292:254 2293:255 2294:255 2295:255 2296:255 2297:255 2298:255 2299:2 2300:2 2301:2 2323:254 2324:254 2325:254 2326:255 2327:255 2328:255 2329:255 2330:255 2331:255 2332:253 2333:253 2334:251 2335:255 2336:248 2337:242 2338:202 2339:170 2340:111 2341:46 2342:42 2344:67 2345:77 2346:6 2347:49 2348:67 2349:5 2350:44 2351:64 2352:1 2353:54 2354:76 2355:4 2356:16 2357:18 2359:49 2360:75 2361:1 2362:27 2363:46 2365:34 2366:51 2367:6 2368:92 2369:103 2370:34 2371:88 2372:103 2373:18 2374:164 2375:149 2376:82 2377:208 2378:180 2379:130 2380:239 2381:218 2382:223 2383:254 2384:255 2385:250 2386:255 2387:255 2388:255 2389:255 2390:255 2391:255 2425:254 2426:254 2427:254 2428:255 2429:255 2430:255 2431:255 2432:255 2433:255 2434:252 2435:254 2436:253 2437:193 2438:168 2439:114 2440:166 2441:156 2442:95 2443:211 2444:213 2445:150 2446:12 2447:25 2448:5 2449:54 2450:73 2451:18 2452:94 2453:114 2454:27 2455:23 2456:43 2458:104 2459:115 2460:36 2461:114 2462:120 2463:34 2464:119 2465:123 2466:38 2467:156 2468:140 2469:78 2470:241 2471:218 2472:177 2473:243 2474:224 2475:226 2476:255 2477:255 2478:253 2479:255 2480:255 2481:255 2482:255 2483:255 2484:255 2524:255 2525:255 2526:255 2527:255 2528:255 2529:255 2530:255 2531:255 2532:255 2533:253 2534:255 2535:254 2536:1 2537:5 2538:4 2539:50 2540:72 2541:10 2542:190 2543:189 2544:124 2545:76 2546:86 2547:26 2548:63 2549:83 2550:11 2551:109 2552:119 2553:30 2554:112 2555:122 2556:35 2557:111 2558:122 2559:30 2560:217 2561:179 2562:132 2563:52 2564:15 2566:243 2567:238 2568:245 2569:255 2570:253 2571:254 2572:255 2573:255 2574:255 2575:255 2576:255 2577:255 2626:255 2627:255 2628:255 2629:255 2630:255 2631:255 2632:255 2633:255 2634:255 2635:2 2636:3 2637:8 2638:65 2639:88 2641:65 2642:85 2643:16 2644:23 2645:38 2647:69 2648:78 2649:11 2650:184 2651:165 2652:107 2653:247 2654:211 2655:177 2656:220 2657:201 2658:207 2659:243 2660:237 2661:249 2662:253 2663:252 2664:255 2665:255 2666:255 2667:255 2668:255 2669:255 2670:255 2725:255 2726:255 2727:255 2728:255 2729:255 2730:255 2731:255 2732:255 2733:255 2735:3 2736:1 2737:48 2738:60 2741:3 2743:185 2744:163 2745:105 2746:44 2747:11 2748:2 2749:236 2750:229 2751:237 2752:243 2753:235 2754:248 2755:255 2756:255 2757:255 2758:255 2759:255 2760:255 2824:255 2825:255 2826:255 2827:255 2828:255 2829:255 2830:255 2831:255 2832:255 2833:254 2834:254 2835:252 2836:7 2837:2 2838:9 2839:25 2840:2 2842:229 2843:220 2844:225 2845:249 2846:247 2847:252 2848:255 2849:255 2850:255 2851:255 2852:255 2853:255 2923:1 2924:1 2925:1 2926:255 2927:255 2928:255 2929:255 2930:255 2931:255 2932:254 2933:254 2934:254 2935:31 2936:31 2937:5 2938:108 2939:108 2940:74 2941:255 2942:255 2943:255 2944:255 2945:255 2946:255 2947:255 2948:255 2949:255 3025:255 3026:255 3027:255 3028:255 3029:255 3030:255 3031:254 3032:254 3033:254 3034:109 3035:117 3036:16 3037:255 3038:255 3039:255 3040:255 3041:255 3042:255 3043:255 3044:255 3045:255 
