svm_type c_svc
kernel_type rbf
gamma 1e-08
nr_class 2
total_sv 97
rho 0.970374
label 1 -1
probA -723.91
probB -718.878
nr_sv 42 55
SV
0.01 28:1 29:1 30:1 31:255 32:255 33:255 34:255 35:255 36:255 37:255 38:255 39:237 40:158 41:137 42:12 43:187 44:150 46:133 47:81 48:23 49:255 50:255 51:250 52:255 53:255 54:255 55:255 56:255 57:255 58:255 59:255 60:255 61:254 62:254 63:254 118:1 119:1 120:1 121:255 122:255 123:255 124:255 125:255 126:255 127:255 128:255 129:255 130:235 131:226 132:209 133:174 134:148 135:1 136:22 137:29 139:206 140:171 141:5 142:161 143:121 144:7 145:203 146:175 147:16 148:59 149:31 150:7 151:253 152:254 153:246 154:255 155:255 156:255 157:255 158:255 159:255 160:255 161:255 162:255 211:255 212:255 213:255 214:255 215:255 216:255 217:255 218:255 219:255 220:251 221:245 222:233 223:110 224:104 226:89 227:113 228:29 229:1 230:7 231:5 232:157 233:157 234:7 235:207 236:168 237:2 238:210 239:164 240:6 241:106 242:130 243:18 244:109 245:109 246:9 247:4 248:4 249:2 250:70 251:67 253:252 254:253 255:255 256:255 257:255 258:253 259:255 260:255 261:255 262:255 263:255 264:255 265:255 266:255 267:255 301:255 302:255 303:255 304:255 305:255 306:255 307:255 308:255 309:255 310:254 311:255 312:250 313:152 314:134 315:6 316:5 317:6 319:66 320:79 321:9 322:3 323:2 324:7 325:61 326:120 327:14 328:124 329:132 330:10 331:203 332:175 333:5 334:212 335:169 336:4 337:46 338:97 339:2 340:5 341:4 342:2 343:108 344:119 345:14 346:189 347:162 348:9 350:6 352:50 353:35 354:6 355:254 356:254 357:252 358:255 359:255 360:253 361:255 362:255 363:255 364:255 365:255 366:255 367:255 368:255 369:255 394:255 395:255 396:255 397:255 398:255 399:255 400:254 401:255 402:247 403:102 404:95 405:89 406:102 407:114 408:4 409:51 410:91 411:21 413:7 415:10 416:23 419:31 422:5 424:6 425:18 426:6 427:206 428:174 429:1 430:217 431:177 432:4 433:51 434:89 435:2 436:14 437:52 438:1 440:16 441:5 442:1 444:5 445:149 446:157 447:12 450:10 451:1 452:2 453:6 454:58 455:12 457:255 458:255 459:253 460:255 461:255 462:255 463:255 464:255 465:255 466:255 467:255 468:255 484:255 485:255 486:255 487:255 488:255 489:255 490:255 491:255 492:255 493:254 494:254 495:252 496:138 497:135 498:2 499:26 500:38 502:187 503:151 504:5 505:11 506:21 507:10 508:26 509:69 511:27 512:79 513:5 514:4 515:14 516:3 517:27 518:50 520:137 521:147 522:16 523:244 524:195 525:14 526:217 527:181 528:5 529:205 530:193 531:11 532:3 533:14 535:7 537:5 539:27 542:20 544:2 545:4 546:3 547:138 548:157 549:15 550:11 551:46 552:6 553:3 554:12 556:255 557:255 558:223 559:255 560:255 561:253 562:255 563:255 564:255 565:255 566:255 567:255 568:255 569:255 570:255 577:252 578:252 579:252 580:255 581:255 582:255 583:255 584:255 585:255 586:254 587:255 588:247 589:116 590:124 591:13 592:4 593:3 594:1 595:101 596:126 597:9 598:120 599:130 600:7 602:6 604:2 605:28 606:1 607:8 608:47 609:2 610:21 611:71 612:8 613:5 614:41 617:10 619:254 620:220 621:9 622:242 623:218 624:6 625:8 626:16 628:48 629:94 630:47 631:123 632:138 633:53 634:163 635:174 636:18 637:208 638:203 640:180 641:178 642:5 643:212 644:186 645:1 646:150 647:157 648:2 649:17 650:46 652:14 653:66 655:112 656:78 657:7 658:251 659:255 660:254 661:255 662:255 663:255 664:255 665:255 666:255 667:252 668:252 669:252 673:255 674:255 675:255 676:254 677:255 678:255 679:17 680:2 681:5 682:126 683:128 684:5 685:155 686:155 687:5 688:4 689:12 692:11 693:5 694:23 695:74 696:7 697:10 698:34 699:2 701:23 702:3 703:95 704:131 706:152 707:170 708:10 709:215 710:204 711:1 712:173 713:188 714:9 715:227 716:203 717:7 718:150 719:127 721:48 722:76 723:2 724:2 725:2 726:12 727:106 728:127 729:10 730:30 731:53 733:163 734:189 735:144 736:36 737:92 738:47 739:49 740:88 741:7 742:151 743:175 744:3 745:7 746:13 749:24 750:2 752:20 753:3 754:157 755:133 756:35 757:252 758:255 759:248 760:234 761:234 762:234 763:255 764:255 765:255 766:255 767:255 768:255 769:255 770:255 771:255 772:131 773:137 774:127 775:62 776:88 777:15 778:71 779:113 780:11 781:13 782:44 783:10 784:6 785:30 786:6 787:48 788:97 789:8 790:22 791:55 793:233 794:209 795:11 796:227 797:216 798:66 799:18 800:41 802:1 803:32 805:19 806:59 807:9 808:2 809:43 810:1 811:216 812:196 813:11 814:207 815:183 817:160 818:161 820:187 821:178 822:11 823:186 824:192 825:6 826:87 827:109 828:8 830:19 832:9 833:34 834:15 835:42 836:80 837:19 838:97 839:128 840:68 841:187 842:189 843:4 844:106 845:136 846:12 847:46 848:81 850:17 851:47 854:11 856:255 857:255 858:255 859:255 860:255 861:255 862:255 863:255 864:255 865:255 866:253 867:254 868:100 869:102 870:1 872:4 875:16 877:141 878:165 879:27 880:52 881:71 883:124 884:150 885:23 886:201 887:202 888:10 889:115 890:135 891:4 892:98 893:124 894:59 895:22 896:75 897:31 898:85 899:114 900:4 901:7 902:20 904:14 905:36 907:220 908:207 909:7 910:182 911:158 913:134 914:149 915:4 916:1 917:29 918:4 919:26 920:52 921:25 922:86 923:113 924:16 925:211 926:207 927:12 928:185 929:192 930:52 932:59 933:1 934:63 935:99 936:73 937:100 938:120 939:85 940:99 941:132 942:115 943:93 944:127 945:15 946:119 947:141 948:14 949:103 950:142 951:13 952:127 953:113 954:25 955:255 956:255 957:255 958:255 959:255 960:255 961:57 962:55 963:58 964:86 965:108 968:11 969:2 970:95 971:149 972:27 973:127 974:168 975:4 976:152 977:172 978:12 979:138 980:151 981:37 982:208 983:207 984:41 985:175 986:195 987:70 988:51 989:86 990:46 991:27 992:80 993:2 994:5 995:37 996:14 997:2 998:1 1001:6 1003:220 1004:202 1005:4 1006:191 1007:175 1008:1 1009:145 1010:170 1011:50 1012:90 1013:113 1014:43 1015:130 1016:140 1017:9 1018:181 1019:163 1020:1 1021:225 1022:208 1023:7 1024:228 1025:202 1026:3 1027:151 1028:159 1029:24 1031:58 1033:53 1034:92 1035:74 1036:10 1037:51 1038:9 1039:172 1040:180 1041:42 1042:89 1043:131 1044:45 1045:65 1046:92 1048:119 1049:81 1051:254 1052:254 1053:254 1054:255 1055:255 1056:255 1057:28 1058:17 1060:5 1061:67 1062:4 1063:3 1064:22 1066:2 1067:16 1068:3 1069:107 1070:142 1071:12 1073:13 1075:92 1076:115 1077:97 1078:142 1079:169 1080:138 1082:18 1084:60 1085:90 1086:18 1087:65 1088:118 1090:106 1091:141 1093:68 1094:109 1095:3 1096:3 1097:22 1098:2 1099:216 1100:187 1101:8 1102:196 1103:174 1105:134 1106:137 1107:4 1108:3 1109:29 1110:4 1111:2 1112:25 1113:5 1114:113 1115:149 1116:39 1117:26 1118:56 1119:6 1120:153 1121:172 1122:57 1123:191 1124:186 1125:8 1126:211 1127:197 1128:2 1129:78 1130:137 1131:57 1132:19 1133:66 1134:34 1135:157 1136:165 1137:44 1138:217 1139:193 1140:5 1141:232 1142:199 1144:151 1145:116 1146:50 1147:254 1148:255 1149:255 1150:255 1151:255 1152:255 1153:76 1154:71 1155:15 1156:9 1157:66 1160:45 1161:2 1163:43 1165:99 1166:149 1168:39 1169:70 1170:28 1171:42 1172:73 1173:39 1174:38 1175:72 1176:47 1177:8 1178:47 1179:2 1180:3 1181:33 1182:5 1184:11 1186:69 1187:107 1188:8 1189:167 1190:176 1192:141 1193:155 1194:6 1195:210 1196:190 1197:7 1198:190 1199:179 1200:11 1201:206 1202:196 1204:152 1205:167 1206:14 1207:46 1208:88 1209:14 1210:57 1211:85 1212:60 1213:4 1214:12 1216:161 1217:166 1218:1 1219:132 1220:147 1221:6 1222:202 1223:199 1225:205 1226:195 1227:22 1228:135 1229:156 1230:15 1231:175 1232:167 1234:210 1235:189 1236:2 1237:226 1238:194 1240:170 1241:150 1242:81 1243:254 1244:254 1245:254 1246:255 1247:255 1248:255 1249:122 1250:104 1251:22 1252:69 1253:104 1254:2 1255:16 1256:58 1257:10 1258:98 1259:137 1260:8 1262:7 1264:35 1265:54 1266:32 1267:26 1268:61 1269:31 1270:8 1271:8 1273:128 1274:166 1275:45 1276:148 1277:179 1278:24 1279:59 1280:94 1281:14 1283:24 1286:41 1287:1 1288:2 1289:18 1290:5 1291:188 1292:182 1293:8 1294:190 1295:181 1296:2 1297:212 1298:204 1299:9 1300:155 1301:175 1303:36 1304:67 1306:2 1307:75 1308:22 1309:73 1310:111 1311:34 1312:167 1313:176 1314:9 1315:202 1316:186 1317:5 1318:205 1319:204 1321:184 1322:184 1324:215 1325:187 1327:196 1328:173 1329:5 1330:172 1331:171 1332:1 1333:186 1334:168 1336:227 1337:197 1338:3 1339:254 1340:255 1341:245 1342:255 1343:255 1344:255 1345:170 1346:133 1347:16 1348:161 1349:155 1351:145 1352:154 1353:3 1354:89 1355:126 1356:12 1357:80 1358:118 1359:19 1360:67 1361:97 1362:1 1363:198 1364:208 1365:15 1366:112 1367:157 1368:12 1370:31 1372:97 1373:131 1374:106 1375:27 1376:70 1377:27 1379:24 1380:2 1382:16 1383:3 1384:1 1386:5 1387:130 1388:159 1389:15 1390:203 1391:188 1392:7 1393:151 1394:167 1395:6 1396:8 1397:15 1398:8 1400:24 1402:2 1403:13 1404:7 1405:86 1406:129 1407:75 1408:87 1409:116 1410:60 1411:22 1412:78 1413:17 1414:148 1415:143 1417:190 1418:189 1419:3 1421:11 1422:1 1423:103 1424:118 1425:1 1426:135 1427:142 1429:218 1430:181 1431:5 1432:212 1433:176 1434:2 1435:180 1436:147 1437:18 1438:255 1439:255 1440:255 1441:174 1442:149 1443:5 1444:152 1445:153 1447:70 1448:116 1449:8 1450:1 1451:30 1453:122 1454:155 1455:4 1456:140 1457:168 1459:60 1460:93 1461:14 1463:10 1465:55 1466:115 1467:29 1468:78 1469:133 1470:40 1471:34 1472:80 1473:34 1475:18 1477:38 1478:61 1479:9 1480:95 1481:143 1482:8 1483:132 1484:149 1485:8 1486:186 1487:196 1488:3 1489:168 1490:186 1491:50 1492:28 1493:56 1494:8 1495:183 1496:188 1497:10 1498:181 1499:184 1500:5 1501:141 1502:156 1503:3 1504:124 1505:136 1507:63 1508:102 1511:31 1514:10 1516:81 1517:110 1518:4 1519:204 1520:173 1521:4 1522:175 1523:147 1524:3 1525:203 1526:166 1528:224 1529:185 1530:2 1531:251 1532:250 1533:196 1534:255 1535:254 1536:255 1537:124 1538:118 1539:8 1540:160 1541:167 1542:1 1543:143 1544:166 1546:85 1547:126 1548:6 1549:105 1550:145 1551:12 1552:120 1553:149 1555:30 1556:86 1557:15 1558:4 1559:52 1562:12 1564:7 1565:26 1566:6 1567:39 1568:76 1569:33 1570:53 1571:103 1572:8 1573:92 1574:151 1575:11 1576:5 1577:64 1580:9 1581:2 1582:187 1583:192 1584:1 1585:248 1586:251 1587:74 1589:4 1590:2 1592:23 1593:1 1594:21 1595:72 1596:16 1597:30 1598:50 1600:180 1601:165 1602:4 1603:200 1604:168 1606:199 1607:161 1608:2 1609:193 1610:149 1611:1 1612:196 1613:155 1614:5 1615:203 1616:164 1617:1 1618:211 1619:166 1620:5 1621:217 1622:174 1624:224 1625:164 1626:6 1627:254 1628:254 1629:254 1630:255 1631:255 1632:255 1633:255 1634:255 1635:255 1636:172 1637:169 1638:4 1639:125 1640:154 1641:10 1642:127 1643:159 1644:13 1645:152 1646:156 1647:7 1648:124 1649:160 1650:8 1651:125 1652:160 1653:4 1654:88 1655:132 1656:21 1657:101 1658:147 1660:122 1661:152 1662:4 1663:136 1664:159 1665:7 1666:163 1667:183 1668:6 1669:146 1670:172 1671:1 1672:112 1673:153 1676:23 1678:160 1679:179 1680:1 1681:199 1682:194 1683:4 1684:80 1685:95 1686:2 1687:4 1688:2 1689:5 1691:5 1692:1 1693:15 1694:52 1695:9 1696:98 1697:114 1698:5 1699:174 1700:156 1702:204 1703:165 1704:2 1705:197 1706:161 1707:3 1708:194 1709:158 1711:215 1712:180 1714:219 1715:178 1716:10 1717:210 1718:175 1720:184 1721:132 1722:20 1723:255 1724:255 1725:253 1726:255 1727:255 1728:255 1729:251 1730:255 1731:254 1732:143 1733:137 1734:121 1735:216 1736:184 1737:3 1738:234 1739:207 1740:6 1741:192 1742:176 1743:5 1744:117 1745:144 1746:13 1747:146 1748:157 1749:1 1750:152 1751:160 1753:76 1754:139 1755:6 1756:8 1757:36 1760:26 1762:92 1763:117 1764:75 1765:80 1766:119 1767:72 1768:124 1769:171 1770:93 1771:35 1772:69 1773:42 1774:156 1775:175 1777:196 1778:184 1780:194 1781:177 1783:3 1784:5 1785:2 1786:129 1787:130 1788:2 1789:124 1790:131 1791:2 1792:168 1793:152 1794:7 1795:200 1796:165 1798:184 1799:159 1801:151 1802:140 1804:181 1805:167 1807:179 1808:161 1809:1 1810:195 1811:173 1812:1 1813:214 1814:179 1816:246 1817:219 1818:8 1819:224 1820:213 1821:157 1822:255 1823:252 1824:255 1825:255 1826:255 1827:255 1828:255 1829:255 1830:251 1831:27 1832:10 1834:255 1835:220 1836:16 1837:160 1838:186 1839:3 1840:178 1841:182 1842:1 1843:218 1844:213 1845:8 1846:213 1847:194 1848:4 1849:224 1850:218 1852:193 1853:181 1855:167 1856:177 1857:2 1858:135 1859:154 1860:10 1861:125 1862:157 1863:20 1864:166 1865:173 1866:15 1867:129 1868:154 1870:116 1871:146 1872:14 1873:228 1874:209 1875:11 1876:194 1877:180 1879:146 1880:144 1882:67 1883:103 1885:112 1886:128 1887:4 1888:124 1889:132 1891:102 1892:120 1893:10 1894:145 1895:153 1896:16 1897:156 1898:154 1899:7 1900:181 1901:173 1902:2 1903:185 1904:168 1905:3 1906:196 1907:184 1908:2 1909:168 1910:169 1911:6 1912:177 1913:176 1915:246 1916:240 1917:40 1918:255 1919:254 1920:218 1921:255 1922:255 1923:255 1924:255 1925:255 1926:255 1927:255 1928:255 1929:255 1930:201 1931:161 1932:3 1933:220 1934:208 1935:2 1936:104 1937:115 1939:136 1940:169 1941:26 1942:255 1943:240 1944:101 1945:212 1946:209 1947:80 1948:168 1949:183 1950:18 1951:143 1952:163 1953:14 1954:169 1955:185 1956:24 1957:184 1958:196 1959:10 1960:211 1961:198 1963:232 1964:216 1965:6 1966:211 1967:197 1969:230 1970:220 1971:1 1972:215 1973:196 1975:170 1976:166 1977:5 1978:64 1979:114 1980:15 1981:131 1982:139 1983:4 1984:158 1985:150 1986:3 1987:177 1988:157 1990:174 1991:165 1992:2 1993:150 1994:160 1995:3 1996:107 1997:128 1998:7 1999:111 2000:135 2002:186 2003:169 2004:3 2005:179 2006:176 2008:161 2009:159 2011:182 2012:169 2013:3 2014:224 2015:187 2016:11 2017:254 2018:254 2019:254 2020:255 2021:255 2022:255 2023:255 2024:255 2025:255 2026:81 2027:71 2028:70 2029:167 2030:163 2031:2 2032:154 2033:160 2035:132 2036:156 2037:10 2038:190 2039:189 2041:98 2042:126 2043:5 2044:142 2045:174 2046:75 2047:201 2048:203 2049:78 2050:199 2051:200 2052:60 2053:220 2054:224 2055:41 2056:161 2057:155 2058:5 2059:178 2060:182 2061:1 2062:179 2063:180 2065:161 2066:159 2068:161 2069:159 2071:194 2072:187 2073:10 2074:97 2075:122 2077:141 2078:140 2080:156 2081:151 2083:135 2084:137 2085:2 2086:149 2087:140 2088:9 2089:194 2090:159 2091:5 2092:208 2093:171 2094:4 2095:210 2096:177 2098:201 2099:178 2100:2 2101:162 2102:155 2103:2 2104:181 2105:172 2106:9 2107:197 2108:181 2110:225 2111:195 2116:255 2117:255 2118:255 2119:255 2120:255 2121:255 2122:255 2123:255 2124:255 2125:17 2126:55 2127:14 2128:5 2129:39 2130:4 2131:10 2132:71 2133:11 2135:24 2137:117 2138:164 2139:22 2140:147 2141:163 2142:5 2143:128 2144:159 2145:4 2146:13 2147:57 2149:75 2150:125 2151:4 2152:141 2153:161 2154:10 2155:163 2156:165 2158:165 2159:171 2160:3 2161:147 2162:165 2163:1 2164:167 2165:173 2166:1 2167:179 2168:179 2170:141 2171:145 2173:97 2174:120 2175:3 2176:127 2177:144 2178:4 2179:145 2180:154 2181:3 2182:129 2183:132 2184:3 2185:150 2186:150 2188:157 2189:151 2191:168 2192:162 2193:2 2194:180 2195:165 2196:2 2197:197 2198:177 2199:4 2200:179 2201:167 2203:195 2204:181 2206:114 2207:97 2208:5 2215:255 2216:255 2217:255 2218:255 2219:255 2220:255 2221:253 2222:255 2223:250 2224:97 2225:113 2226:48 2227:10 2228:21 2229:7 2230:5 2231:17 2232:5 2233:2 2234:1 2236:2 2237:3 2238:5 2239:33 2240:89 2241:16 2243:10 2245:1 2246:6 2248:1 2249:14 2250:5 2251:55 2252:112 2253:7 2254:28 2255:89 2256:12 2257:56 2258:115 2259:21 2260:134 2261:163 2262:9 2263:188 2264:191 2265:12 2266:153 2267:162 2268:9 2270:27 2272:102 2273:135 2274:2 2275:86 2276:128 2278:72 2279:120 2280:11 2281:107 2282:138 2283:8 2284:102 2285:132 2286:2 2287:115 2288:124 2290:153 2291:160 2292:2 2293:147 2294:156 2295:3 2296:173 2297:169 2299:211 2300:184 2301:7 2302:255 2303:254 2304:255 2314:255 2315:255 2316:255 2317:249 2318:249 2319:249 2320:253 2321:255 2322:250 2323:253 2324:253 2325:251 2326:31 2327:96 2328:4 2329:4 2331:3 2332:7 2333:17 2334:8 2335:20 2336:107 2337:10 2338:5 2339:45 2341:7 2342:8 2343:13 2346:2 2347:1 2348:3 2349:2 2350:3 2351:12 2352:7 2353:1 2354:11 2355:3 2356:63 2357:124 2358:5 2359:153 2360:142 2362:189 2363:182 2364:6 2365:139 2366:139 2367:9 2368:158 2369:151 2370:1 2371:140 2372:144 2374:137 2375:136 2376:18 2377:173 2378:161 2379:13 2380:199 2381:173 2382:2 2383:219 2384:186 2385:13 2386:197 2387:169 2389:186 2390:164 2391:1 2392:207 2393:185 2394:4 2395:253 2396:255 2397:234 2398:255 2399:255 2400:253 2410:1 2411:1 2412:1 2413:255 2414:255 2415:255 2416:255 2417:255 2418:255 2419:255 2420:255 2421:255 2422:255 2423:255 2424:255 2425:190 2426:196 2427:184 2428:5 2429:43 2430:4 2431:6 2432:74 2434:1 2435:39 2436:2 2438:26 2439:1 2440:7 2441:24 2442:6 2443:32 2444:61 2445:30 2446:12 2447:26 2448:13 2449:1 2452:48 2453:93 2454:10 2455:144 2456:154 2457:3 2458:190 2459:192 2461:146 2462:137 2463:6 2464:14 2465:41 2467:3 2468:18 2470:93 2471:126 2472:9 2473:85 2474:121 2476:57 2477:125 2478:6 2479:85 2480:126 2481:4 2482:135 2483:149 2484:4 2485:170 2486:170 2487:12 2488:248 2489:255 2490:226 2491:253 2492:255 2493:254 2494:255 2495:255 2496:255 2515:255 2516:255 2517:255 2518:255 2519:255 2520:255 2521:255 2522:255 2523:255 2524:255 2525:255 2526:253 2527:255 2528:255 2529:250 2531:37 2533:32 2534:81 2536:49 2537:107 2538:5 2539:5 2540:59 2541:7 2542:11 2543:45 2544:12 2545:2 2546:13 2547:9 2548:1 2549:6 2550:2 2551:56 2552:124 2553:13 2554:163 2555:163 2556:3 2557:168 2558:157 2559:3 2560:120 2561:137 2563:119 2564:132 2566:128 2567:134 2568:10 2569:92 2570:120 2572:84 2573:117 2574:12 2575:118 2576:148 2577:14 2578:143 2579:160 2580:32 2581:255 2582:255 2583:251 2584:255 2585:255 2586:255 2587:255 2588:255 2589:255 2590:255 2591:255 2592:255 2593:255 2594:255 2595:255 2596:255 2597:255 2598:255 2599:255 2600:255 2601:255 2602:255 2603:255 2604:255 2617:1 2618:1 2619:1 2620:255 2621:255 2622:255 2623:255 2624:255 2625:255 2626:255 2627:255 2628:255 2629:255 2630:255 2631:255 2632:255 2633:255 2634:255 2636:8 2637:7 2638:50 2639:106 2640:19 2641:1 2642:27 2645:10 2648:22 2650:52 2651:96 2652:7 2653:106 2654:149 2655:16 2656:2 2657:1 2658:7 2660:36 2662:1 2663:62 2664:3 2665:44 2666:89 2667:4 2668:5 2669:16 2671:254 2672:254 2673:254 2674:255 2675:255 2676:255 2677:255 2678:255 2679:255 2680:255 2681:255 2682:255 2683:255 2684:255 2685:255 2686:1 2687:1 2688:1 2689:255 2690:255 2691:255 2692:255 2693:255 2694:255 2695:255 2696:255 2697:255 2698:255 2699:255 2700:255 2725:254 2726:254 2727:254 2728:236 2729:236 2730:236 2731:255 2732:255 2733:255 2734:255 2735:255 2736:255 2737:255 2738:255 2739:255 2740:255 2741:255 2742:255 2743:255 2744:255 2745:255 2746:6 2748:6 2749:93 2750:116 2751:8 2752:4 2753:1 2754:8 2755:255 2756:255 2757:255 2758:255 2759:255 2760:255 2761:255 2762:255 2763:255 2764:255 2765:255 2766:255 2767:255 2768:255 2769:255 2770:255 2771:255 2772:255 2773:255 2774:255 2775:255 2776:1 2777:1 2778:1 2815:255 2816:255 2817:255 2818:255 2819:255 2820:255 2821:255 2822:255 2823:255 2824:255 2825:255 2826:255 2827:255 2828:255 2829:255 2830:255 2831:255 2832:255 2833:255 2834:255 2835:255 2836:255 2837:255 2838:255 2839:255 2840:255 2841:255 2842:255 2843:254 2844:252 2845:75 2846:98 2847:8 2848:3 2851:255 2852:255 2853:255 2854:250 2855:250 2856:250 2857:255 2858:255 2859:255 2860:255 2861:255 2862:255 2863:255 2864:255 2865:255 2911:255 2912:255 2913:255 2914:255 2915:255 2916:255 2917:255 2918:255 2919:255 2920:255 2921:255 2922:255 2923:255 2924:255 2925:255 2926:255 2927:255 2928:255 2929:255 2930:255 2931:255 2932:255 2933:255 2934:255 2935:255 2936:255 2937:255 2938:255 2939:255 2940:255 2941:60 2942:72 2943:10 2944:4 2945:4 2947:255 2948:255 2949:255 2950:244 2951:244 2952:244 2953:255 2954:255 2955:255 2956:251 2957:251 2958:251 3028:254 3029:254 3030:254 3031:255 3032:255 3033:255 3034:255 3035:255 3036:255 3037:45 3038:63 3039:21 3040:83 3041:111 3042:1 3043:255 3044:253 3045:255 3046:255 3047:255 3048:255 3049:255 3050:255 3051:255 3052:255 3053:255 3054:255 
0.01 46:255 47:255 48:255 49:255 50:255 51:255 52:254 53:255 54:250 55:249 56:247 57:235 58:160 59:125 60:9 61:174 62:130 63:9 64:254 65:254 66:246 67:255 68:255 69:255 70:255 71:255 72:255 73:255 74:255 75:255 136:254 137:254 138:254 139:255 140:255 141:255 142:255 143:255 144:255 145:74 146:65 147:56 148:179 149:140 150:3 151:193 152:149 153:14 154:194 155:147 157:177 158:130 160:199 161:147 162:11 163:255 164:255 165:243 166:255 167:255 168:255 169:255 170:255 171:255 172:255 173:255 174:255 226:255 227:255 228:255 229:255 230:255 231:255 232:255 233:255 234:255 235:92 236:90 237:77 238:172 239:137 240:9 241:182 242:150 243:5 244:94 245:95 246:19 247:205 248:148 249:17 250:199 251:154 252:3 253:192 254:144 256:190 257:141 258:4 259:204 260:148 262:31 264:8 265:254 266:254 267:255 268:255 269:255 270:255 271:255 272:255 273:255 274:255 275:255 276:255 316:255 317:255 318:255 319:255 320:255 321:255 322:255 323:254 324:249 325:20 326:10 328:200 329:158 331:200 332:156 334:208 335:152 336:7 337:27 338:21 340:6 341:15 343:211 344:163 345:5 346:229 347:185 348:2 349:43 350:68 351:29 352:1 353:2 355:166 356:143 357:31 358:209 359:157 360:19 361:116 362:104 363:20 364:254 365:255 366:250 367:254 368:255 369:255 370:255 371:255 372:255 373:255 374:255 375:255 406:255 407:255 408:255 409:255 410:255 411:255 412:255 413:255 414:255 415:30 416:3 418:215 419:173 420:1 421:115 422:94 424:245 425:202 426:9 427:219 428:160 429:4 430:204 431:143 432:1 433:219 434:176 435:9 436:204 437:149 438:5 439:221 440:169 441:7 442:193 443:160 444:29 445:4 446:4 447:12 448:1 449:3 451:81 452:94 453:24 454:2 455:8 456:20 457:102 458:92 460:184 461:136 462:2 463:184 464:134 465:13 466:254 467:255 468:249 469:255 470:255 471:255 472:255 473:255 474:255 475:255 476:255 477:255 478:1 479:1 480:1 496:1 497:1 498:1 499:255 500:255 501:255 502:255 503:255 504:251 505:254 506:255 507:249 508:198 509:151 510:13 511:227 512:195 513:22 514:213 515:221 516:83 518:19 519:6 520:251 521:204 522:62 523:210 524:199 525:73 526:140 527:161 528:68 529:157 530:163 531:117 532:193 533:157 534:9 535:225 536:169 537:14 538:207 539:151 540:4 541:238 542:185 543:19 544:208 545:158 546:9 547:110 548:94 549:16 552:15 553:187 554:142 555:15 556:29 557:28 558:8 559:196 560:152 561:4 562:195 563:144 564:3 565:255 566:254 567:233 568:255 569:254 570:255 571:255 572:255 573:255 574:255 575:255 576:255 589:255 590:255 591:255 592:255 593:255 594:255 595:253 596:255 597:252 598:11 599:4 601:229 602:201 604:18 605:32 606:7 607:53 608:61 609:1 610:246 611:223 612:47 613:189 614:161 615:61 616:176 617:169 618:55 619:255 620:230 621:113 622:240 623:194 624:49 625:189 626:167 627:29 628:204 629:154 630:3 631:190 632:152 633:19 634:192 635:167 636:15 637:163 638:159 639:36 640:203 641:154 643:196 644:156 646:205 647:163 648:3 650:9 651:1 652:7 653:11 655:188 656:170 657:8 658:197 659:145 661:201 662:145 663:8 664:28 665:6 667:255 668:255 669:253 670:255 671:255 672:255 673:255 674:255 675:255 676:255 677:255 678:255 679:255 680:255 681:255 682:255 683:255 684:255 685:255 686:255 687:255 688:254 689:255 690:250 691:182 692:138 693:39 694:224 695:193 696:14 697:204 698:195 699:58 700:71 701:113 702:65 703:212 704:170 705:22 706:207 707:183 708:77 709:101 710:108 711:54 712:11 713:22 715:255 716:219 717:45 718:241 719:188 720:14 721:210 722:167 724:236 725:175 726:7 727:223 728:167 729:8 730:110 731:105 732:1 733:1 734:8 735:1 736:9 737:21 738:1 739:55 740:78 741:50 742:14 743:45 744:3 745:108 746:117 747:62 748:230 749:179 750:12 751:192 752:177 753:52 754:23 755:48 756:45 757:179 758:211 759:164 760:217 761:186 762:7 763:188 764:174 765:173 766:255 767:255 768:255 775:255 776:255 777:255 778:255 779:255 780:255 781:255 782:255 783:255 784:182 785:149 786:8 787:200 788:160 789:13 790:48 791:49 792:31 793:122 794:118 795:31 796:220 797:176 798:5 799:67 800:101 801:6 802:52 803:69 804:37 805:1 806:14 808:16 809:43 810:26 811:167 812:153 813:30 814:247 815:199 816:27 817:226 818:167 819:1 820:173 821:117 822:4 823:179 824:134 825:7 826:222 827:175 829:154 830:127 831:24 832:1 833:8 834:1 836:10 837:6 838:10 839:36 841:22 842:37 843:18 844:247 845:205 846:35 847:217 848:174 849:7 850:231 851:182 852:2 853:240 854:219 855:78 856:20 857:39 858:37 859:207 860:186 861:5 862:254 863:254 864:252 871:255 872:255 873:255 874:255 875:255 876:255 877:26 878:1 880:176 881:145 882:5 883:240 884:223 885:91 886:244 887:192 888:21 889:188 890:167 891:16 893:11 895:89 896:90 897:30 898:229 899:185 900:34 901:196 902:143 903:1 904:195 905:159 906:23 907:9 908:3 909:5 910:8 911:1 912:19 913:224 914:183 915:15 916:157 917:117 918:4 919:224 920:157 921:14 922:227 923:181 924:8 925:49 926:70 927:27 928:41 929:38 930:3 931:8 932:17 934:195 935:149 936:4 937:169 938:128 940:233 941:201 942:30 944:1 945:6 946:1 948:4 949:210 950:166 952:156 953:120 954:10 955:173 956:163 957:6 958:207 959:148 960:10 964:255 965:255 966:255 967:255 968:255 969:255 970:255 971:250 972:247 973:201 974:153 975:7 976:195 977:165 978:9 979:210 980:167 982:210 983:167 984:3 985:200 986:155 987:2 988:209 989:163 991:198 992:156 993:10 994:209 995:156 996:24 998:9 1000:47 1001:58 1002:26 1003:18 1004:32 1005:6 1006:14 1007:39 1008:7 1009:197 1010:157 1012:181 1013:135 1015:203 1016:147 1017:2 1018:2 1020:14 1021:6 1022:8 1023:5 1025:10 1027:22 1028:28 1031:5 1032:3 1033:206 1034:177 1035:41 1036:175 1037:132 1039:212 1040:159 1041:31 1042:143 1043:126 1044:8 1045:195 1046:175 1047:18 1048:246 1049:197 1050:17 1051:78 1052:66 1053:14 1054:211 1055:167 1056:6 1057:255 1058:255 1059:255 1060:253 1061:255 1062:254 1063:255 1064:255 1065:238 1066:185 1067:142 1068:1 1069:140 1070:142 1071:6 1072:205 1073:162 1074:5 1075:185 1076:153 1077:8 1078:229 1079:173 1080:14 1081:205 1082:162 1083:5 1084:193 1085:164 1086:36 1087:51 1088:77 1089:42 1090:158 1091:141 1092:1 1093:228 1094:188 1095:30 1096:120 1097:115 1098:15 1099:68 1100:93 1101:61 1102:197 1103:180 1104:50 1105:251 1106:198 1107:56 1108:255 1109:222 1110:52 1111:174 1112:145 1113:17 1114:4 1115:6 1116:3 1117:3 1118:16 1119:6 1120:13 1121:36 1122:10 1123:228 1124:176 1125:14 1126:213 1127:143 1128:11 1129:224 1130:167 1131:2 1132:234 1133:177 1134:2 1135:188 1136:167 1137:60 1138:49 1139:74 1140:32 1141:46 1142:60 1143:9 1144:157 1145:151 1146:1 1147:211 1148:183 1150:199 1151:147 1152:35 1153:255 1154:255 1155:255 1156:255 1157:253 1158:254 1159:138 1160:89 1161:13 1162:166 1163:155 1164:3 1165:86 1166:80 1167:68 1168:93 1169:116 1170:108 1171:204 1172:183 1173:6 1174:144 1175:136 1176:61 1177:61 1178:75 1179:50 1180:154 1181:174 1182:85 1183:154 1184:175 1185:100 1186:94 1187:103 1188:56 1189:42 1190:82 1191:56 1192:207 1193:203 1194:116 1195:173 1196:122 1198:207 1199:142 1201:160 1202:87 1204:121 1205:69 1206:11 1207:11 1208:6 1209:12 1210:24 1211:52 1212:27 1213:53 1214:61 1215:24 1216:159 1217:124 1218:34 1219:169 1220:135 1221:9 1222:189 1223:156 1224:3 1225:187 1226:163 1227:3 1228:233 1229:192 1230:16 1231:216 1232:185 1233:17 1234:94 1235:103 1237:197 1238:161 1239:2 1240:186 1241:158 1242:15 1243:206 1244:176 1245:2 1246:241 1247:176 1248:46 1249:255 1250:255 1251:255 1252:196 1253:195 1254:200 1255:165 1256:127 1257:18 1258:122 1259:89 1261:58 1262:73 1263:32 1264:160 1265:128 1266:7 1267:101 1268:89 1269:17 1270:113 1271:119 1272:45 1273:15 1274:39 1275:26 1276:173 1277:194 1278:119 1279:57 1280:89 1281:42 1282:218 1283:167 1284:50 1285:236 1286:194 1287:34 1288:205 1289:152 1290:48 1291:179 1292:159 1293:64 1294:253 1295:206 1296:90 1297:165 1298:124 1300:164 1301:97 1302:6 1303:12 1304:25 1305:5 1306:148 1307:165 1308:53 1309:19 1310:41 1311:5 1312:4 1313:15 1314:1 1315:50 1316:54 1317:17 1318:6 1319:14 1321:9 1322:7 1324:195 1325:151 1326:2 1327:183 1328:144 1329:5 1330:40 1331:74 1333:4 1334:10 1336:84 1337:113 1339:147 1340:124 1341:12 1342:119 1343:68 1344:11 1345:253 1346:255 1347:254 1348:151 1349:119 1351:125 1352:122 1353:29 1354:8 1355:11 1357:116 1358:121 1359:55 1360:10 1361:22 1362:12 1363:52 1364:53 1365:35 1366:70 1367:87 1368:45 1369:160 1370:139 1371:14 1372:232 1373:178 1374:10 1375:112 1376:105 1377:33 1378:27 1379:35 1380:11 1381:101 1382:104 1383:93 1384:25 1385:44 1386:51 1387:112 1388:138 1389:93 1390:240 1391:166 1392:19 1393:183 1394:132 1395:5 1396:195 1397:150 1398:9 1399:6 1403:8 1404:3 1405:2 1406:4 1408:5 1409:16 1412:2 1413:11 1414:53 1415:72 1416:8 1417:3 1418:12 1419:9 1420:210 1421:164 1422:8 1423:186 1424:141 1426:3 1427:5 1428:4 1429:6 1430:15 1432:15 1433:36 1435:220 1436:183 1437:6 1438:130 1439:121 1440:124 1441:153 1442:155 1443:150 1444:150 1445:133 1446:27 1447:166 1448:159 1449:81 1450:129 1451:123 1452:47 1453:48 1454:27 1455:10 1456:71 1457:44 1459:163 1460:161 1461:42 1462:5 1463:14 1465:2 1466:16 1467:3 1468:77 1469:89 1470:79 1471:128 1472:134 1473:98 1475:2 1476:5 1477:113 1478:159 1479:87 1480:239 1481:195 1482:36 1483:240 1484:194 1485:20 1486:231 1487:175 1488:18 1489:166 1490:140 1491:1 1492:116 1493:99 1494:29 1496:3 1497:1 1498:2 1499:2 1501:29 1502:37 1503:16 1504:35 1505:52 1506:8 1507:199 1508:164 1509:10 1510:208 1511:154 1512:2 1513:196 1514:145 1516:165 1517:144 1519:96 1520:91 1522:83 1523:79 1524:5 1525:23 1526:63 1527:3 1528:100 1529:109 1530:4 1531:207 1532:187 1533:12 1534:255 1535:252 1536:254 1537:148 1538:119 1539:19 1540:179 1541:154 1543:87 1544:85 1545:8 1546:1 1547:2 1548:7 1549:194 1550:162 1551:2 1552:232 1553:196 1554:24 1555:187 1556:150 1558:182 1559:166 1560:9 1561:194 1562:155 1564:242 1565:219 1566:29 1567:237 1568:212 1569:32 1570:198 1571:172 1572:27 1573:90 1574:92 1575:26 1576:140 1577:142 1578:131 1579:3 1580:20 1581:14 1582:242 1583:216 1584:77 1585:252 1586:212 1587:65 1588:44 1589:30 1592:4 1593:5 1594:2 1596:3 1597:1 1598:2 1599:6 1600:8 1601:16 1602:1 1603:155 1604:147 1605:10 1606:199 1607:181 1608:35 1609:25 1610:35 1611:1 1612:28 1613:43 1614:20 1615:201 1616:165 1617:6 1618:141 1619:139 1620:18 1621:110 1622:118 1623:67 1624:23 1625:10 1627:230 1628:196 1629:28 1630:254 1631:253 1632:248 1633:169 1634:147 1635:28 1636:114 1637:111 1638:8 1639:41 1640:41 1641:15 1642:53 1643:67 1644:32 1645:73 1646:96 1647:52 1648:198 1649:170 1650:11 1651:197 1652:157 1653:25 1654:2 1655:8 1656:6 1657:8 1658:11 1659:4 1660:239 1661:220 1662:79 1663:255 1664:218 1665:111 1666:147 1667:107 1669:5 1670:6 1671:1 1672:157 1673:160 1674:141 1675:54 1676:58 1678:207 1679:154 1680:26 1681:194 1682:148 1683:3 1684:4 1685:3 1686:1 1688:10 1690:69 1691:70 1692:2 1693:192 1694:139 1695:1 1696:200 1697:155 1698:2 1699:118 1700:107 1701:18 1703:2 1704:5 1705:5 1706:19 1707:4 1709:6 1711:53 1712:55 1713:8 1714:155 1715:145 1716:14 1717:76 1718:81 1719:51 1720:86 1721:108 1722:59 1723:173 1724:148 1726:254 1727:254 1728:252 1729:122 1730:90 1731:13 1732:39 1733:61 1734:12 1735:13 1736:44 1737:3 1738:61 1739:66 1740:2 1741:218 1742:183 1743:19 1744:86 1745:89 1746:46 1747:1 1748:12 1749:4 1750:63 1751:83 1752:56 1753:44 1754:52 1755:31 1756:14 1757:35 1758:18 1759:81 1760:100 1761:72 1762:172 1763:167 1764:99 1765:229 1766:190 1767:69 1768:231 1769:193 1770:48 1771:214 1772:192 1773:55 1774:109 1775:79 1777:95 1778:55 1779:6 1780:2 1781:7 1782:3 1784:3 1786:1 1787:1 1788:1 1790:5 1791:1 1792:28 1793:45 1794:26 1795:4 1796:10 1797:10 1798:21 1799:19 1801:175 1802:150 1803:6 1804:223 1805:189 1806:4 1807:24 1808:37 1809:20 1810:59 1811:78 1812:50 1813:104 1814:112 1815:89 1816:61 1817:94 1818:51 1819:223 1820:186 1821:10 1822:254 1823:255 1824:255 1825:106 1826:85 1827:20 1828:146 1829:137 1830:18 1831:86 1832:86 1834:158 1835:159 1836:19 1837:172 1838:179 1839:50 1841:14 1843:49 1844:71 1845:32 1846:177 1847:153 1848:31 1849:205 1850:178 1851:1 1852:204 1853:182 1854:71 1855:81 1856:102 1857:25 1858:38 1859:54 1860:27 1861:68 1862:89 1863:58 1864:53 1865:78 1866:36 1867:16 1868:25 1869:32 1870:163 1871:137 1872:26 1873:184 1874:155 1875:2 1876:181 1877:142 1878:5 1879:188 1880:147 1881:3 1882:151 1883:134 1884:28 1885:35 1886:44 1887:13 1888:1 1889:1 1892:8 1895:9 1898:19 1900:13 1901:41 1904:9 1905:8 1906:31 1907:49 1908:9 1909:118 1910:158 1911:88 1912:149 1913:171 1914:107 1915:165 1916:133 1917:20 1918:255 1919:255 1920:255 1921:106 1922:89 1923:19 1924:126 1925:110 1927:31 1928:45 1929:10 1930:11 1931:25 1932:2 1933:13 1934:17 1937:4 1938:5 1939:174 1940:153 1941:2 1942:119 1943:111 1944:10 1945:51 1946:60 1948:12 1949:36 1950:14 1951:10 1952:13 1953:2 1954:20 1955:40 1956:12 1957:1 1958:3 1961:18 1963:1 1964:13 1965:11 1966:94 1967:58 1969:217 1970:180 1971:13 1979:5 1980:1 1982:8 1984:127 1985:120 1986:3 1987:162 1988:149 1989:11 1990:212 1991:161 1992:8 1993:163 1994:147 1996:2 1997:6 1998:7 1999:15 2000:48 2001:17 2003:12 2004:2 2005:229 2006:199 2007:69 2008:230 2009:222 2010:147 2011:137 2012:118 2013:24 2014:255 2015:255 2016:255 2017:231 2018:227 2019:226 2020:169 2021:138 2023:11 2024:11 2026:45 2027:48 2028:21 2029:34 2030:45 2031:2 2032:170 2033:143 2034:2 2035:36 2036:45 2038:4 2039:37 2040:6 2041:3 2042:17 2044:1 2045:11 2047:10 2048:35 2049:6 2050:12 2051:31 2053:15 2054:33 2055:9 2056:41 2057:62 2058:23 2060:14 2062:84 2063:57 2064:4 2065:97 2066:76 2067:9 2068:4 2069:2 2070:5 2071:4 2072:15 2074:167 2075:137 2076:5 2077:62 2078:62 2079:2 2080:1 2081:7 2083:2 2084:9 2085:2 2086:4 2087:14 2088:5 2089:29 2090:58 2091:30 2092:77 2093:94 2094:14 2095:155 2096:160 2097:14 2098:9 2099:18 2100:15 2102:15 2104:62 2105:97 2106:17 2107:72 2108:66 2109:18 2110:255 2111:255 2112:255 2113:254 2114:255 2115:255 2116:38 2117:12 2119:155 2120:120 2122:149 2123:128 2124:9 2125:188 2126:156 2127:9 2128:128 2129:114 2130:5 2131:9 2132:21 2133:9 2134:14 2135:44 2137:141 2138:124 2139:10 2140:197 2141:170 2142:3 2143:160 2144:121 2145:4 2146:164 2147:165 2148:25 2149:8 2150:44 2152:49 2153:59 2154:32 2155:13 2156:22 2157:17 2158:225 2159:188 2160:12 2161:101 2162:71 2163:19 2165:2 2172:2 2174:4 2176:102 2177:116 2178:28 2179:203 2180:180 2181:25 2182:166 2183:168 2184:33 2185:131 2186:122 2187:1 2189:1 2190:3 2191:2 2192:25 2194:46 2195:71 2196:41 2198:18 2199:1 2200:34 2201:72 2203:255 2204:251 2205:255 2206:255 2207:255 2208:255 2209:255 2210:255 2211:255 2212:255 2213:253 2214:252 2215:156 2216:128 2218:157 2219:126 2221:80 2222:98 2223:16 2224:62 2225:79 2226:11 2227:158 2228:123 2230:170 2231:163 2232:20 2233:47 2234:66 2235:2 2237:13 2239:3 2240:22 2241:3 2242:15 2243:32 2244:14 2245:2 2246:21 2249:9 2250:1 2252:11 2253:1 2254:148 2255:119 2256:17 2257:143 2258:108 2259:8 2260:4 2261:3 2270:4 2273:9 2274:1 2276:2 2279:11 2281:25 2282:57 2283:18 2285:14 2287:18 2288:40 2289:17 2290:5 2291:31 2292:4 2294:35 2297:1 2299:254 2300:254 2301:254 2302:255 2303:255 2304:255 2305:255 2306:255 2307:255 2308:255 2309:255 2310:255 2311:254 2312:255 2313:248 2314:103 2315:76 2316:7 2317:132 2318:131 2319:4 2320:139 2321:118 2323:159 2324:134 2325:8 2326:22 2327:29 2329:3 2330:5 2332:11 2333:13 2334:10 2335:2 2336:7 2337:1 2338:9 2339:28 2340:8 2341:23 2342:50 2343:17 2344:56 2345:78 2346:39 2348:11 2349:2 2350:174 2351:151 2352:35 2353:158 2354:130 2355:5 2356:111 2357:103 2359:2 2360:1 2365:1 2366:1 2367:1 2368:1 2369:1 2370:1 2371:1 2372:1 2373:1 2374:1 2377:5 2378:12 2379:4 2381:9 2382:1 2383:1 2384:15 2386:6 2387:13 2388:5 2389:173 2390:159 2391:8 2392:255 2393:255 2394:255 2395:255 2396:255 2397:255 2398:255 2399:255 2400:255 2404:255 2405:255 2406:255 2407:255 2408:255 2409:255 2410:254 2411:254 2412:254 2413:164 2414:140 2415:8 2416:1 2417:5 2418:8 2420:8 2421:2 2422:109 2423:111 2424:2 2426:8 2427:7 2429:2 2430:1 2432:13 2433:6 2435:12 2437:2 2438:18 2439:7 2441:4 2442:5 2443:2 2445:1 2446:173 2447:156 2448:14 2449:176 2450:147 2451:21 2452:113 2453:113 2454:15 2455:2 2456:1 2467:3 2468:15 2469:5 2471:2 2474:4 2476:9 2477:33 2478:7 2480:19 2482:7 2483:14 2484:6 2485:69 2486:75 2487:65 2488:255 2489:255 2490:255 2491:255 2492:255 2493:255 2494:255 2495:255 2496:255 2503:255 2504:255 2505:255 2506:255 2507:255 2508:255 2509:254 2510:254 2511:254 2512:127 2513:104 2514:8 2515:22 2516:40 2517:2 2518:2 2519:3 2521:1 2522:3 2525:1 2526:6 2528:10 2529:9 2530:68 2531:104 2532:14 2533:21 2534:37 2536:11 2537:21 2538:13 2539:4 2540:5 2542:16 2543:19 2544:8 2545:130 2546:109 2547:4 2548:145 2549:139 2550:15 2551:1 2553:5 2563:1 2564:1 2565:1 2566:39 2567:81 2568:18 2569:5 2570:24 2571:4 2572:18 2573:28 2574:19 2575:2 2577:3 2579:5 2580:1 2581:254 2582:254 2583:254 2584:255 2585:255 2586:255 2587:255 2588:255 2589:255 2590:1 2591:1 2592:1 2599:1 2600:1 2601:1 2602:255 2603:255 2604:255 2605:255 2606:255 2607:255 2608:254 2609:254 2610:252 2611:253 2612:253 2613:245 2615:17 2617:1 2618:2 2620:27 2621:52 2622:13 2623:2 2624:2 2626:52 2627:74 2628:2 2629:20 2630:25 2631:3 2633:3 2634:8 2636:2 2637:1 2638:12 2639:18 2641:133 2642:108 2643:7 2644:174 2645:161 2646:3 2647:2 2648:3 2649:5 2668:2 2669:4 2670:3 2671:255 2672:255 2673:250 2674:255 2675:255 2676:255 2677:255 2678:255 2679:255 2680:255 2681:255 2682:255 2704:254 2705:254 2706:254 2707:255 2708:255 2709:255 2710:255 2711:255 2712:255 2713:255 2714:255 2715:255 2716:73 2717:69 2718:40 2719:7 2720:23 2721:12 2723:7 2727:2 2731:8 2732:10 2733:9 2734:2 2736:5 2737:139 2738:125 2740:195 2741:181 2742:12 2744:1 2745:5 2752:1 2753:3 2756:10 2757:1 2759:6 2760:2 2761:254 2762:255 2763:255 2764:255 2765:255 2766:255 2767:255 2768:255 2769:255 2770:255 2771:255 2772:255 2773:254 2774:254 2775:254 2806:1 2807:1 2808:1 2809:255 2810:255 2811:255 2812:255 2813:255 2814:255 2815:255 2816:255 2817:255 2818:255 2819:255 2820:255 2821:254 2822:254 2823:254 2824:6 2825:16 2826:7 2827:3 2828:29 2829:2 2830:1 2831:8 2832:1 2833:113 2834:127 2835:14 2836:131 2837:127 2838:27 2839:2 2841:1 2845:1 2846:3 2848:252 2849:252 2850:252 2851:255 2852:255 2853:255 2854:255 2855:255 2856:255 2857:255 2858:255 2859:255 2860:255 2861:255 2862:255 2917:255 2918:255 2919:255 2920:255 2921:255 2922:255 2923:255 2924:255 2925:255 2926:255 2927:255 2928:255 2929:1 2932:44 2933:35 2934:4 2935:12 2936:11 2937:9 2938:255 2939:255 2940:255 2941:255 2942:255 2943:255 2944:255 2945:255 2946:255 2947:255 2948:255 2949:255 3019:255 3020:255 3021:255 3022:255 3023:255 3024:255 3025:254 3026:248 3027:250 3028:71 3029:34 3030:5 3031:1 3032:1 3033:3 3034:255 3035:255 3036:255 3037:255 3038:255 3039:255 3040:255 3041:255 3042:255 
0.01 16:255 17:255 18:255 19:255 20:255 21:255 22:255 23:255 24:255 25:255 26:255 27:255 28:255 29:255 30:240 31:194 32:164 33:4 34:164 35:116 36:8 37:253 38:254 39:248 40:255 41:255 42:255 43:255 44:255 45:255 46:255 47:255 48:255 49:255 50:255 51:255 52:255 53:255 54:255 55:255 56:255 57:255 58:254 59:254 60:254 61:1 62:1 63:1 97:255 98:255 99:255 100:255 101:255 102:255 103:255 104:255 105:255 106:255 107:255 108:255 109:255 110:255 111:255 112:255 113:255 114:255 115:255 116:255 117:255 118:255 119:254 120:255 121:65 122:93 123:42 129:5 130:141 131:147 132:25 133:183 134:156 135:3 136:190 137:157 138:4 139:192 140:149 141:10 142:189 143:144 144:15 145:187 146:168 147:128 148:253 149:255 150:245 151:255 152:255 153:255 154:255 155:255 156:255 157:255 158:255 159:255 160:255 161:255 162:255 193:255 194:255 195:255 196:255 197:255 198:255 199:255 200:255 201:255 202:255 203:255 204:255 205:255 206:255 207:255 208:255 209:255 210:255 211:255 212:255 213:253 214:201 215:189 218:2 219:1 220:1 221:3 223:53 224:100 225:19 226:100 227:127 228:32 229:192 230:169 231:3 233:3 234:2 235:4 237:3 238:5 239:5 240:5 241:1 245:4 247:121 248:132 249:12 250:254 251:254 252:252 253:255 254:255 255:251 256:255 257:255 258:255 259:255 260:255 261:255 262:255 263:255 264:255 289:255 290:255 291:255 292:255 293:255 294:255 295:255 296:255 297:255 298:255 299:253 300:254 301:29 302:2 304:165 305:171 306:11 308:12 310:1 311:1 314:3 315:2 322:1 323:1 324:1 325:195 326:188 327:9 328:199 329:178 331:95 332:105 333:19 334:30 335:49 336:4 337:1 339:2 341:1 342:3 343:3 344:3 345:1 346:2 347:3 348:5 349:249 350:255 351:241 352:255 353:255 354:255 355:255 356:255 357:255 358:255 359:255 360:255 361:255 362:255 363:255 364:255 365:255 366:255 367:254 368:254 369:254 385:255 386:255 387:255 388:255 389:253 390:254 391:40 392:20 393:21 394:64 395:77 396:8 397:49 398:94 399:55 400:26 401:61 402:19 403:4 404:32 405:7 406:3 407:10 408:2 415:2 416:2 417:2 418:11 419:88 420:10 421:201 422:189 423:5 424:190 425:188 426:5 427:1 428:1 430:4 432:1 433:2 435:1 436:5 437:29 438:5 439:1 440:1 441:3 442:1 443:1 444:1 445:11 446:27 447:14 448:226 449:225 450:204 451:254 452:255 453:250 454:254 455:254 456:255 457:255 458:255 459:253 460:255 461:255 462:255 463:255 464:255 465:255 466:255 467:255 468:255 481:255 482:253 483:255 484:7 486:7 487:224 488:213 489:9 490:3 491:34 492:3 494:7 496:166 497:201 498:23 499:3 500:15 501:5 503:21 504:8 505:25 506:67 507:17 508:1 509:1 512:2 514:8 515:18 517:219 518:195 519:1 520:216 521:210 522:2 523:3 524:2 525:8 529:3 530:3 531:3 532:181 533:188 534:14 535:220 536:190 537:6 538:225 539:198 540:7 541:205 542:215 543:5 544:5 545:24 547:191 548:156 549:14 550:253 551:255 552:252 553:255 554:255 555:255 556:255 557:255 558:255 559:255 560:255 561:255 562:255 563:255 564:255 577:254 578:254 579:252 580:235 581:219 582:2 583:196 584:211 585:4 586:14 587:53 588:8 589:142 590:153 592:14 593:50 594:2 595:15 596:43 597:18 598:19 599:48 600:18 601:16 602:30 603:41 604:142 605:156 606:19 607:225 608:207 609:1 610:211 611:188 613:221 614:195 616:225 617:208 618:4 619:159 620:181 621:11 623:5 625:197 626:210 627:9 628:2 630:5 631:1 633:10 634:5 635:40 636:8 637:6 638:31 639:12 640:60 641:87 642:70 643:137 644:153 645:152 646:146 647:155 648:136 649:255 650:255 651:255 652:255 653:255 654:255 655:255 656:255 657:255 658:255 659:255 660:255 673:249 674:249 675:251 676:229 677:218 678:15 679:21 680:39 681:13 682:193 683:212 684:22 685:3 686:2 688:54 689:80 690:17 691:253 692:243 693:21 694:213 695:206 696:14 697:78 698:67 699:21 700:2 701:9 702:2 703:70 704:78 705:54 707:38 708:20 709:241 710:227 711:16 712:238 713:218 714:10 716:3 717:7 718:111 719:118 720:2 721:165 722:150 723:7 724:8 725:20 727:49 728:86 729:52 730:5 731:36 732:2 733:4 734:42 735:1 736:19 737:58 738:14 739:10 740:41 741:9 742:5 743:38 744:9 745:196 746:205 747:122 748:255 749:255 750:253 751:255 752:255 753:255 754:255 755:255 756:255 757:255 758:255 759:255 769:15 770:6 772:3 773:17 774:4 775:4 776:35 777:4 779:30 782:12 784:42 785:97 786:14 788:7 790:6 791:10 792:9 793:20 794:60 795:25 796:56 797:80 798:56 799:52 800:86 801:53 803:1 804:5 805:255 806:245 807:73 808:207 809:187 810:2 811:12 812:9 814:7 815:34 816:15 817:1 818:24 819:4 820:9 821:36 823:37 824:91 825:15 826:1 827:11 829:1 830:15 831:2 833:32 836:26 837:1 838:50 839:82 840:59 841:3 842:34 844:255 845:254 846:235 847:255 848:255 849:253 850:255 851:255 852:255 853:255 854:255 855:255 866:2 867:1 868:4 869:32 870:7 871:1 872:5 873:6 874:4 875:21 876:3 877:1 878:18 881:5 884:5 885:1 886:6 887:40 888:3 889:81 890:107 891:82 892:20 893:59 894:38 896:13 897:6 899:7 900:16 901:252 902:245 903:32 904:195 905:157 907:207 908:212 909:34 912:4 913:8 914:39 915:8 917:11 919:17 920:49 921:8 922:47 923:78 924:36 925:28 926:40 928:126 929:150 930:114 931:69 932:99 933:71 934:25 935:57 936:18 937:83 938:121 939:84 940:31 941:44 943:254 944:255 945:251 946:255 947:255 948:255 949:255 950:255 951:255 952:255 953:255 954:255 961:11 962:5 964:115 965:145 966:21 968:14 969:3 970:1 971:31 972:5 974:33 976:4 977:9 978:3 979:31 980:69 981:20 982:6 983:18 984:6 986:4 990:7 991:3 992:17 993:2 994:212 995:223 996:5 997:224 998:200 999:2 1000:230 1001:209 1002:4 1003:238 1004:233 1005:7 1006:1 1007:3 1008:2 1009:136 1010:158 1012:192 1013:221 1014:32 1015:2 1016:20 1019:25 1020:3 1021:7 1022:29 1023:8 1025:31 1026:7 1027:3 1028:31 1029:8 1030:12 1031:43 1032:11 1033:9 1034:33 1035:7 1036:3 1037:2 1039:255 1040:254 1041:242 1042:254 1043:254 1044:254 1045:255 1046:255 1047:255 1048:255 1049:255 1050:255 1051:1 1052:1 1053:1 1057:211 1058:190 1059:47 1060:129 1061:162 1062:83 1063:44 1064:87 1065:42 1066:16 1067:72 1068:7 1069:2 1070:44 1071:6 1072:4 1073:49 1074:8 1075:5 1076:49 1079:26 1082:8 1085:12 1088:24 1089:2 1090:5 1091:17 1092:3 1093:67 1094:95 1096:242 1097:218 1098:4 1099:253 1100:244 1101:61 1102:132 1103:171 1104:116 1105:77 1106:117 1107:65 1108:17 1109:43 1110:16 1111:76 1112:115 1113:22 1114:12 1115:39 1116:6 1117:50 1118:78 1119:63 1120:85 1121:105 1122:78 1123:35 1124:69 1125:52 1126:45 1127:74 1128:30 1129:66 1130:83 1131:47 1132:52 1133:95 1134:41 1135:193 1136:149 1137:1 1138:253 1139:254 1140:249 1141:255 1142:255 1143:255 1144:255 1145:255 1146:255 1147:255 1148:255 1149:255 1153:104 1154:91 1155:21 1156:49 1157:69 1158:41 1159:121 1160:136 1161:105 1162:19 1163:69 1164:32 1165:2 1166:14 1167:2 1168:5 1169:23 1170:7 1171:2 1172:3 1174:7 1175:29 1176:8 1177:36 1178:71 1179:39 1180:8 1181:45 1182:4 1183:8 1184:43 1185:11 1186:11 1187:25 1188:10 1190:8 1192:210 1193:207 1194:8 1195:231 1196:216 1197:1 1198:179 1199:179 1200:93 1201:60 1202:99 1203:81 1204:98 1205:131 1206:112 1207:64 1208:87 1209:67 1210:32 1211:62 1212:36 1213:60 1214:102 1215:78 1216:65 1217:103 1218:78 1219:15 1220:66 1221:9 1222:27 1223:75 1224:13 1226:26 1227:1 1228:1 1229:41 1230:7 1231:43 1232:82 1233:1 1234:159 1235:148 1236:33 1237:254 1238:254 1239:254 1240:255 1241:255 1242:255 1243:255 1244:255 1245:255 1246:255 1247:255 1248:255 1249:64 1250:67 1251:74 1252:41 1253:101 1254:15 1255:84 1256:110 1257:81 1258:75 1259:94 1260:75 1261:33 1262:71 1263:34 1265:22 1267:15 1268:38 1269:12 1270:8 1271:51 1273:3 1274:27 1275:1 1276:19 1277:38 1278:16 1279:1 1280:22 1281:5 1282:1 1283:20 1285:9 1286:32 1287:14 1288:178 1289:190 1290:22 1291:224 1292:208 1293:7 1294:189 1295:206 1296:74 1297:2 1298:10 1300:44 1301:79 1302:46 1303:96 1304:140 1305:107 1306:5 1307:44 1308:13 1309:4 1310:34 1311:10 1312:4 1313:18 1314:3 1315:4 1316:19 1319:30 1320:2 1321:128 1322:170 1323:10 1324:20 1325:65 1327:4 1328:27 1330:38 1331:61 1332:7 1333:255 1334:255 1335:253 1336:255 1337:255 1338:255 1339:255 1340:255 1341:255 1342:255 1343:255 1344:255 1345:255 1346:255 1347:253 1348:149 1349:170 1350:13 1351:2 1352:14 1353:2 1354:12 1355:40 1356:18 1357:27 1358:54 1359:23 1360:10 1361:34 1362:10 1364:39 1365:5 1366:30 1367:72 1368:36 1369:48 1370:85 1371:44 1372:15 1373:29 1374:14 1375:12 1376:38 1377:11 1378:1 1379:7 1380:3 1381:85 1382:148 1383:7 1384:183 1385:206 1386:12 1387:219 1388:223 1389:22 1390:190 1391:200 1392:17 1393:1 1394:20 1397:2 1399:15 1400:12 1401:7 1402:147 1403:196 1404:19 1405:172 1406:211 1407:8 1408:16 1409:56 1410:4 1411:4 1412:9 1413:2 1414:1 1415:11 1416:2 1417:2 1418:12 1419:4 1420:2 1421:36 1422:3 1423:1 1424:7 1425:5 1426:144 1427:146 1428:11 1429:253 1430:255 1431:252 1432:255 1433:255 1434:255 1435:255 1436:255 1437:255 1438:255 1439:255 1440:255 1441:255 1442:253 1443:254 1444:209 1445:211 1446:13 1447:49 1448:67 1449:51 1450:10 1451:34 1453:93 1454:132 1455:77 1456:18 1457:65 1460:15 1461:4 1462:57 1463:109 1464:8 1465:119 1466:157 1467:20 1468:141 1469:177 1470:9 1471:189 1472:233 1473:14 1474:157 1475:199 1476:13 1477:14 1478:49 1479:7 1480:3 1481:3 1482:5 1483:248 1484:253 1485:88 1486:216 1487:212 1488:19 1490:7 1491:4 1492:2 1493:7 1494:3 1496:17 1497:1 1499:11 1500:4 1502:2 1503:3 1504:22 1505:80 1506:6 1507:42 1508:80 1512:4 1513:3 1514:15 1515:1 1517:26 1519:4 1520:38 1521:3 1522:4 1523:27 1525:126 1526:115 1527:7 1528:254 1529:255 1530:249 1531:255 1532:255 1533:255 1534:255 1535:255 1536:255 1537:252 1538:255 1539:255 1540:198 1541:194 1542:7 1543:32 1544:69 1545:25 1546:17 1547:51 1548:14 1549:2 1550:30 1551:5 1552:25 1553:87 1554:14 1555:155 1556:184 1557:4 1558:104 1559:140 1560:30 1562:21 1564:1 1565:37 1566:1 1568:35 1570:39 1571:79 1572:42 1573:31 1574:66 1575:33 1576:98 1577:127 1578:97 1579:174 1580:186 1581:48 1582:221 1583:205 1584:22 1585:202 1586:204 1587:6 1589:1 1590:7 1591:1 1592:6 1594:3 1595:2 1598:5 1601:17 1602:1 1604:11 1605:1 1606:2 1607:14 1608:4 1610:10 1611:2 1612:6 1613:35 1614:5 1615:1 1616:20 1617:1 1618:7 1619:23 1620:10 1621:33 1622:70 1623:1 1624:253 1625:253 1626:251 1627:255 1628:255 1629:255 1630:255 1631:255 1632:255 1633:254 1634:252 1635:255 1636:204 1637:206 1638:17 1639:82 1640:119 1641:76 1642:55 1643:88 1644:59 1646:13 1647:4 1648:39 1649:79 1650:27 1652:14 1653:3 1654:34 1655:75 1656:19 1657:4 1658:14 1659:5 1661:10 1664:14 1666:37 1667:77 1668:40 1669:8 1670:28 1671:1 1672:5 1673:28 1674:2 1675:5 1676:23 1678:164 1679:149 1681:216 1682:205 1683:1 1684:4 1685:3 1686:1 1687:3 1688:17 1689:2 1691:2 1693:2 1694:2 1696:3 1697:15 1698:5 1699:1 1700:11 1701:2 1702:3 1703:15 1704:3 1706:12 1708:1 1709:15 1710:2 1712:9 1714:2 1715:21 1716:1 1717:2 1718:21 1719:1 1720:5 1721:6 1723:255 1724:255 1725:253 1726:255 1727:255 1728:255 1729:255 1730:253 1731:254 1732:99 1733:136 1734:5 1736:30 1737:4 1738:71 1739:108 1740:77 1741:23 1742:69 1743:22 1744:108 1745:135 1746:100 1747:115 1748:167 1749:119 1750:1 1751:1 1753:8 1754:7 1755:12 1756:5 1758:6 1759:13 1760:42 1761:12 1762:22 1763:40 1764:16 1765:65 1766:108 1767:52 1768:59 1769:91 1770:44 1771:2 1772:12 1773:14 1774:255 1775:252 1776:46 1777:239 1778:227 1779:17 1780:192 1781:201 1782:22 1783:104 1784:163 1785:21 1786:50 1787:114 1790:8 1791:2 1793:5 1794:1 1796:5 1797:1 1799:5 1801:2 1802:9 1803:1 1804:1 1805:11 1806:3 1807:1 1808:12 1809:4 1810:1 1811:15 1814:13 1817:7 1819:152 1820:163 1821:85 1822:255 1823:255 1824:255 1825:255 1826:254 1827:252 1828:177 1829:181 1830:24 1831:9 1832:45 1834:27 1835:44 1836:25 1837:59 1838:89 1839:53 1840:93 1841:130 1842:61 1843:18 1844:49 1845:17 1846:53 1847:101 1848:53 1850:11 1851:1 1852:1 1853:45 1854:9 1855:57 1856:93 1857:47 1858:26 1859:80 1860:31 1861:10 1862:53 1863:8 1864:3 1865:27 1866:3 1867:6 1869:10 1870:198 1871:213 1872:6 1873:208 1874:193 1875:2 1876:252 1877:254 1878:56 1879:37 1880:74 1881:31 1882:11 1883:54 1886:28 1887:3 1889:32 1891:48 1892:87 1893:43 1894:45 1895:81 1896:17 1897:1 1898:48 1900:1 1901:37 1903:10 1904:46 1905:8 1906:72 1907:113 1908:81 1909:3 1910:30 1911:11 1912:6 1913:32 1915:173 1916:207 1917:68 1918:254 1919:255 1920:249 1921:254 1922:254 1923:254 1924:20 1925:20 1926:22 1927:125 1928:172 1929:60 1930:155 1931:180 1932:96 1933:73 1934:123 1935:85 1936:79 1937:113 1938:78 1939:65 1940:84 1941:52 1942:118 1943:147 1944:55 1945:84 1946:144 1947:10 1948:191 1949:221 1950:29 1951:195 1952:207 1953:23 1954:154 1955:177 1956:1 1957:123 1958:148 1959:2 1960:118 1961:147 1963:42 1964:67 1965:1 1966:149 1967:175 1968:14 1969:231 1970:226 1971:12 1972:223 1973:207 1974:24 1975:254 1976:239 1977:52 1978:187 1979:207 1980:12 1981:3 1982:15 1983:5 1984:3 1985:25 1986:4 1988:11 1990:7 1991:34 1993:38 1994:77 1995:32 1996:58 1997:98 1998:45 1999:61 2000:98 2001:46 2002:79 2003:99 2004:74 2005:40 2006:66 2007:29 2008:51 2009:85 2010:60 2011:94 2012:115 2013:82 2014:142 2015:174 2016:15 2017:255 2018:255 2019:255 2020:255 2021:254 2022:255 2023:162 2024:180 2025:16 2026:7 2027:26 2028:4 2029:60 2030:95 2031:27 2032:86 2033:115 2034:69 2035:120 2036:175 2037:91 2038:22 2039:68 2040:6 2041:10 2042:52 2043:12 2044:9 2045:56 2046:2 2047:2 2048:32 2051:13 2053:2 2054:48 2056:6 2057:47 2058:13 2059:3 2060:57 2062:4 2063:34 2065:228 2066:216 2067:8 2068:224 2069:208 2070:1 2071:239 2072:215 2073:5 2074:157 2075:164 2076:9 2077:61 2078:92 2079:60 2080:64 2081:95 2082:63 2083:62 2084:106 2085:81 2086:35 2087:43 2088:30 2089:35 2090:67 2091:30 2093:17 2095:93 2096:137 2097:62 2099:12 2101:132 2102:164 2103:39 2104:67 2105:124 2106:30 2107:97 2108:143 2109:70 2110:40 2111:72 2113:255 2114:255 2115:255 2116:255 2117:254 2118:255 2119:255 2120:255 2121:246 2123:24 2125:24 2126:65 2128:11 2129:58 2130:6 2132:26 2134:16 2135:67 2136:11 2138:50 2139:4 2140:1 2141:20 2143:5 2144:39 2145:12 2147:50 2148:1 2149:16 2150:22 2151:10 2152:1 2153:2 2154:4 2156:2 2157:3 2158:152 2159:163 2160:6 2161:226 2162:214 2163:6 2164:218 2165:201 2167:227 2168:213 2170:250 2171:236 2172:15 2173:229 2174:226 2175:7 2177:11 2179:11 2180:24 2181:7 2182:50 2183:78 2184:40 2186:22 2188:7 2189:29 2190:8 2191:3 2192:25 2193:4 2194:10 2195:25 2196:6 2197:42 2198:87 2199:44 2200:39 2201:58 2202:38 2203:34 2204:81 2205:39 2206:131 2207:165 2208:78 2209:255 2210:255 2211:255 2212:255 2213:255 2214:255 2215:253 2216:253 2217:253 2219:13 2222:25 2224:1 2225:23 2227:1 2228:45 2230:135 2231:169 2233:190 2234:190 2235:8 2236:158 2237:159 2238:5 2239:210 2240:193 2241:2 2242:168 2243:177 2245:139 2246:169 2248:164 2249:186 2250:15 2251:211 2252:206 2253:1 2254:226 2255:206 2257:230 2258:202 2259:4 2260:244 2261:226 2262:4 2263:227 2264:205 2266:236 2267:215 2268:2 2269:222 2270:204 2272:112 2273:129 2274:14 2275:4 2276:21 2277:5 2279:14 2280:1 2282:13 2284:7 2285:40 2286:9 2288:43 2290:20 2291:71 2292:12 2293:59 2294:112 2295:40 2296:43 2297:80 2298:37 2299:90 2300:116 2301:89 2302:113 2303:168 2304:48 2305:254 2306:254 2307:254 2308:255 2309:255 2310:255 2311:255 2312:255 2313:255 2314:255 2315:255 2316:255 2317:182 2318:182 2319:172 2320:24 2321:74 2322:15 2323:2 2324:33 2325:2 2326:2 2327:21 2328:2 2330:22 2333:26 2334:1 2335:33 2336:80 2337:12 2338:36 2339:75 2340:10 2341:72 2342:108 2343:60 2344:78 2345:122 2346:11 2347:198 2348:196 2349:13 2350:238 2351:220 2352:14 2353:233 2354:216 2355:2 2356:242 2357:221 2358:6 2359:231 2360:208 2361:8 2362:232 2363:211 2365:233 2366:211 2367:4 2368:112 2369:152 2370:27 2371:5 2372:28 2375:23 2377:5 2378:24 2379:4 2381:33 2384:34 2385:1 2386:7 2387:45 2388:4 2390:41 2393:41 2394:1 2395:4 2396:60 2398:88 2399:101 2400:11 2404:255 2405:255 2406:255 2407:255 2408:255 2409:255 2410:255 2411:255 2412:255 2413:255 2414:255 2415:255 2416:252 2417:254 2418:249 2419:9 2420:44 2421:11 2422:3 2423:29 2425:2 2426:33 2427:2 2428:3 2429:29 2430:4 2431:2 2432:10 2434:1 2435:14 2436:4 2438:19 2439:7 2440:2 2441:7 2443:5 2444:4 2445:2 2446:16 2447:31 2449:220 2450:193 2452:234 2453:209 2454:5 2455:209 2456:182 2457:7 2458:228 2459:208 2461:216 2462:191 2464:219 2465:208 2466:2 2467:10 2468:26 2471:13 2474:34 2475:2 2477:29 2478:3 2480:39 2482:1 2483:39 2484:2 2485:24 2486:68 2487:17 2488:14 2489:59 2490:4 2491:3 2492:17 2493:4 2494:233 2495:240 2496:188 2506:255 2507:255 2508:255 2509:255 2510:255 2511:255 2512:255 2513:255 2514:255 2515:255 2516:255 2517:255 2519:5 2520:1 2522:10 2523:1 2524:2 2525:16 2527:1 2528:13 2529:1 2530:3 2531:20 2532:4 2533:3 2534:3 2535:3 2537:2 2540:9 2542:196 2543:172 2544:4 2545:211 2546:183 2548:233 2549:200 2550:1 2551:223 2552:202 2553:1 2554:218 2555:199 2556:1 2557:226 2558:201 2560:225 2561:199 2562:1 2563:221 2564:192 2565:12 2566:120 2567:139 2568:21 2570:16 2573:37 2574:3 2576:38 2579:52 2580:2 2581:12 2582:66 2583:4 2585:37 2587:3 2588:9 2589:5 2590:255 2591:255 2592:251 2605:255 2606:255 2607:255 2608:255 2609:255 2610:255 2611:255 2612:255 2613:255 2614:255 2615:255 2616:255 2617:250 2618:250 2619:250 2620:4 2621:6 2622:1 2623:3 2624:6 2627:12 2629:2 2630:20 2631:6 2632:16 2633:29 2634:11 2635:5 2636:5 2637:15 2638:181 2639:163 2640:17 2641:208 2642:172 2644:218 2645:181 2646:2 2647:210 2648:180 2650:204 2651:182 2652:8 2653:224 2654:199 2655:8 2656:225 2657:194 2658:5 2659:211 2660:178 2661:3 2662:171 2663:136 2664:8 2665:163 2666:146 2667:6 2668:2 2669:7 2670:11 2671:30 2672:59 2673:11 2674:22 2675:63 2678:31 2680:246 2681:250 2682:251 2683:255 2684:255 2685:255 2686:255 2687:255 2688:255 2695:255 2696:255 2697:255 2698:255 2699:255 2700:255 2701:255 2702:255 2703:255 2704:255 2705:255 2706:255 2707:255 2708:255 2709:255 2710:255 2711:255 2712:255 2713:255 2714:255 2715:255 2716:255 2717:255 2718:255 2719:255 2720:254 2721:248 2722:52 2723:99 2724:7 2725:2 2726:14 2728:3 2729:17 2732:16 2734:138 2735:153 2736:8 2737:206 2738:181 2740:217 2741:192 2742:4 2743:212 2744:187 2746:184 2747:155 2749:198 2750:172 2751:1 2752:182 2753:144 2755:173 2756:129 2757:22 2758:190 2759:151 2760:11 2761:219 2762:185 2763:2 2764:215 2765:212 2766:23 2767:4 2768:56 2769:7 2770:6 2771:18 2772:4 2773:254 2774:255 2775:255 2776:255 2777:255 2778:255 2779:255 2780:255 2781:255 2782:255 2783:255 2784:255 2791:255 2792:255 2793:255 2794:255 2795:255 2796:255 2797:255 2798:255 2799:255 2800:255 2801:255 2802:255 2803:255 2804:255 2805:255 2806:255 2807:255 2808:255 2809:255 2810:255 2811:255 2812:255 2813:255 2814:255 2815:255 2816:255 2817:255 2818:255 2819:255 2820:255 2821:253 2822:255 2823:254 2825:1 2828:29 2830:151 2831:160 2832:31 2833:203 2834:177 2835:2 2836:223 2837:199 2838:5 2839:215 2840:188 2841:9 2842:237 2843:220 2844:8 2845:205 2846:188 2847:12 2848:211 2849:188 2850:12 2851:210 2852:181 2853:1 2854:208 2855:183 2856:3 2857:212 2858:186 2859:3 2860:180 2861:168 2862:24 2863:252 2864:252 2865:250 2866:255 2867:255 2868:255 2869:255 2870:255 2871:255 2872:255 2873:255 2874:255 2875:255 2876:255 2877:255 2878:252 2879:252 2880:252 2887:254 2888:254 2889:254 2890:254 2891:254 2892:254 2893:255 2894:255 2895:255 2896:255 2897:255 2898:255 2899:255 2900:255 2901:255 2902:255 2903:255 2904:255 2905:255 2906:255 2907:255 2908:255 2909:255 2910:255 2911:255 2912:255 2913:255 2914:255 2915:255 2916:255 2917:255 2918:255 2919:255 2920:255 2921:255 2922:255 2923:255 2924:255 2925:255 2926:253 2927:255 2928:252 2929:255 2930:255 2931:246 2932:255 2933:255 2934:238 2935:36 2936:18 2938:219 2939:166 2940:54 2941:135 2942:133 2944:71 2945:5 2946:9 2947:254 2948:253 2949:251 2950:255 2951:253 2952:246 2953:255 2954:255 2955:255 2956:255 2957:255 2958:255 2959:255 2960:255 2961:255 2962:255 2963:255 2964:255 2965:255 2966:255 2967:255 2968:255 2969:255 2970:255 3001:255 3002:255 3003:255 3004:255 3005:255 3006:251 3007:212 3008:211 3009:217 3010:255 3011:255 3012:248 3013:254 3014:254 3015:254 3016:255 3017:255 3018:255 3019:255 3020:255 3021:255 3022:255 3023:255 3024:255 3025:255 3026:255 3027:255 3028:255 3029:255 3030:255 3031:255 3032:255 3033:255 3034:255 3035:255 3036:255 3037:22 3039:3 3040:175 3041:109 3042:23 3043:23 3046:250 3047:255 3048:254 3049:255 3050:255 3051:255 3052:255 3053:255 3054:255 3055:254 3056:254 3057:254 3058:2 3059:2 3060:2 
0.01 1:255 2:255 3:255 4:251 5:251 6:251 7:255 8:255 9:255 10:255 11:255 12:255 13:255 14:255 15:255 16:255 17:255 18:255 19:255 20:255 21:255 22:253 23:253 24:253 25:255 26:255 27:255 28:255 29:255 30:255 31:255 32:255 33:255 34:255 35:255 36:255 37:255 38:255 39:255 41:1 43:190 44:148 45:4 46:2 47:13 48:9 49:255 50:255 51:255 52:255 53:255 54:255 55:253 56:253 57:253 58:255 59:255 60:255 61:255 62:255 63:255 64:255 65:255 66:255 67:255 68:255 69:255 97:255 98:255 99:255 100:255 101:255 102:255 103:255 104:255 105:255 106:255 107:255 108:255 109:254 110:254 111:254 112:255 113:255 114:255 115:255 116:255 117:255 118:255 119:255 120:255 121:255 122:255 123:255 124:255 125:255 126:255 127:255 128:255 129:255 130:81 131:71 132:69 133:141 134:153 135:17 136:218 137:161 138:12 139:190 140:144 142:2 143:4 144:1 145:135 146:108 147:21 148:255 149:255 150:251 151:255 152:255 153:255 154:255 155:255 156:255 157:255 158:255 159:255 160:255 161:255 162:255 163:255 164:255 165:255 211:255 212:255 213:255 214:255 215:255 216:255 217:255 218:255 219:255 220:255 221:255 222:251 223:149 224:134 225:15 227:11 229:4 230:7 232:203 233:156 234:4 235:51 236:55 238:54 239:68 240:9 241:186 242:184 243:13 244:134 245:137 246:48 247:254 248:253 249:255 250:255 251:255 252:255 253:255 254:255 255:255 256:253 257:253 258:253 289:255 290:255 291:255 292:255 293:255 294:255 295:254 296:254 297:254 298:255 299:255 300:255 301:255 302:255 303:255 304:255 305:255 306:255 307:255 308:255 309:255 310:251 311:251 312:251 313:134 314:114 315:17 316:163 317:157 318:9 320:32 322:8 323:28 325:151 326:136 327:9 328:212 329:174 330:1 331:9 332:6 334:188 335:176 336:12 337:49 338:67 339:5 340:37 341:75 342:26 343:139 344:117 345:18 346:254 347:255 348:247 349:255 350:255 351:255 352:255 353:255 354:255 355:255 356:255 357:255 385:255 386:255 387:255 388:255 389:255 390:255 391:255 392:255 393:255 394:255 395:255 396:255 397:255 398:255 399:255 400:255 401:255 402:251 403:9 404:6 407:10 409:7 410:25 411:3 412:1 413:1 414:1 415:1 416:9 418:2 419:1 420:6 421:186 422:163 424:200 425:170 427:120 428:136 429:27 431:10 434:6 436:4 437:5 439:98 440:121 441:15 442:205 443:186 444:8 445:255 446:255 447:253 448:255 449:255 450:255 451:255 452:255 453:255 454:255 455:255 456:255 457:255 458:255 459:255 460:255 461:255 462:255 463:255 464:255 465:255 484:255 485:255 486:255 487:255 488:255 489:255 490:255 491:255 492:255 493:218 494:220 495:206 496:194 497:153 498:11 499:196 500:163 501:6 503:6 504:6 505:2 506:2 508:1 509:25 510:3 511:1 513:5 514:76 515:87 516:19 517:210 518:174 520:205 521:171 522:1 523:206 524:175 525:9 526:158 527:156 528:19 529:2 531:12 532:2 533:1 536:11 537:7 539:4 541:30 542:50 543:1 544:255 545:254 546:249 547:255 548:253 549:254 550:255 551:255 552:255 553:255 554:255 555:255 556:255 557:255 558:255 559:255 560:255 561:255 577:255 578:255 579:255 580:255 581:255 582:255 583:253 584:253 585:251 586:182 587:142 588:18 589:176 590:151 592:46 593:58 595:2 597:3 599:15 601:2 602:2 603:4 604:3 605:9 606:7 607:197 608:187 609:11 610:107 611:110 612:7 613:193 614:167 616:207 617:175 618:4 619:170 620:166 621:5 622:150 623:160 624:27 626:3 627:4 628:2 630:8 631:129 632:131 635:15 637:1 638:3 640:1 641:8 642:1 643:254 644:255 645:253 646:255 647:255 648:255 649:255 650:255 651:255 652:255 653:255 654:255 655:255 656:255 657:255 673:255 674:255 675:255 676:255 677:255 678:248 679:85 680:60 682:173 683:151 684:6 685:1 686:1 687:3 688:28 689:42 690:19 691:4 692:9 693:3 694:195 695:148 696:6 697:167 698:130 700:7 701:32 703:27 704:37 705:29 707:1 708:3 709:225 710:188 711:12 712:205 713:173 715:182 716:182 717:24 718:30 719:63 721:27 722:64 723:12 724:8 726:4 728:26 731:36 734:2 735:3 737:1 738:2 740:17 742:254 743:255 744:255 745:255 746:255 747:255 748:255 749:255 750:255 751:255 752:255 753:255 769:254 770:255 771:250 772:188 773:153 774:11 775:7 776:3 778:136 779:142 780:6 781:71 782:84 783:31 784:12 785:1 786:7 787:5 788:1 790:35 791:67 793:134 794:166 795:31 796:74 797:104 798:14 799:2 800:15 801:5 802:2 803:2 804:2 805:197 806:179 808:195 809:158 810:5 811:91 812:109 813:23 814:172 815:151 817:205 818:186 819:8 820:4 821:28 824:3 826:2 827:6 828:7 829:165 830:188 831:9 832:1 833:2 834:4 836:14 838:122 839:130 840:21 841:253 842:253 843:253 844:255 845:255 846:255 847:255 848:255 849:255 850:255 851:255 852:255 865:254 866:255 867:247 868:101 869:119 870:17 871:15 872:20 874:3 875:17 876:4 877:1 878:19 879:3 881:2 884:6 886:135 887:157 888:31 889:178 890:174 891:4 892:12 893:25 896:4 897:4 898:4 899:2 900:3 901:201 902:185 903:1 904:203 905:176 906:1 908:4 914:19 916:142 917:164 918:3 919:30 920:80 921:11 922:1 923:1 924:1 926:1 929:1 930:5 931:48 932:57 933:2 934:22 935:92 937:18 938:18 939:20 940:255 941:255 942:255 943:255 944:255 945:255 946:255 947:255 948:255 961:17 964:8 965:5 966:14 967:126 968:139 969:7 970:1 971:14 973:8 974:18 975:7 976:2 977:3 979:29 980:61 981:24 982:214 983:202 984:22 985:185 986:183 987:21 988:93 989:107 990:10 992:6 994:2 995:4 997:212 998:215 999:24 1000:210 1001:194 1002:13 1003:9 1004:16 1009:2 1011:1 1012:85 1013:130 1014:1 1015:106 1016:147 1017:19 1019:2 1021:1 1022:9 1024:18 1025:33 1026:12 1027:85 1028:105 1029:6 1030:210 1031:220 1032:10 1033:109 1034:152 1035:47 1036:44 1037:43 1038:48 1039:255 1040:255 1041:255 1042:255 1043:255 1044:255 1045:255 1046:255 1047:255 1048:2 1049:2 1050:2 1057:130 1058:101 1059:21 1060:5 1061:3 1062:4 1063:69 1064:84 1065:25 1066:7 1067:10 1068:1 1070:10 1071:1 1072:134 1073:159 1074:31 1075:181 1076:164 1078:187 1079:179 1080:10 1081:70 1082:91 1084:2 1086:11 1088:13 1090:16 1091:21 1092:15 1093:198 1094:198 1095:22 1096:219 1097:215 1098:20 1099:181 1100:191 1101:42 1102:2 1103:2 1106:8 1108:168 1109:184 1110:15 1111:158 1112:183 1113:4 1114:26 1115:83 1116:4 1120:1 1121:7 1122:5 1123:74 1124:110 1125:20 1126:12 1127:44 1130:20 1131:5 1132:50 1133:84 1134:23 1135:255 1136:255 1137:253 1138:255 1139:255 1140:255 1141:255 1142:255 1143:255 1144:255 1145:255 1146:255 1153:146 1154:137 1155:34 1156:1 1157:6 1158:2 1160:1 1161:6 1162:168 1163:169 1165:38 1166:69 1167:1 1169:2 1172:4 1174:14 1175:18 1176:17 1177:85 1178:117 1180:60 1181:98 1183:181 1184:178 1185:3 1186:43 1187:58 1189:166 1190:170 1191:15 1192:201 1193:190 1194:20 1195:164 1196:159 1197:3 1198:1 1199:1 1200:1 1201:1 1202:1 1203:1 1204:1 1205:1 1206:3 1207:107 1208:145 1209:6 1210:123 1211:156 1212:17 1214:8 1216:1 1217:2 1219:4 1220:14 1221:6 1223:11 1226:6 1228:1 1229:25 1231:41 1232:40 1234:255 1235:255 1236:255 1237:255 1238:255 1239:255 1240:255 1241:255 1242:255 1249:86 1250:95 1251:12 1252:3 1253:17 1254:2 1256:34 1257:1 1259:2 1260:1 1262:5 1264:1 1265:1 1266:3 1268:5 1269:13 1270:162 1271:173 1272:17 1273:191 1274:179 1276:208 1277:189 1278:1 1279:187 1280:202 1281:15 1282:39 1283:83 1285:104 1286:120 1287:11 1288:178 1289:162 1290:7 1291:199 1292:179 1294:9 1295:4 1296:24 1297:5 1298:1 1299:2 1300:18 1301:49 1302:18 1303:179 1304:192 1305:14 1306:181 1307:197 1308:12 1310:4 1311:3 1312:4 1313:6 1314:1 1316:7 1318:10 1319:29 1320:1 1322:4 1323:1 1324:32 1325:75 1326:32 1327:170 1328:189 1329:47 1330:253 1331:253 1332:253 1333:255 1334:255 1335:255 1336:255 1337:255 1338:255 1339:3 1340:3 1341:3 1345:142 1346:116 1347:32 1348:5 1349:33 1353:2 1355:5 1357:150 1358:163 1359:11 1360:96 1361:131 1362:11 1364:2 1366:4 1370:13 1372:5 1373:22 1374:4 1375:59 1376:89 1377:63 1378:8 1379:51 1380:8 1381:2 1382:17 1384:210 1385:180 1387:237 1388:229 1389:8 1391:3 1392:8 1393:1 1394:1 1395:1 1397:20 1398:4 1400:9 1403:10 1404:1 1406:15 1408:191 1409:206 1410:15 1411:145 1412:182 1413:16 1414:4 1415:23 1417:159 1418:178 1419:11 1420:95 1421:146 1422:19 1423:250 1424:243 1425:49 1426:254 1427:255 1428:247 1429:255 1430:255 1431:255 1432:255 1433:255 1434:255 1435:255 1436:255 1437:255 1441:31 1442:14 1444:1 1445:5 1446:6 1447:179 1448:181 1449:9 1451:16 1452:3 1453:2 1454:1 1456:2 1457:6 1458:5 1460:7 1463:14 1464:1 1465:3 1466:3 1467:1 1470:4 1471:1 1472:9 1474:19 1475:53 1477:176 1478:207 1479:26 1480:212 1481:204 1483:214 1484:206 1486:158 1487:156 1489:166 1490:189 1491:11 1492:148 1493:190 1494:30 1495:1 1496:2 1498:31 1499:56 1500:24 1501:3 1502:3 1503:3 1504:17 1505:22 1506:16 1507:83 1508:103 1509:8 1510:192 1511:204 1512:18 1513:5 1514:10 1515:13 1516:115 1517:173 1519:210 1520:218 1521:11 1522:21 1523:8 1525:254 1526:254 1527:254 1528:255 1529:255 1530:255 1531:255 1532:255 1533:255 1537:18 1538:11 1539:3 1540:135 1541:140 1543:144 1544:140 1545:15 1546:22 1547:39 1548:5 1549:97 1550:150 1551:68 1552:20 1553:46 1554:17 1556:2 1559:2 1561:4 1562:20 1563:9 1564:1 1565:1 1567:7 1568:2 1569:9 1570:3 1571:10 1572:2 1573:93 1574:132 1575:17 1576:169 1577:181 1578:11 1579:124 1580:105 1582:212 1583:188 1585:24 1586:47 1587:1 1588:171 1589:171 1591:116 1592:150 1593:4 1594:2 1595:24 1596:1 1597:3 1598:5 1600:2 1601:6 1602:5 1604:1 1605:6 1606:163 1607:181 1608:9 1609:3 1610:18 1612:6 1613:27 1615:66 1616:125 1618:89 1619:125 1620:17 1621:255 1622:255 1623:253 1624:255 1625:255 1626:255 1627:255 1628:255 1629:255 1633:254 1634:254 1635:254 1636:153 1637:162 1638:11 1639:18 1640:67 1641:11 1642:142 1643:157 1644:2 1645:136 1646:168 1647:9 1648:4 1649:4 1650:6 1651:1 1652:3 1654:5 1656:9 1657:1 1658:3 1659:2 1661:6 1663:59 1664:85 1665:22 1666:90 1667:127 1668:13 1669:158 1670:183 1671:4 1672:143 1673:173 1675:211 1676:198 1677:5 1678:244 1679:238 1680:40 1681:68 1682:96 1683:11 1685:1 1686:3 1687:41 1688:82 1689:6 1690:170 1691:182 1692:12 1693:92 1694:122 1695:26 1696:1 1697:3 1698:2 1699:6 1700:15 1701:10 1703:4 1705:72 1706:122 1709:9 1710:1 1711:11 1712:21 1713:10 1714:189 1715:202 1716:52 1717:254 1718:255 1719:248 1720:255 1721:255 1722:255 1723:255 1724:255 1725:255 1726:255 1727:255 1728:255 1729:255 1730:255 1731:255 1732:82 1733:105 1734:17 1736:5 1737:9 1738:1 1739:3 1741:140 1742:163 1743:20 1744:32 1745:84 1746:2 1747:5 1748:11 1749:7 1751:7 1753:5 1754:11 1755:1 1756:16 1757:45 1758:15 1759:15 1760:38 1761:12 1762:9 1763:25 1764:12 1765:69 1766:78 1767:73 1769:1 1770:4 1771:250 1772:252 1773:67 1774:217 1775:217 1776:33 1777:222 1778:206 1779:9 1780:10 1781:14 1782:17 1783:139 1784:167 1785:5 1786:91 1787:117 1788:28 1789:8 1790:25 1791:7 1792:7 1793:8 1794:12 1795:10 1796:57 1797:5 1798:174 1799:215 1800:23 1802:4 1803:5 1804:119 1805:161 1806:23 1808:11 1809:3 1810:102 1811:151 1813:234 1814:235 1815:69 1816:254 1817:255 1818:255 1819:255 1820:255 1821:255 1822:255 1823:255 1824:255 1825:255 1826:255 1827:255 1828:45 1829:54 1830:27 1832:5 1833:1 1835:10 1837:3 1839:5 1841:6 1843:3 1844:21 1846:13 1847:24 1848:10 1850:19 1852:47 1853:76 1854:46 1855:8 1856:41 1857:12 1859:7 1862:21 1864:189 1865:211 1866:38 1867:255 1868:240 1869:27 1870:175 1871:163 1872:15 1873:210 1874:200 1875:53 1877:6 1879:2 1880:3 1882:22 1883:61 1884:14 1885:143 1886:178 1887:13 1888:159 1889:172 1891:103 1892:134 1893:4 1894:20 1895:42 1896:3 1897:9 1898:42 1899:13 1900:156 1901:178 1902:8 1903:132 1904:167 1905:3 1907:5 1909:68 1910:107 1911:44 1912:1 1913:2 1915:255 1916:255 1917:255 1918:255 1919:255 1920:255 1921:255 1922:255 1923:255 1924:254 1925:255 1926:250 1927:153 1928:138 1929:23 1931:4 1932:2 1934:6 1935:1 1936:49 1937:103 1938:19 1940:21 1942:7 1943:15 1944:2 1945:8 1946:20 1947:6 1948:6 1949:30 1950:8 1951:9 1952:32 1953:3 1954:78 1955:112 1956:75 1957:63 1958:97 1959:62 1960:7 1961:40 1962:11 1963:43 1964:64 1965:47 1966:153 1967:184 1968:2 1969:104 1970:87 1972:181 1973:190 1974:1 1975:2 1976:1 1979:3 1982:17 1984:7 1985:36 1986:8 1987:4 1988:14 1989:6 1990:1 1991:9 1993:30 1994:68 1995:9 1996:111 1997:152 1998:12 2000:28 2001:5 2002:5 2003:51 2004:4 2005:45 2006:87 2007:51 2008:137 2009:164 2010:25 2011:255 2012:255 2013:253 2014:255 2015:255 2016:255 2017:255 2018:255 2019:255 2020:255 2021:255 2022:255 2023:254 2024:255 2025:250 2026:2 2027:41 2028:14 2030:3 2032:5 2033:20 2035:2 2036:7 2037:3 2038:7 2039:1 2040:5 2041:4 2042:4 2043:6 2044:11 2045:28 2046:12 2047:34 2048:105 2049:27 2050:26 2051:76 2052:17 2054:32 2057:23 2059:53 2060:79 2061:42 2062:8 2063:42 2064:5 2065:216 2066:223 2067:21 2068:221 2069:231 2070:23 2072:19 2074:4 2075:28 2077:131 2078:128 2080:113 2081:154 2083:7 2084:5 2085:10 2086:2 2087:17 2090:22 2091:1 2092:2 2093:28 2094:3 2095:20 2096:70 2097:11 2098:59 2099:105 2100:33 2101:68 2102:83 2103:64 2104:160 2105:211 2106:48 2107:254 2108:255 2109:249 2110:255 2111:255 2112:255 2113:255 2114:255 2115:255 2116:255 2117:255 2118:255 2119:254 2120:254 2121:254 2123:18 2126:43 2128:12 2129:78 2130:7 2131:26 2132:66 2134:12 2135:37 2136:5 2137:22 2138:24 2139:21 2141:8 2143:3 2144:2 2146:21 2147:49 2148:27 2150:10 2151:2 2153:16 2155:7 2156:69 2157:4 2159:34 2161:59 2162:108 2164:173 2165:168 2166:22 2167:174 2168:179 2170:13 2171:45 2172:4 2173:2 2174:7 2175:11 2176:2 2177:4 2178:1 2179:3 2180:2 2182:2 2183:9 2184:2 2185:3 2186:67 2188:20 2189:81 2190:12 2191:13 2192:68 2195:74 2197:5 2198:34 2199:4 2201:27 2203:15 2204:34 2205:15 2206:255 2207:255 2208:255 2212:255 2213:255 2214:255 2215:255 2216:255 2217:255 2218:254 2219:255 2220:255 2221:38 2222:66 2223:25 2224:8 2225:3 2226:10 2227:4 2228:10 2229:6 2231:6 2233:58 2234:134 2235:2 2236:90 2237:169 2238:16 2239:71 2240:138 2242:137 2243:190 2244:22 2245:138 2246:192 2247:16 2248:130 2249:179 2251:169 2252:232 2253:89 2254:9 2255:52 2256:6 2257:74 2258:117 2259:71 2260:222 2261:242 2262:31 2263:225 2264:233 2265:10 2266:86 2267:130 2268:17 2270:4 2272:2 2273:11 2275:3 2276:16 2277:6 2278:3 2279:15 2280:1 2281:6 2282:25 2283:5 2285:10 2288:27 2289:4 2290:4 2291:32 2292:7 2294:20 2296:51 2297:100 2298:34 2299:14 2300:70 2301:9 2302:255 2303:255 2304:255 2311:255 2312:255 2313:255 2314:255 2315:255 2316:255 2317:255 2318:255 2319:255 2320:204 2321:203 2322:198 2323:3 2324:15 2325:5 2327:6 2328:1 2332:76 2333:123 2334:9 2335:5 2336:17 2337:7 2338:7 2339:26 2340:4 2341:71 2342:122 2343:65 2345:30 2346:4 2348:9 2349:1 2351:1 2352:3 2354:7 2355:1 2356:29 2357:60 2358:16 2359:148 2360:128 2361:13 2362:150 2363:178 2364:6 2365:1 2367:2 2369:20 2370:1 2371:3 2372:15 2373:1 2374:2 2375:16 2376:1 2377:1 2378:15 2381:18 2383:1 2384:31 2385:5 2387:22 2389:31 2390:108 2392:7 2393:46 2394:2 2395:2 2396:43 2397:3 2398:18 2399:19 2400:13 2410:255 2411:255 2412:255 2413:255 2414:255 2415:255 2416:255 2417:255 2418:255 2419:250 2420:254 2421:255 2429:7 2432:5 2435:7 2437:81 2438:112 2439:78 2440:68 2441:132 2442:58 2443:35 2444:75 2445:25 2447:33 2449:7 2450:33 2451:6 2452:12 2453:26 2454:13 2455:110 2456:155 2458:182 2459:197 2460:8 2461:1 2462:6 2463:2 2464:1 2465:1 2466:1 2467:1 2468:3 2471:18 2473:1 2474:47 2475:1 2477:23 2478:1 2479:7 2480:28 2481:9 2483:29 2484:1 2485:8 2486:29 2487:12 2488:4 2489:43 2492:57 2494:22 2495:61 2496:17 2500:255 2501:255 2502:255 2503:255 2504:255 2505:255 2506:255 2507:255 2508:255 2509:255 2510:255 2511:255 2512:255 2513:255 2514:255 2515:255 2516:255 2517:255 2518:254 2519:255 2520:255 2521:1 2522:1 2523:1 2528:4 2529:5 2532:2 2536:11 2537:27 2538:14 2539:2 2540:4 2541:3 2543:19 2545:9 2546:14 2547:10 2548:1 2549:9 2551:54 2552:99 2553:42 2554:123 2555:119 2556:11 2557:154 2558:178 2559:6 2560:1 2561:1 2562:1 2563:1 2564:1 2565:1 2566:1 2567:3 2568:2 2569:2 2570:4 2571:1 2572:2 2573:2 2576:29 2578:78 2579:154 2580:20 2581:8 2582:55 2583:1 2584:2 2585:19 2586:1 2587:2 2588:21 2590:27 2591:44 2592:26 2596:255 2597:255 2598:255 2599:255 2600:255 2601:255 2602:255 2603:255 2604:255 2605:255 2606:255 2607:255 2608:255 2609:255 2610:255 2611:255 2612:255 2613:255 2614:255 2615:255 2616:255 2617:254 2618:254 2619:254 2627:1 2629:1 2630:1 2631:3 2632:6 2633:11 2634:7 2636:3 2637:2 2638:3 2639:16 2640:6 2642:4 2643:5 2644:8 2645:22 2646:7 2647:60 2648:106 2649:59 2650:53 2651:93 2652:7 2653:158 2654:170 2656:1 2657:3 2660:2 2661:1 2665:8 2666:25 2667:7 2668:1 2669:13 2670:1 2671:3 2672:26 2674:3 2675:25 2676:4 2678:24 2680:11 2681:18 2682:10 2683:13 2684:35 2686:3 2687:1 2688:2 2707:255 2708:255 2709:255 2710:255 2711:255 2712:255 2713:255 2714:255 2715:255 2716:255 2717:255 2718:255 2719:250 2720:254 2721:255 2732:2 2734:3 2735:1 2736:6 2738:7 2740:2 2741:7 2742:1 2743:7 2744:14 2745:6 2746:3 2747:5 2748:2 2749:72 2750:94 2752:53 2753:96 2754:16 2755:4 2756:2 2757:7 2758:2 2759:2 2760:2 2761:1 2762:1 2763:1 2764:1 2765:1 2766:1 2767:2 2768:4 2769:1 2770:4 2771:9 2772:3 2773:1 2774:1 2775:1 2776:1 2777:3 2779:1 2780:3 2781:2 2782:255 2783:255 2784:255 2803:255 2804:255 2805:255 2806:255 2807:255 2808:255 2809:255 2810:255 2811:255 2812:255 2813:255 2814:255 2815:255 2816:255 2817:255 2818:255 2819:255 2820:255 2821:255 2822:255 2823:255 2824:15 2825:17 2826:16 2833:25 2834:33 2835:22 2836:2 2837:7 2838:1 2840:7 2842:11 2843:28 2844:10 2846:5 2847:1 2848:98 2849:145 2850:7 2851:1 2852:3 2860:1 2861:1 2862:1 2872:1 2873:1 2874:1 2875:255 2876:255 2877:255 2878:255 2879:255 2880:255 2911:255 2912:255 2913:255 2914:255 2915:255 2916:255 2917:255 2918:255 2919:255 2920:255 2921:255 2922:255 2923:255 2924:255 2925:255 2926:255 2927:255 2928:255 2929:65 2930:65 2931:65 2932:1 2933:1 2934:1 2942:3 2943:4 2944:58 2945:113 2946:19 2947:2 2948:2 2949:4 2960:1 2961:3 2962:1 2963:3 2964:2 2965:251 2966:255 2967:255 2968:255 2969:255 2970:255 2971:255 2972:255 2973:255 2974:255 2975:255 2976:255 3007:255 3008:255 3009:255 3010:255 3011:255 3012:255 3013:255 3014:255 3015:255 3016:255 3017:255 3018:255 3019:255 3020:255 3021:255 3022:255 3023:255 3024:255 3025:255 3026:255 3027:255 3028:255 3029:255 3030:255 3031:255 3032:255 3033:255 3034:255 3035:255 3036:255 3037:255 3038:255 3039:255 3040:36 3041:43 3042:12 3043:6 3044:1 3046:255 3047:255 3048:255 3049:255 3050:255 3051:255 3052:255 3053:255 3054:255 3055:255 3056:255 3057:255 3058:255 3059:255 3060:255 3061:255 3062:255 3063:255 3064:255 3065:255 3066:255 3067:252 3068:252 3069:252 
0.01 1:255 2:255 3:255 4:255 5:255 6:255 7:255 8:255 9:255 10:50 11:67 12:51 13:12 14:84 16:2 17:68 19:22 20:90 21:15 23:67 25:5 26:42 27:1 28:163 29:172 30:167 31:254 32:254 33:254 34:255 35:255 36:255 37:255 38:255 39:255 40:255 41:255 42:255 61:1 62:1 63:1 64:253 65:253 66:253 67:255 68:255 69:255 70:255 71:255 72:255 73:255 74:255 75:255 76:255 77:255 78:255 97:255 98:255 99:255 100:255 101:255 102:251 103:14 104:95 106:19 107:87 108:12 109:27 110:111 112:12 113:70 114:20 115:69 116:127 117:6 118:58 119:140 120:12 121:5 122:83 123:8 124:10 125:75 126:11 128:69 129:4 131:13 132:4 133:253 134:253 135:253 136:255 137:255 138:255 139:255 140:255 141:255 142:255 143:255 144:255 145:255 146:255 147:255 148:255 149:255 150:255 151:255 152:255 153:255 154:255 155:255 156:255 157:255 158:255 159:255 160:252 161:252 162:252 163:255 164:255 165:255 166:255 167:255 168:255 169:255 170:255 171:255 172:255 173:255 174:255 193:255 194:255 195:255 196:110 197:156 198:32 199:183 200:221 201:24 202:7 203:82 206:56 209:50 210:1 211:108 212:162 213:2 214:2 215:16 218:42 221:52 222:10 223:102 224:148 225:73 226:73 227:131 228:31 229:40 230:104 231:10 232:12 233:89 235:61 236:69 237:56 238:254 239:254 240:254 241:255 242:255 243:255 244:255 245:255 246:255 247:255 248:255 249:255 250:255 251:255 252:253 253:226 254:226 255:228 256:255 257:255 258:255 259:255 260:255 261:255 262:252 263:252 264:252 265:255 266:255 267:255 268:255 269:255 270:255 289:254 290:254 291:254 292:207 293:253 294:119 295:80 296:146 297:14 298:180 299:234 300:136 301:52 302:130 303:11 304:55 305:122 306:19 307:7 308:74 309:5 310:93 311:142 313:43 314:86 315:7 316:70 317:136 318:39 319:7 320:58 322:41 323:101 324:31 325:27 326:84 327:3 328:28 329:73 330:14 331:37 332:112 333:11 334:42 335:115 337:6 338:17 339:3 340:254 341:253 342:255 343:255 344:255 345:255 346:255 347:255 348:255 349:255 350:255 351:255 352:253 353:253 354:255 355:255 356:255 357:255 358:255 359:255 360:255 361:255 362:255 363:255 364:255 365:255 366:255 385:255 386:254 387:250 388:120 389:164 390:67 391:131 392:174 393:9 394:60 395:130 396:6 397:64 398:134 399:12 400:42 401:79 402:9 403:3 404:15 405:3 406:98 407:148 408:23 409:174 410:227 411:49 413:45 415:81 416:123 417:23 418:225 419:255 420:150 421:90 422:120 423:94 424:99 425:141 426:67 427:32 428:87 429:19 430:125 431:162 432:46 433:55 434:129 435:14 436:3 437:50 438:6 439:255 440:255 441:255 442:255 443:255 444:255 445:255 446:255 447:255 448:255 449:255 450:255 451:255 452:255 453:255 454:255 455:255 456:255 457:255 458:255 459:255 481:253 482:255 483:250 484:36 485:63 486:8 487:98 488:143 489:62 490:103 491:138 492:82 493:97 494:140 495:69 497:38 498:1 499:128 500:158 501:108 502:68 503:110 504:38 505:145 506:187 507:1 508:192 509:233 510:105 511:85 512:128 513:59 514:20 515:76 516:11 517:72 518:106 519:32 520:32 521:64 524:36 526:160 527:189 528:122 529:194 530:231 531:100 532:122 533:164 534:80 535:112 536:147 537:65 539:10 541:254 542:254 543:254 544:255 545:255 546:255 547:255 548:255 549:255 577:254 578:254 579:254 580:22 581:38 582:11 583:31 584:75 585:12 586:82 587:132 588:37 589:13 590:69 591:20 592:15 593:64 594:17 595:36 596:101 597:17 599:55 601:12 602:44 603:5 604:45 605:101 607:37 608:61 609:27 610:43 611:60 612:16 613:22 614:49 615:16 616:132 617:149 618:95 619:157 620:188 621:147 622:49 623:102 624:48 625:210 626:236 627:162 628:193 629:222 630:176 631:162 632:197 633:155 634:159 635:203 636:140 637:253 638:255 639:247 640:255 641:255 642:255 643:255 644:255 645:255 646:255 647:255 648:255 649:255 650:255 651:255 673:249 674:255 675:253 676:82 677:119 678:49 679:227 680:253 681:179 682:126 683:171 684:70 685:94 686:150 687:63 688:72 689:129 690:35 691:37 692:98 693:41 694:15 695:42 697:105 698:126 699:70 700:57 701:118 702:23 703:219 704:251 705:118 706:174 707:186 708:114 709:156 710:193 711:149 712:128 713:134 714:98 715:155 716:202 717:132 718:88 719:105 720:89 721:216 722:255 723:183 724:94 725:141 726:73 728:34 730:72 731:112 732:42 733:121 734:160 735:81 736:16 737:76 738:22 739:46 740:53 741:46 742:254 743:254 744:254 745:255 746:255 747:255 748:255 749:255 750:255 751:3 752:3 753:3 769:255 770:255 771:253 772:163 773:215 774:45 775:255 776:255 777:86 778:250 779:251 780:113 781:236 782:251 783:90 784:103 785:150 786:54 787:55 788:102 789:30 790:38 791:114 792:26 793:14 794:81 795:1 796:7 797:79 799:191 800:243 801:98 802:224 803:233 804:150 805:170 806:191 807:150 808:202 809:221 810:139 811:108 812:153 813:94 814:83 815:146 816:39 817:74 818:128 819:17 820:134 821:174 822:111 823:62 824:114 825:42 826:104 827:157 828:103 829:220 830:255 831:215 832:86 833:131 834:28 835:96 836:139 837:70 838:4 839:6 840:3 841:254 842:255 843:255 844:255 845:255 846:255 847:255 848:255 849:255 850:1 851:1 852:1 865:1 867:5 868:138 869:169 870:125 871:156 872:196 873:123 874:134 875:162 876:121 877:154 878:181 879:112 881:15 883:45 884:97 885:15 886:77 887:120 888:49 889:58 890:103 891:44 892:11 893:53 894:3 895:108 896:148 897:78 898:172 899:191 900:22 901:83 902:119 903:11 904:78 905:123 906:38 907:116 908:153 909:73 910:211 911:244 912:131 913:171 914:210 915:104 916:150 917:185 918:145 919:95 920:140 921:85 922:133 923:161 924:113 925:142 926:159 927:143 928:191 929:216 930:186 931:113 932:127 933:112 934:67 935:127 936:27 937:3 938:3 939:1 940:255 941:255 942:255 943:255 944:255 945:255 946:255 947:255 948:255 949:255 950:255 951:255 961:91 962:150 963:40 964:173 965:197 966:111 967:175 968:225 969:104 970:42 971:94 974:41 976:6 977:25 978:3 979:9 980:36 982:183 983:229 984:164 985:119 986:171 987:125 988:95 989:150 990:92 991:53 992:104 993:27 995:51 997:171 998:170 999:20 1000:237 1001:249 1002:125 1003:145 1004:189 1005:114 1006:146 1007:212 1008:112 1009:161 1010:198 1011:167 1012:144 1013:182 1014:97 1015:187 1016:232 1017:137 1018:36 1019:62 1020:37 1021:44 1022:65 1023:9 1024:160 1025:191 1026:131 1027:244 1028:255 1029:179 1030:107 1031:146 1032:117 1033:136 1034:180 1035:117 1036:7 1037:74 1038:5 1039:235 1040:235 1041:233 1042:255 1043:255 1044:255 1045:255 1046:255 1047:255 1048:255 1049:255 1050:255 1058:8 1060:191 1061:220 1062:176 1063:194 1064:239 1065:174 1066:3 1067:32 1068:4 1069:84 1070:132 1071:56 1072:5 1073:33 1074:11 1075:84 1076:124 1077:72 1078:134 1079:180 1080:108 1081:34 1082:89 1083:22 1084:111 1085:158 1086:78 1088:60 1091:15 1093:172 1094:195 1095:42 1096:243 1097:253 1098:118 1099:40 1100:94 1101:19 1102:105 1103:145 1104:83 1105:91 1106:137 1107:88 1108:166 1109:212 1110:165 1111:200 1112:203 1113:184 1114:183 1115:225 1116:151 1117:215 1118:249 1119:137 1120:107 1121:148 1122:108 1123:120 1124:167 1125:121 1126:137 1127:181 1128:148 1129:180 1130:199 1131:154 1132:216 1133:242 1134:205 1135:8 1136:62 1138:248 1139:253 1140:249 1141:255 1142:255 1143:255 1144:255 1145:255 1146:255 1153:33 1154:95 1155:20 1156:66 1157:102 1158:38 1159:113 1160:167 1161:45 1162:188 1163:222 1164:162 1165:145 1166:155 1167:118 1168:11 1169:72 1170:3 1171:17 1172:86 1174:26 1175:87 1176:9 1177:71 1178:122 1179:27 1180:86 1181:153 1182:12 1183:90 1184:154 1185:6 1186:68 1187:130 1188:3 1189:41 1190:131 1191:17 1192:242 1193:255 1194:161 1195:35 1196:56 1198:229 1199:255 1200:241 1201:42 1202:71 1203:7 1204:235 1205:255 1206:223 1207:140 1208:185 1209:102 1210:52 1211:94 1212:30 1213:114 1214:174 1215:18 1216:147 1217:183 1218:147 1219:16 1220:26 1221:1 1222:238 1223:255 1224:202 1225:121 1226:154 1227:111 1228:200 1229:226 1230:189 1231:41 1232:87 1233:22 1235:2 1237:255 1238:253 1239:254 1240:255 1241:255 1242:255 1243:255 1244:255 1245:255 1246:254 1247:254 1248:254 1250:10 1252:54 1253:100 1254:2 1255:240 1256:255 1257:113 1258:65 1259:100 1260:6 1261:220 1262:213 1263:184 1264:201 1265:223 1266:151 1267:229 1268:255 1269:183 1270:124 1271:163 1272:96 1274:29 1275:1 1276:12 1277:75 1278:28 1279:47 1280:92 1281:37 1282:89 1283:148 1284:6 1285:22 1286:98 1287:8 1288:17 1289:67 1290:4 1291:246 1292:252 1293:120 1294:191 1295:211 1296:148 1297:77 1298:107 1299:71 1300:123 1301:175 1302:111 1303:142 1304:171 1305:123 1306:129 1307:145 1308:142 1309:181 1310:197 1311:152 1312:198 1313:227 1314:171 1315:78 1316:87 1317:60 1318:143 1319:157 1320:134 1321:141 1322:169 1323:128 1325:18 1327:190 1328:206 1329:177 1330:245 1331:253 1332:229 1334:11 1335:1 1336:254 1337:255 1338:255 1339:255 1340:255 1341:255 1342:255 1343:255 1344:255 1346:5 1348:24 1349:51 1350:8 1351:157 1352:194 1353:142 1354:156 1355:204 1356:120 1357:160 1358:179 1359:134 1360:164 1361:220 1362:93 1363:161 1364:211 1365:80 1366:110 1367:154 1368:31 1369:155 1370:193 1371:18 1372:12 1373:75 1375:51 1376:123 1377:39 1378:71 1379:122 1380:27 1381:17 1382:70 1383:14 1385:19 1386:2 1387:73 1388:97 1389:13 1390:172 1391:212 1392:89 1393:131 1394:171 1395:118 1396:131 1397:174 1398:121 1399:122 1400:130 1401:91 1402:11 1403:29 1404:5 1405:117 1406:156 1407:101 1408:70 1409:125 1410:86 1411:2 1412:14 1414:88 1415:138 1416:69 1417:142 1418:171 1419:125 1420:47 1421:84 1422:33 1423:74 1424:125 1425:58 1426:55 1427:89 1428:54 1429:183 1430:196 1431:153 1432:2 1433:8 1435:255 1436:255 1437:255 1438:255 1439:255 1440:255 1441:253 1442:255 1443:250 1444:111 1445:142 1446:75 1447:233 1448:242 1449:199 1450:173 1451:207 1452:170 1453:186 1454:200 1455:147 1456:184 1457:211 1458:176 1459:217 1460:238 1461:219 1462:91 1463:134 1464:52 1465:113 1466:177 1467:41 1469:36 1471:155 1472:222 1473:117 1474:2 1475:39 1477:20 1478:59 1479:12 1480:100 1481:150 1482:61 1483:59 1484:114 1485:23 1486:171 1487:186 1489:140 1490:176 1491:104 1492:205 1493:242 1494:173 1495:190 1496:214 1497:140 1498:161 1499:189 1500:164 1501:74 1502:112 1503:61 1504:10 1505:58 1507:81 1508:128 1509:73 1510:71 1511:101 1512:65 1513:82 1514:118 1515:82 1516:165 1517:195 1518:185 1519:233 1520:251 1521:209 1522:107 1523:148 1524:56 1525:80 1526:120 1527:47 1528:44 1529:111 1530:18 1531:178 1532:180 1533:166 1534:255 1535:255 1536:255 1537:253 1538:255 1539:254 1540:34 1541:96 1543:230 1544:253 1545:201 1546:246 1547:255 1548:231 1549:242 1550:253 1551:197 1552:217 1553:229 1554:205 1555:177 1556:202 1557:183 1558:72 1559:100 1560:62 1561:15 1562:40 1563:18 1564:11 1565:45 1567:112 1568:169 1569:64 1570:14 1571:83 1572:16 1573:5 1574:70 1575:6 1576:1 1577:60 1578:2 1579:41 1580:116 1581:13 1582:63 1583:85 1584:10 1585:40 1586:76 1588:112 1589:140 1590:117 1591:19 1592:56 1593:25 1594:17 1595:42 1596:13 1597:70 1598:134 1599:47 1600:195 1601:230 1602:197 1604:27 1606:83 1607:108 1608:79 1609:161 1610:215 1611:163 1612:107 1613:136 1614:131 1615:55 1616:78 1617:58 1618:180 1619:202 1620:166 1621:186 1622:224 1623:125 1624:152 1625:192 1626:103 1628:6 1629:4 1630:255 1631:255 1632:255 1633:255 1634:252 1635:253 1636:81 1637:148 1639:252 1640:255 1641:198 1642:20 1643:38 1644:16 1645:242 1646:252 1647:218 1648:142 1649:163 1650:86 1651:129 1652:161 1653:38 1654:181 1655:217 1656:31 1657:121 1658:184 1659:15 1660:76 1661:128 1662:20 1663:17 1664:72 1666:75 1667:146 1668:44 1670:43 1672:5 1673:66 1676:41 1678:159 1679:210 1680:7 1681:254 1682:255 1683:152 1684:97 1685:120 1686:76 1687:11 1688:62 1690:69 1691:128 1692:70 1693:151 1694:205 1695:171 1696:194 1697:223 1698:179 1699:99 1700:142 1701:96 1702:42 1703:72 1704:44 1706:9 1708:151 1709:178 1710:99 1711:208 1712:231 1713:159 1714:176 1715:194 1716:152 1717:103 1718:156 1719:88 1720:209 1721:219 1722:148 1723:87 1724:159 1725:34 1726:252 1727:252 1728:250 1729:254 1730:254 1731:252 1732:71 1733:144 1734:13 1735:49 1736:83 1737:22 1738:138 1739:175 1740:69 1741:236 1742:255 1743:133 1744:212 1745:255 1746:107 1747:215 1748:253 1749:150 1750:128 1751:174 1752:50 1753:146 1754:200 1755:62 1756:169 1757:220 1758:31 1759:121 1760:180 1761:28 1762:104 1763:156 1764:19 1765:7 1766:67 1767:3 1768:20 1769:89 1770:24 1771:20 1772:94 1773:15 1774:61 1775:138 1776:6 1777:147 1778:164 1779:8 1780:16 1781:97 1783:132 1784:184 1785:14 1786:21 1787:76 1788:9 1789:134 1790:173 1791:94 1792:127 1793:158 1794:116 1795:63 1796:76 1797:58 1798:57 1799:69 1800:33 1801:16 1802:27 1803:10 1804:120 1805:158 1806:101 1807:126 1808:190 1809:130 1810:185 1811:217 1812:134 1813:57 1814:100 1815:46 1816:132 1817:166 1818:89 1819:214 1820:255 1821:167 1822:1 1823:5 1824:6 1825:255 1826:255 1827:255 1828:248 1829:251 1830:244 1831:116 1832:151 1833:97 1834:208 1835:237 1836:171 1837:10 1838:17 1840:172 1841:208 1842:138 1843:172 1844:208 1845:100 1846:53 1847:92 1848:11 1849:178 1850:218 1851:95 1852:138 1853:203 1854:51 1855:48 1856:103 1857:12 1858:72 1859:141 1861:72 1862:138 1863:15 1864:37 1865:124 1866:20 1867:9 1868:40 1869:9 1870:7 1871:61 1872:1 1873:134 1874:153 1875:12 1876:138 1877:186 1878:6 1879:45 1880:109 1882:57 1883:106 1884:15 1885:28 1886:48 1887:20 1889:19 1891:158 1892:212 1893:150 1894:181 1895:209 1896:161 1897:141 1898:159 1899:119 1900:163 1901:198 1902:140 1903:215 1904:255 1905:185 1906:191 1907:205 1908:170 1909:63 1910:108 1911:43 1913:14 1915:120 1916:169 1917:78 1918:4 1919:28 1920:6 1921:255 1922:255 1923:255 1924:255 1925:255 1926:255 1927:255 1928:255 1929:255 1930:75 1931:124 1932:42 1933:33 1934:64 1935:30 1936:104 1937:157 1938:53 1939:108 1940:152 1941:54 1942:149 1943:204 1944:87 1945:10 1946:55 1949:48 1951:3 1952:40 1954:76 1955:136 1956:46 1957:7 1958:93 1960:2 1961:55 1962:3 1964:32 1966:11 1967:42 1968:1 1969:128 1970:166 1971:5 1972:91 1973:160 1974:17 1975:31 1976:89 1977:12 1978:6 1979:56 1981:14 1982:69 1983:12 1984:22 1985:65 1986:11 1987:46 1988:70 1989:48 1990:73 1991:124 1992:55 1993:66 1994:100 1995:65 1996:146 1997:190 1998:137 1999:51 2000:67 2001:18 2003:11 2005:163 2006:214 2007:139 2009:9 2010:8 2011:82 2012:146 2013:32 2014:74 2015:135 2016:42 2020:255 2021:255 2022:255 2023:255 2024:255 2025:255 2026:254 2027:255 2028:255 2029:167 2030:184 2031:148 2032:46 2033:77 2034:18 2035:48 2036:99 2038:144 2039:182 2040:99 2041:15 2042:70 2043:5 2044:96 2045:158 2046:49 2047:15 2048:85 2049:12 2051:47 2053:93 2054:150 2055:33 2056:57 2057:117 2059:35 2060:123 2062:27 2063:115 2064:13 2065:97 2066:155 2067:9 2068:89 2069:135 2070:1 2071:2 2072:40 2073:1 2074:19 2075:98 2076:9 2078:41 2080:15 2081:58 2082:12 2083:23 2084:76 2086:3 2087:14 2089:46 2090:89 2091:35 2092:5 2093:67 2095:28 2096:78 2097:9 2098:20 2099:88 2100:1 2101:45 2102:96 2103:39 2104:4 2105:45 2106:5 2107:62 2108:120 2109:18 2110:4 2111:35 2112:3 2116:255 2117:255 2118:255 2119:255 2120:255 2121:255 2122:255 2123:255 2124:255 2125:67 2126:79 2127:31 2128:173 2129:168 2130:138 2131:57 2132:101 2133:38 2134:27 2135:81 2136:5 2137:48 2138:127 2139:12 2140:130 2141:198 2142:33 2143:38 2144:110 2145:24 2146:43 2147:123 2148:2 2149:58 2150:139 2151:10 2152:40 2153:110 2154:21 2156:88 2157:2 2159:59 2160:5 2161:144 2162:200 2163:39 2164:127 2165:164 2166:7 2168:48 2169:1 2170:2 2171:72 2174:73 2175:2 2176:11 2177:41 2178:5 2179:22 2180:88 2183:37 2185:39 2186:92 2187:2 2188:61 2189:102 2190:58 2191:82 2192:131 2193:50 2194:1 2195:35 2196:8 2197:57 2198:113 2199:14 2200:12 2201:62 2202:9 2203:64 2204:127 2205:10 2206:249 2207:251 2208:250 2215:255 2216:255 2217:255 2218:255 2219:255 2220:253 2221:49 2222:95 2223:30 2224:144 2225:192 2226:83 2228:17 2230:142 2231:203 2232:110 2233:53 2234:109 2235:22 2236:44 2237:126 2238:2 2239:10 2240:82 2241:9 2242:57 2243:134 2244:2 2245:35 2246:119 2247:7 2249:66 2252:54 2255:44 2256:5 2257:81 2258:150 2259:8 2260:181 2261:229 2262:47 2263:7 2264:53 2265:4 2267:62 2270:45 2273:50 2274:1 2276:21 2278:1 2279:8 2280:1 2281:11 2282:52 2283:18 2284:2 2285:8 2287:45 2288:83 2289:32 2290:150 2291:204 2292:120 2293:163 2294:194 2295:150 2296:91 2297:121 2298:67 2299:247 2300:255 2301:254 2302:255 2303:255 2304:255 2311:255 2312:255 2313:255 2314:255 2315:255 2316:255 2317:5 2318:3 2319:4 2321:14 2322:7 2323:19 2324:67 2325:7 2326:60 2327:130 2328:32 2329:2 2330:73 2332:2 2333:26 2334:2 2335:6 2336:32 2337:7 2339:33 2340:4 2341:3 2342:41 2343:2 2345:31 2348:24 2349:2 2351:27 2353:66 2354:148 2355:11 2356:135 2357:187 2358:24 2360:30 2362:9 2363:68 2364:2 2365:55 2366:106 2367:39 2368:140 2369:187 2370:95 2371:146 2372:195 2373:113 2374:181 2375:202 2376:159 2377:74 2378:86 2379:40 2380:18 2381:28 2382:1 2383:255 2384:253 2385:234 2386:118 2387:150 2388:74 2389:24 2390:95 2391:15 2392:40 2393:110 2394:21 2395:255 2396:255 2397:255 2398:255 2399:255 2400:255 2407:255 2408:255 2409:255 2410:255 2411:255 2412:255 2413:255 2414:255 2415:250 2416:31 2417:33 2418:30 2419:9 2420:70 2422:53 2423:121 2424:38 2425:5 2426:42 2427:8 2428:8 2429:49 2430:7 2431:13 2432:61 2433:13 2434:13 2435:79 2436:5 2437:24 2438:90 2439:29 2440:4 2441:28 2442:2 2443:3 2444:32 2445:2 2446:4 2447:35 2448:3 2449:121 2450:165 2451:6 2452:97 2453:162 2454:10 2455:4 2456:53 2458:6 2459:61 2460:6 2461:3 2462:27 2463:3 2465:48 2467:28 2468:86 2469:25 2470:4 2471:10 2472:6 2473:4 2474:10 2475:6 2477:17 2478:1 2480:52 2482:4 2483:62 2484:4 2485:18 2486:74 2487:13 2488:1 2489:38 2490:5 2491:255 2492:255 2493:255 2494:255 2495:255 2496:255 2506:255 2507:255 2508:255 2509:255 2510:255 2511:255 2512:255 2513:255 2514:255 2515:26 2516:64 2517:23 2518:33 2519:72 2520:25 2521:43 2522:120 2523:18 2524:61 2525:148 2526:17 2528:49 2530:13 2531:38 2532:16 2534:20 2536:2 2537:37 2538:4 2540:26 2543:21 2545:94 2546:142 2547:7 2548:34 2549:111 2550:7 2552:46 2554:4 2555:31 2557:9 2558:33 2559:9 2561:19 2563:4 2564:6 2565:5 2567:14 2569:40 2570:124 2571:38 2572:12 2573:86 2574:9 2575:1 2576:35 2577:2 2578:7 2579:63 2580:2 2581:1 2582:49 2584:255 2585:251 2586:251 2587:255 2588:255 2589:255 2590:255 2591:255 2592:255 2605:255 2606:255 2607:255 2608:255 2609:255 2610:255 2611:112 2612:116 2613:115 2614:16 2615:75 2616:21 2617:3 2618:49 2620:1 2621:56 2623:4 2624:42 2625:3 2627:23 2629:21 2630:80 2631:14 2633:59 2635:6 2636:37 2637:5 2638:11 2639:57 2640:8 2641:94 2642:145 2643:6 2644:3 2645:47 2647:17 2648:70 2649:16 2650:6 2651:44 2652:5 2653:2 2654:31 2655:1 2657:32 2659:2 2660:23 2661:4 2662:1 2663:18 2665:1 2666:25 2667:3 2668:6 2669:24 2670:2 2671:8 2672:38 2673:10 2674:2 2675:40 2677:13 2678:20 2679:13 2680:255 2681:255 2682:255 2683:255 2684:255 2685:255 2686:255 2687:255 2688:255 2701:255 2702:255 2703:255 2704:255 2705:255 2706:255 2707:255 2708:255 2709:255 2710:3 2711:21 2712:9 2714:55 2717:47 2718:1 2719:13 2720:82 2721:17 2722:2 2723:33 2725:3 2726:11 2728:1 2729:20 2731:4 2732:39 2733:6 2734:1 2735:42 2736:10 2737:121 2738:156 2739:10 2740:9 2741:68 2742:2 2744:10 2745:2 2746:53 2747:129 2748:20 2749:37 2750:110 2751:31 2752:16 2753:50 2754:13 2755:11 2756:53 2757:13 2758:16 2759:62 2760:16 2761:2 2762:56 2763:6 2764:19 2765:73 2766:13 2767:5 2768:34 2769:6 2770:3 2771:1 2772:4 2773:254 2774:255 2775:255 2776:255 2777:255 2778:255 2779:255 2780:255 2781:255 2800:255 2801:255 2802:255 2803:255 2804:255 2805:255 2806:255 2807:255 2808:255 2809:255 2810:255 2811:253 2813:35 2814:2 2815:35 2816:77 2817:27 2818:4 2819:43 2820:12 2821:7 2822:55 2823:7 2824:2 2825:43 2826:1 2827:4 2828:57 2829:5 2830:33 2831:97 2832:11 2833:84 2834:113 2835:3 2836:3 2837:24 2838:5 2839:5 2841:1 2842:7 2843:33 2844:4 2845:8 2846:55 2847:1 2848:97 2849:152 2850:84 2851:4 2852:21 2853:2 2854:3 2855:17 2856:2 2857:3 2858:25 2859:2 2860:9 2861:49 2862:12 2863:250 2864:254 2865:255 2866:255 2867:255 2868:255 2869:255 2870:255 2871:255 2872:255 2873:255 2874:255 2875:253 2876:253 2877:253 2902:255 2903:255 2904:255 2905:255 2906:255 2907:255 2908:255 2909:253 2910:254 2912:5 2914:5 2915:41 2916:5 2917:15 2918:55 2919:20 2921:31 2923:1 2924:29 2925:4 2926:8 2927:47 2929:49 2930:91 2931:25 2932:32 2933:51 2934:29 2935:12 2936:32 2937:4 2938:1 2939:25 2941:1 2942:12 2943:4 2944:2 2945:2 2948:8 2950:7 2951:14 2952:7 2953:255 2954:255 2955:255 2956:255 2957:255 2958:255 2959:255 2960:255 2961:255 2962:255 2963:255 2964:255 2965:255 2966:255 2967:255 2989:255 2990:255 2991:255 2992:255 2993:255 2994:255 2995:255 2996:255 2997:255 2998:255 2999:255 3000:255 3001:255 3002:255 3003:255 3004:255 3005:255 3006:255 3007:255 3008:255 3009:255 3010:254 3011:254 3012:254 3013:253 3014:253 3015:253 3016:250 3017:254 3018:253 3019:255 3020:254 3021:252 3022:251 3023:255 3024:254 3025:154 3026:155 3027:150 3028:56 3029:77 3030:38 3031:1 3033:5 3034:4 3035:4 3036:12 3038:15 3039:1 3040:250 3041:254 3042:255 3043:255 3044:255 3045:255 3046:255 3047:255 3048:255 3049:255 3050:255 3051:255 3052:255 3053:255 3054:255 3055:255 3056:255 3057:255 3058:255 3059:255 3060:255 3061:255 3062:255 3063:255 3064:255 3065:255 3066:255 3067:255 3068:255 3069:255 
