svm_type c_svc
kernel_type rbf
gamma 1e-08
nr_class 2
total_sv 93
rho 1.00244
label 1 -1
probA -382.359
probB -378.488
nr_sv 42 51
SV
0.01 46:220 47:225 48:219 49:205 50:210 51:204 52:88 53:109 54:78 55:211 56:218 57:210 58:213 59:218 60:212 139:221 140:226 141:220 142:218 143:225 144:218 145:184 146:194 147:183 148:46 149:72 150:33 151:201 152:207 153:193 154:218 155:223 156:217 157:220 158:227 159:220 232:223 233:225 234:222 235:219 236:224 237:218 238:210 239:220 240:212 241:47 242:67 243:40 244:43 245:68 246:39 247:42 248:70 249:32 250:217 251:224 252:216 253:219 254:224 255:218 256:1 257:1 258:1 325:218 326:225 327:218 328:219 329:224 330:218 331:218 332:223 333:217 334:34 335:59 336:30 337:31 338:56 339:27 340:36 341:56 342:29 343:32 344:55 345:29 346:155 347:169 348:143 349:218 350:225 351:218 352:219 353:224 354:218 418:219 419:224 420:218 421:219 422:224 423:218 424:161 425:173 426:161 427:33 428:57 429:33 430:33 431:56 432:28 433:30 434:53 435:25 436:27 437:50 438:21 439:24 440:46 441:23 442:23 443:48 444:19 445:194 446:205 447:191 448:219 449:224 450:218 451:219 452:224 453:218 508:218 509:225 510:218 511:218 512:225 513:218 514:217 515:222 516:215 517:46 518:61 519:38 520:33 521:53 522:26 523:26 524:52 525:27 526:25 527:49 528:23 529:24 530:49 531:20 532:21 533:45 534:19 535:22 536:46 537:22 538:20 539:44 540:20 541:26 542:51 543:22 544:217 545:223 546:211 547:219 548:224 549:218 550:219 551:224 552:218 601:219 602:224 603:218 604:218 605:223 606:217 607:192 608:200 609:185 610:36 611:60 612:26 613:24 614:50 615:21 616:27 617:46 618:24 619:25 620:50 621:21 622:23 623:48 624:18 625:30 626:50 627:23 628:20 629:45 630:16 631:22 632:47 633:17 634:19 635:43 636:17 637:21 638:46 639:17 640:24 641:48 642:24 643:218 644:224 645:220 646:219 647:224 648:218 649:219 650:224 651:218 694:217 695:222 696:216 697:213 698:220 699:213 700:177 701:190 702:170 703:33 704:60 705:19 706:29 707:54 708:22 709:27 710:52 711:23 712:22 713:47 714:18 715:26 716:46 717:19 718:23 719:46 720:18 721:26 722:51 723:19 724:24 725:49 726:19 727:18 728:43 729:14 730:18 731:43 732:14 733:20 734:44 735:18 736:20 737:44 738:18 739:25 740:49 741:25 742:218 743:225 744:218 745:219 746:224 747:218 748:220 749:225 750:219 787:217 788:222 789:215 790:218 791:223 792:217 793:183 794:195 795:175 796:35 797:62 798:21 799:26 800:51 801:21 802:25 803:50 804:21 805:20 806:45 807:16 808:25 809:45 810:18 811:23 812:47 813:21 814:21 815:45 816:21 817:23 818:47 819:15 820:24 821:49 822:20 823:18 824:43 825:14 826:18 827:43 828:14 829:17 830:42 831:13 832:21 833:45 834:21 835:21 836:45 837:21 838:38 839:61 840:32 841:218 842:223 843:217 844:219 845:224 846:218 847:1 848:3 881:5 882:1 883:218 884:223 885:217 886:197 887:203 888:191 889:28 890:54 891:17 892:24 893:50 894:15 895:21 896:46 897:16 898:18 899:43 900:14 901:17 902:42 903:13 904:22 905:42 906:15 907:19 908:44 909:15 910:23 911:48 912:19 913:32 914:54 915:16 916:27 917:45 918:19 919:12 920:37 921:8 922:18 923:43 924:14 925:18 926:43 927:14 928:17 929:42 930:13 931:20 932:44 933:18 934:21 935:46 936:17 937:187 938:195 939:180 940:218 941:223 942:217 943:219 944:224 945:218 973:2 974:2 975:2 976:217 977:224 978:217 979:208 980:216 981:205 982:34 983:62 984:22 985:26 986:51 987:21 988:31 989:54 990:25 991:19 992:44 993:14 994:19 995:42 996:13 997:18 998:44 999:15 1000:23 1001:48 1002:18 1003:17 1004:42 1005:13 1006:19 1007:44 1008:15 1009:32 1010:57 1011:18 1012:16 1013:39 1014:11 1015:20 1016:45 1017:16 1018:19 1019:42 1020:14 1021:13 1022:38 1023:9 1024:16 1025:41 1026:12 1027:22 1028:42 1029:15 1030:19 1031:45 1032:20 1033:25 1034:50 1035:21 1036:197 1037:204 1038:196 1039:218 1040:222 1041:221 1042:219 1043:224 1044:220 1069:213 1070:220 1071:213 1072:211 1073:218 1074:211 1075:30 1076:55 1077:15 1078:20 1079:45 1080:16 1081:18 1082:43 1083:13 1084:19 1085:44 1086:15 1087:14 1088:41 1089:10 1090:18 1091:43 1092:14 1093:16 1094:41 1095:11 1096:15 1097:40 1098:11 1099:15 1100:40 1101:10 1102:15 1103:38 1104:10 1105:36 1106:55 1107:23 1108:15 1109:40 1110:10 1111:16 1112:36 1113:9 1114:16 1115:39 1116:11 1117:15 1118:40 1119:11 1120:27 1121:47 1122:20 1123:16 1124:39 1125:11 1126:19 1127:44 1128:15 1129:19 1130:42 1131:14 1132:18 1133:45 1134:14 1135:215 1136:218 1137:211 1138:218 1139:223 1140:217 1141:219 1142:225 1143:223 1162:213 1163:220 1164:213 1165:212 1166:219 1167:212 1168:30 1169:57 1170:22 1171:23 1172:50 1173:19 1174:17 1175:42 1176:12 1177:20 1178:45 1179:15 1180:17 1181:42 1182:12 1183:14 1184:39 1185:9 1186:16 1187:41 1188:11 1189:20 1190:45 1191:16 1192:13 1193:38 1194:9 1195:21 1196:41 1197:13 1198:16 1199:39 1200:10 1201:37 1202:59 1203:20 1204:16 1205:39 1206:11 1207:18 1208:44 1209:9 1210:16 1211:39 1212:11 1213:13 1214:38 1215:8 1216:13 1217:38 1218:9 1219:16 1220:41 1221:12 1222:26 1223:46 1224:19 1225:23 1226:46 1227:18 1228:18 1229:43 1230:14 1231:32 1232:57 1233:27 1234:218 1235:223 1236:217 1237:217 1238:221 1239:220 1240:218 1241:222 1242:221 1255:210 1256:217 1257:210 1258:210 1259:217 1260:210 1261:38 1262:60 1263:22 1264:20 1265:45 1266:15 1267:18 1268:43 1269:14 1270:19 1271:44 1272:15 1273:14 1274:39 1275:9 1276:21 1277:41 1278:13 1279:21 1280:41 1281:14 1282:12 1283:37 1284:8 1285:15 1286:35 1287:8 1288:14 1289:37 1290:8 1291:16 1292:36 1293:9 1294:13 1295:38 1296:8 1297:42 1298:65 1299:21 1300:17 1301:40 1302:11 1303:19 1304:44 1305:14 1306:15 1307:35 1308:8 1309:13 1310:38 1311:9 1312:15 1313:40 1314:10 1315:16 1316:41 1317:11 1318:18 1319:42 1320:16 1321:19 1322:44 1323:15 1324:21 1325:46 1326:17 1327:17 1328:41 1329:17 1330:32 1331:57 1332:28 1333:217 1334:222 1335:218 1336:217 1337:221 1338:220 1340:1 1348:209 1349:219 1350:210 1351:210 1352:217 1353:210 1354:81 1355:101 1356:74 1357:21 1358:46 1359:16 1360:17 1361:42 1362:12 1363:14 1364:39 1365:10 1366:20 1367:45 1368:16 1369:13 1370:38 1371:8 1372:16 1373:41 1374:11 1375:16 1376:41 1377:11 1378:14 1379:39 1380:10 1381:9 1382:34 1383:5 1384:14 1385:37 1386:9 1387:14 1388:39 1389:10 1390:19 1391:45 1392:6 1393:42 1394:64 1395:18 1396:21 1397:41 1398:13 1399:16 1400:41 1401:11 1402:15 1403:40 1404:10 1405:23 1406:48 1407:18 1408:13 1409:38 1410:9 1411:13 1412:38 1413:9 1414:18 1415:43 1416:14 1417:15 1418:40 1419:11 1420:19 1421:44 1422:14 1423:18 1424:43 1425:14 1426:20 1427:45 1428:16 1429:87 1430:106 1431:76 1432:216 1433:221 1434:215 1435:215 1436:220 1437:213 1441:1 1442:1 1444:206 1445:213 1446:206 1447:188 1448:196 1449:185 1450:19 1451:44 1452:12 1453:18 1454:41 1455:13 1456:16 1457:41 1458:12 1459:14 1460:37 1461:9 1462:17 1463:36 1464:8 1465:14 1466:39 1467:10 1468:10 1469:35 1470:6 1471:14 1472:37 1473:9 1474:14 1475:37 1476:9 1477:12 1478:37 1479:7 1480:15 1481:35 1482:7 1483:12 1484:37 1485:8 1486:17 1487:37 1488:9 1489:41 1490:64 1491:20 1492:12 1493:37 1494:7 1495:16 1496:39 1497:10 1498:14 1499:39 1500:9 1501:14 1502:37 1503:9 1504:16 1505:41 1506:12 1507:13 1508:38 1509:9 1510:19 1511:44 1512:15 1513:22 1514:47 1515:18 1516:17 1517:42 1518:13 1519:18 1520:43 1521:13 1522:24 1523:47 1524:19 1525:22 1526:52 1527:18 1528:197 1529:207 1530:196 1531:216 1532:221 1533:215 1534:216 1535:221 1536:215 1537:204 1538:211 1539:204 1540:205 1541:212 1542:205 1543:29 1544:54 1545:14 1546:17 1547:42 1548:12 1549:17 1550:42 1551:13 1552:12 1553:38 1554:9 1555:17 1556:37 1557:10 1558:10 1559:35 1560:6 1561:12 1562:37 1563:8 1564:17 1565:43 1566:14 1567:10 1568:35 1569:6 1570:14 1571:37 1572:8 1573:15 1574:35 1575:7 1576:10 1577:35 1578:5 1579:17 1580:37 1581:10 1582:19 1583:38 1584:8 1585:50 1586:74 1587:26 1588:15 1589:41 1590:6 1591:14 1592:34 1593:7 1594:20 1595:40 1596:12 1597:16 1598:36 1599:8 1600:12 1601:37 1602:8 1603:13 1604:38 1605:9 1606:15 1607:38 1608:10 1609:10 1610:35 1611:6 1612:20 1613:40 1614:13 1615:17 1616:42 1617:13 1618:20 1619:46 1620:17 1621:20 1622:44 1623:18 1624:26 1625:51 1626:22 1627:215 1628:217 1629:214 1630:214 1631:219 1632:212 1633:204 1634:211 1635:204 1636:134 1637:152 1638:130 1639:16 1640:41 1641:11 1642:13 1643:36 1644:8 1645:10 1646:35 1647:6 1648:22 1649:42 1650:15 1651:9 1652:35 1653:6 1654:16 1655:36 1656:9 1657:10 1658:33 1659:5 1660:17 1661:36 1662:8 1663:11 1664:31 1665:3 1666:18 1667:37 1668:9 1669:14 1670:34 1671:6 1672:15 1673:35 1674:7 1675:17 1676:37 1677:9 1678:13 1679:38 1680:6 1681:43 1682:66 1683:22 1684:11 1685:36 1686:6 1687:10 1688:30 1689:3 1690:11 1691:37 1692:8 1693:13 1694:38 1695:9 1696:12 1697:37 1698:5 1699:14 1700:34 1701:7 1702:16 1703:39 1704:11 1705:12 1706:35 1707:7 1708:18 1709:41 1710:13 1711:15 1712:40 1713:11 1714:16 1715:42 1716:13 1717:15 1718:40 1719:11 1720:20 1721:47 1722:12 1723:184 1724:193 1725:176 1726:213 1727:218 1728:212 1729:199 1730:206 1731:199 1732:26 1733:49 1734:21 1735:15 1736:38 1737:10 1738:14 1739:37 1740:9 1741:9 1742:32 1743:4 1744:10 1745:35 1746:6 1747:15 1748:40 1749:11 1750:17 1751:40 1752:12 1753:7 1754:32 1755:3 1756:13 1757:36 1758:8 1759:19 1760:39 1761:11 1762:11 1763:36 1764:6 1765:13 1766:39 1767:4 1768:15 1769:39 1770:7 1771:11 1772:38 1773:5 1774:14 1775:39 1776:9 1777:39 1778:65 1779:18 1780:16 1781:36 1782:8 1783:15 1784:39 1785:7 1786:15 1787:40 1788:11 1789:16 1790:36 1791:9 1792:10 1793:35 1794:6 1795:13 1796:38 1797:8 1798:19 1799:39 1800:12 1801:14 1802:37 1803:9 1804:12 1805:37 1806:7 1807:15 1808:40 1809:11 1810:19 1811:44 1812:15 1813:18 1814:43 1815:14 1816:20 1817:45 1818:15 1819:33 1820:59 1821:20 1822:207 1823:210 1824:203 1825:198 1826:203 1827:197 1828:13 1829:38 1830:9 1831:11 1832:35 1833:9 1834:12 1835:35 1836:7 1837:14 1838:34 1839:7 1840:6 1841:31 1842:2 1843:10 1844:33 1845:5 1846:16 1847:39 1848:11 1849:11 1850:34 1851:6 1852:15 1853:35 1854:8 1855:16 1856:36 1857:8 1858:12 1859:39 1860:8 1861:11 1862:36 1863:6 1864:13 1865:38 1866:8 1867:15 1868:36 1869:3 1870:14 1871:42 1872:4 1873:38 1874:64 1875:17 1876:18 1877:44 1878:9 1879:17 1880:36 1881:8 1882:11 1883:34 1884:5 1885:11 1886:36 1887:7 1888:10 1889:35 1890:6 1891:9 1892:34 1893:5 1894:17 1895:42 1896:13 1897:11 1898:36 1899:7 1900:15 1901:40 1902:11 1903:13 1904:38 1905:9 1906:13 1907:39 1908:10 1909:18 1910:43 1911:14 1912:17 1913:42 1914:13 1915:26 1916:50 1917:24 1918:186 1919:194 1920:179 1921:165 1922:179 1923:166 1924:15 1925:35 1926:7 1927:8 1928:31 1929:3 1930:7 1931:32 1932:3 1933:13 1934:33 1935:6 1936:6 1937:31 1938:2 1939:10 1940:35 1941:6 1942:8 1943:33 1944:4 1945:19 1946:39 1947:11 1948:11 1949:31 1950:4 1951:12 1952:35 1953:6 1954:10 1955:37 1956:6 1957:12 1958:37 1959:8 1960:12 1961:30 1962:4 1963:13 1964:33 1965:6 1966:11 1967:34 1968:6 1969:37 1970:64 1971:13 1972:12 1973:37 1974:8 1975:17 1976:35 1977:9 1978:13 1979:36 1980:8 1981:10 1982:35 1983:6 1984:18 1985:38 1986:10 1987:10 1988:37 1989:4 1990:15 1991:35 1992:8 1993:13 1994:38 1995:8 1996:14 1997:39 1998:10 1999:16 2000:41 2001:12 2002:18 2003:41 2004:13 2005:9 2006:34 2007:5 2008:19 2009:44 2010:15 2011:18 2012:43 2013:11 2014:42 2015:64 2016:25 2017:37 2018:62 2019:33 2020:13 2021:36 2022:8 2023:16 2024:39 2025:11 2026:15 2027:35 2028:10 2029:11 2030:31 2031:4 2032:10 2033:33 2034:5 2035:10 2036:30 2037:3 2038:16 2039:34 2040:8 2041:12 2042:37 2043:8 2044:15 2045:38 2046:9 2047:11 2048:34 2049:6 2050:15 2051:35 2052:7 2053:16 2054:34 2055:8 2056:14 2057:34 2058:7 2059:14 2060:34 2061:7 2062:13 2063:32 2064:2 2065:59 2066:83 2067:33 2068:10 2069:35 2070:5 2071:11 2072:36 2073:6 2074:18 2075:43 2076:13 2077:13 2078:36 2079:7 2080:13 2081:36 2082:7 2083:15 2084:40 2085:10 2086:9 2087:34 2088:4 2089:15 2090:38 2091:10 2092:10 2093:35 2094:6 2095:15 2096:38 2097:10 2098:8 2099:31 2100:3 2101:14 2102:37 2103:9 2104:15 2105:40 2106:11 2107:18 2108:44 2109:17 2110:31 2111:59 2112:18 2113:23 2114:43 2115:16 2116:9 2117:31 2118:8 2119:15 2120:35 2121:8 2122:12 2123:32 2124:5 2125:13 2126:33 2127:6 2128:11 2129:31 2130:6 2131:8 2132:33 2133:4 2134:12 2135:32 2136:5 2137:11 2138:31 2139:4 2140:15 2141:35 2142:8 2143:10 2144:33 2145:5 2146:12 2147:39 2148:8 2149:10 2150:30 2151:3 2152:12 2153:32 2154:5 2155:11 2156:36 2157:7 2158:11 2159:36 2160:7 2161:42 2162:66 2163:18 2164:19 2165:45 2166:10 2167:11 2168:34 2169:5 2170:8 2171:33 2172:3 2173:12 2174:37 2175:7 2176:14 2177:34 2178:6 2179:16 2180:36 2181:8 2182:16 2183:39 2184:10 2185:25 2186:46 2187:15 2188:8 2189:33 2190:4 2191:15 2192:40 2193:11 2194:15 2195:40 2196:11 2197:19 2198:44 2199:15 2200:16 2201:41 2202:11 2203:23 2204:48 2205:16 2206:35 2207:63 2208:22 2209:18 2210:38 2211:11 2212:13 2213:32 2214:10 2215:11 2216:30 2217:8 2218:12 2219:32 2220:7 2221:18 2222:34 2223:8 2224:14 2225:34 2226:7 2227:9 2228:32 2229:4 2230:9 2231:32 2232:4 2233:11 2234:31 2235:4 2236:12 2237:30 2238:4 2239:11 2240:31 2241:4 2242:9 2243:32 2244:4 2245:21 2246:44 2247:15 2248:13 2249:31 2250:5 2251:10 2252:35 2253:6 2254:16 2255:36 2256:8 2257:51 2258:75 2259:25 2260:11 2261:36 2262:6 2263:10 2264:30 2265:2 2266:15 2267:35 2268:8 2269:12 2270:37 2271:7 2272:18 2273:43 2274:13 2275:20 2276:45 2277:13 2278:13 2279:38 2280:8 2281:14 2282:37 2283:8 2284:11 2285:36 2286:7 2287:14 2288:39 2289:10 2290:13 2291:38 2292:9 2293:15 2294:40 2295:11 2296:17 2297:42 2298:12 2299:23 2300:49 2301:14 2302:31 2303:57 2304:18 2305:23 2306:43 2307:16 2308:11 2309:31 2310:6 2311:10 2312:30 2313:3 2314:10 2315:30 2316:3 2317:11 2318:31 2319:4 2320:12 2321:32 2322:5 2323:14 2324:34 2325:7 2326:4 2327:27 2329:11 2330:31 2331:4 2332:11 2333:31 2334:4 2335:11 2336:31 2337:4 2338:8 2339:28 2340:1 2341:13 2342:33 2343:6 2344:8 2345:33 2346:3 2347:18 2348:43 2349:11 2350:13 2351:38 2352:6 2353:58 2354:82 2355:34 2356:15 2357:35 2358:8 2359:11 2360:36 2361:6 2362:9 2363:32 2364:4 2365:17 2366:43 2367:8 2368:20 2369:41 2370:10 2371:14 2372:37 2373:8 2374:12 2375:37 2376:7 2377:13 2378:38 2379:9 2380:13 2381:38 2382:9 2383:13 2384:38 2385:9 2386:12 2387:37 2388:8 2389:16 2390:41 2391:12 2392:19 2393:44 2394:15 2395:24 2396:50 2397:15 2398:51 2399:76 2400:37 2401:87 2402:105 2403:81 2404:13 2405:32 2406:10 2407:8 2408:32 2409:8 2410:13 2411:33 2412:6 2413:11 2414:31 2415:4 2416:14 2417:34 2418:7 2419:10 2420:29 2421:7 2422:8 2423:28 2424:3 2425:14 2426:34 2427:7 2428:14 2429:34 2430:7 2431:17 2432:37 2433:9 2434:11 2435:31 2436:4 2437:11 2438:31 2439:4 2440:10 2441:30 2442:3 2443:11 2444:31 2445:4 2446:11 2447:36 2448:6 2449:70 2450:95 2451:37 2452:11 2453:36 2454:7 2455:20 2456:41 2457:8 2458:12 2459:37 2460:8 2461:16 2462:42 2463:15 2464:14 2465:40 2466:5 2467:19 2468:44 2469:14 2470:14 2471:39 2472:10 2473:13 2474:38 2475:9 2476:18 2477:43 2478:14 2479:12 2480:37 2481:8 2482:16 2483:39 2484:11 2485:15 2486:39 2487:15 2488:17 2489:42 2490:13 2491:32 2492:52 2493:24 2494:201 2495:208 2496:201 2497:182 2498:192 2499:183 2500:19 2501:35 2502:9 2503:11 2504:30 2505:8 2506:15 2507:35 2508:10 2509:16 2510:36 2511:9 2512:15 2513:35 2514:8 2515:12 2516:32 2517:7 2518:9 2519:27 2520:3 2521:9 2522:29 2523:2 2524:16 2525:36 2526:9 2527:10 2528:30 2529:2 2530:11 2531:31 2532:4 2533:13 2534:33 2535:6 2536:10 2537:30 2538:3 2539:14 2540:34 2541:7 2542:12 2543:35 2544:7 2545:63 2546:86 2547:32 2548:15 2549:36 2550:5 2551:13 2552:38 2553:9 2554:10 2555:35 2556:6 2557:16 2558:36 2559:8 2560:24 2561:48 2562:12 2563:15 2564:40 2565:11 2566:22 2567:42 2568:15 2569:18 2570:38 2571:11 2572:12 2573:37 2574:8 2575:11 2576:36 2577:7 2578:13 2579:39 2580:10 2581:17 2582:42 2583:13 2584:27 2585:50 2586:22 2587:188 2588:202 2589:187 2590:210 2591:217 2592:210 2593:184 2594:191 2595:183 2596:182 2597:194 2598:180 2599:10 2600:33 2601:7 2602:10 2603:29 2604:7 2605:13 2606:31 2607:9 2608:12 2609:31 2610:11 2611:10 2612:29 2613:7 2614:12 2615:30 2616:8 2617:10 2618:33 2619:5 2620:9 2621:29 2622:2 2623:10 2624:30 2625:3 2626:17 2627:42 2628:12 2629:11 2630:31 2631:6 2632:13 2633:33 2634:6 2635:14 2636:33 2637:5 2638:19 2639:39 2640:12 2641:52 2642:76 2643:24 2644:13 2645:33 2646:6 2647:11 2648:37 2649:8 2650:17 2651:37 2652:10 2653:16 2654:36 2655:9 2656:30 2657:51 2658:20 2659:13 2660:38 2661:9 2662:14 2663:39 2664:10 2665:14 2666:39 2667:10 2668:19 2669:43 2670:19 2671:20 2672:44 2673:18 2674:19 2675:42 2676:14 2677:34 2678:57 2679:28 2680:203 2681:210 2682:203 2683:209 2684:216 2685:209 2686:210 2687:215 2688:209 2689:184 2690:191 2691:184 2692:183 2693:190 2694:183 2695:184 2696:191 2697:183 2698:81 2699:94 2700:76 2701:13 2702:32 2703:10 2704:16 2705:35 2706:13 2707:5 2708:27 2709:4 2710:10 2711:30 2712:5 2713:10 2714:29 2715:7 2716:9 2717:29 2718:2 2719:9 2720:33 2721:7 2722:13 2723:36 2724:8 2725:19 2726:38 2727:10 2728:12 2729:37 2730:8 2731:12 2732:32 2733:5 2734:8 2735:33 2736:4 2737:40 2738:66 2739:18 2740:13 2741:38 2742:8 2743:15 2744:40 2745:10 2746:18 2747:41 2748:13 2749:24 2750:49 2751:17 2752:17 2753:42 2754:13 2755:20 2756:39 2757:17 2758:15 2759:37 2760:16 2761:18 2762:40 2763:19 2764:21 2765:41 2766:13 2767:90 2768:105 2769:84 2770:206 2771:213 2772:206 2773:207 2774:214 2775:207 2776:207 2777:214 2778:207 2779:208 2780:215 2781:208 2782:211 2783:213 2784:210 2788:183 2789:190 2790:183 2791:183 2792:190 2793:182 2794:185 2795:190 2796:184 2797:186 2798:191 2799:185 2800:96 2801:108 2802:94 2803:20 2804:35 2805:14 2806:13 2807:32 2808:10 2809:12 2810:31 2811:9 2812:15 2813:32 2814:13 2815:16 2816:35 2817:13 2818:14 2819:33 2820:11 2821:14 2822:32 2823:8 2824:15 2825:40 2826:11 2827:19 2828:46 2829:15 2830:13 2831:36 2832:10 2833:31 2834:52 2835:11 2836:18 2837:38 2838:10 2839:28 2840:49 2841:16 2842:20 2843:45 2844:15 2845:21 2846:41 2847:14 2848:22 2849:42 2850:17 2851:61 2852:76 2853:53 2854:200 2855:206 2856:194 2857:206 2858:211 2859:205 2860:205 2861:211 2862:207 2863:205 2864:212 2865:205 2866:206 2867:211 2868:205 2869:207 2870:213 2871:209 2872:209 2873:216 2874:209 2890:182 2891:189 2892:182 2893:184 2894:191 2895:184 2896:186 2897:193 2898:186 2899:188 2900:195 2901:188 2902:189 2903:196 2904:189 2905:191 2906:198 2907:191 2908:192 2909:199 2910:192 2911:194 2912:201 2913:193 2914:192 2915:199 2916:191 2917:164 2918:173 2919:154 2920:26 2921:46 2922:19 2923:20 2924:40 2925:13 2926:14 2927:40 2928:13 2929:36 2930:64 2931:15 2932:33 2933:55 2934:17 2935:19 2936:45 2937:16 2938:37 2939:57 2940:29 2941:198 2942:205 2943:197 2944:205 2945:212 2946:205 2947:204 2948:211 2949:204 2950:204 2951:210 2952:206 2953:205 2954:212 2955:205 2956:205 2957:212 2958:205 2960:1 2992:1 2998:187 2999:194 3000:187 3001:191 3002:198 3003:191 3004:192 3005:199 3006:192 3007:195 3008:202 3009:195 3010:197 3011:202 3012:196 3013:197 3014:204 3015:197 3016:197 3017:204 3018:197 3019:197 3020:205 3021:194 3022:167 3023:174 3024:166 3025:51 3026:76 3027:21 3028:37 3029:59 3030:23 3031:189 3032:195 3033:181 3034:200 3035:207 3036:199 3037:202 3038:209 3039:201 3040:203 3041:208 3042:204 3043:204 3044:211 3045:203 
0.01 28:217 29:224 30:217 31:198 32:203 33:196 34:79 35:92 36:46 37:217 38:222 39:218 40:206 41:211 42:205 43:219 44:224 45:218 47:1 124:216 125:221 126:215 127:203 128:208 129:202 130:62 131:79 132:43 133:106 134:126 135:91 136:203 137:208 138:201 139:218 140:223 141:217 142:220 143:225 144:219 146:4 149:1 220:217 221:224 222:217 223:209 224:216 225:209 226:151 227:165 228:139 229:59 230:80 231:41 232:183 233:192 234:173 235:207 236:212 237:206 238:219 239:224 240:218 241:219 242:224 243:218 244:217 245:222 246:216 316:219 317:224 318:218 319:215 320:221 321:217 322:74 323:93 324:61 325:46 326:70 327:38 328:49 329:69 330:41 331:67 332:83 333:47 334:201 335:206 336:199 337:217 338:222 339:216 340:219 341:224 342:218 343:219 344:224 345:218 346:1 347:1 348:1 409:218 410:223 411:217 412:217 413:224 414:217 415:215 416:222 417:214 418:42 419:67 420:38 421:36 422:61 423:32 424:35 425:60 426:30 427:46 428:64 429:42 430:53 431:75 432:37 433:186 434:195 435:176 436:217 437:224 438:217 439:219 440:224 441:218 442:219 443:224 444:218 445:217 446:222 447:216 502:217 503:224 504:217 505:217 506:224 507:217 508:217 509:224 510:217 511:54 512:75 513:42 514:36 515:60 516:34 517:40 518:59 519:39 520:43 521:68 522:39 523:36 524:58 525:35 526:40 527:60 528:35 529:52 530:72 531:45 532:67 533:83 534:54 535:216 536:222 537:218 538:218 539:223 540:219 541:219 542:224 543:218 544:219 545:224 546:218 598:218 599:223 600:217 601:216 602:223 603:216 604:109 605:124 606:101 607:30 608:55 609:23 610:30 611:55 612:25 613:30 614:54 615:30 616:29 617:52 618:24 619:35 620:55 621:30 622:36 623:55 624:33 625:41 626:61 627:34 628:33 629:59 630:30 631:45 632:65 633:37 634:198 635:209 636:193 637:218 638:223 639:217 640:219 641:224 642:218 643:218 644:223 645:217 646:225 647:225 648:225 688:2 689:2 690:2 691:217 692:222 693:216 694:215 695:222 696:215 697:188 698:196 699:181 700:31 701:57 702:28 703:30 704:54 705:28 706:27 707:52 708:23 709:24 710:50 711:25 712:28 713:52 714:26 715:28 716:53 717:24 718:30 719:52 720:29 721:34 722:54 723:29 724:32 725:52 726:25 727:29 728:51 729:28 730:33 731:56 732:30 733:65 734:82 735:46 736:216 737:221 738:217 739:218 740:223 741:217 742:218 743:223 744:217 745:221 746:228 747:220 784:216 785:221 786:215 787:217 788:222 789:216 790:187 791:197 792:186 793:36 794:59 795:30 796:30 797:50 798:23 799:29 800:52 801:26 802:26 803:50 804:26 805:27 806:51 807:25 808:33 809:53 810:26 811:26 812:50 813:24 814:28 815:52 816:26 817:29 818:49 819:22 820:28 821:51 822:23 823:33 824:53 825:28 826:40 827:60 828:33 829:37 830:57 831:32 832:46 833:73 834:30 835:205 836:210 837:204 838:218 839:223 840:217 841:218 842:223 843:217 844:218 845:223 846:217 847:2 848:2 849:2 874:1 875:1 876:1 877:213 878:219 879:217 880:213 881:220 882:213 883:205 884:210 885:206 886:37 887:63 888:26 889:31 890:56 891:27 892:30 893:55 894:26 895:28 896:52 897:30 898:28 899:48 900:23 901:27 902:50 903:22 904:36 905:54 906:28 907:29 908:49 909:21 910:27 911:52 912:23 913:26 914:50 915:26 916:26 917:49 918:23 919:32 920:55 921:27 922:32 923:52 924:27 925:35 926:54 927:32 928:38 929:61 930:33 931:52 932:74 933:36 934:198 935:208 936:199 937:215 938:222 939:214 940:216 941:221 942:215 943:218 944:223 945:217 947:2 970:213 971:220 972:213 973:214 974:221 975:214 976:213 977:219 978:215 979:55 980:78 981:36 982:35 983:61 984:32 985:28 986:53 987:24 988:29 989:52 990:24 991:25 992:50 993:21 994:24 995:49 996:20 997:25 998:50 999:21 1000:26 1001:51 1002:22 1003:52 1004:76 1005:42 1006:28 1007:48 1008:21 1009:29 1010:49 1011:22 1012:33 1013:53 1014:26 1015:27 1016:50 1017:22 1018:26 1019:50 1020:26 1021:33 1022:58 1023:29 1024:40 1025:60 1026:33 1027:43 1028:63 1029:36 1030:48 1031:69 1032:36 1033:80 1034:97 1035:65 1036:214 1037:220 1038:216 1039:217 1040:222 1041:216 1042:216 1043:223 1044:216 1046:1 1063:3 1064:5 1065:2 1066:214 1067:219 1068:213 1069:211 1070:218 1071:211 1072:48 1073:73 1074:31 1075:32 1076:57 1077:27 1078:31 1079:56 1080:27 1081:30 1082:55 1083:26 1084:29 1085:49 1086:22 1087:27 1088:52 1089:23 1090:24 1091:49 1092:20 1093:23 1094:48 1095:19 1096:36 1097:56 1098:29 1099:40 1100:62 1101:24 1102:27 1103:50 1104:22 1105:31 1106:51 1107:24 1108:26 1109:46 1110:19 1111:26 1112:49 1113:21 1114:29 1115:52 1116:24 1117:23 1118:48 1119:26 1120:37 1121:55 1122:29 1123:37 1124:57 1125:30 1126:39 1127:58 1128:36 1129:40 1130:60 1131:33 1132:104 1133:118 1134:92 1135:213 1136:220 1137:213 1138:214 1139:219 1140:213 1141:216 1142:221 1143:215 1144:218 1145:220 1146:217 1159:212 1160:219 1161:212 1162:210 1163:217 1164:209 1165:175 1166:187 1167:163 1168:35 1169:61 1170:24 1171:31 1172:56 1173:24 1174:30 1175:55 1176:26 1177:27 1178:50 1179:22 1180:27 1181:52 1182:23 1183:25 1184:51 1185:22 1186:27 1187:47 1188:22 1189:22 1190:46 1191:20 1192:29 1193:49 1194:22 1195:30 1196:50 1197:15 1198:28 1199:48 1200:23 1201:25 1202:45 1203:18 1204:26 1205:49 1206:21 1207:26 1208:52 1209:25 1210:30 1211:50 1212:23 1213:30 1214:49 1215:27 1216:28 1217:48 1218:23 1219:26 1220:49 1221:23 1222:30 1223:50 1224:25 1225:32 1226:51 1227:29 1228:35 1229:59 1230:35 1231:59 1232:77 1233:51 1234:213 1235:219 1236:215 1237:216 1238:221 1239:215 1240:214 1241:219 1242:215 1243:214 1244:218 1245:217 1252:211 1253:218 1254:211 1255:210 1256:217 1257:210 1258:200 1259:207 1260:199 1261:39 1262:67 1263:26 1264:30 1265:55 1266:25 1267:29 1268:54 1269:24 1270:25 1271:50 1272:21 1273:25 1274:49 1275:25 1276:29 1277:54 1278:25 1279:27 1280:50 1281:22 1282:25 1283:45 1284:18 1285:27 1286:47 1287:20 1288:28 1289:48 1290:21 1291:28 1292:51 1293:22 1294:25 1295:50 1296:20 1297:28 1298:53 1299:24 1300:27 1301:47 1302:20 1303:23 1304:48 1305:19 1306:26 1307:51 1308:22 1309:29 1310:49 1311:22 1312:26 1313:49 1314:21 1315:24 1316:48 1317:26 1318:27 1319:49 1320:26 1321:29 1322:48 1323:26 1324:30 1325:53 1326:25 1327:35 1328:58 1329:30 1330:41 1331:57 1332:30 1333:217 1334:219 1335:214 1336:214 1337:219 1338:213 1339:214 1340:219 1341:213 1343:1 1348:210 1349:217 1350:210 1351:208 1352:215 1353:207 1354:45 1355:71 1356:26 1357:30 1358:56 1359:21 1360:30 1361:55 1362:26 1363:26 1364:51 1365:21 1366:26 1367:51 1368:21 1369:23 1370:49 1371:20 1372:26 1373:51 1374:22 1375:24 1376:50 1377:21 1378:23 1379:46 1380:18 1381:23 1382:48 1383:19 1384:24 1385:49 1386:20 1387:26 1388:51 1389:19 1390:27 1391:47 1392:19 1393:28 1394:46 1395:20 1396:24 1397:44 1398:17 1399:23 1400:48 1401:19 1402:33 1403:56 1404:28 1405:26 1406:46 1407:19 1408:26 1409:48 1410:25 1411:23 1412:47 1413:23 1414:26 1415:48 1416:25 1417:28 1418:53 1419:24 1420:27 1421:52 1422:23 1423:29 1424:54 1425:25 1426:30 1427:54 1428:28 1429:48 1430:68 1431:40 1432:214 1433:219 1434:215 1435:214 1436:219 1437:213 1438:213 1439:220 1440:213 1441:209 1442:216 1443:209 1444:208 1445:214 1446:210 1447:170 1448:178 1449:165 1450:37 1451:65 1452:25 1453:29 1454:54 1455:24 1456:29 1457:54 1458:24 1459:28 1460:53 1461:24 1462:24 1463:50 1464:21 1465:24 1466:49 1467:20 1468:22 1469:47 1470:18 1471:22 1472:48 1473:19 1474:21 1475:46 1476:17 1477:20 1478:45 1479:16 1480:25 1481:50 1482:21 1483:23 1484:48 1485:19 1486:28 1487:48 1488:20 1489:26 1490:51 1491:22 1492:35 1493:55 1494:27 1495:22 1496:47 1497:18 1498:26 1499:46 1500:19 1501:22 1502:47 1503:18 1504:25 1505:45 1506:18 1507:27 1508:47 1509:20 1510:23 1511:47 1512:23 1513:23 1514:47 1515:21 1516:24 1517:48 1518:24 1519:29 1520:48 1521:26 1522:29 1523:53 1524:27 1525:38 1526:58 1527:31 1528:209 1529:217 1530:206 1531:212 1532:219 1533:212 1534:213 1535:218 1536:212 1537:207 1538:214 1539:207 1540:205 1541:212 1542:205 1543:46 1544:72 1545:27 1546:32 1547:59 1548:16 1549:31 1550:57 1551:22 1552:29 1553:54 1554:24 1555:29 1556:54 1557:22 1558:27 1559:53 1560:24 1561:28 1562:48 1563:21 1564:26 1565:49 1566:21 1567:20 1568:45 1569:16 1570:24 1571:44 1572:17 1573:21 1574:46 1575:17 1576:23 1577:48 1578:19 1579:22 1580:45 1581:17 1582:31 1583:52 1584:21 1585:22 1586:42 1587:15 1588:26 1589:46 1590:19 1591:21 1592:46 1593:17 1594:21 1595:46 1596:17 1597:19 1598:44 1599:15 1600:23 1601:48 1602:19 1603:25 1604:44 1605:22 1606:21 1607:46 1608:17 1609:21 1610:44 1611:18 1612:29 1613:52 1614:24 1615:24 1616:49 1617:20 1618:29 1619:52 1620:24 1621:34 1622:54 1623:27 1624:38 1625:61 1626:33 1627:210 1628:217 1629:210 1630:211 1631:218 1632:211 1633:204 1634:210 1635:206 1636:160 1637:174 1638:151 1639:39 1640:67 1641:19 1642:32 1643:58 1644:23 1645:29 1646:56 1647:25 1648:27 1649:54 1650:23 1651:28 1652:53 1653:24 1654:21 1655:46 1656:17 1657:25 1658:50 1659:20 1660:28 1661:48 1662:21 1663:22 1664:45 1665:17 1666:23 1667:46 1668:18 1669:28 1670:48 1671:21 1672:20 1673:40 1674:13 1675:27 1676:47 1677:20 1678:26 1679:47 1680:14 1681:23 1682:48 1683:19 1684:21 1685:46 1686:17 1687:26 1688:46 1689:19 1690:25 1691:43 1692:17 1693:24 1694:44 1695:17 1696:26 1697:46 1698:19 1699:30 1700:55 1701:25 1702:21 1703:45 1704:19 1705:20 1706:44 1707:20 1708:25 1709:48 1710:20 1711:28 1712:53 1713:24 1714:28 1715:53 1716:24 1717:25 1718:50 1719:21 1720:31 1721:54 1722:26 1723:156 1724:170 1725:144 1726:211 1727:216 1728:210 1729:180 1730:187 1731:179 1732:46 1733:74 1734:25 1735:39 1736:68 1737:22 1738:34 1739:60 1740:21 1741:28 1742:54 1743:17 1744:27 1745:52 1746:22 1747:26 1748:51 1749:21 1750:29 1751:52 1752:24 1753:26 1754:51 1755:21 1756:26 1757:51 1758:22 1759:21 1760:46 1761:17 1762:22 1763:45 1764:17 1765:21 1766:44 1767:16 1768:23 1769:43 1770:16 1771:20 1772:45 1773:16 1774:29 1775:51 1776:13 1777:23 1778:43 1779:15 1780:22 1781:42 1782:15 1783:22 1784:42 1785:15 1786:23 1787:43 1788:16 1789:22 1790:48 1791:19 1792:21 1793:46 1794:17 1795:24 1796:49 1797:20 1798:20 1799:46 1800:17 1801:21 1802:46 1803:17 1804:23 1805:48 1806:19 1807:25 1808:48 1809:20 1810:25 1811:50 1812:21 1813:31 1814:56 1815:27 1816:27 1817:51 1818:25 1819:34 1820:61 1821:30 1822:209 1823:216 1824:208 1825:144 1826:158 1827:133 1828:46 1829:74 1830:26 1831:34 1832:61 1833:20 1834:30 1835:57 1836:16 1837:27 1838:52 1839:22 1840:28 1841:54 1842:19 1843:26 1844:51 1845:21 1846:26 1847:52 1848:23 1849:24 1850:49 1851:20 1852:23 1853:48 1854:19 1855:27 1856:48 1857:17 1858:23 1859:43 1860:16 1861:18 1862:43 1863:14 1864:18 1865:44 1866:15 1867:24 1868:47 1869:19 1870:31 1871:53 1872:15 1873:23 1874:43 1875:16 1876:22 1877:42 1878:14 1879:21 1880:44 1881:16 1882:31 1883:51 1884:24 1885:24 1886:44 1887:17 1888:23 1889:43 1890:16 1891:27 1892:47 1893:20 1894:26 1895:46 1896:19 1897:21 1898:46 1899:17 1900:28 1901:53 1902:24 1903:20 1904:44 1905:20 1906:23 1907:48 1908:19 1909:25 1910:50 1911:21 1912:21 1913:46 1914:17 1915:27 1916:52 1917:23 1918:196 1919:207 1920:191 1921:63 1922:84 1923:43 1924:37 1925:66 1926:22 1927:31 1928:59 1929:19 1930:27 1931:54 1932:19 1933:25 1934:52 1935:21 1936:27 1937:53 1938:18 1939:33 1940:59 1941:24 1942:24 1943:49 1944:19 1945:23 1946:48 1947:19 1948:21 1949:46 1950:17 1951:18 1952:41 1953:13 1954:24 1955:42 1956:16 1957:33 1958:53 1959:26 1960:17 1961:40 1962:11 1963:24 1964:42 1965:16 1966:58 1967:81 1968:39 1969:21 1970:41 1971:13 1972:31 1973:54 1974:26 1975:24 1976:42 1977:16 1978:18 1979:43 1980:14 1981:21 1982:46 1983:17 1984:28 1985:51 1986:23 1987:26 1988:46 1989:19 1990:25 1991:45 1992:18 1993:28 1994:48 1995:21 1996:24 1997:47 1998:21 1999:20 2000:45 2001:16 2002:24 2003:49 2004:20 2005:21 2006:46 2007:17 2008:27 2009:52 2010:23 2011:30 2012:55 2013:26 2014:46 2015:71 2016:32 2017:51 2018:74 2019:32 2020:34 2021:61 2022:18 2023:41 2024:69 2025:28 2026:27 2027:53 2028:18 2029:25 2030:52 2031:17 2032:25 2033:50 2034:20 2035:23 2036:48 2037:19 2038:26 2039:51 2040:21 2041:20 2042:45 2043:15 2044:24 2045:44 2046:17 2047:22 2048:42 2049:15 2050:21 2051:44 2052:16 2053:22 2054:42 2055:15 2056:22 2057:42 2058:15 2059:23 2060:46 2061:17 2062:77 2063:101 2064:53 2065:23 2066:43 2067:16 2068:21 2069:44 2070:16 2071:20 2072:45 2073:16 2074:20 2075:43 2076:15 2077:26 2078:44 2079:18 2080:17 2081:40 2082:12 2083:23 2084:46 2085:18 2086:34 2087:59 2088:30 2089:21 2090:45 2091:19 2092:22 2093:45 2094:17 2095:24 2096:49 2097:20 2098:21 2099:45 2100:21 2101:21 2102:45 2103:21 2104:23 2105:47 2106:21 2107:25 2108:50 2109:21 2110:40 2111:66 2112:31 2113:48 2114:74 2115:27 2116:27 2117:54 2118:11 2119:30 2120:56 2121:21 2122:24 2123:50 2124:15 2125:23 2126:48 2127:18 2128:23 2129:48 2130:18 2131:22 2132:49 2133:16 2134:23 2135:48 2136:18 2137:23 2138:48 2139:16 2140:23 2141:49 2142:14 2143:21 2144:46 2145:17 2146:17 2147:42 2148:13 2149:20 2150:45 2151:16 2152:21 2153:41 2154:14 2155:19 2156:42 2157:14 2158:75 2159:101 2160:53 2161:18 2162:43 2163:14 2164:20 2165:45 2166:16 2167:19 2168:44 2169:15 2170:20 2171:45 2172:16 2173:17 2174:42 2175:13 2176:23 2177:43 2178:16 2179:31 2180:51 2181:24 2182:26 2183:46 2184:18 2185:25 2186:45 2187:18 2188:26 2189:49 2190:20 2191:19 2192:44 2193:15 2194:25 2195:45 2196:18 2197:27 2198:46 2199:24 2200:27 2201:52 2202:23 2203:22 2204:47 2205:18 2206:41 2207:68 2208:25 2209:39 2210:67 2211:19 2212:31 2213:57 2214:18 2215:25 2216:51 2217:16 2218:25 2219:50 2220:18 2221:24 2222:49 2223:20 2224:21 2225:46 2226:16 2227:23 2228:49 2229:20 2230:19 2231:44 2232:15 2233:20 2234:45 2235:16 2236:22 2237:45 2238:17 2239:29 2240:50 2241:17 2242:21 2243:41 2244:14 2245:18 2246:37 2247:15 2248:21 2249:40 2250:18 2251:21 2252:41 2253:14 2254:58 2255:81 2256:39 2257:22 2258:42 2259:15 2260:21 2261:41 2262:14 2263:19 2264:42 2265:14 2266:19 2267:39 2268:12 2269:18 2270:44 2271:15 2272:21 2273:46 2274:17 2275:19 2276:44 2277:15 2278:18 2279:43 2280:14 2281:19 2282:43 2283:19 2284:18 2285:44 2286:19 2287:20 2288:44 2289:20 2290:22 2291:47 2292:18 2293:24 2294:47 2295:18 2296:24 2297:49 2298:20 2299:23 2300:49 2301:20 2302:37 2303:62 2304:30 2305:40 2306:67 2307:22 2308:31 2309:58 2310:17 2311:26 2312:53 2313:18 2314:20 2315:45 2316:15 2317:19 2318:44 2319:15 2320:22 2321:47 2322:18 2323:19 2324:46 2325:15 2326:27 2327:47 2328:20 2329:20 2330:43 2331:15 2332:21 2333:44 2334:16 2335:18 2336:38 2337:11 2338:21 2339:41 2340:14 2341:34 2342:53 2343:23 2344:20 2345:40 2346:13 2347:20 2348:45 2349:16 2350:43 2351:66 2352:24 2353:19 2354:44 2355:15 2356:18 2357:41 2358:13 2359:21 2360:41 2361:14 2362:27 2363:47 2364:20 2365:22 2366:42 2367:15 2368:18 2369:43 2370:13 2371:20 2372:45 2373:16 2374:19 2375:44 2376:15 2377:21 2378:40 2379:18 2380:20 2381:42 2382:19 2383:20 2384:45 2385:15 2386:22 2387:46 2388:20 2389:19 2390:41 2391:18 2392:21 2393:45 2394:21 2395:26 2396:49 2397:21 2398:41 2399:65 2400:33 2401:159 2402:165 2403:153 2404:33 2405:62 2406:18 2407:26 2408:50 2409:16 2410:24 2411:49 2412:19 2413:22 2414:45 2415:16 2416:19 2417:44 2418:15 2419:18 2420:43 2421:13 2422:27 2423:52 2424:22 2425:17 2426:42 2427:13 2428:18 2429:43 2430:14 2431:20 2432:45 2433:16 2434:22 2435:40 2436:14 2437:20 2438:38 2439:16 2440:15 2441:39 2442:15 2443:33 2444:53 2445:26 2446:33 2447:54 2448:13 2449:23 2450:43 2451:15 2452:28 2453:48 2454:21 2455:22 2456:42 2457:14 2458:21 2459:41 2460:16 2461:19 2462:38 2463:16 2464:22 2465:45 2466:19 2467:23 2468:42 2469:20 2470:23 2471:41 2472:15 2473:19 2474:44 2475:15 2476:24 2477:44 2478:17 2479:21 2480:45 2481:21 2482:26 2483:45 2484:25 2485:26 2486:49 2487:23 2488:21 2489:45 2490:23 2491:28 2492:51 2493:23 2494:148 2495:162 2496:139 2497:195 2498:202 2499:195 2500:106 2501:119 2502:91 2503:31 2504:59 2505:18 2506:29 2507:50 2508:17 2509:25 2510:50 2511:20 2512:20 2513:45 2514:15 2515:20 2516:47 2517:16 2518:22 2519:47 2520:17 2521:19 2522:44 2523:15 2524:32 2525:50 2526:24 2527:21 2528:41 2529:14 2530:21 2531:40 2532:18 2533:24 2534:44 2535:17 2536:21 2537:40 2538:18 2539:22 2540:41 2541:19 2542:35 2543:58 2544:16 2545:19 2546:43 2547:17 2548:20 2549:40 2550:13 2551:22 2552:42 2553:15 2554:21 2555:41 2556:14 2557:22 2558:40 2559:14 2560:27 2561:47 2562:20 2563:29 2564:49 2565:22 2566:25 2567:48 2568:20 2569:26 2570:49 2571:21 2572:28 2573:48 2574:21 2575:23 2576:48 2577:19 2578:24 2579:48 2580:22 2581:29 2582:54 2583:25 2584:32 2585:57 2586:28 2587:42 2588:56 2589:31 2590:206 2591:213 2592:205 2593:196 2594:203 2595:196 2596:194 2597:201 2598:193 2599:165 2600:176 2601:162 2602:30 2603:57 2604:14 2605:33 2606:54 2607:15 2608:29 2609:45 2610:18 2611:23 2612:43 2613:15 2614:23 2615:48 2616:18 2617:18 2618:43 2619:14 2620:26 2621:46 2622:19 2623:25 2624:45 2625:18 2626:22 2627:42 2628:15 2629:19 2630:42 2631:16 2632:26 2633:42 2634:16 2635:24 2636:44 2637:17 2638:34 2639:55 2640:22 2641:26 2642:46 2643:19 2644:21 2645:41 2646:14 2647:25 2648:45 2649:20 2650:24 2651:43 2652:21 2653:18 2654:43 2655:14 2656:19 2657:43 2658:19 2659:17 2660:41 2661:17 2662:24 2663:48 2664:24 2665:21 2666:46 2667:17 2668:24 2669:49 2670:20 2671:25 2672:49 2673:27 2674:27 2675:51 2676:25 2677:36 2678:56 2679:29 2680:153 2681:161 2682:137 2683:206 2684:211 2685:207 2686:205 2687:212 2688:205 2689:197 2690:204 2691:197 2692:196 2693:203 2694:196 2695:194 2696:201 2697:194 2698:191 2699:198 2700:191 2701:170 2702:181 2703:165 2704:43 2705:64 2706:25 2707:25 2708:53 2709:15 2710:23 2711:49 2712:14 2713:23 2714:48 2715:16 2716:21 2717:46 2718:16 2719:24 2720:49 2721:20 2722:21 2723:44 2724:16 2725:26 2726:46 2727:18 2728:24 2729:42 2730:20 2731:23 2732:42 2733:22 2734:39 2735:55 2736:26 2737:22 2738:45 2739:17 2740:19 2741:42 2742:16 2743:23 2744:42 2745:22 2746:22 2747:45 2748:17 2749:25 2750:48 2751:22 2752:22 2753:44 2754:23 2755:22 2756:45 2757:19 2758:25 2759:45 2760:20 2761:28 2762:48 2763:21 2764:37 2765:57 2766:29 2767:32 2768:53 2769:22 2770:68 2771:84 2772:57 2773:203 2774:210 2775:203 2776:204 2777:211 2778:204 2779:204 2780:211 2781:204 2782:205 2783:212 2784:205 2788:197 2789:202 2790:198 2791:198 2792:203 2793:197 2794:199 2795:201 2796:196 2797:196 2798:203 2799:196 2800:195 2801:201 2802:197 2803:177 2804:184 2805:177 2806:172 2807:184 2808:164 2809:39 2810:62 2811:16 2812:31 2813:55 2814:21 2815:41 2816:62 2817:29 2818:28 2819:51 2820:22 2821:28 2822:48 2823:20 2824:27 2825:50 2826:21 2827:27 2828:50 2829:22 2830:34 2831:53 2832:25 2833:29 2834:48 2835:20 2836:30 2837:50 2838:23 2839:34 2840:54 2841:27 2842:27 2843:46 2844:24 2845:19 2846:41 2847:18 2848:22 2849:44 2850:21 2851:28 2852:48 2853:23 2854:28 2855:53 2856:24 2857:73 2858:94 2859:55 2860:196 2861:206 2862:197 2863:202 2864:208 2865:204 2866:202 2867:209 2868:202 2869:204 2870:211 2871:204 2872:204 2873:211 2874:204 2875:204 2876:211 2877:204 2878:206 2879:211 2880:205 2887:2 2888:2 2889:2 2891:1 2893:196 2894:202 2895:198 2896:197 2897:204 2898:197 2899:196 2900:202 2901:198 2902:195 2903:202 2904:195 2905:195 2906:201 2907:197 2908:189 2909:194 2910:188 2911:174 2912:184 2913:175 2914:120 2915:133 2916:105 2917:37 2918:61 2919:27 2920:32 2921:50 2922:26 2923:31 2924:56 2925:26 2926:42 2927:63 2928:24 2929:38 2930:58 2931:30 2932:35 2933:54 2934:34 2935:30 2936:49 2937:27 2938:35 2939:50 2940:29 2941:135 2942:148 2943:120 2944:192 2945:202 2946:191 2947:201 2948:208 2949:201 2950:202 2951:208 2952:204 2953:201 2954:208 2955:201 2956:204 2957:211 2958:204 2959:204 2960:211 2961:204 2962:203 2963:210 2964:203 2965:205 2966:212 2967:205 2968:204 2969:209 2970:203 2971:2 2972:2 2973:2 2996:1 2998:198 2999:204 3000:200 3001:197 3002:203 3003:199 3004:197 3005:204 3006:197 3007:197 3008:204 3009:197 3010:196 3011:203 3012:196 3013:193 3014:200 3015:193 3016:182 3017:189 3018:182 3019:171 3020:183 3021:161 3022:46 3023:67 3024:24 3025:57 3026:74 3027:22 3028:192 3029:199 3030:191 3031:198 3032:205 3033:198 3034:199 3035:206 3036:199 3037:200 3038:206 3039:202 3040:201 3041:207 3042:205 3043:200 3044:205 3045:199 3046:202 3047:209 3048:202 3049:204 3050:211 3051:204 3052:202 3053:209 3054:202 3055:207 3056:212 3057:208 
0.01 29:2 31:199 32:206 33:198 34:197 35:203 36:201 37:196 38:202 39:200 40:193 41:202 42:199 43:184 44:191 45:183 46:123 47:141 48:99 49:76 50:100 51:24 52:187 53:194 54:187 55:194 56:201 57:194 58:195 59:202 60:195 109:204 110:210 111:206 112:200 113:207 114:200 115:200 116:207 117:200 118:196 119:202 120:198 121:191 122:197 123:193 124:183 125:193 126:185 127:182 128:188 129:174 130:103 131:119 132:82 133:18 134:41 135:13 136:25 137:50 138:20 139:20 140:44 141:18 142:14 143:39 144:9 145:20 146:45 147:13 148:10 149:35 150:3 151:180 152:191 153:174 154:193 155:200 156:193 157:192 158:199 159:192 160:192 161:199 162:192 163:187 164:194 165:187 166:191 167:196 168:192 169:1 170:1 171:1 196:4 197:4 198:4 199:205 200:211 201:209 202:204 203:210 204:206 205:196 206:203 207:196 208:185 209:194 210:175 211:32 212:56 213:22 214:32 215:56 216:22 217:24 218:48 219:14 220:16 221:41 222:11 223:17 224:42 225:13 226:14 227:38 228:12 229:9 230:34 231:5 232:12 233:36 234:10 235:8 236:31 237:3 238:21 239:41 240:13 241:17 242:40 243:11 244:13 245:32 246:12 247:10 248:29 249:9 250:10 251:29 252:10 253:16 254:31 255:10 256:130 257:138 258:115 259:193 260:195 261:190 262:190 263:195 264:189 265:186 266:193 267:186 268:184 269:191 270:184 271:183 272:190 273:183 274:182 275:189 276:182 277:177 278:184 279:177 290:1 292:207 293:214 294:207 295:204 296:211 297:203 298:52 299:72 300:37 301:18 302:43 303:13 304:21 305:46 306:17 307:31 308:56 309:27 310:14 311:38 312:14 313:14 314:38 315:12 316:11 317:35 318:11 319:4 320:29 321:7 322:11 323:36 324:7 325:10 326:30 327:5 328:8 329:30 330:7 331:11 332:30 333:8 334:15 335:35 336:7 337:14 338:33 339:11 340:8 341:30 342:7 343:21 344:44 345:18 346:10 347:27 348:8 349:9 350:26 351:8 352:6 353:24 354:8 355:7 356:21 357:4 358:13 359:27 360:14 361:8 362:27 363:5 364:11 365:24 366:4 367:44 368:53 369:32 370:181 371:188 372:180 373:180 374:187 375:180 376:180 377:185 378:179 379:180 380:187 381:180 385:209 386:216 387:209 388:204 389:214 390:206 391:26 392:49 393:21 394:11 395:35 396:11 397:17 398:41 399:19 400:13 401:35 402:12 403:11 404:35 405:13 406:12 407:36 408:12 409:13 410:32 411:10 412:13 413:33 414:8 415:7 416:30 417:2 418:6 419:25 420:3 421:13 422:35 423:12 424:24 425:46 426:10 427:11 428:36 429:7 430:14 431:34 432:9 433:19 434:39 435:12 436:11 437:30 438:8 439:8 440:27 441:8 442:9 443:26 444:7 445:24 446:39 447:16 448:6 449:25 450:5 451:10 452:24 453:7 454:8 455:22 456:5 457:11 458:25 459:8 460:6 461:23 462:7 463:7 464:21 465:4 466:12 467:26 468:11 469:16 470:31 471:10 472:139 473:151 474:131 475:178 476:185 477:177 478:179 479:186 480:178 481:209 482:216 483:209 484:37 485:57 486:30 487:21 488:45 489:21 490:14 491:38 492:16 493:19 494:43 495:17 496:9 497:32 498:12 499:8 500:27 501:8 502:12 503:31 504:9 505:25 506:44 507:22 508:14 509:33 510:11 511:8 512:27 513:8 514:9 515:27 516:5 517:8 518:30 519:7 520:10 521:34 522:8 523:10 524:33 525:7 526:14 527:33 528:11 529:13 530:36 531:10 532:8 533:27 534:5 535:11 536:30 537:8 538:8 539:27 540:8 541:8 542:27 543:8 544:6 545:23 546:4 547:19 548:38 549:18 550:12 551:27 552:8 553:7 554:21 555:4 556:7 557:21 558:6 559:6 560:20 561:3 562:4 563:23 564:4 565:11 566:28 567:10 568:11 569:31 570:4 571:52 572:64 573:40 574:170 575:178 576:165 577:206 578:218 579:196 580:14 581:39 582:20 583:16 584:37 585:18 586:9 587:28 588:9 589:11 590:32 591:13 592:13 593:36 594:10 595:14 596:34 597:9 598:6 599:30 600:6 601:8 602:27 603:5 604:8 605:27 606:5 607:16 608:40 609:16 610:15 611:40 612:11 613:12 614:32 615:7 616:12 617:35 618:6 619:13 620:33 621:6 622:16 623:37 624:6 625:17 626:40 627:12 628:9 629:29 630:4 631:10 632:30 633:3 634:7 635:26 636:4 637:8 638:27 639:8 640:7 641:24 642:5 643:9 644:30 645:11 646:2 647:23 648:6 649:4 650:23 651:4 652:22 653:36 654:19 655:8 656:22 657:5 658:4 659:21 660:2 661:4 662:21 663:2 664:8 665:27 666:5 667:10 668:35 669:6 670:142 671:154 672:130 673:28 674:48 675:20 676:14 677:37 678:19 679:16 680:34 681:18 682:15 683:39 684:15 685:13 686:36 687:16 688:13 689:30 690:12 691:8 692:32 693:10 694:9 695:33 696:9 697:13 698:32 699:10 700:10 701:29 702:7 703:13 704:32 705:10 706:14 707:34 708:7 709:14 710:34 711:7 712:6 713:25 714:3 715:8 716:28 717:1 718:14 719:34 720:6 721:19 722:35 723:9 724:9 725:29 726:2 727:10 728:29 729:7 730:7 731:26 732:4 733:16 734:35 735:13 736:7 737:25 738:1 739:9 740:23 741:6 742:8 743:23 744:2 745:6 746:25 747:6 748:3 749:22 750:3 751:5 752:24 753:5 754:1 755:22 756:3 757:9 758:28 759:8 760:8 761:28 762:3 763:11 764:36 765:6 766:30 767:47 768:11 769:29 770:49 771:22 772:25 773:49 774:25 775:19 776:38 777:18 778:17 779:39 780:16 781:12 782:36 783:12 784:13 785:35 786:12 787:10 788:32 789:9 790:6 791:29 792:9 793:12 794:31 795:9 796:22 797:42 798:15 799:8 800:28 801:3 802:10 803:29 804:7 805:14 806:33 807:11 808:10 809:30 810:3 811:10 812:33 813:5 814:14 815:38 816:12 817:11 818:34 819:6 820:9 821:29 822:2 823:7 824:27 826:11 827:30 828:8 829:10 830:29 831:7 832:9 833:23 834:6 835:8 836:26 837:4 838:11 839:26 840:3 841:8 842:25 843:9 844:8 845:23 846:4 847:12 848:27 849:6 850:9 851:28 852:9 853:4 854:23 855:3 856:9 857:28 858:6 859:11 860:36 861:6 862:30 863:52 864:16 865:18 866:42 867:18 868:14 869:37 870:17 871:10 872:34 873:12 874:18 875:42 876:16 877:11 878:35 879:9 880:11 881:35 882:11 883:17 884:42 885:13 886:13 887:36 888:7 889:12 890:30 891:8 892:11 893:30 894:8 895:7 896:26 897:4 898:20 899:40 900:13 901:10 902:31 904:7 905:31 906:5 907:5 908:31 909:2 910:14 911:34 912:9 913:14 914:38 915:12 916:8 917:28 918:1 919:15 920:35 921:8 922:11 923:36 924:7 925:7 926:27 927:2 928:8 929:27 930:5 931:12 932:31 933:9 934:8 935:27 936:5 937:14 938:29 939:8 940:8 941:27 942:5 943:8 944:28 945:1 946:11 947:30 948:8 949:12 950:30 951:8 952:8 953:31 954:5 955:13 956:38 957:9 958:16 959:37 960:6 961:22 962:39 963:20 964:20 965:39 966:17 967:14 968:38 969:14 970:9 971:33 972:9 973:10 974:34 975:8 976:11 977:33 978:10 979:24 980:44 981:19 982:3 983:27 984:3 985:8 986:32 987:8 988:11 989:30 990:8 991:9 992:29 993:4 994:12 995:32 996:5 997:11 998:30 999:8 1000:11 1001:31 1002:4 1003:8 1004:33 1005:4 1006:8 1007:33 1008:4 1009:15 1010:42 1011:9 1012:7 1013:32 1014:3 1015:6 1016:31 1017:2 1018:8 1019:33 1020:4 1021:18 1022:36 1023:10 1024:12 1025:30 1026:6 1027:9 1028:28 1029:6 1030:13 1031:31 1032:5 1033:9 1034:28 1035:6 1036:7 1037:26 1038:4 1039:10 1040:29 1041:9 1042:16 1043:35 1044:13 1045:6 1046:25 1047:3 1048:9 1049:32 1050:4 1051:13 1052:38 1053:9 1054:13 1055:37 1056:3 1057:26 1058:45 1059:25 1060:17 1061:34 1062:15 1063:23 1064:47 1065:23 1066:10 1067:34 1068:10 1069:17 1070:39 1071:16 1072:10 1073:33 1074:7 1075:10 1076:32 1077:9 1078:7 1079:31 1080:7 1081:10 1082:34 1083:10 1084:10 1085:29 1086:7 1087:6 1088:30 1089:4 1090:7 1091:32 1092:3 1093:11 1094:34 1095:6 1096:9 1097:32 1098:4 1099:10 1100:36 1101:7 1102:11 1103:34 1104:5 1105:13 1106:37 1107:5 1108:7 1109:32 1110:3 1111:9 1112:32 1113:4 1114:10 1115:30 1116:3 1117:10 1118:33 1119:5 1120:7 1121:33 1122:6 1123:8 1124:31 1125:3 1126:9 1127:28 1128:6 1129:12 1130:31 1131:11 1132:8 1133:28 1134:3 1135:12 1136:31 1137:9 1138:10 1139:29 1140:7 1141:8 1142:27 1143:5 1144:10 1145:33 1146:5 1147:13 1148:38 1149:9 1150:28 1151:50 1152:12 1153:46 1154:64 1155:38 1156:16 1157:39 1158:21 1159:13 1160:37 1161:15 1162:10 1163:34 1164:12 1165:13 1166:35 1167:12 1168:7 1169:31 1170:9 1171:8 1172:32 1173:8 1174:9 1175:33 1176:9 1177:8 1178:30 1179:7 1180:17 1181:37 1182:10 1183:8 1184:27 1185:7 1186:14 1187:38 1188:14 1189:7 1190:30 1191:2 1192:11 1193:31 1194:4 1195:11 1196:31 1197:4 1198:11 1199:31 1200:6 1201:9 1202:36 1203:1 1204:14 1205:34 1206:6 1207:12 1208:32 1209:5 1210:7 1211:32 1212:3 1213:11 1214:30 1215:8 1216:13 1217:33 1218:8 1219:14 1220:34 1221:9 1222:8 1223:27 1224:5 1225:21 1226:41 1227:14 1228:9 1229:28 1230:6 1231:9 1232:28 1233:6 1234:7 1235:31 1236:9 1237:4 1238:28 1239:4 1240:7 1241:32 1242:3 1243:18 1244:45 1245:14 1246:179 1247:189 1248:178 1249:215 1250:222 1251:215 1252:20 1253:44 1254:20 1255:15 1256:38 1257:18 1258:9 1259:33 1260:11 1261:12 1262:36 1263:12 1264:13 1265:37 1266:13 1267:7 1268:31 1269:7 1270:8 1271:32 1272:10 1273:10 1274:34 1275:8 1276:3 1277:25 1278:4 1279:8 1280:30 1281:7 1282:8 1283:31 1284:5 1285:7 1286:30 1287:2 1288:11 1289:31 1290:4 1291:11 1292:31 1293:4 1294:7 1295:32 1296:3 1297:13 1298:37 1299:11 1300:11 1301:34 1302:6 1303:7 1304:32 1305:3 1306:17 1307:42 1308:13 1309:10 1310:33 1311:5 1312:6 1313:30 1314:6 1315:11 1316:31 1317:4 1318:11 1319:29 1320:7 1321:7 1322:26 1323:4 1324:5 1325:28 1326:2 1327:10 1328:29 1329:7 1330:12 1331:31 1332:9 1333:10 1334:32 1335:9 1336:7 1337:31 1338:7 1339:20 1340:43 1341:14 1342:195 1343:202 1344:195 1345:214 1346:221 1347:214 1348:188 1349:204 1350:175 1351:20 1352:44 1353:18 1354:15 1355:39 1356:15 1357:9 1358:33 1359:11 1360:9 1361:33 1362:9 1363:11 1364:35 1365:9 1366:9 1367:35 1368:10 1369:7 1370:29 1371:6 1372:7 1373:31 1374:5 1375:11 1376:30 1377:8 1378:12 1379:32 1380:4 1381:12 1382:37 1383:8 1384:20 1385:45 1386:16 1387:7 1388:31 1389:5 1390:10 1391:35 1392:6 1393:13 1394:34 1395:3 1396:7 1397:32 1398:3 1399:14 1400:37 1401:9 1402:13 1403:31 1404:5 1405:7 1406:32 1407:3 1408:16 1409:41 1410:12 1411:6 1412:28 1413:7 1414:16 1415:36 1416:9 1417:7 1418:27 1420:9 1421:28 1422:6 1423:6 1424:31 1425:2 1426:5 1427:29 1428:5 1429:7 1430:29 1431:6 1432:12 1433:38 1434:9 1435:186 1436:197 1437:183 1438:199 1439:206 1440:199 1441:216 1442:223 1443:216 1444:212 1445:217 1446:211 1447:34 1448:61 1449:30 1450:26 1451:50 1452:24 1453:8 1454:34 1455:7 1456:8 1457:31 1458:11 1459:8 1460:32 1461:8 1462:11 1463:36 1464:7 1465:11 1466:35 1467:11 1468:9 1469:33 1470:9 1471:17 1472:36 1473:14 1474:15 1475:40 1476:11 1477:7 1478:32 1479:2 1480:13 1481:33 1482:5 1483:8 1484:31 1485:2 1486:10 1487:35 1488:6 1489:19 1490:40 1491:7 1492:7 1493:30 1494:2 1495:13 1496:38 1497:9 1498:18 1499:38 1500:11 1501:14 1502:37 1503:9 1504:6 1505:30 1506:4 1507:9 1508:29 1509:2 1510:10 1511:30 1512:5 1513:7 1514:31 1515:7 1516:11 1517:33 1518:10 1519:8 1520:32 1521:8 1522:10 1523:34 1524:10 1525:13 1526:32 1527:10 1528:55 1529:71 1530:44 1531:201 1532:208 1533:201 1534:201 1535:208 1536:201 1537:223 1538:225 1539:224 1540:217 1541:223 1542:221 1543:200 1544:206 1545:202 1546:27 1547:54 1548:21 1549:18 1550:44 1551:19 1552:20 1553:44 1554:20 1555:12 1556:36 1557:12 1558:12 1559:36 1560:12 1561:10 1562:34 1563:10 1564:7 1565:31 1566:7 1567:23 1568:43 1569:16 1570:11 1571:35 1572:11 1573:8 1574:28 1575:1 1576:11 1577:36 1578:7 1579:11 1580:31 1581:4 1582:15 1583:40 1584:8 1585:20 1586:46 1587:11 1588:14 1589:37 1590:8 1591:15 1592:35 1593:8 1594:8 1595:32 1596:6 1597:8 1598:33 1599:4 1600:9 1601:34 1602:5 1603:13 1604:32 1605:12 1606:8 1607:32 1608:6 1609:12 1610:36 1611:10 1612:9 1613:33 1614:7 1615:14 1616:39 1617:10 1618:9 1619:33 1620:9 1621:15 1622:40 1623:11 1624:205 1625:211 1626:207 1627:203 1628:210 1629:203 1630:198 1631:205 1632:198 1636:218 1637:224 1638:222 1639:218 1640:224 1641:220 1642:195 1643:206 1644:192 1645:20 1646:45 1647:15 1648:12 1649:36 1650:12 1651:18 1652:42 1653:18 1654:14 1655:40 1656:15 1657:12 1658:36 1659:12 1660:10 1661:34 1662:10 1663:9 1664:33 1665:9 1666:8 1667:32 1668:10 1669:9 1670:34 1671:4 1672:11 1673:36 1674:7 1675:7 1676:32 1677:3 1678:6 1679:31 1680:2 1681:15 1682:39 1683:5 1684:8 1685:33 1686:4 1687:9 1688:34 1689:5 1690:11 1691:36 1692:7 1693:24 1694:49 1695:20 1696:13 1697:38 1698:9 1699:9 1700:34 1701:5 1702:11 1703:36 1704:7 1705:11 1706:35 1707:13 1708:7 1709:32 1710:3 1711:11 1712:37 1713:10 1714:11 1715:37 1716:10 1717:205 1718:215 1719:207 1720:205 1721:212 1722:205 1723:205 1724:212 1725:205 1732:4 1733:2 1734:3 1735:218 1736:224 1737:222 1738:218 1739:224 1740:222 1741:201 1742:216 1743:197 1744:19 1745:45 1746:16 1747:14 1748:40 1749:13 1750:18 1751:41 1752:21 1753:12 1754:37 1755:8 1756:10 1757:34 1758:10 1759:11 1760:37 1761:8 1762:12 1763:38 1764:9 1765:11 1766:36 1767:7 1768:15 1769:40 1770:11 1771:9 1772:33 1773:9 1774:11 1775:36 1776:7 1777:50 1778:78 1779:37 1780:13 1781:38 1782:9 1783:16 1784:41 1785:12 1786:9 1787:34 1788:5 1789:7 1790:32 1791:3 1792:9 1793:33 1794:7 1795:10 1796:33 1797:5 1798:8 1799:34 1800:9 1801:11 1802:35 1803:11 1804:10 1805:34 1806:10 1807:10 1808:34 1809:10 1810:206 1811:217 1812:200 1813:210 1814:217 1815:210 1816:211 1817:218 1818:211 1820:2 1834:220 1835:226 1836:224 1837:219 1838:223 1839:222 1840:110 1841:134 1842:102 1843:19 1844:45 1845:16 1846:13 1847:39 1848:12 1849:12 1850:36 1851:12 1852:16 1853:40 1854:16 1855:14 1856:38 1857:14 1858:15 1859:40 1860:11 1861:8 1862:32 1863:6 1864:11 1865:36 1866:7 1867:12 1868:37 1869:7 1870:13 1871:38 1872:9 1873:52 1874:78 1875:43 1876:12 1877:37 1878:8 1879:26 1880:51 1881:21 1882:11 1883:36 1884:7 1885:7 1886:32 1887:3 1888:12 1889:37 1890:8 1891:10 1892:34 1893:8 1894:17 1895:42 1896:13 1897:13 1898:37 1899:13 1900:15 1901:39 1902:13 1903:29 1904:48 1905:20 1906:213 1907:220 1908:213 1909:211 1910:218 1911:211 1912:210 1913:215 1914:209 1930:2 1931:2 1932:2 1933:221 1934:225 1935:224 1936:220 1937:227 1938:220 1939:87 1940:106 1941:76 1942:26 1943:52 1944:27 1945:12 1946:36 1947:12 1948:22 1949:46 1950:20 1951:16 1952:41 1953:11 1954:14 1955:36 1956:13 1957:11 1958:35 1959:9 1960:10 1961:35 1962:5 1963:31 1964:56 1965:26 1966:14 1967:39 1968:10 1969:51 1970:77 1971:40 1972:12 1973:37 1974:8 1975:14 1976:39 1977:9 1978:10 1979:35 1980:6 1981:13 1982:38 1983:9 1984:10 1985:34 1986:10 1987:14 1988:39 1989:10 1990:13 1991:39 1992:10 1993:15 1994:39 1995:15 1996:22 1997:45 1998:19 1999:215 2000:221 2001:217 2002:213 2003:220 2004:213 2005:213 2006:220 2007:213 2030:2 2031:1 2032:219 2033:225 2034:221 2035:221 2036:228 2037:221 2038:50 2039:68 2040:42 2041:15 2042:41 2043:16 2044:15 2045:39 2046:13 2047:13 2048:37 2049:13 2050:14 2051:38 2052:14 2053:14 2054:39 2055:10 2056:9 2057:33 2058:11 2059:10 2060:35 2061:6 2062:11 2063:35 2064:9 2065:51 2066:78 2067:37 2068:15 2069:40 2070:11 2071:12 2072:37 2073:8 2074:15 2075:39 2076:13 2077:14 2078:38 2079:12 2080:10 2081:34 2082:10 2083:12 2084:36 2085:10 2086:17 2087:41 2088:17 2089:21 2090:46 2091:16 2092:219 2093:225 2094:221 2095:216 2096:222 2097:220 2098:215 2099:221 2100:217 2131:222 2132:226 2133:225 2134:222 2135:229 2136:222 2137:42 2138:65 2139:37 2140:21 2141:45 2142:23 2143:15 2144:41 2145:16 2146:15 2147:39 2148:15 2149:17 2150:41 2151:15 2152:14 2153:38 2154:14 2155:22 2156:46 2157:20 2158:13 2159:37 2160:11 2161:33 2162:59 2163:24 2164:13 2165:37 2166:11 2167:15 2168:39 2169:15 2170:16 2171:41 2172:12 2173:14 2174:40 2175:11 2176:13 2177:38 2178:16 2179:20 2180:45 2181:16 2182:20 2183:44 2184:18 2185:218 2186:225 2187:218 2188:218 2189:224 2190:222 2191:217 2192:224 2193:217 2227:220 2228:224 2229:223 2230:222 2231:228 2232:226 2233:222 2234:227 2235:221 2236:29 2237:51 2238:28 2239:18 2240:44 2241:19 2242:15 2243:39 2244:15 2245:19 2246:43 2247:19 2248:17 2249:42 2250:13 2251:13 2252:39 2253:14 2254:13 2255:39 2256:14 2257:32 2258:58 2259:23 2260:18 2261:43 2262:14 2263:10 2264:36 2265:7 2266:16 2267:41 2268:12 2269:15 2270:40 2271:11 2272:20 2273:46 2274:17 2275:35 2276:60 2277:31 2278:217 2279:223 2280:213 2281:218 2282:225 2283:218 2284:218 2285:225 2286:217 2326:224 2327:228 2328:227 2329:222 2330:228 2331:226 2332:220 2333:226 2334:222 2335:30 2336:56 2337:19 2338:20 2339:46 2340:19 2341:21 2342:46 2343:17 2344:19 2345:43 2346:21 2347:18 2348:43 2349:21 2350:14 2351:41 2352:10 2353:20 2354:45 2355:15 2356:13 2357:38 2358:9 2359:16 2360:41 2361:12 2362:18 2363:43 2364:14 2365:20 2366:45 2367:16 2368:25 2369:55 2370:21 2371:202 2372:212 2373:203 2374:218 2375:225 2376:218 2377:218 2378:225 2379:218 2425:223 2426:229 2427:227 2428:222 2429:229 2430:222 2431:218 2432:225 2433:217 2434:40 2435:67 2436:26 2437:29 2438:55 2439:26 2440:24 2441:49 2442:20 2443:22 2444:48 2445:19 2446:17 2447:43 2448:14 2449:18 2450:43 2451:14 2452:21 2453:47 2454:18 2455:19 2456:45 2457:16 2458:18 2459:44 2460:15 2461:25 2462:52 2463:21 2464:184 2465:197 2466:177 2467:218 2468:224 2469:222 2470:220 2471:227 2472:220 2473:1 2474:3 2475:2 2524:221 2525:226 2526:220 2527:222 2528:229 2529:222 2530:212 2531:218 2532:214 2533:41 2534:69 2535:28 2536:31 2537:58 2538:27 2539:28 2540:57 2541:26 2542:25 2543:51 2544:22 2545:25 2546:50 2547:21 2548:21 2549:47 2550:18 2551:16 2552:47 2553:16 2554:21 2555:52 2556:20 2557:148 2558:167 2559:135 2560:218 2561:224 2562:220 2563:220 2564:227 2565:220 2566:220 2567:226 2568:222 2623:222 2624:227 2625:223 2626:220 2627:226 2628:224 2629:209 2630:218 2631:213 2632:96 2633:118 2634:79 2635:30 2636:62 2637:25 2638:37 2639:64 2640:31 2641:30 2642:57 2643:24 2644:29 2645:56 2646:25 2647:21 2648:53 2649:16 2650:126 2651:146 2652:119 2653:217 2654:224 2655:217 2656:220 2657:226 2658:224 2659:220 2660:227 2661:220 2723:2 2725:220 2726:225 2727:219 2728:212 2729:219 2730:212 2731:199 2732:212 2733:194 2734:33 2735:69 2736:25 2737:35 2738:63 2739:23 2740:35 2741:62 2742:27 2743:47 2744:69 2745:33 2746:202 2747:209 2748:202 2749:219 2750:226 2751:219 2752:219 2753:225 2754:223 2824:215 2825:222 2826:215 2827:205 2828:212 2829:205 2830:210 2831:218 2832:207 2833:39 2834:74 2835:34 2836:31 2837:69 2838:22 2839:188 2840:198 2841:189 2842:219 2843:226 2844:219 2845:220 2846:227 2847:220 2920:1 2923:213 2924:220 2925:213 2926:213 2927:220 2928:213 2929:116 2930:136 2931:101 2932:40 2933:76 2934:28 2935:202 2936:209 2937:202 2938:220 2939:226 2940:224 2941:1 3019:2 3020:2 3021:2 3022:222 3023:229 3024:222 3025:224 3026:229 3027:225 3028:71 3029:102 3030:42 3031:209 3032:216 3033:209 3034:219 3035:226 3036:219 
0.01 28:207 29:212 30:208 31:205 32:212 33:205 34:205 35:212 36:205 37:206 38:211 39:205 40:197 41:204 42:197 43:110 44:120 45:85 46:81 47:94 48:51 49:195 50:200 51:193 52:210 53:217 54:210 55:210 56:215 57:209 58:213 59:218 60:212 61:213 62:218 63:212 64:213 65:218 66:212 67:213 68:218 69:212 70:214 71:219 72:213 73:214 74:219 75:213 76:214 77:219 78:213 79:215 80:220 81:214 85:1 86:1 87:1 109:201 110:211 111:202 112:205 113:210 114:204 115:204 116:211 117:204 118:202 119:209 120:202 121:204 122:211 123:204 124:203 125:210 126:203 127:202 128:209 129:202 130:187 131:194 132:187 133:96 134:105 135:84 136:30 137:49 138:17 139:46 140:68 141:22 142:29 143:54 144:14 145:25 146:50 147:21 148:29 149:48 150:16 151:35 152:57 153:19 154:42 155:60 156:20 157:104 158:112 159:91 160:146 161:154 162:133 163:155 164:161 165:149 166:185 167:190 168:183 169:206 170:211 171:205 172:214 173:219 174:213 175:215 176:220 177:214 178:216 179:221 180:215 181:212 182:217 183:211 184:214 185:219 186:213 196:202 197:209 198:202 199:204 200:211 201:204 202:204 203:211 204:204 205:197 206:204 207:197 208:178 209:184 210:180 211:110 212:130 213:95 214:37 215:63 216:26 217:31 218:58 219:17 220:23 221:51 222:13 223:26 224:50 225:16 226:25 227:50 228:20 229:25 230:46 231:13 232:28 233:49 234:18 235:23 236:48 237:8 238:35 239:56 240:15 241:36 242:63 243:22 244:26 245:54 246:16 247:20 248:44 249:18 250:22 251:47 252:18 253:25 254:48 255:20 256:27 257:47 258:19 259:32 260:58 261:23 262:33 263:54 264:23 265:27 266:47 267:20 268:25 269:51 270:22 271:41 272:59 273:33 274:184 275:192 276:179 277:214 278:219 279:215 280:214 281:219 282:213 283:217 284:222 285:216 286:217 287:222 288:216 289:203 290:210 291:203 292:205 293:212 294:205 295:202 296:209 297:202 298:172 299:186 300:171 301:44 302:61 303:27 304:26 305:52 306:13 307:27 308:52 309:22 310:23 311:48 312:19 313:20 314:45 315:16 316:20 317:45 318:16 319:18 320:44 321:9 322:30 323:56 324:19 325:19 326:44 327:15 328:18 329:43 330:14 331:27 332:47 333:10 334:34 335:57 336:11 337:19 338:45 339:10 340:21 341:46 342:14 343:29 344:55 345:20 346:16 347:36 348:9 349:18 350:38 351:11 352:17 353:42 354:13 355:21 356:46 357:17 358:21 359:44 360:16 361:30 362:53 363:25 364:26 365:49 366:21 367:21 368:44 369:16 370:28 371:51 372:23 373:31 374:54 375:25 376:140 377:150 378:126 379:216 380:221 381:215 382:214 383:219 384:213 385:205 386:212 387:205 388:205 389:212 390:205 391:33 392:55 393:19 394:24 395:51 396:18 397:20 398:45 399:15 400:20 401:45 402:15 403:23 404:49 405:14 406:31 407:50 408:22 409:21 410:46 411:17 412:23 413:48 414:16 415:21 416:46 417:14 418:21 419:41 420:13 421:14 422:39 423:10 424:14 425:37 426:9 427:22 428:45 429:3 430:32 431:53 432:10 433:21 434:41 435:13 436:23 437:39 438:12 439:24 440:44 441:16 442:21 443:47 444:10 445:17 446:42 447:13 448:17 449:37 450:10 451:17 452:42 453:13 454:17 455:40 456:12 457:18 458:41 459:13 460:17 461:43 462:14 463:25 464:43 465:17 466:21 467:46 468:17 469:22 470:47 471:18 472:26 473:51 474:22 475:45 476:60 477:19 478:214 479:219 480:213 481:205 482:215 483:207 484:31 485:54 486:26 487:22 488:47 489:18 490:20 491:45 492:16 493:18 494:43 495:14 496:18 497:43 498:14 499:17 500:42 501:12 502:26 503:52 504:17 505:24 506:49 507:20 508:20 509:45 510:15 511:21 512:46 513:16 514:17 515:42 516:13 517:14 518:39 519:9 520:28 521:53 522:14 523:26 524:48 525:9 526:27 527:49 528:10 529:15 530:40 531:10 532:17 533:42 534:13 535:22 536:38 537:12 538:19 539:39 540:12 541:18 542:38 543:11 544:30 545:51 546:18 547:19 548:44 549:15 550:18 551:43 552:14 553:22 554:40 555:14 556:26 557:46 558:19 559:24 560:44 561:17 562:32 563:52 564:25 565:26 566:51 567:22 568:30 569:55 570:26 571:27 572:52 573:23 574:77 575:91 576:66 577:163 578:174 579:158 580:20 581:45 582:16 583:21 584:46 585:16 586:21 587:46 588:16 589:18 590:43 591:13 592:25 593:50 594:21 595:19 596:44 597:14 598:23 599:48 600:19 601:18 602:41 603:13 604:15 605:40 606:11 607:15 608:40 609:10 610:31 611:58 612:17 613:20 614:40 615:12 616:21 617:41 618:14 619:20 620:42 621:6 622:33 623:58 624:16 625:27 626:49 627:13 628:18 629:38 630:10 631:15 632:38 633:10 634:17 635:42 636:12 637:21 638:45 639:13 640:18 641:41 642:13 643:28 644:49 645:16 646:25 647:46 648:15 649:24 650:44 651:17 652:23 653:46 654:18 655:19 656:42 657:14 658:22 659:47 660:18 661:22 662:47 663:18 664:23 665:48 666:19 667:32 668:57 669:28 670:35 671:59 672:27 673:40 674:59 675:31 676:19 677:44 678:15 679:27 680:53 681:18 682:24 683:49 684:19 685:21 686:46 687:17 688:24 689:49 690:20 691:21 692:46 693:16 694:24 695:49 696:20 697:19 698:44 699:15 700:24 701:49 702:17 703:17 704:42 705:13 706:20 707:46 708:17 709:19 710:42 711:14 712:19 713:42 714:14 715:24 716:46 717:7 718:25 719:47 720:8 721:17 722:37 723:12 724:17 725:38 726:7 727:27 728:47 729:20 730:16 731:41 732:12 733:12 734:37 735:8 736:23 737:43 738:16 739:22 740:45 741:17 742:20 743:40 744:13 745:31 746:52 747:19 748:23 749:44 750:11 751:24 752:49 753:17 754:23 755:48 756:18 757:22 758:47 759:18 760:23 761:48 762:19 763:23 764:48 765:18 766:35 767:62 768:29 769:33 770:53 771:25 772:20 773:44 774:18 775:27 776:52 777:22 778:26 779:51 780:21 781:21 782:46 783:16 784:22 785:47 786:17 787:27 788:53 789:18 790:24 791:50 792:11 793:21 794:47 795:8 796:15 797:40 798:11 799:17 800:42 801:13 802:20 803:40 804:13 805:16 806:41 807:12 808:11 809:36 810:7 811:23 812:46 813:4 814:27 815:47 816:12 817:16 818:36 819:8 820:17 821:37 822:10 823:19 824:39 825:12 826:21 827:48 828:13 829:19 830:45 831:10 832:17 833:42 834:12 835:25 836:45 837:17 838:26 839:47 840:16 841:26 842:50 843:18 844:22 845:45 846:16 847:28 848:48 849:20 850:21 851:46 852:16 853:23 854:49 855:20 856:27 857:52 858:23 859:29 860:54 861:25 862:34 863:58 864:22 865:27 866:52 867:23 868:28 869:53 870:24 871:20 872:45 873:16 874:24 875:49 876:20 877:27 878:52 879:22 880:21 881:44 882:15 883:28 884:54 885:17 886:20 887:44 888:18 889:20 890:43 891:15 892:20 893:43 894:14 895:18 896:43 897:14 898:17 899:42 900:13 901:17 902:42 903:10 904:29 905:54 906:15 907:28 908:51 909:7 910:24 911:46 912:7 913:15 914:35 915:8 916:20 917:40 918:13 919:19 920:39 921:12 922:13 923:36 924:8 925:16 926:36 927:9 928:32 929:56 930:20 931:18 932:42 933:10 934:18 935:43 936:11 937:26 938:50 939:18 940:29 941:49 942:22 943:29 944:49 945:22 946:24 947:47 948:19 949:22 950:47 951:18 952:25 953:50 954:20 955:27 956:52 957:22 958:39 959:64 960:25 961:32 962:56 963:20 964:28 965:53 966:23 967:23 968:48 969:19 970:29 971:49 972:22 973:21 974:46 975:16 976:25 977:50 978:20 979:25 980:50 981:20 982:19 983:44 984:12 985:22 986:42 987:15 988:21 989:44 990:16 991:19 992:39 993:12 994:24 995:46 996:10 997:22 998:42 999:14 1000:21 1001:41 1002:13 1003:30 1004:48 1005:8 1006:27 1007:48 1008:7 1009:18 1010:38 1011:11 1012:18 1013:38 1014:11 1015:17 1016:37 1017:9 1018:17 1019:37 1020:9 1021:21 1022:41 1023:13 1024:19 1025:39 1026:11 1027:28 1028:50 1029:14 1030:21 1031:42 1032:9 1033:21 1034:41 1035:13 1036:23 1037:43 1038:16 1039:17 1040:42 1041:13 1042:17 1043:46 1044:16 1045:19 1046:44 1047:15 1048:26 1049:46 1050:19 1051:25 1052:50 1053:20 1054:64 1055:81 1056:49 1057:43 1058:68 1059:28 1060:28 1061:53 1062:24 1063:27 1064:52 1065:23 1066:26 1067:51 1068:22 1069:22 1070:45 1071:17 1072:24 1073:49 1074:20 1075:19 1076:44 1077:15 1078:19 1079:44 1080:15 1081:23 1082:48 1083:19 1084:21 1085:41 1086:14 1087:25 1088:45 1089:17 1090:20 1091:40 1092:12 1093:22 1094:43 1095:10 1096:18 1097:41 1098:12 1099:28 1100:50 1101:11 1102:23 1103:45 1104:7 1105:22 1106:42 1107:15 1108:25 1109:47 1110:8 1111:13 1112:38 1113:9 1114:17 1115:37 1116:10 1117:18 1118:38 1119:11 1120:15 1121:40 1122:10 1123:24 1124:44 1125:17 1126:37 1127:57 1128:29 1129:21 1130:41 1131:14 1132:19 1133:44 1134:15 1135:18 1136:41 1137:13 1138:25 1139:45 1140:18 1141:21 1142:46 1143:17 1144:22 1145:47 1146:18 1147:32 1148:57 1149:25 1150:205 1151:212 1152:204 1153:172 1154:185 1155:165 1156:30 1157:54 1158:22 1159:29 1160:54 1161:25 1162:27 1163:52 1164:23 1165:20 1166:45 1167:16 1168:20 1169:45 1170:16 1171:20 1172:43 1173:15 1174:18 1175:43 1176:14 1177:19 1178:42 1179:14 1180:17 1181:40 1182:11 1183:21 1184:44 1185:16 1186:18 1187:43 1188:14 1189:18 1190:43 1191:14 1192:21 1193:44 1194:16 1195:29 1196:50 1197:11 1198:22 1199:43 1200:12 1201:16 1202:36 1203:9 1204:14 1205:34 1206:7 1207:19 1208:39 1209:11 1210:23 1211:44 1212:13 1213:19 1214:37 1215:11 1216:18 1217:41 1218:13 1219:21 1220:41 1221:14 1222:19 1223:39 1224:12 1225:27 1226:52 1227:22 1228:23 1229:43 1230:16 1231:22 1232:45 1233:17 1234:28 1235:48 1236:21 1237:19 1238:44 1239:15 1240:19 1241:43 1242:17 1243:28 1244:51 1245:23 1246:212 1247:219 1248:212 1249:211 1250:218 1251:211 1252:44 1253:66 1254:30 1255:31 1256:56 1257:27 1258:27 1259:47 1260:20 1261:27 1262:50 1263:21 1264:17 1265:42 1266:13 1267:23 1268:43 1269:16 1270:21 1271:41 1272:14 1273:21 1274:41 1275:14 1276:23 1277:43 1278:16 1279:20 1280:40 1281:13 1282:25 1283:45 1284:17 1285:20 1286:40 1287:13 1288:17 1289:37 1290:10 1291:27 1292:49 1293:11 1294:21 1295:41 1296:14 1297:19 1298:39 1299:12 1300:21 1301:41 1302:14 1303:21 1304:41 1305:13 1306:21 1307:41 1308:14 1309:28 1310:50 1311:12 1312:15 1313:35 1314:8 1315:21 1316:41 1317:14 1318:27 1319:47 1320:20 1321:31 1322:50 1323:18 1324:36 1325:56 1326:29 1327:22 1328:47 1329:18 1330:17 1331:43 1332:14 1333:23 1334:48 1335:19 1336:21 1337:45 1338:21 1339:36 1340:59 1341:31 1342:213 1343:220 1344:213 1345:210 1346:217 1347:210 1348:67 1349:83 1350:54 1351:31 1352:56 1353:27 1354:25 1355:50 1356:21 1357:25 1358:45 1359:18 1360:20 1361:45 1362:16 1363:22 1364:42 1365:15 1366:27 1367:52 1368:22 1369:22 1370:47 1371:18 1372:18 1373:43 1374:14 1375:24 1376:44 1377:17 1378:22 1379:42 1380:15 1381:18 1382:41 1383:13 1384:22 1385:47 1386:15 1387:36 1388:59 1389:15 1390:26 1391:46 1392:18 1393:27 1394:47 1395:20 1396:19 1397:39 1398:12 1399:21 1400:41 1401:13 1402:23 1403:43 1404:15 1405:21 1406:41 1407:13 1408:23 1409:47 1410:15 1411:23 1412:43 1413:15 1414:24 1415:44 1416:17 1417:32 1418:51 1419:21 1420:27 1421:48 1422:17 1423:23 1424:46 1425:18 1426:19 1427:44 1428:15 1429:20 1430:44 1431:18 1432:28 1433:53 1434:24 1435:83 1436:97 1437:72 1438:213 1439:220 1440:213 1441:210 1442:217 1443:210 1444:197 1445:207 1446:198 1447:30 1448:55 1449:26 1450:25 1451:50 1452:21 1453:26 1454:49 1455:21 1456:24 1457:42 1458:16 1459:24 1460:42 1461:16 1462:22 1463:45 1464:17 1465:24 1466:49 1467:20 1468:24 1469:44 1470:17 1471:20 1472:40 1473:13 1474:27 1475:47 1476:20 1477:21 1478:46 1479:16 1480:25 1481:45 1482:17 1483:37 1484:60 1485:18 1486:22 1487:45 1488:16 1489:21 1490:39 1491:13 1492:21 1493:41 1494:14 1495:16 1496:36 1497:9 1498:21 1499:41 1500:14 1501:26 1502:47 1503:16 1504:27 1505:47 1506:20 1507:24 1508:44 1509:17 1510:24 1511:44 1512:17 1513:19 1514:42 1515:14 1516:30 1517:56 1518:19 1519:26 1520:51 1521:21 1522:28 1523:48 1524:23 1525:21 1526:45 1527:21 1528:31 1529:54 1530:25 1531:209 1532:216 1533:209 1534:213 1535:220 1536:213 1537:210 1538:216 1539:214 1540:209 1541:215 1542:211 1543:38 1544:61 1545:35 1546:29 1547:54 1548:25 1549:27 1550:52 1551:23 1552:22 1553:47 1554:18 1555:27 1556:47 1557:20 1558:26 1559:46 1560:19 1561:21 1562:46 1563:17 1564:36 1565:56 1566:29 1567:21 1568:41 1569:14 1570:21 1571:41 1572:14 1573:23 1574:43 1575:15 1576:18 1577:43 1578:13 1579:48 1580:74 1581:29 1582:19 1583:39 1584:11 1585:19 1586:45 1587:16 1588:27 1589:47 1590:20 1591:22 1592:43 1593:12 1594:28 1595:48 1596:21 1597:23 1598:43 1599:16 1600:28 1601:48 1602:20 1603:21 1604:41 1605:14 1606:24 1607:44 1608:17 1609:19 1610:42 1611:14 1612:26 1613:46 1614:19 1615:25 1616:50 1617:21 1618:22 1619:51 1620:21 1621:33 1622:58 1623:29 1624:202 1625:210 1626:195 1627:213 1628:220 1629:213 1630:213 1631:220 1632:213 1633:208 1634:217 1635:212 1636:210 1637:216 1638:212 1639:207 1640:219 1641:207 1642:34 1643:59 1644:29 1645:28 1646:53 1647:23 1648:28 1649:53 1650:24 1651:28 1652:48 1653:21 1654:35 1655:51 1656:22 1657:23 1658:43 1659:16 1660:18 1661:41 1662:13 1663:21 1664:41 1665:14 1666:27 1667:47 1668:20 1669:18 1670:41 1671:13 1672:29 1673:48 1674:18 1675:40 1676:62 1677:23 1678:32 1679:53 1680:22 1681:17 1682:44 1683:13 1684:24 1685:43 1686:15 1687:23 1688:43 1689:15 1690:21 1691:40 1692:12 1693:40 1694:56 1695:30 1696:24 1697:44 1698:17 1699:19 1700:42 1701:16 1702:20 1703:40 1704:15 1705:31 1706:51 1707:24 1708:26 1709:46 1710:19 1711:29 1712:47 1713:21 1714:26 1715:49 1716:21 1717:80 1718:94 1719:68 1720:213 1721:220 1722:213 1723:213 1724:220 1725:213 1726:213 1727:220 1728:213 1729:1 1730:3 1732:210 1733:217 1734:210 1735:210 1736:217 1737:210 1738:132 1739:146 1740:123 1741:32 1742:52 1743:25 1744:30 1745:50 1746:25 1747:29 1748:49 1749:22 1750:26 1751:45 1752:23 1753:27 1754:47 1755:20 1756:24 1757:43 1758:21 1759:23 1760:43 1761:16 1762:31 1763:51 1764:24 1765:17 1766:40 1767:12 1768:18 1769:43 1770:14 1771:36 1772:58 1773:22 1774:22 1775:42 1776:14 1777:22 1778:46 1779:14 1780:18 1781:42 1782:10 1783:19 1784:39 1785:12 1786:24 1787:44 1788:17 1789:24 1790:44 1791:16 1792:29 1793:49 1794:22 1795:18 1796:42 1797:16 1798:23 1799:42 1800:20 1801:24 1802:43 1803:21 1804:20 1805:45 1806:16 1807:29 1808:54 1809:25 1810:48 1811:64 1812:37 1813:217 1814:224 1815:217 1816:216 1817:221 1818:215 1819:216 1820:223 1821:216 1823:1 1828:208 1829:218 1830:209 1831:210 1832:217 1833:210 1834:208 1835:218 1836:210 1837:39 1838:55 1839:28 1840:30 1841:53 1842:25 1843:27 1844:46 1845:24 1846:24 1847:43 1848:21 1849:25 1850:45 1851:18 1852:31 1853:51 1854:26 1855:22 1856:44 1857:21 1858:22 1859:41 1860:19 1861:24 1862:44 1863:19 1864:21 1865:41 1866:14 1867:31 1868:51 1869:16 1870:18 1871:43 1872:14 1873:22 1874:47 1875:18 1876:23 1877:48 1878:19 1879:28 1880:48 1881:20 1882:28 1883:44 1884:17 1885:26 1886:46 1887:18 1888:24 1889:44 1890:17 1891:27 1892:47 1893:20 1894:23 1895:42 1896:20 1897:24 1898:42 1899:20 1900:29 1901:49 1902:24 1903:51 1904:67 1905:40 1906:211 1907:220 1908:215 1909:215 1910:217 1911:212 1912:217 1913:222 1914:216 1915:216 1916:223 1917:216 1927:212 1928:219 1929:212 1930:212 1931:219 1932:212 1933:207 1934:214 1935:206 1936:32 1937:55 1938:29 1939:24 1940:45 1941:26 1942:28 1943:48 1944:21 1945:27 1946:47 1947:22 1948:25 1949:45 1950:20 1951:33 1952:48 1953:25 1954:25 1955:45 1956:20 1957:29 1958:49 1959:21 1960:28 1961:48 1962:20 1963:27 1964:45 1965:19 1966:29 1967:49 1968:22 1969:23 1970:43 1971:16 1972:22 1973:41 1974:19 1975:25 1976:45 1977:18 1978:33 1979:53 1980:25 1981:26 1982:46 1983:19 1984:24 1985:44 1986:17 1987:27 1988:47 1989:20 1990:19 1991:43 1992:19 1993:32 1994:52 1995:27 1996:45 1997:59 1998:33 1999:213 2000:220 2001:213 2002:214 2003:219 2004:213 2005:216 2006:221 2007:215 2008:216 2009:221 2010:215 2023:213 2024:217 2025:216 2026:210 2027:217 2028:210 2029:211 2030:218 2031:211 2032:146 2033:155 2034:136 2035:34 2036:54 2037:27 2038:30 2039:48 2040:26 2041:27 2042:49 2043:26 2044:30 2045:50 2046:25 2047:28 2048:48 2049:23 2050:28 2051:48 2052:21 2053:24 2054:44 2055:17 2056:30 2057:46 2058:19 2059:27 2060:47 2061:20 2062:30 2063:48 2064:22 2065:27 2066:47 2067:20 2068:28 2069:43 2070:22 2071:23 2072:47 2073:21 2074:23 2075:48 2076:19 2077:35 2078:58 2079:30 2080:30 2081:53 2082:25 2083:30 2084:53 2085:25 2086:33 2087:56 2088:30 2089:51 2090:65 2091:39 2092:215 2093:221 2094:217 2095:215 2096:220 2097:214 2098:216 2099:221 2100:215 2101:216 2102:221 2103:215 2104:1 2106:2 2122:212 2123:218 2124:214 2125:211 2126:218 2127:211 2128:210 2129:217 2130:209 2131:56 2132:71 2133:42 2134:31 2135:51 2136:24 2137:27 2138:50 2139:22 2140:27 2141:46 2142:24 2143:29 2144:48 2145:29 2146:26 2147:49 2148:23 2149:29 2150:49 2151:22 2152:35 2153:54 2154:26 2155:37 2156:52 2157:31 2158:27 2159:47 2160:22 2161:27 2162:47 2163:20 2164:23 2165:43 2166:15 2167:25 2168:44 2169:22 2170:23 2171:45 2172:24 2173:29 2174:49 2175:22 2176:26 2177:51 2178:22 2179:41 2180:61 2181:33 2182:68 2183:83 2184:50 2185:215 2186:222 2187:214 2188:216 2189:221 2190:215 2191:216 2192:221 2193:215 2194:216 2195:221 2196:215 2197:1 2198:1 2199:1 2221:212 2222:219 2223:212 2224:210 2225:216 2226:216 2227:209 2228:219 2229:210 2230:48 2231:64 2232:38 2233:32 2234:51 2235:29 2236:28 2237:47 2238:25 2239:24 2240:43 2241:21 2242:27 2243:46 2244:24 2245:27 2246:46 2247:24 2248:43 2249:59 2250:33 2251:32 2252:47 2253:26 2254:36 2255:51 2256:28 2257:26 2258:45 2259:23 2260:28 2261:47 2262:25 2263:29 2264:51 2265:28 2266:28 2267:45 2268:27 2269:30 2270:54 2271:28 2272:40 2273:60 2274:35 2275:101 2276:113 2277:89 2278:214 2279:218 2280:217 2281:214 2282:219 2283:215 2284:216 2285:221 2286:217 2287:215 2288:221 2289:217 2317:2 2318:4 2319:3 2320:210 2321:217 2322:210 2323:210 2324:217 2325:210 2326:201 2327:209 2328:194 2329:44 2330:59 2331:38 2332:33 2333:52 2334:30 2335:31 2336:50 2337:28 2338:27 2339:47 2340:22 2341:27 2342:46 2343:24 2344:43 2345:63 2346:36 2347:29 2348:48 2349:26 2350:27 2351:49 2352:28 2353:32 2354:47 2355:26 2356:29 2357:48 2358:26 2359:31 2360:50 2361:30 2362:40 2363:55 2364:34 2365:54 2366:68 2367:42 2368:200 2369:208 2370:193 2371:214 2372:218 2373:217 2374:214 2375:218 2376:217 2377:216 2378:221 2379:215 2380:212 2381:217 2382:213 2416:212 2417:217 2418:213 2419:212 2420:219 2421:212 2422:210 2423:217 2424:210 2425:163 2426:171 2427:150 2428:37 2429:57 2430:30 2431:34 2432:52 2433:26 2434:36 2435:52 2436:26 2437:38 2438:54 2439:28 2440:34 2441:49 2442:26 2443:30 2444:48 2445:26 2446:28 2447:46 2448:24 2449:28 2450:47 2451:28 2452:35 2453:54 2454:32 2455:47 2456:62 2457:39 2458:91 2459:104 2460:76 2461:211 2462:218 2463:211 2464:215 2465:220 2466:214 2467:214 2468:219 2469:213 2470:213 2471:219 2472:217 2473:215 2474:219 2475:218 2515:210 2516:217 2517:210 2518:210 2519:216 2520:212 2521:209 2522:215 2523:211 2524:57 2525:73 2526:36 2527:37 2528:60 2529:32 2530:33 2531:53 2532:26 2533:35 2534:51 2535:25 2536:36 2537:51 2538:28 2539:29 2540:48 2541:26 2542:29 2543:48 2544:29 2545:37 2546:52 2547:31 2548:50 2549:64 2550:38 2551:199 2552:207 2553:196 2554:213 2555:220 2556:212 2557:214 2558:219 2559:213 2560:214 2561:219 2562:215 2563:213 2564:219 2565:215 2567:1 2611:2 2612:2 2613:2 2614:210 2615:216 2616:214 2617:210 2618:217 2619:210 2620:198 2621:205 2622:198 2623:50 2624:67 2625:31 2626:43 2627:61 2628:37 2629:37 2630:56 2631:34 2632:33 2633:52 2634:33 2635:38 2636:56 2637:32 2638:40 2639:61 2640:30 2641:59 2642:76 2643:44 2644:209 2645:214 2646:210 2647:214 2648:219 2649:213 2650:214 2651:219 2652:213 2653:214 2654:219 2655:213 2656:215 2657:220 2658:216 2710:1 2711:3 2712:2 2713:210 2714:217 2715:210 2716:208 2717:215 2718:208 2719:201 2720:206 2721:199 2722:38 2723:56 2724:30 2725:42 2726:57 2727:36 2728:39 2729:53 2730:36 2731:60 2732:73 2733:47 2734:207 2735:214 2736:206 2737:213 2738:220 2739:213 2740:214 2741:219 2742:213 2743:214 2744:219 2745:213 2746:214 2747:219 2748:213 2750:1 2809:213 2810:218 2811:212 2812:210 2813:217 2814:210 2815:206 2816:213 2817:206 2818:112 2819:127 2820:94 2821:51 2822:65 2823:39 2824:80 2825:89 2826:62 2827:213 2828:218 2829:212 2830:214 2831:218 2832:219 2833:214 2834:219 2835:215 2836:214 2837:219 2838:213 2839:210 2840:217 2841:209 2908:210 2909:214 2910:213 2911:205 2912:212 2913:205 2914:194 2915:200 2916:188 2917:65 2918:74 2919:43 2920:202 2921:207 2922:203 2923:213 2924:218 2925:212 2926:212 2927:219 2928:212 2929:216 2930:218 2931:213 2932:1 2933:1 2934:3 3007:208 3008:215 3009:208 3010:204 3011:209 3012:202 3013:137 3014:145 3015:122 3016:210 3017:217 3018:210 3019:213 3020:218 3021:212 3022:212 3023:219 3024:212 
0.01 10:204 11:211 12:204 13:204 14:211 15:204 16:197 17:204 18:197 19:179 20:194 21:175 22:40 23:65 24:26 25:36 26:62 27:25 28:28 29:55 30:14 31:26 32:54 33:16 34:36 35:60 36:24 37:186 38:198 39:186 40:207 41:212 42:206 43:210 44:217 45:210 46:210 47:217 48:210 49:215 50:220 51:214 52:1 53:3 104:1 106:204 107:211 108:204 109:200 110:210 111:201 112:52 113:72 114:44 115:23 116:51 117:13 118:18 119:45 120:14 121:20 122:45 123:15 124:32 125:59 126:28 127:23 128:48 129:19 130:23 131:48 132:18 133:25 134:50 135:21 136:24 137:47 138:18 139:158 140:170 141:150 142:208 143:217 144:212 145:215 146:220 147:214 148:213 149:218 150:212 151:214 152:219 153:213 199:202 200:209 201:202 202:204 203:211 204:204 205:181 206:194 207:177 208:16 209:43 210:12 211:18 212:43 213:14 214:12 215:37 216:8 217:18 218:43 219:14 220:17 221:43 222:14 223:17 224:42 225:13 226:15 227:40 228:11 229:19 230:43 231:19 232:17 233:43 234:14 235:19 236:43 237:19 238:50 239:70 240:43 241:210 242:216 243:212 244:211 245:218 246:211 247:214 248:219 249:213 250:212 251:219 252:212 295:204 296:211 297:204 298:197 299:209 300:199 301:26 302:50 303:24 304:14 305:39 306:9 307:17 308:42 309:13 310:26 311:51 312:22 313:9 314:34 315:5 316:14 317:40 318:11 319:16 320:41 321:12 322:13 323:38 324:9 325:13 326:37 327:13 328:17 329:41 330:17 331:18 332:42 333:20 334:15 335:38 336:18 337:18 338:42 339:16 340:208 341:221 342:204 343:214 344:219 345:213 346:212 347:219 348:212 349:213 350:218 351:212 352:214 353:219 354:213 391:202 392:209 393:202 394:194 395:202 396:191 397:11 398:36 399:7 400:11 401:35 402:11 403:11 404:35 405:9 406:14 407:38 408:14 409:10 410:34 411:10 412:17 413:41 414:19 415:22 416:45 417:16 418:12 419:37 420:7 421:19 422:39 423:14 424:13 425:37 426:15 427:18 428:42 429:20 430:20 431:45 432:16 433:13 434:37 435:13 436:14 437:38 438:14 439:201 440:212 441:198 442:213 443:218 444:212 445:215 446:220 447:214 448:213 449:220 450:213 451:213 452:220 453:213 487:202 488:209 489:202 490:31 491:49 492:25 493:11 494:35 495:11 496:14 497:33 498:11 499:11 500:31 501:6 502:7 503:32 504:3 505:7 506:31 507:7 508:11 509:34 510:5 511:13 512:36 513:10 514:14 515:40 516:15 517:11 518:35 519:11 520:12 521:36 522:12 523:11 524:35 525:11 526:8 527:32 528:8 529:14 530:38 531:14 532:13 533:37 534:15 535:13 536:36 537:10 538:30 539:48 540:24 541:212 542:217 543:211 544:213 545:218 546:212 547:214 548:219 549:213 550:214 551:219 552:213 581:1 583:202 584:208 585:204 586:22 587:36 588:10 589:11 590:30 591:8 592:7 593:27 595:22 596:42 597:17 598:10 599:34 600:8 601:8 602:32 603:8 604:15 605:40 606:11 607:15 608:37 609:14 610:18 611:40 612:17 613:10 614:35 615:6 616:7 617:31 618:5 619:5 620:29 621:5 622:15 623:38 624:18 625:8 626:32 627:6 628:10 629:34 630:10 631:10 632:33 633:13 634:14 635:38 636:14 637:26 638:49 639:23 640:212 641:216 642:215 643:213 644:218 645:212 646:214 647:219 648:213 649:214 650:219 651:213 676:202 677:209 678:202 679:200 680:207 681:200 682:11 683:35 684:11 685:13 686:32 687:10 688:8 689:27 690:5 691:11 692:31 693:4 694:6 695:28 696:5 697:12 698:31 699:9 700:8 701:33 702:4 703:13 704:38 705:9 706:15 707:39 708:13 709:23 710:47 711:21 712:8 713:32 714:8 715:8 716:32 717:8 718:7 719:33 720:8 721:23 722:47 723:25 724:12 725:36 726:12 727:12 728:36 729:12 730:12 731:35 732:15 733:14 734:38 735:14 736:20 737:43 738:14 739:210 740:217 741:209 742:213 743:218 744:212 745:214 746:219 747:213 748:212 749:219 750:212 751:1 772:199 773:206 774:199 775:197 776:207 777:198 778:12 779:32 780:5 781:10 782:29 783:7 784:7 785:27 786:2 787:7 788:26 789:4 790:9 791:28 792:6 793:15 794:35 795:8 796:12 797:35 798:7 799:10 800:35 801:6 802:8 803:33 804:4 805:11 806:35 807:11 808:7 809:33 810:8 811:7 812:31 813:7 814:8 815:32 816:6 817:7 818:33 819:8 820:13 821:37 822:13 823:8 824:32 825:10 826:16 827:40 828:18 829:12 830:36 831:12 832:13 833:37 834:11 835:17 836:42 837:13 838:207 839:214 840:206 841:213 842:218 843:212 844:211 845:218 846:211 847:213 848:220 849:213 865:1 866:1 867:1 868:199 869:206 870:199 871:202 872:209 873:201 874:10 875:28 876:4 877:13 878:28 879:7 880:24 881:40 882:14 883:10 884:29 885:7 886:8 887:27 888:5 889:10 890:29 891:7 892:17 893:36 894:14 895:10 896:29 897:7 898:14 899:34 900:7 901:12 902:31 903:11 904:8 905:30 906:7 907:8 908:27 909:5 910:9 911:28 912:8 913:9 914:33 915:11 916:9 917:31 918:8 919:16 920:36 921:9 922:11 923:31 924:6 925:11 926:35 927:11 928:11 929:35 930:11 931:13 932:37 933:13 934:25 935:48 936:19 937:197 938:204 939:196 940:213 941:220 942:212 943:213 944:218 945:212 946:213 947:220 948:212 950:1 961:196 962:201 963:197 964:199 965:206 966:199 967:57 968:66 969:47 970:10 971:27 972:8 973:7 974:27 975:2 976:6 977:25 978:3 979:8 980:27 981:5 982:4 983:23 984:1 985:6 986:25 987:3 988:9 989:28 990:6 991:12 992:35 993:9 994:8 995:32 996:6 997:7 998:33 999:8 1000:7 1001:31 1002:9 1003:22 1004:42 1005:15 1006:10 1007:30 1008:3 1009:11 1010:30 1011:8 1012:9 1013:33 1014:9 1015:6 1016:30 1017:6 1018:11 1019:33 1020:10 1021:9 1022:33 1023:9 1024:10 1025:34 1026:10 1027:9 1028:37 1029:14 1030:15 1031:39 1032:15 1033:23 1034:48 1035:19 1036:200 1037:213 1038:196 1039:214 1040:219 1041:213 1042:212 1043:218 1044:216 1045:212 1046:218 1047:216 1057:197 1058:204 1059:197 1060:197 1061:204 1062:197 1063:15 1064:34 1065:6 1066:7 1067:26 1068:4 1069:17 1070:37 1071:12 1072:9 1073:28 1074:6 1075:8 1076:27 1077:5 1078:13 1079:35 1080:12 1081:6 1082:25 1083:3 1084:10 1085:28 1086:4 1087:23 1088:46 1089:17 1090:7 1091:32 1092:2 1093:10 1094:30 1095:3 1096:7 1097:27 1098:2 1099:7 1100:26 1101:4 1102:9 1103:31 1104:8 1105:11 1106:30 1107:8 1108:16 1109:35 1110:13 1111:12 1112:31 1113:9 1114:11 1115:30 1116:8 1117:16 1118:36 1119:9 1120:11 1121:33 1122:10 1123:10 1124:33 1125:15 1126:9 1127:33 1128:9 1129:12 1130:36 1131:12 1132:20 1133:45 1134:16 1135:153 1136:168 1137:147 1138:206 1139:213 1140:205 1141:213 1142:220 1143:213 1144:212 1145:218 1146:214 1148:4 1153:196 1154:203 1155:196 1156:197 1157:204 1158:196 1159:10 1160:28 1161:6 1162:12 1163:32 1164:5 1165:10 1166:30 1167:5 1168:8 1169:26 1170:4 1171:10 1172:25 1173:2 1174:9 1175:27 1176:3 1177:8 1178:27 1179:5 1180:11 1181:31 1182:4 1183:8 1184:33 1185:4 1186:3 1187:27 1188:1 1189:4 1190:27 1192:19 1193:42 1194:13 1195:8 1196:28 1197:1 1198:14 1199:34 1200:9 1201:10 1202:29 1203:7 1204:11 1205:31 1206:6 1207:8 1208:31 1209:5 1210:6 1211:30 1212:6 1213:8 1214:31 1215:5 1216:12 1217:31 1218:9 1219:11 1220:35 1221:13 1222:12 1223:36 1224:12 1225:14 1226:38 1227:14 1228:14 1229:38 1230:12 1231:20 1232:45 1233:15 1234:173 1235:191 1236:167 1237:201 1238:206 1239:202 1240:210 1241:217 1242:210 1243:211 1244:218 1245:211 1246:214 1247:221 1248:214 1249:194 1250:201 1251:194 1252:163 1253:175 1254:155 1255:9 1256:29 1257:2 1258:25 1259:45 1260:20 1261:8 1262:27 1263:7 1264:11 1265:31 1266:6 1267:8 1268:27 1269:7 1270:8 1271:30 1272:9 1273:10 1274:30 1275:5 1276:15 1277:35 1278:8 1279:5 1280:28 1282:6 1283:31 1284:2 1285:9 1286:27 1287:3 1288:4 1289:26 1290:3 1291:11 1292:31 1293:6 1294:13 1295:32 1296:10 1297:14 1298:38 1299:16 1300:8 1301:34 1302:7 1303:13 1304:33 1305:6 1306:22 1307:41 1308:21 1309:11 1310:33 1311:10 1312:16 1313:34 1314:12 1315:8 1316:32 1317:8 1318:10 1319:34 1320:10 1321:13 1322:37 1323:13 1324:15 1325:39 1326:17 1327:12 1328:36 1329:12 1330:19 1331:43 1332:17 1333:47 1334:68 1335:35 1336:183 1337:189 1338:179 1339:200 1340:205 1341:198 1342:206 1343:213 1344:206 1345:192 1346:197 1347:190 1348:20 1349:45 1350:15 1351:10 1352:28 1353:2 1354:10 1355:25 1356:4 1357:7 1358:22 1359:1 1360:10 1361:28 1362:2 1363:8 1364:28 1365:3 1366:7 1367:26 1368:4 1369:8 1370:27 1371:5 1372:12 1373:32 1374:5 1375:8 1376:28 1377:1 1378:10 1379:30 1380:3 1381:16 1382:36 1383:9 1384:9 1385:29 1386:2 1387:10 1388:30 1389:5 1390:8 1391:28 1392:3 1393:12 1394:31 1395:9 1396:8 1397:28 1398:3 1399:15 1400:35 1401:8 1402:8 1403:28 1404:3 1405:12 1406:31 1407:9 1408:12 1409:32 1410:7 1411:8 1412:32 1413:8 1414:8 1415:32 1416:8 1417:13 1418:37 1419:15 1420:12 1421:36 1422:14 1423:15 1424:39 1425:17 1426:19 1427:44 1428:15 1429:25 1430:50 1431:21 1432:31 1433:57 1434:18 1435:40 1436:68 1437:20 1438:50 1439:76 1440:28 1441:69 1442:90 1443:13 1444:65 1445:86 1446:29 1447:30 1448:49 1449:4 1450:18 1451:40 1452:4 1453:13 1454:32 1455:2 1456:8 1457:27 1459:10 1460:30 1461:2 1462:7 1463:26 1464:4 1465:13 1466:33 1467:6 1468:10 1469:30 1470:5 1471:17 1472:38 1473:5 1474:10 1475:31 1477:10 1478:31 1480:12 1481:33 1482:2 1483:16 1484:37 1485:6 1486:20 1487:41 1488:10 1489:25 1490:46 1491:13 1492:34 1493:50 1494:23 1495:45 1496:66 1497:35 1498:32 1499:53 1500:20 1501:31 1502:51 1503:23 1504:34 1505:59 1506:29 1507:22 1508:47 1509:18 1510:20 1511:45 1512:16 1513:11 1514:36 1515:6 1516:11 1517:35 1518:9 1519:17 1520:41 1521:17 1522:19 1523:44 1524:15 1525:25 1526:50 1527:20 1528:31 1529:57 1530:22 1531:35 1532:60 1533:21 1534:204 1535:211 1536:204 1537:170 1538:177 1539:169 1540:8 1541:27 1542:5 1543:10 1544:28 1545:2 1546:10 1547:25 1548:4 1549:10 1550:25 1551:4 1552:11 1553:26 1554:3 1555:10 1556:28 1557:2 1558:8 1559:28 1560:3 1561:11 1562:31 1563:6 1564:8 1565:26 1566:2 1567:9 1568:29 1569:1 1570:10 1571:30 1572:3 1573:8 1574:28 1575:3 1576:9 1577:29 1578:4 1579:5 1580:27 1581:4 1582:9 1583:31 1584:8 1585:9 1586:29 1587:4 1588:10 1589:30 1590:5 1591:6 1592:28 1593:5 1594:13 1595:31 1596:9 1597:8 1598:27 1599:5 1600:9 1601:31 1602:8 1603:7 1604:29 1605:6 1606:9 1607:28 1608:8 1609:11 1610:35 1611:13 1612:12 1613:36 1614:12 1615:12 1616:35 1617:15 1618:27 1619:51 1620:25 1621:25 1622:50 1623:20 1624:167 1625:182 1626:161 1627:200 1628:207 1629:200 1630:205 1631:212 1632:205 1633:186 1634:195 1635:190 1636:14 1637:34 1638:6 1639:12 1640:32 1641:5 1642:8 1643:26 1644:4 1645:11 1646:29 1647:3 1648:7 1649:25 1650:3 1651:20 1652:36 1653:10 1654:9 1655:24 1656:3 1657:5 1658:24 1659:2 1660:5 1661:24 1662:2 1663:9 1664:27 1665:3 1666:4 1667:23 1668:1 1669:6 1670:28 1671:7 1672:7 1673:27 1674:2 1675:7 1676:25 1677:3 1678:9 1679:24 1680:3 1681:7 1682:26 1683:4 1684:7 1685:26 1686:4 1687:7 1688:26 1689:4 1690:8 1691:27 1692:5 1693:14 1694:36 1695:13 1696:11 1697:30 1698:8 1699:11 1700:30 1701:8 1702:6 1703:30 1704:8 1705:10 1706:33 1707:13 1708:13 1709:37 1710:13 1711:18 1712:42 1713:18 1714:21 1715:46 1716:17 1717:110 1718:130 1719:102 1720:199 1721:206 1722:199 1723:203 1724:210 1725:203 1726:207 1727:214 1728:207 1729:192 1730:199 1731:192 1732:14 1733:33 1734:5 1735:8 1736:26 1737:4 1738:9 1739:24 1740:5 1741:9 1742:27 1743:3 1744:8 1745:26 1746:4 1747:7 1748:25 1749:3 1750:7 1751:21 1752:4 1753:5 1754:24 1755:5 1756:6 1757:23 1758:4 1759:9 1760:27 1761:5 1762:10 1763:28 1764:6 1765:10 1766:29 1767:7 1768:9 1769:28 1770:6 1771:19 1772:41 1773:18 1774:13 1775:32 1776:10 1777:9 1778:28 1779:6 1780:8 1781:27 1782:5 1783:13 1784:32 1785:10 1786:10 1787:29 1788:7 1789:8 1790:27 1791:5 1792:8 1793:27 1794:8 1795:10 1796:27 1797:9 1798:8 1799:29 1800:10 1801:10 1802:33 1803:13 1804:17 1805:41 1806:19 1807:15 1808:39 1809:13 1810:39 1811:59 1812:32 1813:198 1814:208 1815:200 1816:204 1817:211 1818:204 1819:209 1820:216 1821:209 1822:209 1823:216 1824:209 1825:191 1826:198 1827:191 1828:161 1829:170 1830:153 1831:11 1832:24 1833:4 1834:10 1835:28 1836:6 1837:4 1838:18 1839:1 1840:6 1841:21 1842:2 1843:10 1844:25 1845:4 1846:9 1847:24 1848:1 1849:9 1850:24 1851:5 1852:8 1853:23 1854:4 1855:8 1856:23 1857:2 1858:12 1859:27 1860:6 1861:8 1862:23 1863:2 1864:8 1865:26 1866:4 1867:10 1868:29 1869:7 1870:8 1871:27 1872:5 1873:8 1874:27 1875:7 1876:4 1877:23 1878:1 1879:8 1880:27 1881:5 1882:5 1883:24 1884:5 1885:8 1886:27 1887:8 1888:11 1889:30 1890:11 1891:6 1892:27 1893:8 1894:8 1895:31 1896:11 1897:9 1898:33 1899:9 1900:12 1901:36 1902:10 1903:24 1904:48 1905:16 1906:201 1907:208 1908:201 1909:203 1910:210 1911:203 1912:209 1913:216 1914:209 1915:209 1916:216 1917:209 1918:1 1919:1 1920:1 1921:189 1922:196 1923:189 1924:191 1925:196 1926:190 1927:8 1928:25 1929:6 1930:6 1931:21 1932:2 1933:6 1934:20 1935:3 1936:5 1937:19 1938:2 1939:7 1940:21 1941:4 1942:6 1943:29 1944:3 1945:9 1946:24 1947:5 1948:8 1949:22 1950:5 1951:8 1952:22 1953:5 1954:10 1955:24 1956:7 1957:10 1958:25 1959:6 1960:9 1961:27 1962:5 1963:7 1964:26 1965:4 1966:10 1967:29 1968:7 1969:8 1970:27 1971:8 1972:4 1973:23 1974:4 1975:8 1976:27 1977:5 1978:14 1979:33 1980:11 1981:8 1982:30 1983:9 1984:5 1985:29 1986:7 1987:8 1988:31 1989:11 1990:10 1991:33 1992:13 1993:12 1994:35 1995:15 1996:22 1997:45 1998:17 1999:200 2000:205 2001:199 2002:205 2003:212 2004:205 2005:208 2006:215 2007:208 2008:210 2009:215 2010:209 2011:3 2012:1 2013:2 2017:189 2018:196 2019:189 2020:189 2021:196 2022:188 2023:11 2024:26 2025:5 2026:6 2027:23 2028:5 2029:7 2030:21 2031:4 2032:4 2033:18 2034:1 2035:11 2036:25 2037:8 2038:6 2039:21 2040:2 2041:9 2042:24 2043:3 2044:10 2045:25 2046:6 2047:5 2048:19 2049:2 2050:7 2051:21 2052:4 2053:10 2054:25 2055:6 2056:12 2057:27 2058:8 2059:11 2060:26 2061:5 2062:11 2063:26 2064:5 2065:21 2066:39 2067:17 2068:9 2069:27 2070:11 2071:11 2072:30 2073:10 2074:9 2075:32 2076:12 2077:8 2078:33 2079:12 2080:6 2081:31 2082:10 2083:8 2084:29 2085:10 2086:9 2087:32 2088:6 2089:22 2090:45 2091:16 2092:199 2093:206 2094:199 2095:206 2096:213 2097:206 2098:207 2099:214 2100:207 2101:209 2102:216 2103:209 2104:1 2105:1 2106:1 2113:187 2114:194 2115:187 2116:189 2117:196 2118:189 2119:28 2120:40 2121:16 2122:5 2123:19 2124:2 2125:11 2126:24 2127:7 2128:4 2129:18 2130:1 2131:6 2132:19 2133:2 2134:5 2135:19 2136:2 2137:10 2138:25 2139:6 2140:8 2141:22 2142:5 2143:9 2144:26 2145:8 2146:7 2147:21 2148:4 2149:10 2150:23 2151:6 2152:8 2153:25 2154:6 2155:8 2156:23 2157:4 2158:7 2159:24 2160:6 2161:11 2162:24 2163:7 2164:7 2165:26 2166:7 2167:7 2168:26 2169:6 2170:11 2171:30 2172:10 2173:15 2174:34 2175:15 2176:13 2177:39 2178:14 2179:14 2180:39 2181:17 2182:22 2183:40 2184:18 2185:201 2186:211 2187:203 2188:207 2189:214 2190:207 2191:207 2192:214 2193:207 2194:207 2195:214 2196:206 2198:2 2209:1 2210:3 2212:189 2213:196 2214:189 2215:29 2216:43 2217:20 2218:9 2219:23 2220:6 2221:8 2222:21 2223:4 2224:4 2225:18 2226:1 2227:9 2228:22 2229:5 2230:5 2231:19 2232:2 2233:9 2234:23 2235:6 2236:9 2237:23 2238:6 2239:8 2240:22 2241:5 2242:4 2243:23 2244:4 2245:6 2246:23 2247:5 2248:7 2249:25 2250:3 2251:7 2252:21 2253:4 2254:7 2255:26 2256:7 2257:8 2258:25 2259:7 2260:10 2261:29 2262:7 2263:7 2264:26 2265:7 2266:7 2267:26 2268:7 2269:12 2270:29 2271:10 2272:10 2273:32 2274:11 2275:21 2276:43 2277:22 2278:205 2279:212 2280:205 2281:207 2282:214 2283:207 2284:206 2285:213 2286:206 2287:207 2288:214 2289:207 2291:1 2305:1 2306:1 2307:1 2308:187 2309:194 2310:187 2311:162 2312:175 2313:155 2314:8 2315:25 2316:7 2317:6 2318:20 2319:3 2320:5 2321:19 2322:2 2323:7 2324:21 2325:4 2326:10 2327:25 2328:6 2329:8 2330:22 2331:5 2332:10 2333:25 2334:6 2335:8 2336:22 2337:5 2338:6 2339:20 2340:3 2341:4 2342:21 2343:3 2344:3 2345:20 2346:2 2347:8 2348:27 2349:7 2350:13 2351:32 2352:12 2353:7 2354:26 2355:7 2356:12 2357:29 2358:11 2359:9 2360:30 2361:11 2362:8 2363:32 2364:10 2365:16 2366:38 2367:17 2368:24 2369:43 2370:24 2371:207 2372:212 2373:208 2374:206 2375:211 2376:205 2377:205 2378:212 2379:205 2380:205 2381:212 2382:205 2384:5 2385:1 2404:186 2405:193 2406:186 2407:186 2408:194 2409:181 2410:7 2411:22 2412:3 2413:8 2414:22 2415:5 2416:6 2417:20 2418:3 2419:8 2420:22 2421:5 2422:6 2423:21 2424:2 2425:7 2426:21 2427:4 2428:17 2429:32 2430:13 2431:12 2432:27 2433:8 2434:8 2435:22 2436:5 2437:9 2438:23 2439:6 2440:6 2441:25 2442:6 2443:5 2444:24 2445:5 2446:7 2447:26 2448:4 2449:8 2450:27 2451:8 2452:6 2453:27 2454:8 2455:8 2456:32 2457:10 2458:8 2459:31 2460:11 2461:33 2462:45 2463:31 2464:204 2465:211 2466:204 2467:204 2468:211 2469:204 2470:204 2471:211 2472:204 2473:205 2474:212 2475:205 2477:1 2500:186 2501:193 2502:186 2503:184 2504:191 2505:183 2506:4 2507:21 2508:2 2509:7 2510:21 2511:4 2512:5 2513:19 2514:2 2515:5 2516:19 2517:2 2518:7 2519:21 2520:4 2521:7 2522:21 2523:4 2524:8 2525:22 2526:5 2527:8 2528:22 2529:5 2530:8 2531:22 2532:5 2533:8 2534:22 2535:5 2536:7 2537:26 2538:7 2539:9 2540:26 2541:8 2542:7 2543:26 2544:7 2545:6 2546:24 2547:8 2548:7 2549:30 2550:10 2551:11 2552:35 2553:13 2554:66 2555:88 2556:65 2557:204 2558:211 2559:204 2560:204 2561:211 2562:204 2563:204 2564:211 2565:204 2566:204 2567:211 2568:204 2570:1 2596:186 2597:193 2598:185 2599:185 2600:193 2601:182 2602:18 2603:36 2604:10 2605:8 2606:22 2607:7 2608:9 2609:23 2610:6 2611:6 2612:20 2613:5 2614:15 2615:29 2616:12 2617:9 2618:22 2619:5 2620:9 2621:26 2622:8 2623:9 2624:23 2625:6 2626:16 2627:30 2628:13 2629:11 2630:25 2631:8 2632:11 2633:25 2634:8 2635:7 2636:26 2637:6 2638:10 2639:29 2640:10 2641:11 2642:30 2643:11 2644:14 2645:37 2646:11 2647:182 2648:193 2649:177 2650:204 2651:211 2652:204 2653:204 2654:211 2655:204 2656:205 2657:210 2658:204 2659:204 2660:211 2661:204 2692:186 2693:193 2694:185 2695:184 2696:191 2697:184 2698:178 2699:191 2700:174 2701:6 2702:21 2703:2 2704:8 2705:22 2706:5 2707:8 2708:22 2709:7 2710:10 2711:27 2712:9 2713:5 2714:22 2715:4 2716:11 2717:28 2718:10 2719:8 2720:22 2721:5 2722:7 2723:21 2724:4 2725:8 2726:22 2727:5 2728:11 2729:30 2730:11 2731:12 2732:31 2733:9 2734:8 2735:32 2736:8 2737:18 2738:42 2739:16 2740:181 2741:193 2742:179 2743:198 2744:208 2745:200 2746:201 2747:208 2748:201 2749:202 2750:209 2751:202 2752:204 2753:209 2754:203 2789:1 2791:184 2792:191 2793:184 2794:186 2795:193 2796:186 2797:42 2798:54 2799:34 2800:6 2801:21 2803:7 2804:21 2805:6 2806:7 2807:21 2808:4 2809:10 2810:24 2811:7 2812:7 2813:24 2814:6 2815:10 2816:24 2817:7 2818:13 2819:27 2820:10 2821:10 2822:24 2823:7 2824:7 2825:26 2826:7 2827:10 2828:33 2829:7 2830:19 2831:42 2832:13 2833:178 2834:188 2835:177 2836:199 2837:206 2838:199 2839:200 2840:207 2841:200 2842:200 2843:207 2844:200 2845:201 2846:208 2847:201 2887:183 2888:190 2889:183 2890:184 2891:191 2892:184 2893:183 2894:193 2895:185 2896:79 2897:92 2898:72 2899:12 2900:26 2901:9 2902:10 2903:24 2904:7 2905:7 2906:24 2907:8 2908:7 2909:24 2910:8 2911:10 2912:27 2913:9 2914:8 2915:25 2916:7 2917:9 2918:28 2919:9 2920:16 2921:36 2922:11 2923:136 2924:149 2925:131 2926:189 2927:196 2928:189 2929:197 2930:204 2931:197 2932:197 2933:204 2934:197 2935:199 2936:206 2937:199 2938:200 2939:207 2940:200 2941:200 2942:207 2943:200 2945:1 2984:3 2986:183 2987:190 2988:183 2989:184 2990:191 2991:184 2992:187 2993:192 2994:185 2995:186 2996:194 2997:179 2998:28 2999:37 3000:18 3001:34 3002:46 3003:26 3004:14 3005:33 3006:13 3007:12 3008:33 3009:14 3010:15 3011:30 3012:11 3013:43 3014:58 3015:37 3016:186 3017:193 3018:185 3019:194 3020:201 3021:194 3022:196 3023:203 3024:196 3025:197 3026:204 3027:197 3028:197 3029:204 3030:197 3031:200 3032:207 3033:200 3034:200 3035:207 3036:199 3037:200 3038:205 3039:199 
