svm_type c_svc
kernel_type rbf
gamma 1e-08
nr_class 2
total_sv 122
rho 0.999737
label 1 -1
probA -519.958
probB -515.234
nr_sv 56 66
SV
0.01 1:235 2:239 3:248 4:240 5:244 6:253 28:248 29:251 30:255 31:241 32:246 33:250 34:244 35:249 36:253 37:243 38:251 39:254 40:234 41:242 42:244 43:241 44:252 45:244 46:25 47:43 48:19 49:33 50:51 51:25 52:30 53:45 54:24 55:26 56:38 57:24 58:11 59:22 60:14 61:223 62:232 63:229 64:252 65:255 66:255 67:247 68:250 69:255 70:242 71:247 72:250 73:244 74:249 75:253 76:246 77:251 78:255 79:246 80:251 81:254 82:245 83:250 84:253 97:233 98:237 99:246 100:237 101:241 102:250 118:1 121:248 122:251 123:255 124:244 125:247 126:252 127:241 128:249 129:252 130:241 131:251 132:253 133:23 134:40 135:22 136:32 137:61 138:5 139:42 140:67 141:10 142:20 143:48 145:21 146:44 147:2 148:34 149:56 150:17 151:38 152:59 153:26 154:43 155:65 156:27 157:34 158:57 159:15 160:36 161:53 162:19 163:46 164:59 165:52 166:247 167:255 168:255 169:241 170:251 171:253 172:243 173:253 174:255 175:241 176:246 177:250 178:247 179:252 180:255 181:242 182:247 183:251 193:235 194:239 195:248 196:242 197:246 198:255 214:244 215:247 216:252 217:247 218:250 219:255 220:241 221:244 222:251 223:242 224:247 225:250 226:29 227:54 228:14 229:34 230:59 231:1 232:39 233:69 234:5 235:42 236:71 237:7 238:27 239:54 240:1 241:19 242:41 243:2 244:25 245:48 246:6 247:42 248:65 249:23 250:45 251:68 252:26 253:35 254:60 255:20 256:41 257:62 258:19 259:50 260:72 261:33 262:53 263:75 264:39 265:65 266:80 267:59 268:244 269:255 270:255 271:248 272:255 273:255 274:244 275:252 276:255 277:244 278:249 279:253 280:236 281:241 282:245 289:237 290:241 291:250 292:243 293:247 294:255 307:240 308:245 309:249 310:241 311:246 312:250 313:241 314:246 315:250 316:244 317:248 318:251 319:44 320:65 321:24 322:38 323:67 325:39 326:69 327:5 328:48 329:78 330:14 331:39 332:68 333:10 334:37 335:64 336:13 337:30 338:53 339:9 340:41 341:63 342:24 343:60 344:82 345:43 346:47 347:69 348:30 349:38 350:65 351:24 352:49 353:71 354:32 355:46 356:69 357:25 358:50 359:73 360:29 361:44 362:68 363:20 364:51 365:75 366:39 367:24 368:41 369:22 370:231 371:241 372:242 373:246 374:251 375:255 376:246 377:251 378:255 379:245 380:249 381:250 400:240 401:243 402:248 403:241 404:246 405:250 406:244 407:249 408:253 409:239 410:246 411:252 412:39 413:63 414:15 415:39 416:70 417:2 418:38 419:68 420:6 421:32 422:61 423:3 424:44 425:73 426:17 427:27 428:55 429:7 430:37 431:65 432:17 433:32 434:55 435:11 436:50 437:72 438:33 439:50 440:72 441:33 442:33 443:56 444:14 445:45 446:67 447:28 448:46 449:68 450:29 451:47 452:70 453:26 454:45 455:70 456:28 457:44 458:71 459:30 460:37 461:64 462:19 463:41 464:64 465:18 466:41 467:58 468:39 469:228 470:233 471:236 472:245 473:250 474:254 475:245 476:248 477:255 493:241 494:242 495:246 496:239 497:242 498:247 499:242 500:247 501:253 502:241 503:246 504:249 505:31 506:54 507:10 508:34 509:63 511:38 512:68 513:8 514:35 515:65 516:3 517:29 518:58 519:4 520:47 521:75 522:26 523:26 524:53 525:8 526:29 527:56 528:11 529:25 530:51 531:6 532:47 533:72 534:32 535:51 536:76 537:36 538:37 539:62 540:20 541:52 542:77 543:35 544:34 545:59 546:19 547:30 548:55 549:13 550:44 551:69 552:27 553:15 554:42 555:1 556:29 557:56 558:11 559:43 560:70 561:25 562:34 563:58 564:8 565:26 566:47 567:32 568:228 569:238 570:240 571:240 572:245 573:249 574:245 575:249 576:255 588:2 589:239 590:242 591:247 592:245 593:248 594:253 595:239 596:243 597:244 598:40 599:57 600:25 601:33 602:61 604:38 605:69 606:2 607:31 608:61 609:1 610:36 611:66 612:2 613:26 614:55 615:1 616:50 617:78 618:27 619:26 620:53 621:8 622:30 623:57 624:12 625:41 626:68 627:23 628:49 629:76 630:35 631:45 632:72 633:31 634:39 635:66 636:23 637:32 638:59 639:14 640:35 641:62 642:21 643:33 644:60 645:17 646:32 647:59 648:18 649:37 650:64 651:21 652:29 653:56 654:11 655:26 656:54 657:6 658:30 659:53 660:7 661:37 662:67 663:15 664:211 665:223 666:221 667:231 668:236 669:240 670:244 671:249 672:253 673:1 679:1 680:3 681:2 682:243 683:246 684:251 685:239 686:242 687:247 688:239 689:246 690:252 691:17 692:37 694:29 695:58 697:28 698:57 700:23 701:53 703:28 704:57 705:1 706:26 707:55 708:1 709:38 710:66 711:17 712:46 713:74 714:26 715:27 716:55 717:7 718:37 719:64 720:23 721:45 722:72 723:31 724:42 725:69 726:28 727:45 728:72 729:31 730:32 731:59 732:14 733:31 734:58 735:13 736:37 737:64 738:23 739:39 740:66 741:21 742:36 743:64 744:16 745:30 746:57 747:12 748:23 749:51 750:3 751:25 752:52 753:7 754:35 755:63 756:14 757:30 758:59 759:5 760:30 761:55 762:13 763:226 764:231 765:235 766:234 767:239 768:245 769:243 770:246 771:255 772:241 773:246 774:252 775:244 776:247 777:252 778:248 779:252 780:255 781:243 782:246 783:251 784:111 785:123 786:85 787:25 788:53 789:2 790:25 791:53 792:2 793:27 794:56 796:24 797:54 799:27 800:56 802:31 803:59 804:10 805:42 806:70 807:19 808:35 809:63 810:15 811:42 812:70 813:22 814:33 815:60 816:15 817:39 818:66 819:25 820:48 821:75 822:34 823:29 824:56 825:11 826:29 827:56 828:11 829:26 830:53 831:8 832:42 833:69 834:26 835:35 836:62 837:17 838:37 839:65 840:17 841:30 842:57 843:12 844:20 845:48 847:27 848:54 849:9 850:27 851:55 852:6 853:32 854:60 855:9 856:22 857:48 859:95 860:106 861:98 862:224 863:229 864:233 865:243 866:246 867:253 868:242 869:245 870:250 871:245 872:248 873:253 874:245 875:248 876:253 877:108 878:126 879:104 880:33 881:58 882:1 883:23 884:51 885:2 886:27 887:55 888:4 889:28 890:59 892:24 893:54 894:2 895:25 896:54 898:30 899:58 900:7 901:27 902:55 903:4 904:36 905:64 906:16 907:33 908:61 909:13 910:24 911:51 912:6 913:40 914:67 915:26 916:32 917:59 918:18 919:31 920:58 921:13 922:27 923:54 924:9 925:25 926:52 927:7 928:46 929:73 930:28 931:39 932:66 933:21 934:39 935:67 936:19 937:28 938:55 939:10 940:22 941:50 942:2 943:33 944:60 945:15 946:26 947:54 948:5 949:27 950:55 951:4 952:18 953:45 954:2 955:6 956:31 957:2 958:220 959:225 960:229 961:249 962:253 963:252 964:244 965:248 966:251 967:240 968:247 969:255 970:227 971:238 972:232 973:25 974:54 976:20 977:48 979:23 980:51 982:25 983:53 984:2 985:27 986:57 987:3 988:23 989:52 990:4 991:32 992:61 993:3 994:26 995:54 996:6 997:28 998:56 999:7 1000:34 1001:62 1002:11 1003:34 1004:62 1005:14 1006:39 1007:66 1008:21 1009:32 1010:59 1011:14 1012:38 1013:61 1014:17 1015:33 1016:60 1017:15 1018:30 1019:57 1020:12 1021:38 1022:65 1023:20 1024:51 1025:79 1026:31 1027:26 1028:54 1029:6 1030:47 1031:75 1032:27 1033:33 1034:60 1035:15 1036:21 1037:49 1038:1 1039:34 1040:61 1041:16 1042:24 1043:52 1044:1 1045:27 1046:55 1047:6 1048:14 1049:39 1050:7 1051:1 1052:17 1053:4 1054:227 1055:236 1056:235 1057:161 1058:172 1059:93 1060:228 1061:229 1062:234 1063:249 1064:255 1065:245 1066:27 1067:55 1068:4 1069:18 1070:47 1072:22 1073:50 1074:1 1075:20 1076:52 1077:2 1078:20 1079:48 1081:24 1082:54 1083:2 1084:17 1085:46 1087:27 1088:56 1089:2 1090:23 1091:51 1092:2 1093:33 1094:61 1095:12 1096:42 1097:70 1098:19 1099:37 1100:65 1101:17 1102:41 1103:68 1104:23 1105:33 1106:60 1107:15 1108:44 1109:70 1110:25 1111:37 1112:63 1113:18 1114:43 1115:69 1116:24 1117:46 1118:72 1119:27 1120:50 1121:76 1122:29 1123:41 1124:69 1125:21 1126:38 1127:66 1128:18 1129:30 1130:57 1131:12 1132:23 1133:51 1134:3 1135:35 1136:63 1137:14 1138:25 1139:53 1140:2 1141:21 1142:48 1143:5 1145:20 1146:1 1147:2 1148:14 1149:2 1150:24 1151:39 1152:8 1153:126 1154:137 1155:43 1156:99 1157:119 1158:20 1159:30 1160:58 1162:6 1163:43 1165:13 1166:41 1167:1 1168:15 1169:43 1170:2 1171:16 1172:49 1173:4 1174:18 1175:45 1177:19 1178:48 1179:2 1180:14 1181:43 1183:15 1184:42 1186:26 1187:54 1188:3 1189:31 1190:59 1191:10 1192:39 1193:67 1194:16 1195:35 1196:63 1197:15 1198:41 1199:69 1200:21 1201:32 1202:59 1203:14 1204:55 1205:82 1206:37 1207:42 1208:65 1209:21 1210:31 1211:54 1212:8 1213:40 1214:63 1215:19 1216:32 1217:55 1218:9 1219:41 1220:69 1221:21 1222:36 1223:64 1224:16 1225:25 1226:53 1227:5 1228:24 1229:52 1230:4 1231:30 1232:59 1233:5 1234:24 1235:52 1236:1 1237:4 1238:35 1239:3 1241:16 1243:8 1244:32 1246:38 1247:56 1248:6 1249:189 1250:198 1251:153 1252:76 1253:102 1254:3 1255:33 1256:59 1258:17 1259:46 1261:12 1262:44 1263:3 1264:8 1265:40 1266:1 1267:9 1268:41 1270:15 1271:46 1272:5 1273:14 1274:42 1275:1 1276:16 1277:45 1278:1 1279:16 1280:42 1281:3 1282:21 1283:48 1284:5 1285:29 1286:58 1288:26 1289:55 1291:27 1292:57 1293:5 1294:39 1295:67 1296:18 1297:45 1298:73 1299:25 1300:39 1301:67 1302:19 1303:41 1304:67 1305:20 1306:8 1307:35 1308:2 1309:47 1310:75 1311:27 1312:50 1313:73 1314:27 1315:44 1316:68 1317:20 1318:40 1319:64 1320:12 1321:39 1322:62 1323:16 1324:18 1325:48 1327:27 1328:55 1329:4 1330:25 1331:54 1333:23 1334:52 1336:20 1337:47 1338:2 1339:22 1340:45 1341:3 1342:45 1343:70 1344:15 1345:214 1346:218 1347:219 1348:93 1349:116 1350:8 1351:33 1352:61 1353:2 1354:28 1355:52 1357:22 1358:49 1359:4 1360:23 1361:52 1362:4 1363:20 1364:52 1365:2 1366:28 1367:56 1368:5 1369:30 1370:60 1371:8 1372:29 1373:60 1374:3 1375:30 1376:58 1377:7 1378:24 1379:53 1381:58 1382:87 1383:31 1384:39 1385:68 1386:12 1387:36 1388:60 1389:8 1390:35 1391:63 1392:12 1393:31 1394:59 1395:10 1396:36 1397:64 1398:16 1399:32 1400:58 1401:13 1402:28 1403:56 1404:7 1405:26 1406:54 1407:5 1408:25 1409:51 1410:6 1411:30 1412:56 1413:11 1414:17 1415:42 1416:2 1417:24 1418:50 1419:2 1420:17 1421:44 1422:3 1423:21 1424:48 1425:5 1426:26 1427:55 1429:35 1430:64 1431:10 1432:27 1433:56 1435:24 1436:53 1438:50 1439:77 1440:8 1441:224 1442:229 1443:233 1444:125 1445:140 1446:73 1447:37 1448:63 1450:35 1451:60 1452:2 1453:32 1454:57 1456:29 1457:57 1458:6 1459:27 1460:57 1461:5 1462:30 1463:61 1464:4 1465:30 1466:59 1467:3 1468:35 1469:65 1470:5 1471:28 1472:57 1474:32 1475:62 1476:2 1477:21 1478:51 1479:1 1480:16 1481:43 1483:36 1484:61 1485:6 1486:17 1487:45 1489:4 1490:30 1492:22 1493:50 1494:2 1495:23 1496:51 1497:3 1498:19 1499:50 1500:6 1501:17 1502:43 1503:4 1504:22 1505:49 1506:6 1507:15 1508:42 1510:29 1511:57 1512:8 1513:20 1514:48 1516:19 1517:46 1518:1 1519:28 1520:57 1521:3 1522:40 1523:69 1524:13 1525:25 1526:54 1528:34 1529:63 1530:7 1531:35 1532:65 1533:5 1534:67 1535:93 1536:30 1537:231 1538:234 1539:239 1540:190 1541:195 1542:191 1543:33 1544:62 1545:4 1546:17 1547:44 1549:13 1550:40 1552:18 1553:47 1554:1 1555:25 1556:54 1558:22 1559:51 1560:3 1561:15 1562:44 1564:20 1565:47 1566:4 1567:23 1568:51 1569:3 1570:29 1571:57 1572:6 1573:24 1574:52 1575:1 1576:25 1577:53 1578:2 1579:24 1580:47 1581:1 1582:29 1583:57 1584:9 1585:15 1586:42 1588:23 1589:51 1590:3 1591:20 1592:48 1594:14 1595:40 1596:1 1597:15 1598:42 1599:1 1600:28 1601:55 1602:10 1603:27 1604:50 1605:6 1606:28 1607:54 1608:9 1609:26 1610:54 1611:6 1612:21 1613:48 1614:5 1615:29 1616:56 1617:13 1618:28 1619:56 1620:5 1621:30 1622:58 1623:9 1624:46 1625:75 1626:19 1627:45 1628:71 1629:6 1630:78 1631:95 1632:51 1633:235 1634:239 1635:248 1636:205 1637:210 1638:214 1639:191 1640:203 1641:165 1642:22 1643:45 1645:4 1646:29 1648:15 1649:42 1650:1 1651:12 1652:39 1653:6 1654:9 1655:35 1657:20 1658:46 1659:7 1660:12 1661:38 1663:21 1664:48 1665:3 1666:25 1667:53 1668:5 1669:23 1670:50 1671:5 1672:22 1673:49 1674:4 1675:26 1676:53 1677:8 1678:19 1679:46 1680:1 1681:22 1682:49 1683:4 1684:28 1685:56 1686:8 1687:37 1688:66 1689:18 1690:23 1691:50 1692:7 1693:25 1694:52 1695:7 1696:36 1697:63 1698:18 1699:38 1700:65 1701:20 1702:36 1703:63 1704:18 1705:20 1706:47 1707:2 1708:27 1709:54 1710:11 1711:29 1712:57 1713:9 1714:36 1715:62 1716:14 1717:33 1718:61 1719:13 1720:39 1721:68 1722:12 1723:69 1724:100 1725:33 1726:131 1727:132 1728:116 1729:236 1730:240 1731:249 1732:217 1733:222 1734:226 1735:186 1736:193 1737:186 1738:36 1739:60 1740:8 1741:16 1742:44 1743:6 1744:16 1745:42 1746:3 1747:7 1748:34 1749:1 1750:11 1751:37 1753:11 1754:37 1756:16 1757:42 1758:3 1759:8 1760:34 1762:20 1763:46 1764:7 1765:15 1766:42 1768:19 1769:46 1770:1 1771:23 1772:50 1773:5 1774:25 1775:52 1776:7 1777:25 1778:51 1779:12 1780:17 1781:45 1783:28 1784:56 1785:8 1786:27 1787:54 1788:9 1789:21 1790:48 1791:3 1792:39 1793:66 1794:21 1795:34 1796:61 1797:16 1798:45 1799:72 1800:27 1801:27 1802:54 1803:9 1804:31 1805:58 1806:13 1807:32 1808:60 1809:12 1810:41 1811:67 1812:20 1813:35 1814:63 1815:15 1816:55 1817:86 1818:29 1819:72 1820:75 1821:30 1822:155 1823:157 1824:144 1825:238 1826:242 1827:251 1828:223 1829:228 1830:232 1831:193 1832:199 1833:197 1834:170 1835:185 1836:166 1837:25 1838:50 1839:11 1840:10 1841:36 1843:13 1844:39 1845:4 1846:9 1847:34 1848:2 1849:9 1850:34 1852:11 1853:37 1855:11 1856:37 1858:18 1859:41 1861:12 1862:37 1864:20 1865:47 1866:4 1867:17 1868:44 1870:27 1871:49 1872:10 1873:23 1874:44 1875:5 1876:26 1877:53 1878:10 1879:26 1880:49 1881:5 1882:32 1883:55 1884:11 1885:27 1886:50 1887:6 1888:21 1889:48 1890:3 1891:33 1892:60 1893:15 1894:19 1895:46 1896:1 1897:21 1898:48 1899:3 1900:30 1901:53 1902:9 1903:22 1904:49 1905:6 1906:25 1907:52 1908:7 1909:35 1910:63 1911:15 1912:63 1913:86 1914:32 1915:91 1916:90 1917:59 1918:166 1919:168 1920:165 1921:1 1922:1 1923:1 1924:232 1925:236 1926:245 1927:210 1928:215 1929:218 1930:183 1931:187 1932:188 1933:164 1934:177 1935:159 1936:6 1937:31 1939:6 1940:32 1942:4 1943:29 1945:7 1946:33 1948:4 1949:29 1951:4 1952:29 1954:16 1955:38 1957:19 1958:40 1959:7 1960:18 1961:43 1962:1 1963:22 1964:47 1965:7 1966:12 1967:33 1969:13 1970:34 1971:1 1972:10 1973:36 1975:17 1976:39 1977:1 1978:25 1979:48 1980:6 1981:23 1982:46 1983:4 1984:23 1985:46 1986:2 1987:29 1988:56 1989:11 1990:16 1991:41 1992:1 1993:19 1994:44 1995:4 1996:24 1997:45 1998:4 1999:20 2000:45 2001:3 2002:24 2003:50 2004:5 2005:43 2006:71 2007:23 2008:69 2009:72 2010:29 2011:123 2012:121 2013:100 2014:183 2015:184 2016:186 2020:1 2021:1 2022:1 2023:223 2024:228 2025:231 2026:194 2027:199 2028:195 2029:183 2030:185 2031:182 2032:138 2033:153 2034:132 2035:10 2036:36 2037:1 2038:6 2039:31 2040:2 2041:22 2042:47 2043:15 2044:5 2045:30 2046:1 2047:8 2048:33 2049:4 2050:28 2051:50 2052:14 2053:19 2054:41 2055:2 2056:23 2057:45 2058:6 2059:21 2060:43 2061:4 2062:17 2063:39 2064:3 2065:12 2066:32 2067:4 2068:3 2069:27 2070:1 2071:6 2072:26 2073:1 2074:12 2075:33 2077:21 2078:43 2079:5 2080:15 2081:36 2082:3 2083:17 2084:43 2085:8 2086:6 2087:32 2089:17 2090:39 2091:1 2092:11 2093:37 2094:2 2095:19 2096:41 2097:2 2098:27 2099:50 2100:6 2101:30 2102:52 2103:6 2104:87 2105:87 2106:53 2107:157 2108:155 2109:143 2110:195 2111:199 2112:200 2119:229 2120:233 2121:244 2122:208 2123:212 2124:215 2125:188 2126:193 2127:189 2128:173 2129:178 2130:172 2131:38 2132:52 2133:29 2134:21 2135:36 2136:3 2137:10 2138:36 2139:1 2140:3 2141:27 2142:3 2143:7 2144:27 2145:2 2146:19 2147:41 2148:2 2149:18 2150:41 2152:21 2153:43 2154:5 2155:11 2156:33 2158:14 2159:35 2160:2 2161:7 2162:32 2163:2 2164:6 2165:31 2166:2 2167:1 2168:25 2169:1 2170:5 2171:28 2173:5 2174:30 2176:7 2177:33 2179:13 2180:39 2182:13 2183:39 2184:4 2185:10 2186:36 2187:1 2188:4 2189:29 2191:23 2192:45 2193:7 2194:33 2195:51 2196:9 2197:64 2198:72 2199:35 2200:119 2201:119 2202:95 2203:175 2204:176 2205:170 2206:207 2207:211 2208:214 2218:224 2219:228 2220:231 2221:204 2222:208 2223:211 2224:192 2225:194 2226:193 2227:171 2228:179 2229:168 2230:8 2231:24 2233:14 2234:39 2236:10 2237:33 2238:4 2239:13 2240:35 2242:22 2243:44 2244:5 2245:19 2246:41 2247:3 2248:34 2249:56 2250:18 2251:14 2252:36 2254:16 2255:38 2257:12 2258:38 2259:3 2260:2 2261:27 2264:24 2266:3 2267:27 2268:1 2269:6 2270:31 2271:1 2272:11 2273:36 2274:7 2275:5 2276:30 2278:14 2279:39 2280:7 2281:14 2282:39 2283:9 2284:10 2285:34 2287:28 2288:46 2289:8 2290:53 2291:63 2292:26 2293:108 2294:107 2295:86 2296:156 2297:158 2298:147 2299:185 2300:186 2301:190 2302:220 2303:225 2304:229 2317:220 2318:223 2319:228 2320:206 2321:209 2322:216 2323:180 2324:186 2325:184 2326:162 2327:173 2328:159 2329:38 2330:60 2331:22 2332:24 2333:47 2334:5 2335:22 2336:44 2337:6 2338:31 2339:53 2340:14 2341:41 2342:63 2343:25 2344:29 2345:51 2346:13 2347:31 2348:53 2349:15 2350:17 2351:38 2352:5 2353:5 2354:30 2355:1 2356:4 2357:28 2358:2 2359:1 2360:25 2361:1 2363:24 2365:3 2366:27 2367:1 2368:1 2369:25 2371:16 2372:41 2373:11 2374:5 2375:30 2377:1 2378:25 2380:17 2381:39 2382:1 2383:33 2384:42 2385:13 2386:112 2387:115 2388:88 2389:146 2390:144 2391:131 2392:182 2393:180 2394:181 2395:196 2396:201 2397:204 2398:224 2399:229 2400:233 2416:227 2417:230 2418:235 2419:209 2420:213 2421:216 2422:175 2423:184 2424:179 2425:156 2426:167 2427:151 2428:45 2429:62 2430:26 2431:37 2432:60 2433:16 2434:41 2435:64 2436:22 2437:37 2438:59 2439:20 2440:35 2441:57 2442:18 2443:30 2444:52 2445:14 2446:19 2447:41 2448:5 2449:3 2450:27 2451:1 2452:1 2453:25 2454:1 2456:24 2458:5 2459:29 2460:3 2462:21 2463:2 2464:3 2465:22 2466:2 2467:2 2468:21 2469:1 2470:7 2471:30 2472:1 2473:14 2474:40 2475:5 2476:12 2477:27 2479:118 2480:121 2481:104 2482:145 2483:147 2484:133 2485:182 2486:182 2487:182 2488:193 2489:196 2490:201 2491:222 2492:227 2493:231 2494:239 2495:243 2496:252 2514:4 2515:233 2516:238 2517:244 2518:202 2519:207 2520:211 2521:166 2522:172 2523:170 2524:145 2525:156 2526:140 2527:36 2528:61 2529:19 2530:44 2531:69 2532:27 2533:53 2534:76 2535:32 2536:47 2537:69 2538:30 2539:19 2540:45 2541:6 2542:24 2543:46 2544:7 2545:12 2546:33 2547:2 2548:3 2549:27 2550:1 2552:24 2555:23 2557:1 2558:25 2559:1 2560:3 2561:27 2562:1 2563:3 2564:27 2565:1 2566:17 2567:37 2568:2 2569:21 2570:43 2571:4 2572:101 2573:106 2574:84 2575:176 2576:175 2577:170 2578:188 2579:192 2580:191 2581:201 2582:204 2583:209 2584:215 2585:219 2586:228 2587:226 2588:230 2589:239 2598:4 2611:235 2612:236 2613:241 2614:227 2615:232 2616:236 2617:187 2618:192 2619:195 2620:171 2621:176 2622:172 2623:137 2624:151 2625:128 2626:107 2627:122 2628:89 2629:72 2630:89 2631:53 2632:49 2633:71 2634:32 2635:28 2636:54 2637:15 2638:28 2639:51 2640:9 2641:16 2642:38 2643:2 2644:9 2645:35 2647:7 2648:33 2650:3 2651:27 2652:1 2654:24 2656:2 2657:26 2659:6 2660:32 2661:3 2662:31 2663:48 2664:16 2665:112 2666:121 2667:100 2668:189 2669:190 2670:184 2671:217 2672:225 2673:227 2674:221 2675:226 2676:230 2677:225 2678:230 2679:234 2680:228 2681:232 2682:241 2683:233 2684:237 2685:246 2689:238 2690:242 2691:251 2692:233 2693:237 2694:246 2710:233 2711:238 2712:244 2713:212 2714:217 2715:221 2716:183 2717:182 2718:187 2719:159 2720:164 2721:158 2722:144 2723:150 2724:138 2725:122 2726:133 2727:117 2728:103 2729:115 2730:93 2731:27 2732:45 2733:19 2734:39 2735:56 2736:20 2737:21 2738:43 2739:4 2740:19 2741:41 2742:3 2743:14 2744:36 2746:8 2747:29 2749:11 2750:31 2751:3 2752:16 2753:40 2754:4 2755:7 2756:20 2757:2 2758:139 2759:146 2760:139 2761:211 2762:217 2763:213 2764:230 2765:235 2766:239 2767:232 2768:236 2769:245 2770:230 2771:234 2772:243 2773:229 2774:233 2775:242 2776:234 2777:237 2778:246 2785:238 2786:242 2787:251 2788:236 2789:240 2790:249 2791:233 2792:240 2793:248 2809:222 2810:227 2811:233 2812:203 2813:206 2814:211 2815:172 2816:176 2817:175 2818:164 2819:169 2820:165 2821:147 2822:152 2823:145 2824:131 2825:136 2826:129 2827:119 2828:128 2829:111 2830:80 2831:94 2832:71 2833:33 2834:57 2835:25 2836:27 2837:51 2838:15 2839:19 2840:43 2841:11 2842:25 2843:44 2844:12 2845:15 2846:33 2847:7 2848:88 2849:96 2850:85 2851:198 2852:203 2853:207 2854:233 2855:238 2856:242 2857:233 2858:238 2859:242 2860:233 2861:238 2862:242 2863:235 2864:239 2865:248 2866:235 2867:239 2868:248 2881:240 2882:244 2883:253 2884:234 2885:238 2886:247 2887:234 2888:238 2889:247 2905:1 2906:1 2907:1 2908:213 2909:216 2910:221 2911:188 2912:192 2913:191 2914:174 2915:178 2916:177 2917:170 2918:175 2919:169 2920:149 2921:154 2922:147 2923:141 2924:149 2925:138 2926:135 2927:141 2928:129 2929:110 2930:123 2931:103 2932:75 2933:89 2934:64 2935:93 2936:106 2937:88 2938:86 2939:98 2940:78 2941:123 2942:131 2943:118 2944:212 2945:217 2946:220 2947:236 2948:241 2949:247 2950:235 2951:240 2952:244 2953:235 2954:240 2955:244 2956:233 2957:238 2958:242 2959:232 2960:239 2961:247 2962:2 2963:2 2964:2 2977:233 2978:237 2979:246 2980:232 2981:236 2982:245 2983:235 2984:239 2985:248 3012:2 3013:177 3014:182 3015:178 3016:169 3017:176 3018:169 3019:160 3020:161 3021:156 3022:153 3023:154 3024:148 3025:145 3026:151 3027:141 3028:139 3029:145 3030:133 3031:138 3032:140 3033:129 3034:148 3035:151 3036:144 3037:224 3038:227 3039:232 3040:233 3041:237 3042:246 3043:240 3044:244 3045:253 3046:234 3047:238 3048:247 3049:234 3050:238 3051:247 3052:232 3053:236 3054:245 
0.01 28:225 29:229 30:230 31:197 32:202 33:205 34:191 35:196 36:189 37:182 38:187 39:181 40:170 41:175 42:168 43:157 44:164 45:148 46:156 47:164 48:143 49:154 50:162 51:141 52:147 53:155 54:134 55:147 56:155 57:132 58:142 59:150 60:127 61:145 62:148 63:129 64:140 65:144 66:129 67:142 68:144 69:131 70:200 71:200 72:198 73:236 74:239 75:244 76:232 77:237 78:241 79:232 80:235 81:240 82:234 83:237 84:242 85:233 86:236 87:241 90:2 121:238 122:242 123:245 124:214 125:220 126:218 127:192 128:198 129:194 130:183 131:186 132:179 133:156 134:160 135:143 136:146 137:154 138:139 139:139 140:153 141:120 142:136 143:149 144:121 145:139 146:153 147:120 148:144 149:155 150:125 151:141 152:152 153:122 154:129 155:140 156:108 157:130 158:139 159:108 160:128 161:141 162:113 163:134 164:139 165:116 166:156 167:160 168:146 169:227 170:231 171:232 172:228 173:231 174:236 175:218 176:222 177:225 178:219 179:223 180:226 181:231 182:235 183:238 184:234 185:237 186:242 187:237 188:238 189:242 214:242 215:245 216:250 217:222 218:227 219:230 220:201 221:207 222:205 223:172 224:178 225:174 226:148 227:161 228:141 229:38 230:63 231:24 232:32 233:54 234:8 235:43 236:71 237:13 238:50 239:85 240:17 241:79 242:108 243:50 244:114 245:136 246:87 247:115 248:128 249:84 250:127 251:148 252:107 253:14 254:39 256:21 257:49 258:8 259:14 260:38 261:6 262:8 263:28 264:1 265:127 266:141 267:116 268:159 269:165 270:153 271:169 272:174 273:170 274:168 275:173 276:169 277:217 278:221 279:224 280:227 281:230 282:235 283:241 284:246 285:250 286:2 287:2 288:2 308:1 309:3 310:238 311:243 312:246 313:213 314:219 315:217 316:176 317:189 318:172 319:139 320:153 321:127 322:29 323:57 324:16 325:30 326:67 328:37 329:72 330:8 331:30 332:67 334:53 335:94 336:15 337:51 338:96 339:13 340:43 341:78 342:12 343:28 344:58 345:6 346:15 347:48 348:3 349:11 350:42 352:4 353:41 355:10 356:47 357:4 358:13 359:51 360:2 361:24 362:55 364:34 365:57 366:15 367:129 368:145 369:116 370:128 371:133 372:113 373:162 374:163 375:157 376:222 377:227 378:230 379:231 380:236 381:240 382:236 383:241 384:245 403:236 404:240 405:241 406:222 407:226 408:225 409:193 410:198 411:192 412:26 413:52 414:4 415:25 416:55 417:1 418:11 419:47 420:1 421:29 422:65 423:4 424:32 425:70 426:11 427:26 428:63 429:9 430:57 431:96 432:17 433:60 434:98 435:21 436:51 437:90 438:7 439:24 440:63 442:17 443:51 444:1 445:8 446:45 447:4 448:5 449:41 450:3 452:34 453:1 454:4 455:41 457:23 458:58 459:2 460:36 461:67 462:8 463:25 464:60 465:2 466:12 467:37 468:7 469:96 470:101 471:79 472:174 473:182 474:171 475:236 476:239 477:246 478:233 479:238 480:242 496:219 497:223 498:222 499:224 500:228 501:227 502:191 503:197 504:197 505:35 506:61 507:14 508:35 509:72 510:3 511:27 512:58 513:1 514:10 515:43 517:20 518:53 520:27 521:63 523:24 524:60 526:52 527:91 528:10 529:54 530:92 531:15 532:47 533:86 534:5 535:26 536:62 538:15 539:48 540:1 541:18 542:50 545:35 546:2 547:2 548:33 549:2 550:5 551:42 552:1 553:17 554:52 556:38 557:70 558:5 559:28 560:64 561:2 562:6 563:40 564:3 565:6 566:32 567:3 568:88 569:96 570:75 571:230 572:235 573:239 574:231 575:236 576:240 589:214 590:216 591:213 592:211 593:216 594:209 595:192 596:199 597:192 598:187 599:205 600:183 601:30 602:67 604:26 605:60 607:21 608:55 609:5 610:11 611:44 612:1 613:15 614:49 616:26 617:62 618:1 619:21 620:60 621:3 622:54 623:93 624:14 625:81 626:119 627:42 628:53 629:91 630:14 631:25 632:60 633:4 634:13 635:51 636:4 637:25 638:55 639:1 640:3 641:39 642:3 644:31 646:6 647:43 649:19 650:53 651:2 652:38 653:70 654:7 655:18 656:57 658:10 659:45 660:5 661:4 662:36 665:25 666:3 667:177 668:184 669:176 670:232 671:237 672:241 678:4 680:1 681:3 682:209 683:213 684:214 685:206 686:213 687:205 688:198 689:204 690:200 691:177 692:188 693:174 694:31 695:63 696:13 697:30 698:66 699:2 700:46 701:78 702:11 703:18 704:52 705:1 706:17 707:51 708:1 709:18 710:52 711:1 712:21 713:59 715:29 716:67 717:6 718:50 719:88 720:13 721:61 722:99 723:22 724:71 725:107 726:33 727:20 728:57 729:5 730:5 731:41 732:3 733:26 734:59 735:6 736:2 737:38 738:2 739:3 740:34 741:2 742:2 743:37 744:4 745:14 746:51 748:35 749:70 750:4 751:18 752:57 753:2 754:5 755:41 756:5 757:1 758:32 760:2 761:32 763:3 764:14 766:234 767:239 768:243 771:2 772:233 773:236 774:241 775:223 776:228 777:224 778:202 779:207 780:200 781:193 782:200 783:192 784:177 785:185 786:174 787:20 788:42 789:3 790:14 791:48 793:17 794:51 796:42 797:73 798:5 799:15 800:49 802:27 803:67 804:4 805:20 806:54 807:3 808:22 809:61 810:4 811:22 812:57 813:1 814:55 815:93 816:20 817:54 818:92 819:15 820:85 821:119 822:43 823:10 824:46 826:5 827:42 828:1 829:16 830:49 831:2 833:36 835:1 836:32 838:5 839:41 840:5 841:14 842:50 843:4 844:26 845:61 846:5 847:17 848:56 849:1 850:1 851:35 852:2 854:31 856:16 857:43 859:2 860:24 861:1 862:217 863:223 864:219 865:239 866:244 867:247 868:216 869:220 870:221 871:207 872:213 873:203 874:200 875:206 876:194 877:170 878:179 879:162 880:177 881:190 882:173 883:13 884:44 885:2 886:8 887:45 888:2 889:10 890:46 892:27 893:60 894:7 895:23 896:53 897:3 898:13 899:46 901:16 902:50 904:20 905:59 906:6 907:20 908:55 910:42 911:80 912:7 913:58 914:97 915:18 916:61 917:95 918:19 919:4 920:41 922:3 923:39 924:1 925:22 926:57 927:1 928:6 929:43 930:2 931:1 932:32 934:1 935:37 936:1 937:4 938:41 940:25 941:60 942:2 943:21 944:61 947:35 948:2 949:3 950:20 951:2 952:8 953:39 954:5 955:1 956:27 958:78 959:89 960:83 961:238 962:244 963:242 964:212 965:217 966:213 967:183 968:189 969:175 970:172 971:177 972:157 973:152 974:165 975:135 977:19 979:1 980:35 982:2 983:33 984:1 985:4 986:41 988:15 989:47 991:25 992:56 994:18 995:52 996:2 997:12 998:45 1000:15 1001:54 1002:1 1003:25 1004:60 1005:2 1006:39 1007:77 1008:2 1009:51 1010:90 1011:11 1012:71 1013:105 1014:28 1015:10 1016:46 1017:2 1019:34 1020:1 1021:25 1022:60 1023:6 1024:4 1025:40 1026:2 1027:2 1028:38 1029:2 1030:2 1031:40 1032:1 1033:6 1034:43 1035:2 1036:22 1037:57 1038:1 1039:25 1040:64 1042:2 1043:38 1044:2 1046:19 1048:2 1049:33 1050:1 1051:3 1052:32 1053:4 1055:20 1057:231 1058:238 1059:231 1060:200 1061:207 1062:189 1063:174 1064:183 1065:166 1066:153 1067:171 1068:129 1069:24 1070:56 1071:9 1073:19 1075:1 1076:25 1079:31 1082:33 1084:16 1085:48 1087:24 1088:54 1089:2 1090:13 1091:46 1092:3 1093:19 1094:52 1095:5 1096:12 1097:50 1098:1 1099:21 1100:59 1102:35 1103:72 1104:3 1105:51 1106:89 1107:12 1108:48 1109:82 1110:6 1111:11 1112:47 1113:1 1114:2 1115:39 1117:16 1118:55 1119:2 1120:2 1121:38 1122:2 1123:4 1124:40 1125:2 1126:25 1127:60 1128:6 1130:36 1132:15 1133:48 1134:3 1135:39 1136:72 1137:3 1138:3 1139:39 1140:3 1141:2 1142:31 1143:3 1144:1 1145:32 1147:4 1148:35 1149:3 1150:11 1151:37 1153:211 1154:218 1155:211 1156:179 1157:190 1158:156 1159:147 1160:170 1161:92 1162:71 1163:110 1164:17 1165:40 1166:83 1167:3 1169:27 1171:3 1172:25 1173:2 1174:1 1175:32 1176:1 1177:1 1178:32 1180:8 1181:43 1182:1 1183:24 1184:55 1186:17 1187:52 1189:28 1190:64 1191:3 1192:19 1193:51 1194:4 1195:27 1196:62 1197:4 1198:33 1199:70 1201:52 1202:90 1203:13 1204:58 1205:92 1206:15 1207:20 1208:55 1210:15 1211:49 1213:15 1214:56 1216:19 1217:53 1218:3 1220:33 1222:10 1223:46 1224:2 1225:17 1226:50 1227:3 1228:22 1229:57 1230:1 1231:28 1232:63 1233:5 1234:9 1235:44 1236:4 1237:3 1238:34 1239:2 1240:1 1241:30 1243:11 1244:38 1245:5 1246:17 1247:44 1248:1 1249:174 1250:196 1251:147 1252:128 1253:167 1254:16 1255:86 1256:132 1258:52 1259:96 1261:61 1262:105 1263:16 1264:20 1265:58 1266:1 1267:12 1268:45 1270:10 1271:43 1273:19 1274:53 1275:3 1276:9 1277:46 1278:2 1279:35 1280:66 1281:7 1282:26 1283:62 1284:1 1285:24 1286:59 1287:1 1288:12 1289:48 1290:2 1291:23 1292:58 1294:34 1295:71 1296:1 1297:57 1298:95 1299:18 1300:68 1301:102 1302:25 1303:33 1304:70 1305:3 1306:24 1307:60 1309:14 1310:54 1311:2 1312:4 1313:41 1315:1 1316:36 1317:3 1318:3 1319:38 1321:19 1322:53 1323:3 1324:20 1325:55 1326:1 1327:20 1328:54 1329:3 1331:34 1332:1 1333:11 1334:43 1335:4 1337:31 1339:3 1340:25 1341:2 1342:4 1343:30 1344:1 1345:108 1346:153 1348:104 1349:149 1350:4 1351:90 1352:143 1353:3 1354:64 1355:112 1356:2 1357:39 1358:85 1360:39 1361:82 1362:3 1363:44 1364:82 1365:9 1366:33 1367:71 1369:42 1370:80 1371:5 1372:29 1373:69 1374:6 1375:28 1376:64 1377:2 1378:27 1379:63 1380:1 1381:30 1382:66 1383:2 1384:27 1385:67 1386:4 1387:26 1388:62 1390:35 1391:72 1392:3 1393:48 1394:87 1395:8 1396:75 1397:110 1398:30 1399:41 1400:79 1401:2 1402:29 1403:66 1405:14 1406:54 1407:4 1408:3 1409:41 1411:3 1412:41 1414:16 1415:50 1417:20 1418:54 1419:3 1420:7 1421:40 1423:20 1424:55 1426:10 1427:42 1428:1 1430:27 1432:1 1433:18 1434:2 1435:2 1436:24 1437:1 1438:3 1439:30 1441:133 1442:172 1443:3 1444:96 1445:144 1447:73 1448:125 1450:56 1451:103 1453:41 1454:83 1456:39 1457:80 1458:1 1459:31 1460:73 1461:1 1462:33 1463:73 1464:3 1465:34 1466:71 1467:1 1468:54 1469:92 1470:19 1471:35 1472:73 1474:36 1475:74 1477:43 1478:81 1479:4 1480:39 1481:80 1482:1 1483:40 1484:78 1485:3 1486:37 1487:75 1489:46 1490:85 1491:4 1492:43 1493:82 1494:3 1495:54 1496:92 1497:15 1498:34 1499:71 1500:2 1501:29 1502:65 1503:4 1504:2 1505:40 1507:9 1508:48 1509:1 1510:22 1511:56 1513:22 1514:57 1515:1 1516:20 1517:54 1518:3 1519:2 1520:39 1522:4 1523:35 1524:4 1525:1 1526:15 1527:2 1528:2 1529:24 1530:3 1531:1 1532:30 1534:13 1535:41 1536:3 1537:252 1538:255 1539:238 1540:104 1541:146 1543:37 1544:92 1546:20 1547:69 1548:4 1549:9 1550:53 1551:2 1552:8 1553:52 1555:20 1556:59 1557:2 1558:22 1559:61 1560:6 1561:24 1562:60 1564:28 1565:64 1567:30 1568:67 1570:32 1571:69 1573:35 1574:73 1576:49 1577:87 1578:10 1579:48 1580:86 1581:9 1582:60 1583:98 1584:21 1585:47 1586:86 1587:5 1588:57 1589:96 1590:15 1591:64 1592:102 1593:25 1594:47 1595:85 1596:10 1597:40 1598:77 1599:8 1600:21 1601:58 1602:4 1603:19 1604:58 1605:3 1606:27 1607:57 1608:5 1609:1 1610:36 1611:3 1612:15 1613:48 1614:5 1615:9 1616:46 1617:3 1618:3 1619:34 1622:21 1624:21 1625:48 1626:5 1627:8 1628:39 1629:5 1630:29 1631:48 1632:26 1633:251 1634:253 1635:250 1636:247 1637:250 1638:239 1639:94 1640:139 1641:20 1642:32 1643:78 1644:6 1645:10 1646:50 1648:4 1649:42 1650:1 1651:2 1652:40 1654:6 1655:44 1656:5 1657:2 1658:40 1659:1 1660:2 1661:41 1663:3 1664:45 1666:1 1667:47 1668:1 1669:14 1670:57 1671:4 1672:18 1673:59 1674:1 1675:11 1676:51 1678:31 1679:70 1680:3 1681:30 1682:70 1684:32 1685:71 1686:6 1687:27 1688:68 1690:26 1691:65 1693:30 1694:66 1695:2 1696:1 1697:39 1699:5 1700:43 1701:4 1702:3 1703:41 1705:6 1706:40 1707:3 1708:7 1709:44 1710:1 1711:3 1712:40 1714:5 1715:35 1716:1 1717:4 1718:35 1719:3 1720:13 1721:41 1723:3 1724:38 1726:182 1727:194 1728:180 1729:252 1730:253 1731:255 1732:249 1733:255 1734:253 1735:239 1736:249 1737:241 1738:43 1739:94 1741:15 1742:59 1744:4 1745:46 1747:19 1748:57 1749:8 1750:6 1751:45 1752:1 1753:1 1754:37 1756:7 1757:44 1758:1 1759:15 1760:51 1761:3 1762:2 1763:47 1764:4 1765:19 1766:60 1767:4 1768:9 1769:53 1770:4 1771:2 1772:45 1774:9 1775:52 1777:6 1778:48 1780:17 1781:57 1782:5 1783:16 1784:57 1785:1 1787:43 1789:20 1790:60 1792:23 1793:62 1794:7 1795:1 1796:37 1797:1 1798:1 1799:36 1800:3 1801:19 1802:54 1804:5 1805:42 1806:1 1807:9 1808:46 1809:2 1811:29 1812:1 1813:8 1814:40 1815:3 1816:26 1817:55 1818:9 1819:22 1820:56 1821:6 1822:199 1823:205 1824:201 1825:250 1826:254 1827:255 1828:249 1829:254 1830:255 1831:247 1832:251 1833:250 1834:99 1835:123 1836:73 1837:44 1838:85 1839:9 1840:36 1841:73 1842:6 1843:17 1844:56 1846:9 1847:49 1849:15 1850:53 1851:6 1852:10 1853:47 1854:3 1855:22 1856:57 1857:1 1858:8 1859:50 1860:4 1861:6 1862:50 1863:1 1864:7 1865:45 1867:1 1868:44 1871:42 1872:2 1873:10 1874:46 1875:2 1876:14 1877:51 1879:8 1880:44 1882:15 1883:51 1884:3 1885:22 1886:62 1887:2 1888:23 1889:63 1890:1 1891:1 1892:37 1893:1 1895:36 1897:10 1898:46 1900:2 1901:39 1903:2 1904:36 1907:24 1909:19 1910:52 1912:24 1913:54 1915:47 1916:72 1917:42 1918:214 1919:219 1920:223 1921:246 1922:251 1923:254 1924:249 1925:254 1926:255 1927:247 1928:252 1929:255 1930:246 1931:252 1932:252 1933:52 1934:92 1935:4 1936:32 1937:75 1938:3 1939:23 1940:62 1941:5 1942:15 1943:54 1944:1 1945:17 1946:55 1947:4 1948:14 1949:52 1950:1 1951:12 1952:50 1954:15 1955:53 1956:2 1958:44 1959:1 1960:14 1961:52 1962:3 1963:15 1964:54 1965:1 1966:3 1967:42 1969:35 1970:66 1971:6 1972:17 1973:50 1974:3 1975:4 1976:40 1977:2 1978:34 1979:70 1980:6 1981:35 1982:72 1983:2 1984:19 1985:54 1987:4 1988:42 1989:5 1991:36 1993:1 1994:35 1996:1 1997:37 1999:5 2000:37 2003:24 2004:2 2005:35 2006:69 2007:9 2008:35 2009:67 2010:2 2011:189 2012:201 2013:189 2014:228 2015:233 2016:237 2020:250 2021:254 2022:255 2023:250 2024:255 2025:255 2026:245 2027:250 2028:253 2029:239 2030:252 2031:235 2032:39 2033:82 2034:3 2035:24 2036:66 2037:2 2038:16 2039:57 2041:19 2042:56 2043:2 2044:16 2045:54 2046:3 2047:11 2048:51 2049:1 2050:14 2051:56 2052:6 2054:46 2056:16 2057:56 2058:3 2059:14 2060:52 2061:1 2062:5 2063:42 2065:23 2066:58 2067:2 2068:23 2069:56 2071:2 2072:36 2074:18 2075:52 2076:1 2077:24 2078:59 2079:3 2080:29 2081:68 2082:3 2083:5 2084:43 2085:2 2086:11 2087:48 2088:4 2090:34 2091:1 2092:2 2093:37 2095:10 2096:46 2097:2 2098:5 2099:37 2101:27 2102:60 2103:3 2104:28 2105:54 2106:6 2107:219 2108:224 2109:227 2110:234 2111:239 2112:243 2116:1 2117:1 2118:1 2119:249 2120:254 2121:255 2122:249 2123:254 2124:255 2125:248 2126:252 2127:255 2128:42 2129:83 2130:4 2131:30 2132:69 2133:2 2134:26 2135:68 2136:2 2137:16 2138:55 2139:2 2140:17 2141:57 2142:5 2143:9 2144:53 2146:15 2147:56 2150:46 2152:7 2153:46 2154:1 2155:12 2156:51 2158:15 2159:54 2160:7 2161:13 2162:45 2163:8 2164:31 2165:60 2166:4 2167:3 2168:39 2169:1 2170:8 2171:42 2172:7 2173:31 2174:68 2175:1 2176:31 2177:71 2178:1 2179:19 2180:59 2181:6 2182:13 2183:50 2184:6 2185:1 2186:37 2187:1 2188:25 2189:60 2190:6 2192:36 2194:6 2195:43 2197:42 2198:74 2199:9 2200:207 2201:216 2202:211 2203:222 2204:227 2205:231 2206:230 2207:235 2208:239 2215:244 2216:250 2217:250 2218:246 2219:251 2220:254 2221:243 2222:248 2223:251 2224:201 2225:218 2226:200 2227:35 2228:75 2229:2 2230:27 2231:68 2232:2 2233:22 2234:64 2235:1 2236:13 2237:57 2238:4 2239:23 2240:65 2241:2 2242:32 2243:69 2244:2 2245:19 2246:56 2247:4 2248:7 2249:50 2250:4 2251:27 2252:62 2253:4 2254:22 2255:59 2256:7 2257:17 2258:51 2259:1 2260:24 2261:59 2262:3 2263:7 2264:46 2265:2 2266:18 2267:50 2268:9 2269:30 2270:71 2271:1 2272:30 2273:72 2275:26 2276:66 2277:3 2278:18 2279:53 2281:11 2282:49 2284:24 2285:62 2286:11 2287:19 2288:54 2290:17 2291:54 2293:221 2294:239 2295:215 2296:229 2297:234 2298:238 2299:230 2300:235 2301:239 2302:234 2303:239 2304:243 2314:248 2315:253 2316:255 2317:248 2318:253 2319:255 2320:247 2321:253 2322:251 2323:62 2324:97 2325:17 2326:30 2327:72 2329:23 2330:65 2332:11 2333:56 2334:1 2335:29 2336:72 2337:1 2338:27 2339:63 2340:2 2341:21 2342:61 2343:1 2344:4 2345:48 2347:19 2348:57 2350:19 2351:57 2353:11 2354:47 2355:1 2356:27 2357:63 2359:2 2360:40 2361:1 2362:2 2363:24 2364:3 2365:23 2366:63 2368:36 2369:78 2370:4 2371:29 2372:70 2373:2 2374:25 2375:66 2377:20 2378:59 2379:2 2380:21 2381:59 2383:25 2384:63 2385:4 2386:27 2387:59 2388:9 2389:229 2390:233 2391:242 2392:230 2393:235 2394:239 2395:233 2396:238 2397:242 2398:229 2399:233 2400:236 2411:3 2412:4 2413:249 2414:255 2415:255 2416:247 2417:253 2418:253 2419:239 2420:247 2421:249 2422:49 2423:89 2424:3 2425:32 2426:74 2428:15 2429:56 2431:29 2432:72 2433:1 2434:27 2435:68 2436:2 2437:21 2438:60 2439:3 2440:13 2441:58 2442:3 2443:16 2444:54 2445:7 2446:36 2447:71 2448:5 2449:9 2450:46 2451:5 2452:39 2453:75 2454:11 2455:9 2456:49 2458:3 2459:17 2461:34 2462:71 2463:1 2464:38 2465:76 2467:38 2468:81 2469:1 2470:25 2471:65 2472:2 2473:23 2474:63 2476:29 2477:65 2478:4 2479:28 2480:64 2482:207 2483:222 2484:217 2485:233 2486:238 2487:242 2488:236 2489:241 2490:245 2491:232 2492:237 2493:241 2509:249 2510:255 2511:255 2512:250 2513:255 2514:255 2515:243 2516:248 2517:251 2518:240 2519:251 2520:243 2521:48 2522:88 2524:36 2525:78 2526:2 2527:31 2528:73 2529:1 2530:32 2531:75 2532:4 2533:23 2534:65 2535:2 2536:20 2537:61 2538:1 2539:16 2540:56 2541:6 2542:40 2543:75 2544:9 2545:30 2546:66 2547:4 2548:25 2549:64 2550:1 2551:17 2552:57 2555:22 2557:32 2558:69 2559:2 2560:36 2561:77 2562:1 2563:33 2564:75 2566:33 2567:77 2569:26 2570:69 2572:28 2573:63 2575:220 2576:242 2577:206 2578:232 2579:237 2580:243 2581:238 2582:243 2583:247 2584:236 2585:241 2586:245 2588:2 2589:5 2605:246 2606:248 2607:247 2608:248 2609:254 2610:254 2611:244 2612:249 2613:252 2614:245 2615:255 2616:254 2617:245 2618:254 2619:249 2620:68 2621:107 2622:14 2623:37 2624:80 2625:1 2626:30 2627:73 2628:1 2629:23 2630:68 2631:1 2632:24 2633:65 2634:5 2635:10 2636:52 2637:2 2638:56 2639:93 2640:24 2641:25 2642:63 2643:2 2644:24 2645:60 2647:22 2648:60 2650:1 2651:25 2653:30 2654:66 2655:2 2656:46 2657:88 2658:4 2659:47 2660:91 2661:4 2662:32 2663:76 2664:1 2665:32 2666:72 2668:160 2669:184 2670:148 2671:218 2672:221 2673:228 2674:232 2675:235 2676:240 2677:239 2678:244 2679:248 2680:235 2681:240 2682:244 2704:247 2705:252 2706:255 2707:242 2708:247 2709:250 2710:246 2711:251 2712:254 2713:245 2714:251 2715:251 2716:233 2717:246 2718:237 2719:84 2720:106 2721:57 2722:37 2723:78 2725:29 2726:72 2727:1 2728:26 2729:67 2731:5 2732:42 2733:1 2734:43 2735:81 2736:4 2737:12 2738:52 2739:2 2740:27 2741:67 2742:4 2743:20 2744:60 2747:31 2749:11 2750:44 2751:1 2752:46 2753:90 2754:1 2755:50 2756:94 2758:45 2759:84 2760:3 2761:216 2762:236 2763:208 2764:223 2765:228 2766:232 2767:229 2768:232 2769:237 2770:228 2771:231 2772:236 2773:238 2774:241 2775:246 2776:1 2777:1 2778:3 2800:2 2802:1 2803:244 2804:249 2805:252 2806:245 2807:250 2808:253 2809:244 2810:249 2811:253 2812:242 2813:247 2814:251 2815:238 2816:243 2817:246 2818:184 2819:204 2820:169 2821:32 2822:72 2823:2 2824:24 2825:69 2826:2 2828:32 2829:1 2830:29 2831:66 2833:17 2834:58 2836:34 2837:71 2838:4 2839:20 2840:64 2841:5 2842:13 2843:50 2844:6 2845:3 2846:40 2847:6 2848:52 2849:95 2850:6 2851:64 2852:100 2853:28 2854:213 2855:230 2856:214 2857:227 2858:231 2859:234 2860:234 2861:237 2862:242 2863:239 2864:242 2865:247 2866:234 2867:237 2868:242 2869:235 2870:239 2871:242 2902:247 2903:252 2904:255 2905:247 2906:252 2907:255 2908:240 2909:245 2910:248 2911:236 2912:241 2913:244 2914:230 2915:239 2916:234 2917:231 2918:247 2919:221 2920:41 2921:79 2922:6 2923:5 2924:42 2926:31 2927:67 2928:3 2929:25 2930:66 2932:36 2933:73 2934:3 2935:28 2936:67 2937:4 2938:35 2939:63 2940:12 2941:28 2942:53 2943:13 2944:234 2945:248 2946:233 2947:232 2948:240 2949:242 2950:231 2951:240 2952:237 2953:233 2954:236 2955:241 2956:236 2957:239 2958:244 2959:229 2960:232 2961:237 2962:234 2963:237 2964:242 3000:2 3001:242 3002:247 3003:250 3004:245 3005:250 3006:253 3007:244 3008:249 3009:252 3010:240 3011:245 3012:248 3013:236 3014:246 3015:248 3016:228 3017:236 3018:238 3019:29 3020:55 3021:10 3022:43 3023:81 3024:6 3025:32 3026:67 3028:42 3029:78 3030:4 3031:15 3032:43 3034:235 3035:247 3036:245 3037:230 3038:240 3039:242 3040:238 3041:243 3042:247 3043:233 3044:238 3045:242 3046:233 3047:238 3048:242 3049:233 3050:238 3051:242 3052:237 3053:240 3054:245 3055:238 3056:239 3057:244 
0.01 1:245 2:250 3:254 4:241 5:244 6:251 7:243 8:248 9:251 10:248 11:254 12:254 13:249 14:254 15:255 16:246 17:251 18:254 19:249 20:254 21:255 34:244 35:250 36:250 37:246 38:251 39:254 40:249 41:254 42:255 43:249 44:254 45:255 46:240 47:250 48:252 49:110 50:128 51:104 52:29 53:58 54:2 55:34 56:60 57:12 58:22 59:46 60:14 61:17 62:31 63:14 64:246 65:254 66:255 67:247 68:255 69:255 70:250 71:254 72:255 73:251 74:255 75:255 76:248 77:252 78:253 97:242 98:247 99:251 100:244 101:248 102:251 103:250 104:255 105:255 106:247 107:251 108:254 109:245 110:250 111:253 112:248 113:251 114:255 115:249 116:254 117:255 128:1 129:3 130:247 131:252 132:255 133:246 134:251 135:254 136:237 137:241 138:242 139:7 140:28 142:15 143:41 145:14 146:50 147:2 148:22 149:56 150:5 151:8 152:46 154:9 155:47 157:19 158:52 159:7 160:18 161:45 163:13 164:31 165:7 166:238 167:248 168:249 169:238 170:248 171:247 172:240 173:244 174:247 175:246 176:251 177:254 193:242 194:247 195:251 196:245 197:250 198:253 199:246 200:251 201:254 202:250 203:254 204:255 205:248 206:252 207:255 208:244 209:249 210:252 211:250 212:254 213:255 223:246 224:251 225:254 226:243 227:253 228:252 229:9 230:27 231:5 232:21 233:50 234:2 235:11 236:49 238:11 239:49 241:11 242:48 243:4 244:21 245:54 246:1 247:17 248:54 249:2 250:18 251:52 252:1 253:17 254:51 256:19 257:48 258:2 259:11 260:44 261:1 262:15 263:41 264:2 265:38 266:52 267:37 268:234 269:239 270:242 271:242 272:252 273:253 274:246 275:251 276:254 289:244 290:249 291:253 292:245 293:250 294:254 295:250 296:255 297:255 298:248 299:251 300:255 301:248 302:252 303:255 305:1 306:3 316:249 317:254 318:255 319:240 320:245 321:248 322:15 323:37 324:14 325:16 326:44 327:6 328:8 329:36 331:11 332:47 333:1 334:19 335:60 336:2 337:10 338:53 340:21 341:66 342:9 343:21 344:56 345:2 346:28 347:59 348:2 349:19 350:48 352:20 353:48 355:25 356:50 357:8 358:5 359:34 360:3 361:5 362:36 363:2 364:8 365:39 367:229 368:241 369:241 370:242 371:247 372:251 373:250 374:255 375:255 385:238 386:243 387:247 388:246 389:251 390:254 391:249 392:254 393:255 394:247 395:250 396:255 397:247 398:250 399:255 409:244 410:249 411:252 412:241 413:246 414:249 415:246 416:253 417:246 418:14 419:47 420:2 421:9 422:36 423:1 424:5 425:32 427:6 428:41 429:1 430:12 431:51 432:7 433:20 434:64 435:3 436:6 437:50 439:16 440:49 441:6 442:34 443:65 444:5 445:25 446:55 447:3 448:20 449:47 450:4 451:21 452:46 453:4 454:6 455:36 457:3 458:34 460:19 461:44 462:2 463:15 464:40 465:8 466:245 467:250 468:254 469:248 470:253 471:255 472:243 473:248 474:251 481:242 482:247 483:251 484:245 485:250 486:253 487:247 488:251 489:254 490:250 491:254 492:255 493:248 494:253 495:255 502:4 503:5 504:7 505:246 506:251 507:254 508:245 509:251 510:251 511:9 512:44 513:2 514:18 515:53 517:18 518:47 519:3 520:11 521:39 523:5 524:40 526:8 527:52 529:32 530:73 531:3 532:31 533:73 534:7 535:10 536:47 537:4 538:33 539:69 540:5 541:25 542:55 543:5 544:26 545:54 546:3 547:23 548:49 549:1 550:19 551:47 552:6 553:12 554:40 555:2 556:17 557:44 559:8 560:36 562:14 563:36 565:239 566:247 567:249 568:247 569:253 570:253 572:1 577:244 578:249 579:253 580:248 581:253 582:255 583:244 584:248 585:251 586:247 587:250 588:255 589:243 590:251 591:253 595:1 596:1 597:1 598:244 599:249 600:253 601:246 602:251 603:254 604:13 605:34 606:1 607:9 608:47 610:24 611:59 612:1 613:22 614:52 615:2 616:14 617:42 618:1 619:4 620:40 621:2 622:17 623:51 625:8 626:62 628:26 629:67 631:10 632:48 634:50 635:86 636:25 637:26 638:56 639:4 640:38 641:70 642:23 643:34 644:62 645:11 646:26 647:54 648:6 649:20 650:48 652:30 653:58 654:10 655:19 656:45 657:6 658:30 659:58 660:7 661:25 662:44 663:25 664:247 665:252 666:255 667:246 668:251 669:254 673:248 674:253 675:255 676:245 677:249 678:252 679:248 680:252 681:253 691:249 692:254 693:255 694:244 695:249 696:252 697:247 698:255 699:246 700:14 701:47 703:26 704:62 705:1 706:29 707:65 708:1 709:21 710:55 711:4 712:28 713:57 714:11 715:16 716:49 717:2 718:27 719:63 720:2 721:10 722:60 724:44 725:85 726:19 727:11 728:49 730:35 731:71 732:10 733:32 734:63 735:6 736:55 737:83 738:35 739:32 740:60 741:9 742:25 743:53 744:2 745:34 746:62 747:11 748:22 749:50 751:25 752:54 754:26 755:54 756:6 757:3 758:30 760:240 761:252 762:252 763:246 764:251 765:254 767:1 769:248 770:253 771:255 772:247 773:251 774:254 775:249 776:253 777:255 787:248 788:253 789:255 790:249 791:250 792:255 793:14 794:53 796:19 797:60 798:4 799:24 800:64 801:2 802:27 803:68 804:2 805:42 806:79 807:12 808:33 809:67 810:16 811:39 812:74 813:20 814:35 815:70 816:14 817:23 818:65 819:2 820:33 821:68 822:10 823:21 824:59 825:10 826:27 827:63 828:1 829:38 830:73 831:17 832:43 833:69 834:22 835:28 836:58 837:6 838:19 839:48 840:2 841:45 842:74 843:26 844:24 845:53 846:5 847:37 848:66 849:10 850:39 851:68 852:14 853:9 854:32 855:3 856:11 857:36 858:6 859:247 860:252 861:255 862:250 863:255 864:255 865:247 866:253 867:253 868:246 869:250 870:251 871:249 872:253 873:255 880:245 881:249 882:252 883:249 884:255 885:255 886:21 887:59 888:8 889:13 890:51 892:17 893:58 894:2 895:18 896:59 898:22 899:63 901:42 902:78 903:14 904:28 905:63 906:9 907:18 908:59 909:1 910:26 911:61 912:7 913:32 914:72 915:12 916:38 917:73 918:15 919:5 920:43 921:2 922:19 923:56 924:4 925:14 926:52 927:1 928:40 929:68 930:17 931:15 932:44 934:20 935:49 936:1 937:30 938:60 939:8 940:27 941:56 942:8 943:20 944:48 946:38 947:62 948:12 949:5 950:32 952:15 953:37 955:242 956:248 957:246 958:244 959:249 960:253 976:249 977:253 978:255 979:244 980:249 981:242 982:14 983:52 984:1 985:13 986:51 988:12 989:60 990:2 991:15 992:56 994:22 995:62 996:2 997:25 998:65 999:3 1000:18 1001:53 1003:27 1004:63 1005:1 1006:33 1007:68 1008:10 1009:25 1010:63 1011:2 1012:15 1013:53 1014:2 1015:11 1016:48 1017:7 1018:13 1019:52 1021:12 1022:50 1023:1 1024:32 1025:62 1026:10 1027:18 1028:50 1030:21 1031:50 1032:4 1033:22 1034:52 1035:2 1036:28 1037:58 1038:6 1039:20 1040:50 1042:32 1043:60 1044:9 1045:19 1046:48 1048:63 1049:87 1050:39 1051:60 1052:82 1053:44 1054:243 1055:249 1056:249 1069:253 1070:255 1071:254 1072:249 1073:253 1074:255 1075:27 1076:62 1077:6 1078:19 1079:58 1080:1 1081:7 1082:44 1083:1 1084:7 1085:54 1086:2 1087:8 1088:47 1089:3 1090:30 1091:70 1092:7 1093:21 1094:60 1095:3 1096:44 1097:79 1098:23 1099:70 1100:106 1101:42 1102:41 1103:77 1104:16 1105:26 1106:65 1107:2 1108:11 1109:49 1111:22 1112:61 1113:8 1114:15 1115:53 1116:4 1117:25 1118:64 1119:9 1120:23 1121:53 1122:3 1123:27 1124:59 1125:9 1126:21 1127:51 1128:1 1129:34 1130:64 1131:14 1132:40 1133:70 1134:18 1135:25 1136:55 1137:5 1138:25 1139:53 1140:2 1141:13 1142:41 1143:3 1144:15 1145:37 1147:31 1148:55 1149:7 1150:232 1151:238 1152:234 1165:250 1166:254 1167:255 1168:249 1169:255 1170:255 1171:13 1172:46 1174:17 1175:56 1176:1 1177:5 1178:44 1180:5 1181:42 1183:2 1184:40 1185:1 1186:21 1187:61 1188:1 1189:6 1190:44 1192:41 1193:76 1194:18 1195:62 1196:98 1197:34 1198:42 1199:77 1200:23 1201:89 1202:125 1203:64 1204:12 1205:50 1206:3 1207:19 1208:58 1209:3 1210:20 1211:58 1212:11 1213:55 1214:90 1215:36 1216:15 1217:43 1218:3 1219:43 1220:71 1221:20 1222:28 1223:66 1224:7 1225:21 1226:51 1227:1 1228:35 1229:70 1230:16 1231:16 1232:51 1234:27 1235:55 1236:4 1237:33 1238:63 1239:9 1240:15 1241:42 1242:1 1243:14 1244:41 1246:43 1247:60 1248:24 1258:249 1259:253 1260:255 1261:251 1262:255 1263:255 1264:11 1265:42 1267:15 1268:49 1270:27 1271:61 1272:1 1273:4 1274:42 1275:1 1277:36 1279:11 1280:48 1281:5 1282:31 1283:67 1284:5 1285:11 1286:49 1288:24 1289:65 1290:5 1291:32 1292:68 1293:7 1294:23 1295:58 1296:2 1297:57 1298:93 1299:32 1300:12 1301:50 1303:51 1304:86 1305:32 1306:30 1307:70 1308:10 1309:28 1310:63 1311:9 1312:17 1313:54 1314:3 1315:25 1316:64 1317:1 1318:46 1319:84 1320:25 1321:32 1322:67 1323:11 1324:24 1325:64 1326:4 1327:39 1328:76 1329:6 1330:20 1331:55 1332:1 1333:24 1334:52 1335:4 1336:10 1337:38 1339:47 1340:76 1341:32 1342:44 1343:71 1344:16 1353:2 1354:250 1355:254 1356:255 1357:252 1358:253 1359:255 1360:8 1361:45 1362:2 1363:18 1364:56 1365:5 1366:6 1367:44 1368:3 1370:38 1373:33 1375:1 1376:35 1377:2 1378:37 1379:77 1380:17 1381:13 1382:52 1383:5 1384:19 1385:59 1387:23 1388:58 1390:21 1391:60 1392:3 1393:17 1394:56 1396:28 1397:68 1398:6 1399:42 1400:79 1401:12 1402:47 1403:89 1404:25 1405:46 1406:88 1407:24 1408:49 1409:90 1410:24 1411:56 1412:96 1413:25 1414:30 1415:66 1416:5 1417:56 1418:97 1419:31 1420:27 1421:65 1422:4 1423:26 1424:60 1425:9 1426:28 1427:64 1428:3 1429:8 1430:40 1431:1 1432:6 1433:34 1435:41 1436:70 1437:24 1438:40 1439:71 1440:11 1446:2 1447:251 1448:255 1449:255 1450:253 1451:255 1452:254 1453:27 1454:62 1455:6 1456:3 1457:39 1458:1 1459:4 1460:40 1461:2 1462:3 1463:39 1464:1 1465:1 1466:39 1468:1 1469:37 1472:34 1473:1 1474:5 1475:42 1477:29 1478:70 1479:2 1480:49 1481:90 1482:20 1483:47 1484:85 1485:10 1486:55 1487:99 1488:22 1489:58 1490:100 1491:28 1492:62 1493:104 1494:28 1495:68 1496:106 1497:31 1498:81 1499:123 1500:47 1501:75 1502:117 1503:41 1504:65 1505:109 1506:30 1507:54 1508:98 1509:19 1510:52 1511:90 1512:17 1513:51 1514:94 1515:22 1516:48 1517:91 1518:19 1519:52 1520:90 1521:15 1522:44 1523:87 1524:8 1525:38 1526:74 1527:10 1528:36 1529:71 1530:15 1531:38 1532:68 1533:14 1534:53 1535:83 1536:21 1537:244 1538:249 1539:252 1540:251 1541:255 1542:255 1543:255 1544:255 1545:255 1546:201 1547:212 1548:178 1549:27 1550:68 1551:2 1552:3 1553:39 1554:1 1555:9 1556:46 1557:3 1559:35 1560:2 1561:2 1562:38 1564:16 1565:49 1566:2 1567:27 1568:63 1569:2 1570:41 1571:79 1572:2 1573:60 1574:104 1575:17 1576:60 1577:105 1578:24 1579:53 1580:99 1581:9 1582:59 1583:109 1584:20 1585:39 1586:84 1587:1 1588:63 1589:106 1590:26 1591:45 1592:87 1593:11 1594:44 1595:90 1596:17 1597:44 1598:93 1599:12 1600:33 1601:82 1602:3 1603:32 1604:75 1605:4 1606:40 1607:78 1608:3 1609:46 1610:83 1611:13 1612:33 1613:73 1614:2 1615:17 1616:61 1617:2 1618:30 1619:65 1620:9 1621:18 1622:56 1624:27 1625:68 1626:2 1627:34 1628:66 1629:3 1630:48 1631:80 1632:15 1633:251 1634:255 1635:254 1636:254 1637:254 1638:254 1639:224 1640:241 1641:197 1642:54 1643:98 1644:1 1645:49 1646:94 1647:1 1648:31 1649:73 1650:1 1651:33 1652:75 1654:29 1655:70 1656:4 1657:31 1658:73 1660:32 1661:73 1662:5 1663:44 1664:82 1665:9 1666:32 1667:85 1669:42 1670:88 1672:70 1673:120 1674:31 1675:56 1676:107 1677:12 1678:65 1679:107 1680:35 1681:51 1682:93 1683:17 1684:66 1685:107 1686:37 1687:61 1688:98 1689:29 1691:1 1692:7 1696:33 1697:69 1698:5 1699:46 1700:83 1701:16 1702:32 1703:69 1705:41 1706:82 1707:12 1708:31 1709:67 1710:5 1711:24 1712:59 1713:1 1714:32 1715:74 1716:2 1717:26 1718:65 1720:12 1721:45 1722:2 1724:26 1726:10 1727:36 1729:254 1730:255 1731:243 1732:112 1733:141 1734:25 1735:69 1736:118 1737:1 1738:64 1739:111 1741:58 1742:104 1743:6 1744:47 1745:91 1746:6 1747:36 1748:78 1749:2 1750:30 1751:71 1752:1 1753:40 1754:82 1755:8 1756:37 1757:80 1758:1 1759:37 1760:84 1761:3 1762:72 1763:123 1764:31 1765:49 1766:95 1767:7 1768:43 1769:93 1770:6 1771:62 1772:111 1773:29 1774:49 1775:90 1776:24 1777:56 1778:97 1779:27 1780:54 1781:85 1782:18 1783:55 1784:92 1785:23 1786:41 1787:80 1788:13 1789:25 1790:71 1791:7 1792:39 1793:75 1794:11 1795:33 1796:69 1797:5 1798:36 1799:72 1800:11 1801:46 1802:87 1803:17 1804:26 1805:62 1806:1 1807:27 1808:62 1809:4 1810:18 1811:57 1813:6 1814:42 1816:4 1817:35 1818:1 1819:3 1820:29 1822:41 1823:71 1824:11 1825:106 1826:137 1827:8 1828:61 1829:99 1831:63 1832:101 1833:2 1834:43 1835:87 1837:44 1838:89 1839:6 1840:31 1841:75 1843:20 1844:60 1846:35 1847:76 1848:6 1849:44 1850:86 1851:4 1852:30 1853:77 1854:5 1855:42 1856:87 1857:4 1858:76 1859:121 1860:38 1861:43 1862:88 1863:5 1864:31 1865:80 1866:1 1867:65 1868:108 1869:36 1870:66 1871:108 1872:42 1873:48 1874:89 1875:19 1876:47 1877:83 1878:19 1879:34 1880:70 1881:6 1882:41 1883:82 1884:14 1885:40 1886:76 1887:12 1888:48 1889:84 1890:23 1891:37 1892:73 1893:12 1894:34 1895:69 1896:11 1897:38 1898:74 1899:13 1900:26 1901:61 1902:3 1903:29 1904:64 1905:10 1906:34 1907:63 1908:7 1909:8 1910:39 1912:1 1913:32 1914:1 1915:14 1916:42 1917:2 1918:2 1919:19 1920:1 1921:77 1922:104 1924:85 1925:114 1927:86 1928:114 1929:1 1930:77 1931:113 1932:5 1933:46 1934:91 1936:41 1937:84 1938:2 1939:38 1940:81 1941:2 1942:40 1943:81 1944:3 1945:48 1946:93 1947:8 1948:53 1949:97 1950:22 1951:29 1952:71 1953:5 1954:21 1955:67 1956:2 1957:34 1958:77 1959:5 1960:30 1961:73 1962:1 1963:41 1964:84 1965:15 1966:67 1967:109 1968:46 1969:39 1970:77 1971:16 1972:59 1973:94 1974:38 1975:38 1976:73 1977:17 1978:45 1979:83 1980:22 1981:39 1982:79 1983:19 1984:29 1985:69 1986:7 1987:41 1988:76 1989:18 1990:34 1991:69 1992:11 1993:31 1994:66 1995:12 1996:32 1997:65 1998:12 1999:36 2000:66 2001:14 2002:37 2003:67 2004:15 2005:11 2006:39 2009:31 2011:12 2012:39 2014:101 2015:106 2016:83 2017:198 2018:200 2019:186 2020:147 2021:148 2022:116 2023:142 2024:143 2025:111 2026:145 2027:148 2028:117 2029:113 2030:132 2031:77 2032:31 2033:71 2034:1 2035:40 2036:84 2038:28 2039:67 2041:38 2042:80 2043:4 2044:22 2045:63 2046:7 2047:19 2048:58 2049:1 2050:12 2051:50 2052:1 2053:19 2054:59 2056:18 2057:56 2058:7 2059:54 2060:90 2061:28 2062:23 2063:63 2064:3 2065:27 2066:67 2067:4 2068:23 2069:58 2071:19 2072:47 2073:6 2074:43 2075:83 2076:23 2077:35 2078:74 2079:17 2080:35 2081:75 2082:15 2083:38 2084:76 2085:17 2086:13 2087:52 2089:33 2090:62 2091:14 2092:13 2093:46 2094:3 2095:12 2096:40 2098:11 2099:43 2100:2 2101:17 2102:48 2103:4 2104:9 2105:37 2107:30 2108:54 2109:4 2110:145 2111:148 2112:131 2113:230 2114:234 2115:235 2116:190 2117:192 2118:181 2119:182 2120:184 2121:173 2122:175 2123:177 2124:163 2125:163 2126:166 2127:147 2128:139 2129:144 2130:114 2131:29 2132:68 2133:5 2134:22 2135:62 2136:2 2137:19 2138:63 2140:28 2141:70 2142:7 2143:4 2144:43 2146:21 2147:59 2148:10 2149:22 2150:62 2152:25 2153:63 2154:12 2155:28 2156:63 2157:5 2158:23 2159:60 2160:6 2161:18 2162:57 2163:2 2164:7 2165:45 2167:19 2168:48 2169:2 2170:58 2171:93 2172:39 2173:14 2174:50 2175:4 2176:31 2177:60 2178:14 2179:47 2180:79 2181:29 2182:9 2183:42 2185:17 2186:46 2187:2 2188:14 2189:40 2190:1 2191:5 2192:37 2194:11 2195:38 2196:3 2197:6 2198:33 2199:2 2200:9 2201:39 2202:1 2203:75 2204:79 2205:52 2206:181 2207:183 2208:178 2209:239 2210:244 2211:248 2212:229 2213:234 2214:238 2215:223 2216:227 2217:226 2218:212 2219:214 2220:211 2221:191 2222:193 2223:180 2224:171 2225:173 2226:162 2227:150 2228:158 2229:135 2230:10 2231:48 2232:1 2233:36 2234:78 2235:12 2236:15 2237:54 2239:18 2240:57 2241:4 2242:28 2243:63 2244:9 2245:32 2246:72 2247:10 2248:25 2249:59 2250:9 2251:44 2252:79 2253:25 2254:17 2255:50 2256:7 2257:2 2258:40 2259:1 2260:61 2261:91 2262:41 2263:16 2264:44 2265:4 2266:19 2267:48 2268:2 2269:1 2270:35 2271:2 2272:3 2273:34 2274:2 2275:10 2276:42 2277:3 2278:8 2279:40 2280:1 2281:14 2282:41 2284:37 2285:65 2286:24 2287:14 2288:42 2289:1 2290:17 2291:43 2292:4 2293:11 2294:36 2295:4 2296:3 2297:6 2299:150 2300:153 2301:134 2302:219 2303:222 2304:229 2305:243 2306:248 2307:252 2308:238 2309:243 2310:247 2311:236 2312:241 2313:245 2314:229 2315:232 2316:237 2317:217 2318:220 2319:225 2320:196 2321:197 2322:192 2323:174 2324:175 2325:169 2326:145 2327:159 2328:134 2329:5 2330:39 2331:2 2332:2 2333:40 2335:3 2336:39 2337:3 2338:13 2339:47 2341:1 2342:36 2343:6 2344:1 2345:31 2346:5 2347:35 2348:65 2349:15 2350:12 2351:40 2353:8 2354:35 2356:13 2357:41 2359:19 2360:48 2361:2 2362:20 2363:48 2364:8 2365:10 2366:37 2367:2 2368:7 2369:33 2370:4 2371:23 2372:54 2373:10 2374:5 2375:36 2376:2 2377:25 2378:54 2379:10 2380:19 2381:46 2382:5 2383:7 2384:37 2385:1 2386:10 2387:31 2389:30 2390:40 2391:16 2392:119 2393:122 2394:103 2395:198 2396:197 2397:193 2398:236 2399:241 2400:245 2401:241 2402:246 2403:250 2404:236 2405:241 2406:245 2407:231 2408:236 2409:240 2410:233 2411:236 2412:241 2413:231 2414:232 2415:234 2416:213 2417:212 2418:217 2419:186 2420:187 2421:181 2422:171 2423:173 2424:162 2425:155 2426:169 2427:146 2428:19 2429:47 2430:9 2431:12 2432:40 2435:31 2438:34 2439:4 2440:19 2441:52 2442:7 2443:20 2444:49 2445:1 2446:8 2447:35 2449:7 2450:37 2452:18 2453:45 2454:12 2455:7 2456:34 2459:24 2460:2 2462:25 2464:6 2465:32 2466:3 2467:12 2468:43 2469:2 2470:5 2471:36 2472:2 2473:10 2474:38 2476:3 2477:25 2478:2 2479:15 2480:28 2481:8 2482:92 2483:94 2484:72 2485:124 2486:126 2487:112 2488:185 2489:186 2490:178 2491:223 2492:231 2493:233 2494:233 2495:238 2496:242 2502:2 2504:1 2515:206 2516:206 2517:204 2518:178 2519:179 2520:173 2521:156 2522:162 2523:152 2524:145 2525:152 2526:136 2527:7 2528:25 2530:29 2531:57 2532:9 2533:13 2534:41 2535:3 2536:12 2537:45 2539:4 2540:30 2541:1 2542:15 2543:43 2544:2 2545:1 2546:25 2547:1 2548:3 2549:30 2551:4 2552:27 2555:21 2557:1 2558:25 2559:1 2560:1 2561:27 2563:10 2564:37 2565:2 2566:2 2567:9 2568:1 2569:78 2570:84 2571:56 2572:90 2573:96 2574:70 2575:112 2576:111 2577:90 2578:142 2579:140 2580:127 2581:181 2582:178 2583:171 2584:223 2585:228 2586:232 2587:236 2588:241 2589:245 2590:234 2591:238 2592:241 2614:196 2615:197 2616:192 2617:180 2618:181 2619:175 2620:165 2621:167 2622:156 2623:138 2624:147 2625:128 2626:112 2627:125 2628:105 2629:6 2630:27 2632:58 2633:84 2634:36 2635:11 2636:39 2638:5 2639:32 2641:1 2642:23 2643:2 2644:1 2645:20 2646:1 2647:3 2648:10 2649:2 2650:5 2651:17 2652:3 2653:1 2654:11 2655:2 2656:2 2657:4 2658:3 2659:71 2660:81 2661:54 2662:87 2663:92 2664:69 2665:113 2666:116 2667:95 2668:126 2669:129 2670:108 2671:147 2672:150 2673:133 2674:189 2675:190 2676:184 2677:225 2678:228 2679:233 2680:231 2681:236 2682:240 2683:234 2684:239 2685:243 2713:193 2714:194 2715:186 2716:185 2717:186 2718:180 2719:164 2720:165 2721:159 2722:144 2723:147 2724:130 2725:127 2726:130 2727:111 2728:103 2729:116 2730:88 2731:105 2732:120 2733:91 2734:102 2735:118 2736:89 2737:89 2738:101 2739:77 2740:94 2741:102 2742:87 2743:62 2744:72 2745:63 2746:94 2747:105 2748:91 2749:86 2750:94 2751:73 2752:96 2753:101 2754:79 2755:112 2756:111 2757:91 2758:125 2759:124 2760:104 2761:136 2762:134 2763:119 2764:155 2765:153 2766:141 2767:184 2768:186 2769:175 2770:225 2771:229 2772:230 2773:236 2774:241 2775:245 2776:241 2777:246 2778:250 2788:236 2789:241 2790:245 2791:231 2792:236 2793:240 2794:230 2795:235 2796:239 2812:191 2813:192 2814:187 2815:180 2816:181 2817:175 2818:163 2819:164 2820:158 2821:147 2822:149 2823:138 2824:137 2825:140 2826:123 2827:120 2828:123 2829:106 2830:118 2831:121 2832:104 2833:101 2834:104 2835:87 2836:113 2837:116 2838:95 2839:117 2840:116 2841:96 2842:117 2843:116 2844:96 2845:104 2846:107 2847:90 2848:123 2849:121 2850:106 2851:130 2852:129 2853:109 2854:146 2855:144 2856:129 2857:158 2858:160 2859:147 2860:193 2861:194 2862:186 2863:215 2864:220 2865:223 2866:234 2867:242 2868:245 2870:1 2884:238 2885:243 2886:247 2887:236 2888:241 2889:245 2890:234 2891:239 2892:243 2914:185 2915:186 2916:180 2917:165 2918:166 2919:160 2920:157 2921:154 2922:149 2923:142 2924:144 2925:133 2926:137 2927:135 2928:123 2929:133 2930:131 2931:116 2932:128 2933:126 2934:111 2935:126 2936:124 2937:109 2938:137 2939:134 2940:119 2941:139 2942:136 2943:121 2944:142 2945:140 2946:125 2947:154 2948:154 2949:144 2950:180 2951:182 2952:171 2953:194 2954:199 2955:193 2956:215 2957:219 2958:222 2961:2 2980:241 2981:246 2982:250 2983:242 2984:247 2985:251 2986:245 2987:250 2988:254 3022:150 3023:149 3024:145 3025:149 3026:148 3027:143 3031:144 3032:143 3033:125 3034:151 3035:148 3036:133 3037:166 3038:159 3039:151 3040:177 3041:174 3042:167 3043:185 3044:186 3045:180 3046:206 3047:208 3048:205 
0.01 16:251 17:255 18:254 19:251 20:255 21:255 22:247 23:251 24:254 25:250 26:254 27:255 28:251 29:255 30:255 31:245 32:249 33:250 34:51 35:86 36:30 37:29 38:75 39:3 40:19 41:65 43:26 44:74 45:12 46:31 47:73 48:7 49:41 50:82 51:3 52:49 53:81 54:6 55:79 56:107 57:58 58:234 59:245 60:239 61:233 62:243 63:244 64:240 65:245 66:248 67:249 68:255 69:255 70:250 71:254 72:255 73:250 74:254 75:255 76:245 77:246 78:248 108:2 109:251 110:255 111:255 112:249 113:253 114:255 115:249 116:255 117:253 118:251 119:255 120:255 121:148 122:167 123:139 124:44 125:86 127:28 128:71 129:2 130:24 131:64 132:1 133:15 134:54 136:10 137:49 138:2 139:20 140:61 141:3 142:22 143:61 144:4 145:22 146:63 147:5 148:15 149:56 151:23 152:63 153:1 154:41 155:82 156:4 157:43 158:84 159:5 160:135 161:160 162:130 163:216 164:222 165:218 166:234 167:239 168:243 169:241 170:246 171:250 172:245 173:250 174:253 175:250 176:254 177:255 178:254 179:255 180:255 199:252 200:253 201:255 202:245 203:249 204:252 205:248 206:252 207:253 208:250 209:255 210:251 211:247 212:255 213:246 214:51 215:90 216:9 217:30 218:71 219:3 220:15 221:56 223:6 224:43 226:10 227:46 228:2 229:14 230:47 231:2 232:6 233:40 234:3 235:16 236:48 237:1 238:12 239:45 241:23 242:63 243:1 244:21 245:61 246:1 247:3 248:45 250:14 251:57 252:1 253:19 254:62 255:6 256:27 257:67 258:4 259:22 260:63 262:188 263:211 264:183 265:208 266:212 267:211 268:223 269:228 270:231 271:233 272:238 273:241 274:247 275:252 276:255 277:245 278:249 279:252 292:253 293:253 294:253 295:249 296:253 297:255 298:247 299:250 300:255 301:247 302:252 303:255 304:138 305:154 306:118 307:33 308:74 310:27 311:70 313:25 314:66 316:19 317:58 318:3 319:15 320:54 322:21 323:51 325:20 326:48 328:18 329:52 330:1 331:16 332:49 333:2 334:15 335:48 336:1 337:24 338:59 339:3 340:31 341:59 343:24 344:58 346:24 347:56 348:7 349:14 350:47 352:11 353:49 355:12 356:51 357:4 358:18 359:57 361:31 362:56 363:17 364:201 365:215 366:202 367:210 368:214 369:215 370:240 371:245 372:249 373:247 374:252 375:255 376:250 377:254 378:255 379:249 380:249 381:249 388:244 389:247 390:254 391:244 392:247 393:252 394:237 395:245 396:248 397:176 398:195 399:165 400:36 401:76 402:3 403:25 404:68 406:27 407:67 408:5 409:25 410:65 411:2 412:24 413:64 414:1 415:26 416:66 417:6 418:19 419:58 420:3 421:15 422:53 423:4 424:9 425:47 427:12 428:48 429:4 430:18 431:53 433:19 434:53 435:3 436:12 437:44 438:3 439:9 440:41 442:12 443:45 445:3 446:35 448:27 449:60 450:7 451:26 452:64 453:5 454:14 455:55 457:15 458:59 460:26 461:62 462:1 463:194 464:209 465:186 466:220 467:229 468:228 469:247 470:252 471:255 472:245 473:248 474:253 475:248 476:252 477:255 478:241 479:245 480:248 481:243 482:246 483:251 484:244 485:247 486:252 487:238 488:243 489:247 490:239 491:250 492:252 493:33 494:73 495:2 496:20 497:62 499:16 500:57 501:1 502:8 503:47 505:5 506:41 507:3 509:35 510:3 511:2 512:33 513:1 514:1 515:32 516:1 518:32 519:1 520:1 521:37 522:1 523:12 524:48 525:4 526:21 527:56 529:14 530:47 531:2 532:13 533:46 534:1 535:15 536:48 537:3 538:21 539:56 541:15 542:48 543:1 544:15 545:53 546:2 547:21 548:61 550:16 551:55 552:2 553:33 554:70 556:33 557:70 558:3 559:39 560:81 562:74 563:100 564:61 565:200 566:212 567:212 568:226 569:232 570:230 571:245 572:250 573:254 574:248 575:252 576:253 577:243 578:246 579:251 580:244 581:247 582:252 583:243 584:248 585:251 586:59 587:90 588:22 589:29 590:70 591:4 592:23 593:63 594:3 595:9 596:44 597:2 598:13 599:49 600:1 601:16 602:53 603:2 604:8 605:43 606:1 607:10 608:46 610:19 611:53 612:3 613:17 614:51 615:1 616:14 617:47 618:2 619:15 620:48 621:1 622:16 623:54 625:4 626:42 628:16 629:55 631:27 632:61 633:1 634:27 635:64 637:37 638:74 639:4 640:36 641:78 642:2 643:45 644:86 645:7 646:46 647:87 648:8 649:41 650:85 652:44 653:88 654:1 655:49 656:94 657:3 658:59 659:105 660:17 661:160 662:184 663:148 664:199 665:208 666:205 667:220 668:224 669:227 670:234 671:239 672:243 673:248 674:253 675:255 676:246 677:251 678:254 679:46 680:80 681:30 682:29 683:77 684:1 685:21 686:68 688:25 689:58 690:1 691:24 692:59 693:3 694:20 695:55 697:18 698:52 699:1 700:25 701:60 702:2 703:31 704:62 705:3 706:33 707:64 708:4 709:29 710:60 712:26 713:57 715:23 716:58 717:2 718:22 719:60 720:1 721:20 722:60 724:37 725:78 726:8 727:38 728:80 729:8 730:27 731:67 732:5 733:18 734:58 736:31 737:73 739:55 740:93 741:10 742:44 743:82 744:5 745:48 746:92 747:7 748:44 749:86 751:38 752:83 753:2 754:44 755:93 756:4 757:52 758:90 759:13 760:174 761:189 762:158 763:187 764:194 765:186 766:195 767:201 768:201 769:248 770:253 771:255 772:234 773:250 774:240 775:63 776:105 777:5 778:55 779:101 780:3 781:51 782:97 784:45 785:89 786:4 787:44 788:86 789:2 790:37 791:75 793:35 794:68 796:33 797:65 799:31 800:62 801:2 802:18 803:53 805:25 806:64 807:1 808:30 809:65 810:1 811:18 812:58 814:26 815:66 816:4 817:18 818:58 820:25 821:66 822:6 823:38 824:76 825:1 826:37 827:75 829:39 830:77 831:2 832:34 833:76 834:2 835:34 836:76 837:4 838:40 839:82 840:8 841:28 842:70 844:19 845:58 846:1 847:22 848:62 850:26 851:69 853:28 854:71 855:2 856:23 857:56 858:1 859:174 860:185 861:169 862:192 863:198 864:194 865:229 866:238 867:247 868:116 869:138 870:102 871:49 872:92 873:2 874:54 875:100 876:1 877:56 878:102 879:3 880:55 881:101 882:2 883:51 884:96 885:1 886:46 887:90 888:1 889:49 890:89 892:41 893:80 895:34 896:71 897:1 898:35 899:72 900:3 901:27 902:63 903:2 904:25 905:65 906:5 907:18 908:58 910:18 911:57 913:21 914:60 915:3 916:22 917:62 919:34 920:72 922:33 923:70 924:1 925:32 926:69 928:24 929:64 930:2 931:30 932:70 933:7 934:22 935:63 936:3 937:11 938:56 940:8 941:53 943:14 944:52 945:3 946:14 947:54 948:2 949:14 950:53 952:27 953:57 954:3 955:173 956:188 957:165 958:174 959:182 960:171 961:228 962:237 963:232 964:28 965:59 967:19 968:59 970:24 971:66 973:25 974:67 975:1 976:25 977:67 978:3 979:23 980:65 981:1 982:34 983:76 984:4 985:31 986:68 988:36 989:73 990:3 991:39 992:78 994:31 995:71 996:1 997:25 998:65 999:3 1000:34 1001:71 1002:2 1003:29 1004:64 1006:23 1007:53 1008:1 1009:35 1010:75 1011:12 1012:31 1013:73 1014:1 1015:26 1016:61 1017:3 1018:9 1019:48 1020:4 1021:10 1022:53 1024:8 1025:42 1026:5 1028:36 1030:4 1031:43 1033:11 1034:47 1035:3 1036:1 1037:38 1039:7 1040:43 1041:5 1042:2 1043:38 1045:2 1046:38 1048:3 1049:40 1051:21 1052:45 1053:13 1054:168 1055:176 1056:163 1057:216 1058:226 1059:218 1060:54 1061:93 1062:4 1063:44 1064:83 1065:2 1066:41 1067:83 1068:1 1069:35 1070:77 1071:1 1072:31 1073:74 1074:2 1075:28 1076:71 1078:29 1079:71 1080:7 1081:10 1082:54 1083:5 1084:16 1085:61 1086:2 1087:8 1088:47 1090:23 1091:66 1092:12 1093:25 1094:61 1096:25 1097:59 1099:26 1100:61 1101:5 1102:24 1103:59 1104:5 1105:24 1106:59 1107:5 1108:5 1109:46 1110:2 1111:8 1112:47 1113:2 1115:40 1118:28 1121:33 1124:36 1127:36 1129:4 1130:38 1131:1 1132:1 1133:35 1134:2 1135:3 1136:39 1137:3 1138:7 1139:43 1140:7 1141:9 1142:46 1143:2 1144:18 1145:55 1146:1 1147:31 1148:60 1149:6 1150:172 1151:182 1152:171 1153:221 1154:234 1155:225 1156:57 1157:91 1158:7 1159:48 1160:93 1161:2 1162:49 1163:93 1164:4 1165:50 1166:94 1167:5 1168:47 1169:91 1170:4 1171:40 1172:83 1173:3 1174:38 1175:81 1176:1 1177:35 1178:77 1179:3 1180:33 1181:75 1182:3 1183:32 1184:74 1185:2 1186:28 1187:69 1189:18 1190:58 1192:9 1193:53 1194:2 1195:4 1196:47 1197:1 1198:3 1199:46 1200:1 1201:14 1202:52 1203:1 1204:12 1205:52 1206:2 1207:25 1208:61 1210:22 1211:63 1213:15 1214:54 1215:7 1216:13 1217:53 1219:20 1220:62 1222:15 1223:54 1225:27 1226:68 1227:2 1228:32 1229:74 1230:2 1231:45 1232:83 1233:8 1234:54 1235:92 1236:17 1237:49 1238:87 1239:10 1240:41 1241:79 1242:2 1243:25 1244:53 1245:5 1246:167 1247:179 1248:169 1249:213 1250:225 1251:223 1252:47 1253:78 1254:11 1255:30 1256:73 1257:1 1258:31 1259:73 1260:1 1261:32 1262:74 1264:32 1265:76 1267:37 1268:79 1269:3 1270:39 1271:80 1272:2 1273:38 1274:79 1275:1 1276:39 1277:80 1278:2 1279:31 1280:71 1282:31 1283:72 1284:2 1285:25 1286:67 1287:1 1288:14 1289:52 1290:1 1292:42 1294:3 1295:46 1297:23 1298:62 1299:5 1300:6 1301:44 1303:25 1304:64 1305:1 1306:33 1307:72 1308:7 1309:32 1310:72 1311:1 1312:38 1313:78 1314:7 1315:38 1316:80 1317:4 1318:29 1319:71 1321:32 1322:74 1324:33 1325:75 1327:35 1328:77 1329:5 1330:27 1331:68 1333:30 1334:72 1336:31 1337:73 1338:1 1339:33 1340:73 1341:3 1342:140 1343:157 1344:138 1345:226 1346:239 1347:229 1348:26 1349:64 1350:3 1351:22 1352:63 1353:3 1354:13 1355:61 1356:1 1357:16 1358:61 1359:2 1360:4 1361:51 1363:2 1364:48 1366:2 1367:48 1368:1 1369:6 1370:50 1371:1 1372:8 1373:51 1374:5 1375:4 1376:47 1377:1 1378:8 1379:51 1380:5 1381:2 1382:45 1384:3 1385:46 1387:7 1388:49 1389:3 1390:9 1391:48 1392:1 1393:15 1394:56 1396:9 1397:49 1399:9 1400:49 1402:15 1403:56 1405:14 1406:55 1408:14 1409:54 1410:1 1411:12 1412:52 1414:16 1415:56 1416:4 1417:9 1418:47 1420:9 1421:46 1422:2 1423:17 1424:58 1426:23 1427:63 1429:31 1430:73 1431:1 1432:30 1433:71 1434:1 1435:29 1436:70 1438:37 1439:61 1440:11 1441:1 1442:31 1444:21 1445:62 1446:2 1447:20 1448:61 1449:5 1450:17 1451:61 1452:2 1453:8 1454:53 1456:5 1457:52 1459:1 1460:51 1462:7 1463:53 1464:4 1465:8 1466:47 1467:2 1468:9 1469:48 1470:3 1471:4 1472:42 1473:1 1474:4 1475:43 1478:37 1480:8 1481:46 1482:5 1483:2 1484:43 1486:3 1487:45 1489:16 1490:56 1491:4 1492:14 1493:55 1495:18 1496:57 1497:2 1498:7 1499:46 1501:5 1502:43 1503:2 1504:12 1505:51 1506:6 1507:27 1508:66 1509:13 1510:18 1511:57 1512:4 1513:28 1514:67 1515:4 1516:22 1517:57 1518:1 1519:13 1520:50 1522:11 1523:49 1525:18 1526:57 1528:25 1529:65 1530:5 1531:33 1532:73 1533:2 1534:17 1535:43 1537:23 1538:57 1539:7 1540:15 1541:59 1543:10 1544:50 1546:8 1547:55 1549:14 1550:59 1551:2 1552:5 1553:52 1555:1 1556:47 1557:1 1558:1 1559:49 1560:1 1561:11 1562:49 1563:2 1564:11 1565:49 1566:2 1567:12 1568:52 1570:12 1571:50 1573:10 1574:48 1576:11 1577:49 1578:2 1579:5 1580:40 1582:10 1583:47 1584:3 1585:26 1586:65 1587:8 1588:19 1589:59 1590:6 1591:20 1592:58 1594:31 1595:70 1596:5 1597:30 1598:69 1599:4 1600:28 1601:67 1602:2 1603:23 1604:61 1605:4 1606:16 1607:53 1609:25 1610:55 1611:3 1612:9 1613:45 1614:1 1615:9 1616:47 1618:3 1619:35 1621:4 1622:38 1623:1 1624:11 1625:47 1627:16 1628:53 1630:49 1631:73 1632:41 1633:35 1634:71 1635:10 1636:21 1637:65 1638:4 1639:16 1640:57 1642:18 1643:62 1644:1 1645:20 1646:61 1647:1 1648:21 1649:61 1650:1 1651:15 1652:56 1654:18 1655:59 1656:3 1657:19 1658:58 1659:3 1660:20 1661:60 1663:18 1664:57 1665:4 1666:19 1667:56 1668:2 1669:13 1670:53 1671:3 1672:10 1673:49 1674:4 1676:39 1678:15 1679:54 1680:1 1681:19 1682:58 1683:1 1684:23 1685:63 1686:3 1687:18 1688:57 1689:4 1690:10 1691:49 1692:4 1693:10 1694:49 1695:4 1696:11 1697:49 1698:2 1699:8 1700:45 1701:1 1703:34 1704:1 1705:10 1706:42 1707:1 1708:15 1709:47 1711:17 1712:51 1714:12 1715:45 1717:14 1718:50 1719:2 1720:16 1721:54 1723:31 1724:60 1725:2 1726:152 1727:165 1728:137 1729:31 1730:67 1731:3 1732:28 1733:64 1734:2 1735:13 1736:56 1737:3 1738:18 1739:61 1740:7 1741:15 1742:56 1744:17 1745:56 1746:3 1747:18 1748:59 1749:3 1750:21 1751:59 1752:2 1753:23 1754:58 1755:2 1756:27 1757:60 1758:3 1759:22 1760:57 1762:27 1763:65 1764:6 1765:9 1766:47 1768:4 1769:42 1770:1 1771:3 1772:41 1773:2 1774:23 1775:61 1776:4 1777:26 1778:66 1779:3 1780:17 1781:54 1783:25 1784:65 1785:5 1786:19 1787:59 1788:6 1789:18 1790:53 1792:23 1793:59 1795:31 1796:65 1797:4 1798:41 1799:75 1800:1 1801:33 1802:67 1803:6 1804:24 1805:57 1806:2 1807:26 1808:59 1809:4 1810:12 1811:45 1813:21 1814:55 1815:5 1816:23 1817:61 1819:35 1820:58 1821:16 1822:162 1823:170 1824:159 1825:29 1826:57 1827:9 1828:18 1829:59 1830:1 1831:15 1832:59 1833:6 1834:20 1835:59 1836:2 1837:23 1838:63 1839:1 1840:27 1841:66 1842:1 1843:31 1844:62 1845:2 1846:30 1847:61 1848:2 1849:23 1850:58 1852:23 1853:59 1855:25 1856:56 1858:21 1859:58 1860:4 1861:7 1862:44 1864:1 1865:37 1867:3 1868:38 1870:25 1871:61 1873:35 1874:72 1875:5 1876:18 1877:53 1879:27 1880:66 1882:42 1883:80 1884:7 1885:49 1886:87 1887:12 1888:44 1889:82 1890:5 1891:36 1892:74 1894:45 1895:83 1896:10 1897:35 1898:73 1900:47 1901:85 1902:10 1903:48 1904:86 1905:11 1906:57 1907:95 1908:20 1909:60 1910:98 1911:21 1912:43 1913:72 1914:5 1915:151 1916:156 1917:134 1918:177 1919:182 1920:176 1921:225 1922:242 1923:223 1924:40 1925:82 1927:28 1928:67 1930:33 1931:73 1932:3 1933:12 1934:49 1936:15 1937:56 1939:36 1940:66 1941:2 1942:33 1943:64 1944:4 1945:24 1946:54 1948:29 1949:60 1950:1 1951:19 1952:52 1954:13 1955:50 1958:35 1960:1 1961:35 1962:2 1963:10 1964:43 1966:29 1967:64 1969:32 1970:69 1971:2 1972:32 1973:68 1974:4 1975:26 1976:62 1978:27 1979:63 1981:38 1982:76 1983:3 1984:33 1985:72 1986:7 1987:21 1988:59 1990:43 1991:81 1992:6 1993:43 1994:80 1995:3 1996:48 1997:85 1998:8 1999:48 2000:86 2001:11 2002:45 2003:81 2004:7 2005:56 2006:76 2007:27 2008:131 2009:142 2010:108 2011:152 2012:159 2013:143 2014:173 2015:179 2016:169 2017:221 2018:230 2019:227 2020:10 2021:41 2023:23 2024:63 2025:1 2026:8 2027:50 2029:14 2030:50 2031:2 2032:13 2033:46 2035:13 2036:44 2037:2 2038:13 2039:44 2040:2 2041:11 2042:48 2043:5 2044:9 2045:46 2046:3 2047:2 2048:38 2050:3 2051:39 2052:1 2054:33 2057:33 2059:13 2060:50 2062:27 2063:63 2064:2 2065:28 2066:65 2068:23 2069:58 2071:20 2072:60 2074:31 2075:70 2076:5 2077:31 2078:68 2080:36 2081:72 2082:8 2083:34 2084:71 2085:1 2086:63 2087:100 2088:31 2089:33 2090:70 2092:36 2093:74 2094:1 2095:27 2096:63 2098:72 2099:96 2100:44 2101:124 2102:129 2103:97 2104:141 2105:146 2106:116 2107:153 2108:155 2109:142 2110:170 2111:171 2112:165 2113:238 2114:239 2115:244 2116:207 2117:221 2118:206 2119:20 2120:53 2121:6 2122:10 2123:49 2124:2 2125:2 2126:38 2129:36 2131:1 2132:35 2133:2 2134:10 2135:43 2137:14 2138:47 2139:2 2140:8 2141:40 2143:6 2144:36 2146:3 2147:37 2148:2 2149:2 2150:26 2151:2 2152:1 2153:25 2154:1 2155:12 2156:48 2157:2 2158:35 2159:71 2160:7 2161:34 2162:71 2163:2 2164:29 2165:66 2167:30 2168:67 2170:35 2171:72 2172:5 2173:31 2174:68 2175:1 2176:30 2177:66 2178:4 2179:30 2180:67 2182:32 2183:69 2185:18 2186:53 2188:9 2189:41 2190:2 2191:8 2192:24 2194:110 2195:115 2196:83 2197:135 2198:139 2199:116 2200:134 2201:137 2202:118 2203:162 2204:164 2205:150 2206:165 2207:166 2208:158 2209:230 2210:233 2211:238 2212:234 2213:239 2214:243 2215:211 2216:223 2217:213 2218:20 2219:47 2220:6 2221:8 2222:40 2223:1 2224:11 2225:46 2226:6 2227:12 2228:44 2229:3 2230:23 2231:55 2232:6 2233:20 2234:52 2235:5 2236:6 2237:36 2239:1 2240:30 2242:3 2243:27 2244:3 2245:3 2246:20 2247:4 2248:2 2249:28 2250:3 2251:8 2252:44 2254:26 2255:62 2256:1 2257:44 2258:81 2259:14 2260:35 2261:72 2262:5 2263:27 2264:62 2265:4 2266:27 2267:66 2268:3 2269:40 2270:71 2271:4 2272:30 2273:61 2274:2 2275:28 2276:63 2278:17 2279:48 2280:6 2281:2 2282:27 2284:48 2285:55 2286:39 2287:107 2288:117 2289:83 2290:111 2291:116 2292:94 2293:143 2294:145 2295:132 2296:145 2297:147 2298:134 2299:163 2300:165 2301:152 2302:170 2303:171 2304:165 2305:237 2306:240 2307:245 2308:234 2309:237 2310:242 2311:228 2312:229 2313:234 2314:232 2315:237 2316:240 2317:25 2318:50 2319:20 2320:12 2321:45 2322:2 2323:6 2324:37 2325:3 2326:10 2327:42 2328:3 2329:19 2330:48 2331:2 2332:22 2333:51 2334:3 2335:20 2336:51 2337:7 2338:1 2339:27 2342:16 2344:3 2345:32 2346:1 2347:23 2348:58 2349:2 2350:33 2351:70 2352:3 2353:36 2354:73 2355:6 2356:27 2357:63 2358:1 2359:31 2360:67 2361:5 2362:35 2363:67 2364:4 2365:18 2366:47 2367:3 2368:16 2369:49 2370:2 2371:14 2372:47 2375:31 2377:80 2378:96 2379:60 2380:116 2381:122 2382:88 2383:130 2384:134 2385:109 2386:137 2387:140 2388:121 2389:148 2390:151 2391:134 2392:155 2393:157 2394:146 2395:168 2396:170 2397:159 2398:181 2399:182 2400:177 2403:2 2404:230 2405:233 2406:238 2407:237 2408:240 2409:245 2410:232 2411:237 2412:243 2413:234 2414:238 2415:239 2416:219 2417:236 2418:204 2419:31 2420:59 2421:1 2422:30 2423:61 2424:2 2425:36 2426:68 2427:5 2428:48 2429:78 2430:24 2431:23 2432:53 2433:3 2435:16 2437:1 2438:13 2439:1 2441:30 2443:15 2444:52 2445:1 2446:35 2447:71 2448:10 2449:39 2450:76 2451:7 2452:21 2453:56 2454:2 2455:19 2456:53 2457:2 2458:14 2459:48 2461:9 2462:41 2463:4 2464:10 2465:43 2467:7 2468:24 2469:5 2470:78 2471:91 2472:48 2473:111 2474:116 2475:86 2476:135 2477:138 2478:117 2479:146 2480:149 2481:132 2482:151 2483:154 2484:137 2485:162 2486:163 2487:157 2488:183 2489:184 2490:178 2491:197 2492:200 2493:193 2503:238 2504:243 2505:247 2506:241 2507:246 2508:250 2509:231 2510:236 2511:240 2512:227 2513:232 2514:236 2515:204 2516:216 2517:204 2518:80 2519:112 2520:39 2521:93 2522:130 2523:52 2524:33 2525:65 2526:2 2527:10 2528:40 2529:4 2531:17 2534:21 2536:9 2537:41 2538:2 2539:30 2540:66 2541:5 2542:31 2543:67 2544:3 2545:13 2546:46 2547:3 2548:6 2549:38 2550:1 2551:2 2552:33 2553:1 2554:8 2555:39 2557:10 2558:23 2559:6 2560:72 2561:72 2562:34 2563:76 2564:78 2565:39 2566:117 2567:118 2568:87 2569:132 2570:136 2571:111 2572:152 2573:155 2574:138 2575:155 2576:157 2577:146 2578:169 2579:170 2580:164 2581:188 2582:189 2583:184 2584:193 2585:197 2586:196 2602:236 2603:237 2604:239 2605:232 2606:237 2607:241 2608:233 2609:238 2610:242 2611:218 2612:226 2613:228 2614:221 2615:238 2616:206 2617:21 2618:56 2620:3 2621:41 2622:4 2624:26 2627:28 2628:3 2629:4 2630:40 2631:4 2632:24 2633:59 2634:1 2635:30 2636:67 2638:27 2639:63 2640:2 2641:6 2642:40 2643:5 2644:6 2645:31 2646:9 2648:9 2650:65 2651:70 2652:29 2653:77 2654:77 2655:41 2656:107 2657:102 2658:73 2659:131 2660:130 2661:109 2662:151 2663:149 2664:136 2665:167 2666:167 2667:157 2668:182 2669:181 2670:176 2671:186 2672:187 2673:182 2674:198 2675:200 2676:199 2677:207 2678:211 2679:212 2680:216 2681:220 2682:221 2701:236 2702:237 2703:241 2704:233 2705:238 2706:242 2707:222 2708:227 2709:231 2710:211 2711:217 2712:213 2713:222 2714:239 2715:205 2716:11 2717:49 2718:2 2719:3 2720:41 2722:19 2723:60 2725:32 2726:74 2728:32 2729:74 2731:22 2732:62 2734:5 2735:35 2737:5 2738:18 2740:69 2741:71 2742:31 2743:84 2744:85 2745:51 2746:107 2747:107 2748:81 2749:131 2750:132 2751:114 2752:152 2753:150 2754:138 2755:175 2756:174 2757:169 2758:192 2759:193 2760:188 2761:202 2762:203 2763:198 2764:206 2765:205 2766:210 2767:217 2768:221 2769:224 2770:224 2771:228 2772:231 2800:229 2801:234 2802:238 2803:226 2804:231 2805:235 2806:213 2807:218 2808:221 2809:212 2810:224 2811:212 2812:39 2813:65 2814:2 2815:32 2816:72 2817:2 2818:45 2819:91 2820:3 2821:48 2822:93 2823:2 2824:44 2825:82 2826:5 2827:15 2828:42 2829:9 2830:66 2831:75 2832:32 2833:103 2834:103 2835:69 2836:124 2837:122 2838:97 2839:146 2840:144 2841:129 2842:173 2843:173 2844:165 2845:184 2846:184 2847:184 2848:208 2849:212 2850:215 2851:214 2852:219 2853:223 2854:225 2855:232 2856:238 2857:229 2858:234 2859:238 2862:4 2863:1 2899:231 2900:236 2901:240 2902:230 2903:235 2904:239 2905:208 2906:213 2907:207 2908:197 2909:217 2910:156 2911:64 2912:104 2913:5 2914:59 2915:106 2916:2 2917:67 2918:107 2919:8 2920:44 2921:78 2922:1 2923:110 2924:116 2925:70 2926:122 2927:122 2928:98 2929:143 2930:143 2931:131 2932:169 2933:168 2934:164 2935:202 2936:203 2937:207 2938:225 2939:229 2940:232 2941:226 2942:231 2943:235 2944:233 2945:238 2946:242 2947:231 2948:236 2949:240 2950:233 2951:238 2952:242 2955:2 2995:232 2996:237 2997:241 2998:228 2999:233 3000:237 3001:227 3002:232 3003:236 3004:218 3005:224 3006:220 3007:119 3008:146 3009:53 3010:66 3011:102 3012:4 3013:78 3014:99 3015:4 3016:131 3017:137 3018:109 3019:150 3020:148 3021:135 3022:178 3023:179 3024:174 3025:206 3026:210 3027:209 3028:225 3029:228 3030:237 3031:225 3032:230 3033:234 3034:232 3035:237 3036:241 3037:230 3038:235 3039:239 3040:232 3041:237 3042:241 
0.01 25:1 26:1 27:1 28:251 29:255 30:254 31:253 32:255 33:254 34:184 35:207 36:91 37:135 38:178 39:1 40:122 41:158 43:166 44:185 45:106 46:187 47:194 48:178 49:203 50:209 51:199 52:209 53:213 54:212 55:235 56:239 57:240 58:249 59:253 60:255 61:250 62:254 63:255 97:254 98:254 99:254 100:255 101:255 102:255 103:253 104:255 105:254 107:1 124:251 125:255 126:255 127:251 128:255 129:254 130:188 131:214 132:105 133:103 134:149 135:1 136:98 137:142 138:3 139:101 140:143 141:5 142:164 143:175 144:133 145:190 146:197 147:179 148:206 149:211 150:205 151:229 152:234 153:230 154:238 155:242 156:243 157:250 158:254 159:255 193:251 194:255 195:255 196:251 197:255 198:255 199:251 200:255 201:254 217:251 218:255 219:255 220:251 221:255 222:255 223:253 224:255 225:254 226:59 227:101 228:1 229:82 230:128 231:4 232:75 233:119 234:4 235:89 236:135 238:78 239:120 240:8 241:164 242:179 243:136 244:186 245:194 246:181 247:203 248:209 249:205 250:223 251:228 252:222 253:230 254:235 255:238 257:1 307:1 308:1 309:1 310:251 311:255 312:255 313:254 314:255 315:255 316:246 317:255 318:252 319:203 320:223 321:172 322:30 323:76 324:1 325:51 326:99 328:62 329:106 330:8 331:53 332:100 334:73 335:120 336:24 337:51 338:94 339:4 340:46 341:81 342:15 343:183 344:194 345:180 346:201 347:208 348:201 349:214 350:216 351:215 352:220 353:225 354:228 357:2 400:255 401:255 402:255 403:255 404:255 405:253 406:251 407:255 408:255 409:246 410:255 411:254 412:66 413:88 414:39 415:16 416:60 418:19 419:65 420:1 421:44 422:90 424:46 425:93 426:1 427:39 428:84 429:1 430:33 431:76 432:4 433:21 434:61 436:19 437:54 439:31 440:65 441:4 442:87 443:112 444:73 445:205 446:211 447:201 448:202 449:206 450:205 451:209 452:213 453:212 454:214 455:216 456:215 457:223 458:224 459:226 493:251 494:255 495:255 496:251 497:255 498:255 499:250 500:255 501:249 502:244 503:254 504:245 505:51 506:90 508:29 509:72 511:17 512:63 514:10 515:57 516:2 517:32 518:76 519:1 520:49 521:96 522:4 523:48 524:92 525:3 526:34 527:77 529:37 530:79 531:7 532:25 533:61 535:14 536:48 538:25 539:55 540:3 541:20 542:53 544:56 545:82 546:53 547:195 548:204 549:199 550:198 551:204 552:202 553:210 554:214 555:217 556:217 557:221 558:224 559:5 560:5 561:5 586:251 587:255 588:255 589:251 590:255 591:255 592:248 593:254 594:252 595:82 596:110 597:62 598:38 599:81 600:1 601:30 602:78 603:4 604:11 605:56 607:6 608:53 610:13 611:58 612:1 613:26 614:69 616:30 617:71 618:1 619:20 620:60 622:30 623:70 625:27 626:63 627:1 628:19 629:54 631:24 632:58 633:7 634:24 635:57 636:4 637:24 638:53 639:7 640:19 641:46 642:1 643:20 644:50 646:186 647:202 648:189 649:185 650:190 651:193 652:200 653:204 654:207 655:209 656:213 657:216 658:216 659:220 660:223 676:2 677:2 678:2 679:249 680:253 681:254 682:249 683:253 684:255 685:250 686:254 687:255 688:70 689:105 690:41 691:44 692:87 693:8 694:22 695:62 697:32 698:75 699:3 700:29 701:72 702:3 703:25 704:67 705:3 706:5 707:48 708:2 709:3 710:47 712:27 713:68 715:27 716:66 718:19 719:59 721:20 722:59 723:2 724:15 725:48 726:3 727:6 728:41 730:7 731:46 732:1 733:6 734:43 736:8 737:43 738:1 739:19 740:53 741:3 742:24 743:52 744:4 745:32 746:55 747:27 748:177 749:184 750:177 751:189 752:199 753:200 754:206 755:210 756:213 757:218 758:222 759:225 772:247 773:251 774:252 775:249 776:253 777:254 778:247 779:255 780:255 781:57 782:93 783:31 784:30 785:67 787:33 788:75 789:3 790:23 791:64 792:6 793:21 794:62 795:2 796:13 797:53 798:1 799:20 800:60 801:7 802:15 803:55 804:3 805:31 806:70 807:5 808:27 809:66 811:26 812:66 813:4 814:16 815:55 816:2 817:17 818:55 819:4 820:23 821:53 822:3 823:22 824:52 825:2 826:17 827:46 829:22 830:55 831:2 832:23 833:52 834:4 835:23 836:53 837:3 838:22 839:52 840:2 841:31 842:59 843:8 844:38 845:59 846:28 847:175 848:182 849:175 850:184 851:189 852:192 853:207 854:211 855:214 856:213 857:217 858:220 865:252 866:255 867:255 868:244 869:247 870:252 871:246 872:251 873:254 874:55 875:76 876:37 877:34 878:76 879:4 880:32 881:74 882:2 883:29 884:71 885:8 886:24 887:66 888:3 889:25 890:66 891:6 892:23 893:65 894:2 895:19 896:60 897:2 898:23 899:64 900:4 901:14 902:60 904:36 905:78 906:6 907:33 908:74 909:6 910:18 911:58 913:28 914:57 915:1 916:28 917:58 918:6 919:21 920:51 921:1 922:19 923:51 924:4 925:8 926:45 927:1 928:1 929:38 931:13 932:49 933:1 934:11 935:49 937:31 938:60 939:6 940:25 941:58 942:5 943:28 944:50 945:14 946:167 947:175 948:164 949:182 950:186 951:187 952:199 953:203 954:206 955:203 956:206 957:211 958:1 959:1 960:1 961:251 962:255 963:255 964:244 965:249 966:252 967:247 968:255 969:253 970:31 971:66 972:2 973:31 974:72 975:6 976:36 977:79 979:31 980:73 981:1 982:29 983:72 984:3 985:24 986:66 988:23 989:65 990:1 991:25 992:67 993:1 994:32 995:74 996:2 997:25 998:66 1000:35 1001:76 1003:32 1004:72 1005:2 1006:32 1007:72 1008:1 1009:29 1010:69 1011:7 1012:10 1013:48 1015:15 1016:53 1017:2 1018:25 1019:64 1020:9 1021:40 1022:72 1023:22 1024:21 1025:51 1027:22 1028:55 1029:2 1030:19 1031:51 1032:2 1033:16 1034:48 1036:12 1037:43 1039:21 1040:49 1041:1 1042:29 1043:53 1044:17 1045:174 1046:179 1047:172 1048:188 1049:192 1050:193 1051:197 1052:200 1053:205 1054:214 1055:219 1056:223 1057:236 1058:244 1059:247 1060:243 1061:253 1062:254 1063:42 1064:71 1065:15 1066:29 1067:68 1068:3 1069:26 1070:68 1071:4 1072:23 1073:64 1075:27 1076:68 1078:26 1079:67 1081:29 1082:71 1084:34 1085:75 1086:7 1087:26 1088:68 1089:4 1090:23 1091:64 1092:4 1093:24 1094:66 1095:2 1096:34 1097:76 1098:4 1099:28 1100:69 1101:3 1102:16 1103:55 1104:2 1105:16 1106:55 1108:18 1109:57 1110:4 1111:22 1112:59 1113:5 1114:21 1115:53 1116:3 1117:21 1118:54 1119:1 1120:24 1121:54 1122:4 1123:22 1124:54 1125:7 1126:11 1127:42 1128:1 1129:16 1130:48 1131:1 1132:6 1133:38 1135:13 1136:43 1137:5 1138:17 1139:45 1140:4 1141:22 1142:48 1143:11 1144:168 1145:180 1146:170 1147:193 1148:198 1149:194 1150:229 1151:232 1152:237 1153:247 1154:252 1155:255 1156:251 1157:255 1158:255 1159:30 1160:65 1162:30 1163:66 1164:4 1165:34 1166:74 1167:1 1168:38 1169:79 1170:3 1171:20 1172:64 1173:3 1174:28 1175:73 1176:4 1177:25 1178:67 1179:3 1180:19 1181:60 1183:14 1184:58 1186:11 1187:55 1188:4 1189:29 1190:65 1191:3 1192:39 1193:72 1194:1 1195:38 1196:70 1197:3 1198:32 1199:63 1200:4 1201:22 1202:61 1203:6 1204:16 1205:55 1207:8 1208:46 1210:14 1211:47 1213:4 1214:38 1215:3 1216:2 1217:28 1218:1 1219:5 1220:31 1221:2 1222:3 1223:29 1224:2 1225:14 1226:42 1227:2 1228:15 1229:43 1230:3 1231:14 1232:40 1233:3 1234:18 1235:45 1236:4 1237:22 1238:50 1239:9 1240:29 1241:44 1242:13 1243:178 1244:184 1245:182 1246:234 1247:239 1248:245 1249:235 1250:249 1251:250 1252:33 1253:63 1254:9 1255:14 1256:51 1258:26 1259:67 1261:34 1262:76 1264:41 1265:83 1266:7 1267:31 1268:73 1270:35 1271:76 1273:37 1274:79 1275:3 1276:46 1277:88 1278:12 1279:24 1280:64 1281:2 1282:16 1283:57 1285:25 1286:67 1287:4 1288:28 1289:69 1290:1 1291:31 1292:72 1293:2 1294:18 1295:58 1297:32 1298:73 1299:7 1300:19 1301:58 1302:3 1303:9 1304:45 1306:14 1307:47 1308:4 1309:6 1310:38 1311:1 1312:5 1313:32 1314:1 1315:3 1316:29 1318:7 1319:34 1320:1 1321:15 1322:43 1323:3 1324:23 1325:51 1326:10 1327:27 1328:55 1329:14 1330:33 1331:62 1332:18 1333:50 1334:79 1335:31 1336:55 1337:83 1338:34 1339:158 1340:167 1341:150 1342:190 1343:196 1344:196 1345:243 1346:253 1347:255 1348:22 1349:56 1350:5 1351:20 1352:61 1353:3 1354:19 1355:60 1357:31 1358:72 1359:4 1360:30 1361:71 1362:1 1363:33 1364:75 1365:3 1366:29 1367:72 1369:27 1370:68 1372:25 1373:67 1374:3 1375:16 1376:57 1378:23 1379:64 1380:4 1381:22 1382:64 1383:1 1384:33 1385:74 1386:4 1387:35 1388:77 1389:1 1390:18 1391:57 1392:4 1393:27 1394:58 1395:1 1396:28 1397:58 1398:4 1399:18 1400:47 1401:3 1402:21 1403:50 1404:2 1405:22 1406:51 1407:5 1408:33 1409:62 1410:18 1411:39 1412:71 1413:24 1414:31 1415:65 1416:15 1417:25 1418:59 1419:9 1420:27 1421:60 1422:13 1423:42 1424:76 1425:26 1426:31 1427:65 1428:15 1429:36 1430:70 1431:20 1432:50 1433:85 1434:21 1435:137 1436:156 1437:124 1438:158 1439:165 1440:157 1441:235 1442:247 1443:245 1444:16 1445:49 1446:2 1447:19 1448:58 1449:5 1450:18 1451:59 1453:20 1454:61 1455:1 1456:22 1457:63 1458:3 1459:21 1460:62 1461:4 1462:22 1463:63 1464:5 1465:11 1466:54 1468:15 1469:60 1470:5 1471:7 1472:53 1473:6 1474:19 1475:59 1477:19 1478:53 1479:2 1480:33 1481:68 1482:2 1483:38 1484:71 1485:2 1486:36 1487:70 1488:10 1489:18 1490:49 1491:7 1492:14 1493:45 1494:1 1495:9 1496:40 1498:13 1499:43 1500:5 1501:3 1502:33 1504:12 1505:40 1507:20 1508:49 1509:3 1510:31 1511:60 1512:14 1513:18 1514:50 1515:1 1516:17 1517:51 1518:1 1519:46 1520:80 1521:29 1522:56 1523:90 1524:39 1525:61 1526:96 1527:42 1528:41 1529:75 1530:14 1531:135 1532:153 1533:115 1534:151 1535:158 1536:140 1537:21 1538:39 1539:15 1540:25 1541:59 1542:8 1543:11 1544:51 1546:16 1547:57 1549:25 1550:65 1551:3 1552:37 1553:81 1554:2 1555:17 1556:62 1557:3 1558:30 1559:73 1560:2 1561:19 1562:60 1563:2 1564:20 1565:61 1566:1 1567:17 1568:56 1569:1 1570:8 1571:46 1573:19 1574:53 1575:3 1576:28 1577:63 1579:42 1580:75 1581:4 1582:30 1583:60 1584:8 1585:9 1586:47 1588:18 1589:57 1591:20 1592:58 1594:37 1595:72 1596:14 1597:52 1598:87 1599:33 1600:40 1601:75 1602:21 1603:32 1604:67 1605:13 1606:34 1607:68 1608:17 1609:37 1610:72 1611:18 1612:43 1613:78 1614:24 1615:42 1616:77 1617:23 1618:27 1619:62 1620:8 1621:34 1622:68 1623:17 1624:33 1625:68 1626:10 1627:42 1628:69 1629:18 1630:140 1631:149 1632:128 1633:51 1634:79 1635:28 1636:19 1637:54 1639:16 1640:57 1641:1 1642:2 1643:41 1645:20 1646:61 1647:3 1648:28 1649:69 1650:9 1651:10 1652:58 1654:21 1655:63 1657:23 1658:65 1659:1 1660:16 1661:56 1662:3 1663:9 1664:49 1666:5 1667:42 1669:11 1670:47 1671:1 1672:40 1673:73 1674:4 1675:35 1676:67 1678:24 1679:53 1680:7 1681:29 1682:59 1683:9 1684:19 1685:49 1687:19 1688:48 1690:31 1691:62 1692:5 1693:29 1694:59 1695:9 1696:31 1697:61 1698:11 1699:27 1700:56 1701:10 1702:23 1703:50 1704:5 1705:26 1706:54 1707:6 1708:14 1709:46 1711:15 1712:48 1713:1 1714:36 1715:70 1716:20 1717:29 1718:66 1719:14 1720:40 1721:73 1722:20 1723:32 1724:60 1725:12 1726:127 1727:136 1728:117 1729:51 1730:75 1731:23 1732:21 1733:57 1735:13 1736:50 1738:25 1739:67 1740:4 1741:17 1742:58 1743:2 1744:32 1745:73 1746:3 1747:18 1748:59 1750:24 1751:65 1753:27 1754:68 1755:2 1756:22 1757:63 1758:7 1759:7 1760:51 1761:2 1763:43 1765:15 1766:51 1767:7 1768:32 1769:63 1770:3 1771:36 1772:68 1773:1 1774:19 1775:48 1776:2 1777:20 1778:50 1780:28 1781:58 1782:6 1783:44 1784:74 1785:20 1786:37 1787:67 1788:15 1789:28 1790:61 1791:8 1792:31 1793:61 1794:9 1796:28 1798:3 1799:34 1800:2 1801:14 1802:46 1803:5 1804:19 1805:48 1806:2 1807:47 1808:76 1809:30 1810:33 1811:60 1812:15 1813:36 1814:63 1815:18 1816:49 1817:77 1818:29 1819:122 1820:142 1821:107 1822:145 1823:154 1824:133 1825:38 1826:67 1827:9 1828:25 1829:55 1830:3 1831:23 1832:61 1833:4 1834:13 1835:53 1837:26 1838:65 1839:10 1840:33 1841:74 1842:6 1843:30 1844:71 1845:3 1846:22 1847:64 1848:1 1849:24 1850:64 1851:4 1852:14 1853:55 1855:14 1856:54 1857:1 1858:12 1859:45 1861:14 1862:47 1864:32 1865:66 1866:5 1867:39 1868:74 1869:6 1870:19 1871:52 1872:5 1873:11 1874:44 1876:30 1877:60 1878:8 1879:30 1880:60 1881:6 1882:28 1883:59 1884:2 1885:22 1886:51 1887:3 1888:23 1889:52 1890:6 1891:15 1892:43 1893:2 1894:14 1895:43 1897:22 1898:49 1899:6 1900:14 1901:42 1902:2 1903:18 1904:46 1906:36 1907:63 1908:18 1909:27 1910:54 1911:9 1912:37 1913:63 1914:16 1915:121 1916:132 1917:102 1918:134 1919:135 1920:119 1921:47 1922:73 1923:26 1924:18 1925:52 1926:1 1927:10 1928:56 1929:7 1930:3 1931:47 1933:13 1934:56 1936:11 1937:54 1938:1 1939:8 1940:52 1941:1 1942:17 1943:60 1944:6 1945:28 1946:69 1947:13 1948:24 1949:63 1950:6 1951:27 1952:57 1953:3 1954:6 1955:40 1956:3 1957:11 1958:47 1959:3 1960:35 1961:68 1963:19 1964:48 1966:27 1967:57 1968:3 1969:25 1970:55 1971:5 1972:33 1973:63 1974:11 1975:46 1976:76 1977:24 1978:38 1979:65 1980:14 1981:5 1982:32 1984:11 1985:39 1986:1 1987:10 1988:38 1990:13 1991:39 1992:2 1993:25 1994:51 1995:12 1996:5 1997:30 1999:20 2000:47 2001:4 2002:27 2003:54 2004:9 2005:33 2006:61 2007:13 2008:33 2009:56 2010:12 2011:127 2012:130 2013:109 2014:152 2015:153 2016:139 2017:93 2018:113 2019:85 2020:23 2021:58 2022:2 2023:9 2024:47 2026:15 2027:56 2029:22 2030:64 2031:1 2032:26 2033:67 2035:13 2036:54 2038:5 2039:47 2040:1 2041:16 2042:50 2044:13 2045:50 2047:11 2048:49 2049:2 2050:4 2051:41 2053:17 2054:50 2055:3 2056:38 2057:70 2058:3 2059:13 2060:42 2062:12 2063:45 2065:14 2066:47 2067:2 2068:17 2069:49 2070:2 2071:24 2072:53 2073:7 2074:30 2075:59 2076:11 2077:28 2078:55 2079:10 2080:17 2081:44 2082:3 2083:13 2084:41 2085:3 2086:21 2087:48 2088:7 2089:22 2090:49 2091:8 2092:11 2093:38 2094:3 2095:11 2096:37 2098:27 2099:52 2100:12 2101:28 2102:51 2103:7 2104:76 2105:87 2106:57 2107:139 2108:142 2109:125 2110:162 2111:163 2112:155 2113:226 2114:238 2115:224 2116:25 2117:51 2118:3 2119:12 2120:45 2122:13 2123:51 2124:2 2125:21 2126:59 2127:2 2128:21 2129:59 2131:15 2132:59 2134:19 2135:54 2137:18 2138:52 2139:2 2140:18 2141:52 2142:2 2143:22 2144:55 2145:10 2146:22 2147:56 2148:6 2149:26 2150:56 2151:4 2152:39 2153:67 2154:6 2155:21 2156:54 2157:7 2158:24 2159:54 2160:2 2161:18 2162:48 2164:32 2165:62 2166:10 2167:36 2168:66 2169:14 2170:32 2171:62 2172:12 2173:23 2174:50 2175:5 2176:17 2177:44 2178:3 2179:10 2180:38 2182:10 2183:37 2184:2 2185:9 2186:36 2187:1 2188:17 2189:44 2190:3 2191:25 2192:52 2193:9 2194:30 2195:58 2196:10 2197:75 2198:93 2199:53 2200:131 2201:133 2202:111 2203:158 2204:160 2205:149 2206:212 2207:213 2208:215 2209:226 2210:235 2211:234 2212:26 2213:58 2214:11 2215:9 2216:42 2218:13 2219:51 2220:2 2221:12 2222:48 2224:26 2225:64 2226:3 2227:12 2228:55 2230:22 2231:55 2232:2 2233:19 2234:51 2235:1 2236:11 2237:49 2238:2 2239:25 2240:60 2241:2 2242:6 2243:38 2244:1 2245:32 2246:63 2247:3 2248:18 2249:50 2250:1 2251:20 2252:52 2253:2 2254:27 2255:57 2256:5 2257:18 2258:56 2260:14 2261:47 2262:4 2263:9 2264:40 2266:23 2267:52 2268:4 2269:20 2270:49 2271:3 2272:18 2273:45 2274:4 2275:11 2276:37 2277:2 2278:7 2279:32 2280:2 2281:21 2282:48 2283:7 2284:33 2285:61 2286:13 2287:44 2288:73 2289:27 2290:80 2291:101 2292:58 2293:123 2294:127 2295:100 2296:157 2297:159 2298:145 2299:188 2300:193 2301:187 2302:208 2303:213 2304:216 2305:235 2306:243 2307:245 2308:18 2309:46 2310:5 2311:10 2312:42 2313:3 2314:6 2315:43 2317:10 2318:48 2320:21 2321:61 2322:1 2323:18 2324:58 2326:23 2327:58 2328:2 2329:5 2330:44 2332:1 2333:39 2335:7 2336:44 2338:26 2339:61 2340:3 2341:28 2342:59 2344:13 2345:42 2347:29 2348:59 2349:7 2350:13 2351:45 2353:13 2354:42 2356:15 2357:43 2358:3 2359:14 2360:42 2361:1 2362:17 2363:46 2364:2 2365:32 2366:60 2367:12 2368:22 2369:48 2370:9 2371:13 2372:39 2373:2 2374:17 2375:44 2376:3 2377:30 2378:55 2379:15 2380:51 2381:78 2382:33 2383:62 2384:88 2385:41 2386:110 2387:117 2388:84 2389:149 2390:152 2391:135 2392:165 2393:166 2394:160 2395:200 2396:204 2397:205 2398:234 2399:239 2400:243 2401:231 2402:239 2403:242 2405:18 2407:4 2408:36 2410:10 2411:47 2412:4 2413:14 2414:52 2415:3 2416:14 2417:53 2419:10 2420:50 2422:14 2423:51 2425:12 2426:48 2427:4 2428:14 2429:49 2430:7 2431:7 2432:41 2433:6 2434:27 2435:63 2436:2 2437:35 2438:65 2439:1 2440:12 2441:44 2442:5 2443:16 2444:49 2445:6 2446:4 2447:36 2449:14 2450:43 2452:24 2453:53 2454:9 2455:19 2456:46 2457:5 2458:23 2459:50 2460:9 2461:24 2462:51 2463:10 2464:26 2465:53 2466:12 2467:32 2468:59 2469:18 2470:31 2471:58 2472:17 2473:35 2474:62 2475:17 2476:25 2477:51 2478:4 2479:90 2480:98 2481:61 2482:140 2483:141 2484:127 2485:167 2486:168 2487:160 2488:208 2489:209 2490:213 2491:231 2492:236 2493:240 2494:238 2495:243 2496:247 2497:237 2498:242 2499:245 2500:224 2501:238 2502:225 2503:15 2504:43 2505:2 2506:8 2507:40 2509:20 2510:54 2511:4 2512:31 2513:67 2514:5 2515:9 2516:41 2518:18 2519:51 2520:4 2521:12 2522:45 2523:2 2524:12 2525:48 2526:4 2527:1 2528:39 2529:2 2530:29 2531:60 2532:3 2533:14 2534:42 2535:2 2536:9 2537:39 2538:1 2539:22 2540:56 2541:5 2542:15 2543:44 2545:15 2546:43 2547:2 2548:15 2549:42 2551:21 2552:47 2553:2 2554:27 2555:50 2556:6 2557:22 2558:49 2559:8 2560:21 2561:48 2562:3 2563:33 2564:61 2565:13 2566:39 2567:66 2568:21 2569:21 2570:39 2572:97 2573:97 2574:71 2575:145 2576:147 2577:134 2578:200 2579:202 2580:199 2581:233 2582:239 2583:239 2584:233 2585:238 2586:242 2587:239 2588:244 2589:248 2593:231 2594:239 2595:242 2596:228 2597:239 2598:231 2599:17 2600:49 2602:11 2603:43 2604:2 2605:13 2606:46 2608:20 2609:54 2610:4 2611:13 2612:47 2614:26 2615:56 2616:4 2617:19 2618:49 2620:16 2621:49 2622:2 2623:10 2624:48 2625:7 2626:28 2627:59 2629:11 2630:38 2631:5 2632:12 2633:40 2634:2 2635:13 2636:41 2637:3 2638:9 2639:37 2641:11 2642:39 2644:14 2645:41 2647:13 2648:40 2650:41 2651:68 2652:27 2653:12 2654:40 2655:2 2656:30 2657:54 2658:6 2659:19 2660:44 2661:2 2662:62 2663:72 2664:37 2665:142 2666:143 2667:127 2668:205 2669:206 2670:198 2671:228 2672:232 2673:235 2674:240 2675:245 2676:248 2677:236 2678:241 2679:245 2680:243 2681:248 2682:252 2689:235 2690:240 2691:244 2692:230 2693:238 2694:241 2695:14 2696:38 2697:2 2698:17 2699:46 2701:19 2702:51 2703:4 2704:11 2705:43 2706:2 2707:5 2708:36 2709:4 2711:30 2712:2 2714:30 2715:2 2717:30 2718:2 2719:10 2720:42 2721:3 2722:13 2723:46 2724:3 2725:8 2726:40 2728:6 2729:38 2730:1 2731:6 2732:38 2734:15 2735:43 2736:2 2737:12 2738:40 2740:12 2741:38 2742:3 2743:11 2744:37 2745:2 2746:10 2747:36 2748:1 2749:19 2750:46 2751:3 2752:4 2753:15 2755:128 2756:131 2757:120 2758:216 2759:216 2760:216 2761:231 2762:236 2763:239 2764:238 2765:243 2766:247 2767:235 2768:240 2769:244 2770:242 2771:247 2772:251 2785:236 2786:241 2787:245 2788:238 2789:243 2790:249 2791:218 2792:227 2793:226 2794:15 2795:37 2796:1 2797:8 2798:39 2800:9 2801:39 2802:1 2803:6 2804:36 2806:13 2807:44 2808:3 2809:11 2810:41 2811:5 2812:13 2813:44 2815:18 2816:45 2818:6 2819:36 2821:12 2822:42 2823:4 2824:13 2825:44 2826:2 2827:3 2828:29 2829:2 2830:3 2831:29 2833:4 2834:29 2836:12 2837:37 2838:5 2839:5 2840:31 2842:9 2843:20 2844:6 2845:240 2846:246 2847:246 2848:233 2849:238 2850:242 2851:244 2852:249 2853:255 2854:236 2855:241 2856:245 2857:239 2858:244 2859:248 2860:235 2861:240 2862:244 2883:2 2884:231 2885:236 2886:240 2887:229 2888:234 2889:238 2890:224 2891:234 2892:236 2893:158 2894:176 2895:150 2896:25 2897:55 2898:1 2899:15 2900:44 2902:12 2903:43 2904:1 2905:4 2906:33 2907:2 2908:19 2909:46 2910:1 2911:15 2912:42 2914:9 2915:39 2916:5 2917:8 2918:33 2919:4 2920:4 2921:30 2922:1 2923:4 2924:26 2925:3 2926:3 2927:26 2929:14 2930:33 2931:1 2933:9 2935:231 2936:237 2937:237 2938:236 2939:243 2940:249 2941:241 2942:246 2943:250 2944:242 2945:247 2946:251 2947:243 2948:248 2949:252 2950:241 2951:245 2952:246 2953:2 2954:2 2955:2 2965:1 2968:238 2969:242 2970:245 2971:242 2972:246 2973:249 2974:243 2975:247 2976:250 2983:239 2984:244 2985:248 2986:235 2987:240 2988:244 2989:233 2990:241 2991:244 2992:213 2993:223 2994:222 2995:191 2996:204 2997:187 2998:3 2999:21 3001:23 3002:46 3003:2 3004:26 3005:52 3006:4 3007:30 3008:58 3009:10 3010:6 3011:31 3013:27 3014:45 3015:3 3016:17 3017:32 3019:1 3020:13 3021:3 3022:125 3023:132 3024:124 3025:232 3026:237 3027:241 3028:246 3029:251 3030:255 3031:243 3032:248 3033:252 3034:237 3035:242 3036:246 3037:243 3038:248 3039:252 3042:2 3061:245 3062:250 3063:254 3064:242 3065:247 3066:251 3067:245 3068:250 3069:254 3070:242 3071:247 3072:251 
